{"STATE_DIM": 101, "MOVE_DIM": 81, "hidden": 256, "num_layers": 3, "layers": [{"type": "linear", "weight": [[0.007733131293207407, 0.6561379432678223, 0.6965942978858948, 0.1265828013420105, -0.4397394061088562, 0.008987323381006718, 0.2729038894176483, -0.20890577137470245, -0.18257033824920654, 0.08787935227155685, -0.33273258805274963, -0.4427560567855835, -0.3035065829753876, 0.4923587739467621, 0.43440744280815125, 0.3487839102745056, -0.5583460330963135, 0.4426650404930115, 0.25239238142967224, -0.6215193867683411, 0.7239747643470764, 0.13609790802001953, 0.004481923300772905, 0.46482858061790466, -0.3385546803474426, -0.28665000200271606, 0.08040584623813629, 0.19633841514587402, 0.23243293166160583, 0.15140773355960846, 0.3701488673686981, 0.5424611568450928, -0.0997234582901001, 0.7475423216819763, 0.21912136673927307, -0.22880207002162933, 0.43650224804878235, 0.7984340190887451, 0.16879898309707642, -0.29132080078125, 0.05893007665872574, -0.3335917890071869, 0.26026877760887146, 0.23754841089248657, 0.11326513439416885, -0.22308309376239777, 0.06269743293523788, 0.09827258437871933, 0.16319723427295685, 0.40118446946144104, -0.5111067295074463, 0.0714755654335022, -0.369720458984375, 0.23232536017894745, -0.18327869474887848, 0.09488754719495773, -1.1346404552459717, 0.6632667183876038, -0.37067219614982605, -0.07977761328220367, 0.2639824450016022, 0.23382538557052612, 0.7118372321128845, 0.15105822682380676, 0.46526986360549927, -0.19169868528842926, 0.3800296485424042, 0.2472517341375351, -0.6913575530052185, 0.07298988848924637, 0.0920618325471878, -0.24847924709320068, 0.15548640489578247, -0.8404188752174377, -0.8787475228309631, 0.17803479731082916, 0.06955210119485855, -0.4731968641281128, -0.10188168287277222, -0.3798401355743408, -0.4316047728061676, 0.3672384023666382, -0.01754434034228325, 0.6692702770233154, -0.116321861743927, -0.12800860404968262, 0.5311552286148071, 0.19138644635677338, 0.20966161787509918, 0.00018775586795527488, -0.21319639682769775, 0.09299953281879425, 0.3930891752243042, 0.4576297402381897, -0.4774000942707062, 0.6166024804115295, 0.5026815533638, -0.25159984827041626, 1.0708601474761963, 0.20648907124996185, 0.06634383648633957, 0.17967113852500916, 0.1252284198999405, 0.25402963161468506, 0.8187916278839111, -0.102385513484478, -0.5255856513977051, -0.12171860784292221, -0.44167712330818176, -0.4257141053676605, 0.08494234830141068, 0.5084528923034668, -0.20812547206878662, -0.4966408908367157, 0.2949153780937195, 0.3518262803554535, -0.5394525527954102, -0.006767209153622389, -0.015809440985322, 0.1913031041622162, 0.33309635519981384, 0.19062693417072296, 0.47675788402557373, 0.45024797320365906, 0.06045541167259216, 0.5926300883293152, 0.35428234934806824, 0.7240023016929626, 0.5318776965141296, -0.47651925683021545, 0.05299116298556328, 0.535712480545044, 0.23061777651309967, 0.425411194562912, 0.5567411184310913, 0.1893959492444992, -0.20534710586071014, 0.46298864483833313, 0.15170390903949738, -0.40916404128074646, -0.3674589991569519, -0.040519777685403824, -0.01609177328646183, 0.24919401109218597, 0.23824238777160645, 0.21944965422153473, -0.485052227973938, -0.5442195534706116, -0.6194404363632202, 0.49826112389564514, -0.31965863704681396, -0.7035547494888306, -0.4819192886352539, 0.10711871087551117, -0.5280534625053406, 0.18547263741493225, -0.5187452435493469, -0.28702378273010254, -0.14630188047885895, 0.10519451647996902, -0.6809976696968079, 0.4615447223186493, 0.37041425704956055, 0.1560138761997223, -0.4155287742614746, 0.2521255314350128, -0.6047781109809875, 0.05869252234697342, 0.1693090945482254, 0.04032944515347481, 0.2989542782306671, 0.23988379538059235, -0.13607291877269745, 0.5158472061157227, 0.6382420063018799, 0.5119547843933105, 0.07468810677528381, 0.30512604117393494, -0.13613846898078918, 0.3080989420413971, 0.48807111382484436, 0.48695072531700134, -0.828961193561554, 0.3766765296459198, -0.49404826760292053, 0.357884019613266, 0.10946734249591827, -0.14676536619663239, -0.40456071496009827, 0.3892206847667694, 0.6588981747627258, 0.48045802116394043, -0.33701062202453613, 0.3893343210220337, 0.5217456817626953, 0.0700094923377037, -0.11668333411216736, 0.4675661027431488, 0.43382570147514343, 0.2943143844604492, -0.8601936101913452, 0.4431074559688568, -0.2969632148742676, 0.19046346843242645, -0.03455793485045433, 0.28031057119369507, 0.13369442522525787, 0.41420796513557434, -0.18984942138195038, 0.5014192461967468, 0.8124779462814331, -0.3963579535484314, 0.003830322530120611, 0.08298459649085999, -0.2476048767566681, 0.21604833006858826, -0.08204466849565506, 0.2910747826099396, 0.28694969415664673, -0.14422418177127838, -0.5655608773231506, 0.03326326608657837, 0.634488046169281, 0.2675948143005371, -0.1219879537820816, -0.47206878662109375, 0.4827234745025635, -0.5849370956420898, -0.323128342628479, -0.21400770545005798, -0.5049756169319153, 0.32490530610084534, 0.21023210883140564, -0.021060600876808167, 0.36376625299453735, 0.8178154826164246, -0.45490771532058716, 0.25569233298301697, 0.19812709093093872, -0.25307080149650574, 0.7500166893005371, 0.6346898078918457, -0.4592495560646057, -0.43056318163871765, 0.44733184576034546, -0.015331120230257511, 0.2754436731338501, 0.5680059790611267, -0.40957412123680115, -0.13285627961158752, 0.18770471215248108, 0.20604124665260315, 0.1588325947523117, 0.2845005393028259, 0.789245069026947, 0.13375315070152283], [-0.20686151087284088, 0.36377638578414917, 0.08653418719768524, 0.1330009549856186, -0.2192021906375885, -0.02640836127102375, 0.26291945576667786, 0.10335036367177963, -0.22102318704128265, -0.41641682386398315, 0.2097865492105484, 0.473039448261261, 0.03982966020703316, 0.3383833169937134, -0.04646296426653862, 0.11287533491849899, -0.2911974787712097, -0.005284467246383429, 0.33366817235946655, -0.3021063208580017, -0.02999737299978733, 0.13661065697669983, -0.21088875830173492, -0.008042248897254467, -0.5496158003807068, -0.8644216656684875, 0.32829034328460693, 0.15689648687839508, 0.08625911921262741, 0.2803685665130615, 0.6260849237442017, 0.31631192564964294, 0.25168225169181824, 0.2299395203590393, 0.222469761967659, -0.3953658938407898, 0.49988827109336853, -0.03386060521006584, -0.10329516977071762, 0.3175709545612335, -0.28383469581604004, -0.35208284854888916, 0.5236681699752808, 0.296915203332901, -0.08040246367454529, -0.7647482752799988, -0.057142529636621475, 0.2121809422969818, 0.09439510852098465, 0.30892089009284973, 0.4383071959018707, 0.2970680892467499, -0.07829064875841141, 0.07989273220300674, -0.2508825361728668, 0.3400419354438782, -0.38113969564437866, 0.05948076769709587, -0.10779441893100739, -0.18961645662784576, 0.7042137384414673, 0.085823193192482, 0.11704317480325699, -0.2240707129240036, -0.21889705955982208, -0.16060808300971985, 0.5550835132598877, 0.41171854734420776, -0.2147766798734665, 0.10389496386051178, 0.3871642053127289, -0.5415492653846741, 0.11033742874860764, 0.04560648277401924, -0.25711917877197266, -0.28058940172195435, 0.45817074179649353, 0.05900781601667404, 0.16628775000572205, 0.038775309920310974, -0.584846556186676, 0.3610561788082123, -0.13176245987415314, 0.2054763287305832, 0.27388089895248413, 0.1268884390592575, 0.25097402930259705, 0.08264010399580002, 0.5598298907279968, 0.40022602677345276, -0.34649449586868286, 0.2454485297203064, 0.08370743691921234, 0.24133282899856567, -0.18632590770721436, 0.346872478723526, 0.19459447264671326, -0.4214608073234558, 0.24064195156097412, 0.11872999370098114, 0.18930043280124664, -0.0994509682059288, -0.21289168298244476, 0.3128379285335541, 0.0022113239392638206, -0.23972268402576447, -1.0160458087921143, -0.29357999563217163, 0.4755376875400543, -0.263799250125885, -0.04641811177134514, 0.5917372703552246, 0.8365849852561951, 0.08056662976741791, 0.3647809624671936, 0.15320950746536255, -0.3143189251422882, 0.11103031039237976, -0.04255543276667595, 0.0509631484746933, 0.3482837975025177, 1.046401023864746, 0.433895468711853, 0.23635545372962952, -0.07143283635377884, -0.05228492245078087, 0.37170732021331787, 0.02936059981584549, 0.31011971831321716, -0.09165363013744354, -0.1922503113746643, 0.3431658148765564, 0.11274870485067368, 0.5040807723999023, 0.7447308301925659, -0.2389373481273651, 0.1564868539571762, 0.36290961503982544, 0.47710922360420227, -0.24744728207588196, 0.18381188809871674, 0.17245858907699585, 0.10583920776844025, 0.3336833417415619, -0.337403804063797, 0.33299514651298523, -0.27611809968948364, -0.30262044072151184, -0.43133673071861267, 0.3649032711982727, -0.06067613512277603, 0.0486234687268734, -0.1972866952419281, 0.31600192189216614, -0.012628789059817791, -0.05848614498972893, -0.1141524463891983, -0.4255644381046295, -0.03667652979493141, -0.3929527997970581, -0.3527772128582001, 0.3724922835826874, 0.3379237949848175, -0.029636643826961517, -0.23530922830104828, 0.31486043334007263, -0.024269549176096916, 0.7211268544197083, 0.3534693717956543, 0.041041404008865356, 0.39689525961875916, 0.1997758150100708, -0.1017366424202919, 0.024029778316617012, -0.17952044308185577, 0.1369091272354126, 0.04835473746061325, -0.7186810970306396, 0.039046511054039, 0.15802112221717834, 0.5634816288948059, 0.13479025661945343, -0.14126671850681305, 0.02897612564265728, -0.41482412815093994, 0.28066933155059814, -0.3943328857421875, -0.28489771485328674, -0.49572786688804626, 0.06832200288772583, 0.09464491158723831, 0.5668821334838867, 0.02391914837062359, 0.4938715696334839, 0.3724227845668793, 0.22258569300174713, -0.40141433477401733, 0.16243061423301697, 0.4091624617576599, -0.010261084884405136, -0.18964943289756775, 0.15204378962516785, -0.629748523235321, 0.25286051630973816, 0.34528201818466187, -0.2016085982322693, 0.07816105335950851, 0.290214478969574, -0.08680813759565353, 0.13458454608917236, -0.2847542464733124, 0.09147420525550842, 0.07289773970842361, 0.6938241124153137, -0.029077723622322083, -0.2819260060787201, 0.11154748499393463, 0.7559407949447632, -0.4460190534591675, -0.3802979588508606, -0.31499359011650085, 0.1027301624417305, 0.5002841949462891, 0.41683462262153625, -0.10918764024972916, -0.43903201818466187, 0.4524199366569519, -0.619596004486084, -0.4738067388534546, 0.3414243757724762, -0.15354591608047485, -0.6804255843162537, -0.14208070933818817, -0.14116515219211578, 0.1412333995103836, 0.5473683476448059, -0.11854879558086395, 0.18943630158901215, 0.5385164618492126, -0.26362428069114685, 0.294464111328125, 0.409602552652359, -0.1060829609632492, -0.7123829126358032, 0.32644715905189514, 0.18533188104629517, -0.20409013330936432, 0.6002978086471558, -0.004466323647648096, -0.046428658068180084, 0.15527573227882385, -0.22260570526123047, 0.4610474407672882, -0.4728991985321045, 0.2890339493751526, 0.13044746220111847], [-0.08210311084985733, 0.37157565355300903, 0.45259734988212585, 0.563585102558136, -0.23684166371822357, 0.22665807604789734, 0.27358144521713257, 0.8385196924209595, 0.15840233862400055, -0.29719096422195435, -0.21077890694141388, 0.6589460372924805, -0.6407171487808228, 0.2458011656999588, -0.18266773223876953, 0.632757306098938, -0.5276920795440674, -0.08765909075737, 0.3768389821052551, -0.36254066228866577, 0.5315588116645813, 0.2156350463628769, -0.5896247625350952, 0.03015790320932865, -0.31613102555274963, -0.39300552010536194, 0.35781362652778625, -0.0064852600917220116, 0.36926713585853577, -0.023717954754829407, 0.6712220311164856, 0.24686391651630402, 0.2201211154460907, -0.15600451827049255, 0.4023185670375824, -0.30231377482414246, 0.3704102635383606, -0.21658045053482056, 0.6296259164810181, 0.2420627325773239, -0.5178084969520569, -0.5755757093429565, 0.3865114152431488, 0.3687877655029297, 0.12207715213298798, -0.1873936653137207, 0.30187901854515076, 0.5302491188049316, 0.555556058883667, 0.6401543617248535, -0.5036441683769226, 0.27683234214782715, 0.07806867361068726, -0.011470288038253784, -0.03769667446613312, 0.3802715241909027, -0.4936303198337555, 0.32999029755592346, -0.11563420295715332, -0.35372212529182434, 0.34421807527542114, 0.15611562132835388, 0.3782873749732971, 0.023759840056300163, -0.04213644191622734, -0.05284696817398071, 0.30590033531188965, 0.34211069345474243, -0.45508435368537903, 0.1958223134279251, -0.21801027655601501, 0.14366501569747925, -0.0018173909047618508, -0.5783854722976685, -0.4014633893966675, -0.04801454395055771, 0.13301154971122742, -0.023846693336963654, 0.6971928477287292, -0.07619687169790268, -0.41791555285453796, 0.0846097320318222, 0.04923858121037483, 0.24667486548423767, 0.05789676308631897, -0.05993005260825157, 0.33684733510017395, -0.39369112253189087, 0.32231152057647705, 0.2102530151605606, -0.34531065821647644, 0.3475719690322876, -0.25714805722236633, 0.40125566720962524, -0.7020341157913208, 0.4009866416454315, 0.13916657865047455, -0.29658064246177673, 0.7132365703582764, 0.31264039874076843, 0.4681333005428314, 0.39617758989334106, -0.6005746722221375, 0.24922050535678864, 0.22966718673706055, 0.0709087923169136, -0.05157753825187683, -0.4922831058502197, 0.056088268756866455, -0.4165952205657959, -0.03393447399139404, 0.39013808965682983, -0.005386047996580601, -0.17285451292991638, 0.44945016503334045, 0.031842190772295, -0.5164502263069153, 0.03880559653043747, -0.5812960863113403, 0.27413973212242126, 0.6270129680633545, 0.45074328780174255, 0.37991610169410706, 0.32240360975265503, 0.5753757953643799, 0.14855653047561646, -0.19638997316360474, -0.6957922577857971, 0.4756499230861664, 0.2160264253616333, -0.287885844707489, 0.429867148399353, 0.42088714241981506, 0.1858028769493103, 0.7365002632141113, -0.24284176528453827, -0.695898175239563, 0.5026060938835144, -0.17071633040905, 0.06161343678832054, -0.4117087125778198, 0.18479682505130768, 0.13719697296619415, 0.6000282168388367, -0.8114116191864014, 0.3089343011379242, -0.4943850338459015, -0.6070624589920044, -0.23394452035427094, 0.31509649753570557, 0.020131023600697517, 0.14327804744243622, -0.2803358733654022, -0.056216076016426086, -0.6967313289642334, -0.35037317872047424, -0.45260098576545715, -0.5885806083679199, -0.1776416301727295, -0.5057340860366821, -0.30496588349342346, 0.4072261452674866, 0.26269781589508057, 0.7323492765426636, -0.055911678820848465, 0.3071591854095459, -0.13841260969638824, 0.19191916286945343, 0.42456474900245667, 0.07113634794950485, 0.2532791197299957, 0.10439909249544144, -0.47973185777664185, 0.6064860224723816, 0.06856066733598709, 0.3018546402454376, 0.2597302496433258, 0.5237371921539307, 0.2572745382785797, 0.4214325547218323, 0.19788090884685516, 0.23996944725513458, -0.14331206679344177, 0.35653385519981384, -0.4272778332233429, 0.468047171831131, 0.5063827633857727, -0.2652001678943634, 0.09230773150920868, 0.2533593475818634, 0.43576398491859436, 0.4714178442955017, -0.2637229859828949, 0.5802310109138489, 0.3097669184207916, -0.02141367457807064, -0.036928292363882065, 0.3979235291481018, 0.504946768283844, 0.20822876691818237, -0.820107102394104, 0.1589699536561966, -0.587225079536438, 0.5479614734649658, -0.057875487953424454, -0.8216149806976318, -0.19444294273853302, 0.14305150508880615, 0.21742287278175354, 0.473331093788147, -0.431546151638031, -0.15216414630413055, -0.04532109573483467, 0.19634701311588287, -0.16942088305950165, 0.35061028599739075, 0.14165246486663818, 0.30514293909072876, -0.16609199345111847, -0.4577992856502533, -0.7278257608413696, 0.3125927150249481, 0.33530664443969727, -0.06868328899145126, 0.121309794485569, -0.1404673457145691, 0.582984983921051, -0.4903026521205902, -0.6071180701255798, -0.38636356592178345, -0.6302926540374756, -0.35801267623901367, -0.24290893971920013, 0.4411938488483429, 0.23924626410007477, 0.49439939856529236, -0.3771953582763672, 0.12397026270627975, 0.5092893838882446, -0.052664387971162796, 0.43762046098709106, 0.10319974273443222, -0.3719167113304138, -0.4255245327949524, 0.16045863926410675, 0.5596914291381836, 0.11941372603178024, 0.6690570116043091, -0.056483663618564606, -0.4488207995891571, 0.24890218675136566, 0.3446780741214752, 0.0684981644153595, -0.11339402943849564, 0.4998522698879242, 0.20837241411209106], [-0.30309244990348816, -0.04708845168352127, 0.2651046812534332, -0.09646735340356827, 0.5949997305870056, 0.1437731385231018, 0.09893587231636047, 0.24263902008533478, -0.022490259259939194, 0.43997493386268616, -0.4457043409347534, -0.4083738327026367, -0.31814080476760864, -0.10077442228794098, 0.15435487031936646, -0.0044970642775297165, -0.16681309044361115, 0.14855597913265228, 0.36269691586494446, -0.1078273132443428, -0.016532504931092262, -0.040821705013513565, -0.10335859656333923, 0.026152154430747032, 0.031423307955265045, -0.6584436893463135, 0.0578019954264164, -0.046511467546224594, -0.0424368679523468, 0.1678764522075653, -0.06118285283446312, 0.09200111776590347, -0.2222091406583786, 0.053352247923612595, 0.40761426091194153, 0.15716274082660675, -0.12969143688678741, -0.07121757417917252, -0.1415194422006607, -0.02094249241054058, -0.4244075119495392, -0.09134319424629211, 0.23631785809993744, 0.1512507200241089, -0.08231157064437866, -0.16065676510334015, 0.2122965306043625, 0.05147968977689743, -0.18524546921253204, 0.16926951706409454, -0.30718234181404114, 0.36326712369918823, 0.05952659994363785, -0.21361282467842102, -0.6891433596611023, -0.10029672831296921, -0.18338733911514282, 0.1397504061460495, 0.14313387870788574, 0.2981291711330414, -0.007616049610078335, 0.36490535736083984, -0.1367926448583603, 0.22047142684459686, 0.25136804580688477, -0.24330098927021027, 0.1517232358455658, 0.08170441538095474, -0.32753872871398926, 0.011422649025917053, -0.49057331681251526, 0.2934707701206207, 0.2199297398328781, -0.08235935866832733, 0.3826865553855896, -0.36804670095443726, 0.30615827441215515, -0.6353616714477539, 0.14162401854991913, -0.29288944602012634, -0.02778412029147148, 0.43840500712394714, -0.05182752013206482, 0.1322445273399353, -0.15303196012973785, 0.23042713105678558, 0.2772703170776367, 0.4386557936668396, 0.10275042802095413, 0.07710466533899307, -0.2606312334537506, 0.44240161776542664, -0.041849538683891296, 0.3626581132411957, 0.5043492317199707, 0.27127283811569214, -0.013244567438960075, -0.5466352701187134, 0.012816539965569973, -0.03953380882740021, -0.03871810436248779, -0.1040029302239418, 0.06709086894989014, 0.12562352418899536, 0.28412166237831116, -0.1219547912478447, 0.03964650258421898, -0.2704167068004608, 0.0403871089220047, 0.035711221396923065, 0.11940058320760727, 0.011230560950934887, -0.29296231269836426, 0.26170772314071655, -0.055394284427165985, -0.3356846868991852, -0.1011132299900055, -0.16765539348125458, -0.5367017388343811, -0.10190537571907043, 0.2310495376586914, -0.15991395711898804, 0.06392722576856613, -0.03200782090425491, 0.23708167672157288, 0.010786843486130238, -0.16925065219402313, 0.2750737965106964, 0.47868612408638, -0.1917514055967331, -0.2180124968290329, -0.10749157518148422, -0.3313155472278595, -0.016542943194508553, 0.028163788840174675, -0.3859594464302063, -0.28651702404022217, -0.10142442584037781, 0.316034734249115, -0.1869615763425827, -0.08699134737253189, -0.016233524307608604, 0.28850024938583374, -0.11981671303510666, 0.1689080446958542, 0.3822181522846222, 0.22409430146217346, -0.011945251375436783, -0.10331618040800095, 0.14190416038036346, 0.05593669414520264, -0.2057081013917923, -0.38688281178474426, -0.21982263028621674, 0.06731121987104416, -0.25065383315086365, -0.20584417879581451, 0.6838021278381348, -0.3923259377479553, -0.13413627445697784, -0.0589548721909523, 0.11088380962610245, 0.20799583196640015, -0.06551431119441986, -0.18217381834983826, -0.08315917104482651, -0.35405468940734863, -0.09399449080228806, -0.05153288692235947, 0.265397846698761, -0.1812976598739624, 0.3309600055217743, -0.09764333069324493, 0.14993351697921753, 0.051637567579746246, 0.03591649606823921, -0.05565914139151573, 0.11648038774728775, 0.24446207284927368, 0.20842842757701874, 0.06084270775318146, 0.265853613615036, -0.5128617882728577, 0.36770114302635193, 0.15641260147094727, -0.043961573392152786, -0.015517748892307281, -0.049208108335733414, -0.2706564962863922, 0.06179837882518768, -0.04018682241439819, 0.29728326201438904, 0.04925469681620598, -0.3906381130218506, 0.27437230944633484, 0.07743264734745026, 0.34857678413391113, 0.282149076461792, -0.09585761278867722, 0.36851072311401367, 0.24514199793338776, -0.22471408545970917, -0.5551910400390625, 0.25414353609085083, 0.19992376863956451, 0.21007052063941956, -0.02476910687983036, 0.07009422034025192, 0.52459317445755, 0.13954487442970276, 0.11336386203765869, -0.27290716767311096, -0.26588186621665955, -0.006730546243488789, 0.08185820281505585, 0.18896208703517914, -0.200845867395401, 0.003551727393642068, 0.39949971437454224, 0.016677336767315865, -0.26968005299568176, 0.24355053901672363, 0.24749159812927246, 0.17780457437038422, 0.08038878440856934, 0.3136622905731201, 0.21879439055919647, -0.16250772774219513, 0.07778967171907425, -0.36999911069869995, -0.5061039328575134, -0.03750494495034218, 0.24830368161201477, 0.6137915253639221, 0.23264756798744202, 0.19374997913837433, -0.3236066401004791, 0.08572972565889359, 0.22616448998451233, -0.055470310151576996, 0.09656364470720291, -0.539571225643158, -0.12050287425518036, -0.16015103459358215, 0.4147312343120575, 0.5922176837921143, -0.23213888704776764, -0.04710913076996803, -0.34581419825553894, -0.03289482370018959, -0.06881596148014069, 0.1892697513103485, 0.35154592990875244, -0.35875147581100464, 0.17223620414733887, 0.19721105694770813], [-0.09782774746417999, 0.6059646606445312, 0.7586455345153809, 0.28948572278022766, -0.6166423559188843, 0.5253168344497681, 0.27179306745529175, -0.023470863699913025, -0.04520311579108238, -0.011296248063445091, -0.20221753418445587, 0.04914023354649544, -0.2593419849872589, 0.46936070919036865, 0.3753960430622101, 0.4938862919807434, -0.7025543451309204, 0.23786361515522003, 0.6602346897125244, -0.3586379289627075, 0.650287389755249, -0.6470198035240173, -0.450137734413147, 0.3550145924091339, -0.04145083203911781, -0.8804483413696289, 0.045645374804735184, 0.02353169396519661, 0.7713845372200012, -0.3309516906738281, 0.2872319519519806, -0.12312187254428864, -0.3983749747276306, 0.1013481616973877, 0.07304287701845169, -0.5000985860824585, 0.22385273873806, 0.057169895619153976, 0.07091444730758667, -0.15734004974365234, -0.34163278341293335, -0.2937057316303253, 0.6862455010414124, 0.2630358338356018, -0.687261700630188, -0.2976052463054657, -0.31190505623817444, 0.06737217307090759, 0.7806248068809509, 0.35499367117881775, -0.46022647619247437, 0.009099794551730156, -0.49066680669784546, 0.4289822578430176, -0.21294333040714264, 0.31911036372184753, -0.3803892135620117, 0.7327556014060974, -0.9448976516723633, -0.4673115611076355, 0.5632713437080383, 0.5249265432357788, 0.7432196140289307, -0.013079298660159111, 0.2431224286556244, -0.7843338847160339, 0.43878495693206787, 0.22182144224643707, -0.39208173751831055, 0.2487926483154297, -0.3900369703769684, -0.5797630548477173, -0.0350726880133152, -0.7277496457099915, -0.9310363531112671, -0.6068938374519348, 0.3141267001628876, -0.7686451077461243, -0.5625860691070557, -0.4205208420753479, -0.3160005211830139, 0.5699564218521118, -0.399560809135437, -0.27218425273895264, 0.5880130529403687, -1.0921216011047363, 0.42818745970726013, -0.23124828934669495, 0.3224870562553406, 0.7484173774719238, 0.14069107174873352, -0.08419685065746307, 0.353816956281662, 1.091253638267517, -0.6402049660682678, 0.9521364569664001, 0.05213385447859764, -0.3203972578048706, 1.0197429656982422, 0.5192069411277771, 0.5443364977836609, 0.04200728237628937, -0.28438249230384827, 0.023743711411952972, 0.5839316248893738, 0.11519867926836014, -0.5620294809341431, -0.9442592263221741, -0.33873966336250305, -0.402474969625473, 0.029444534331560135, 0.6320511102676392, 0.4917199909687042, -0.5659152865409851, 0.7710914015769958, 0.3541598320007324, -0.5539534687995911, 0.45669034123420715, -0.4831104576587677, 0.36766067147254944, 0.742341935634613, 0.8313849568367004, 0.6375888586044312, 0.9433764219284058, 0.4975825250148773, -0.18168877065181732, 0.12006784975528717, -0.029966043308377266, 0.30672943592071533, 0.5323032140731812, -0.3611876666545868, 0.1399606466293335, 0.10906533151865005, -0.12314625084400177, 0.39944517612457275, 0.5385762453079224, -0.5488513708114624, 0.46799716353416443, -0.20052853226661682, -0.1548503041267395, -0.07065951824188232, 0.3554140329360962, -0.05851314589381218, 0.31809887290000916, -1.264009952545166, 0.501441478729248, -0.37066319584846497, -0.6365618109703064, -0.2792676091194153, 0.3283085227012634, -0.3189988136291504, -0.5118280649185181, -0.4119082987308502, 0.15079952776432037, -0.2972870171070099, -0.008326606824994087, -0.31792911887168884, -0.5522081851959229, 0.36916324496269226, -0.5398105382919312, -0.21070249378681183, 0.6260671019554138, 0.31544095277786255, 0.18004441261291504, -0.29807597398757935, 0.8444734215736389, -0.20896390080451965, 0.34877464175224304, 0.4064742624759674, 0.21941471099853516, 0.5775178670883179, 0.551795482635498, -0.38718244433403015, 0.42548152804374695, 0.3440819978713989, 0.25200554728507996, 0.4226917028427124, -0.5620739459991455, 0.660203754901886, 0.1343943178653717, 0.5857193470001221, 0.40702110528945923, -0.18668325245380402, 0.5113412737846375, -0.527145504951477, -0.4208900034427643, 0.420367568731308, -0.1575251966714859, 0.3167931139469147, 0.06379768252372742, 0.4764150083065033, 0.09195618331432343, -0.6361009478569031, 0.5392522215843201, 0.6214860081672668, 0.18063856661319733, -0.35642343759536743, 0.5490789413452148, 0.08445790410041809, -0.7764944434165955, -0.35712599754333496, 0.28456899523735046, -0.03550449758768082, 0.5789222121238708, -0.3070148527622223, -0.44582584500312805, -0.13121111690998077, 0.9545719027519226, -0.28259801864624023, 0.3268197476863861, -0.008724312297999859, -0.5980501174926758, 0.27267444133758545, 0.790021538734436, -0.04786918684840202, 0.4869336783885956, 0.2026631236076355, 0.4898512065410614, -0.15501219034194946, -0.03751479089260101, -0.7153832912445068, -0.018289906904101372, 0.268789142370224, 0.08474879711866379, -0.24613982439041138, -0.5783302187919617, 0.26789751648902893, -0.26119303703308105, -0.138137087225914, 0.08050759881734848, -0.2837795615196228, -0.21630539000034332, 0.15856695175170898, 0.39877915382385254, 0.34031403064727783, 0.7152230143547058, -0.2920951247215271, -0.18366123735904694, 0.5497585535049438, -0.2782416343688965, 0.8344223499298096, 0.17908282577991486, -0.8064494132995605, 0.08903825283050537, 0.8043226003646851, 0.5954889059066772, 0.7729170918464661, 0.5783066153526306, -0.6447649598121643, -0.6636042594909668, 0.37925809621810913, -0.004781331866979599, 0.1503830999135971, -0.2803213894367218, 0.5773251056671143, 0.11961369961500168], [-0.4265116751194, 0.31121644377708435, 0.16830535233020782, 0.0752485916018486, -0.310677170753479, 0.2514355182647705, 0.26407957077026367, 0.20199446380138397, -0.19897766411304474, -0.010321765206754208, 0.11755234003067017, 0.12857259809970856, 0.09903601557016373, 0.139924556016922, 0.6079716682434082, 0.349993497133255, -0.2872789800167084, -0.41922295093536377, 0.05276563763618469, -0.10929263383150101, 0.37225309014320374, -0.1856849193572998, -0.34358954429626465, -0.37319520115852356, -0.16767852008342743, -0.04041497781872749, 0.3231903612613678, -0.17996014654636383, 0.015877630561590195, 0.06980285793542862, -0.12165128439664841, 0.4097917079925537, -0.24567493796348572, -0.162568137049675, -0.0577239952981472, -0.19301335513591766, 0.48228520154953003, -0.04683889448642731, -0.05058592930436134, 0.3776111304759979, -0.04763886332511902, -0.07476785778999329, 0.5108687281608582, 0.42373406887054443, 0.022077836096286774, -0.07948444038629532, 0.1351088136434555, 0.3593047857284546, 0.5023325085639954, -0.08123254776000977, -0.1538819819688797, 0.05094975605607033, 0.2898191809654236, 0.2974409759044647, -0.23573531210422516, -0.20987166464328766, -0.21448121964931488, 0.16060951352119446, -0.298786997795105, -0.3734145760536194, 0.2279973179101944, 0.2740132808685303, -0.042064376175403595, -0.05562330037355423, 0.05543375015258789, -0.3143792450428009, 0.24658891558647156, 0.01966424472630024, 0.0027826062869280577, 0.17294993996620178, -0.024889398366212845, -0.00595969520509243, 0.1294337809085846, -0.03572525456547737, -0.09235786646604538, -0.15595686435699463, 0.2136566936969757, -0.13581137359142303, -0.011347856372594833, -0.051306385546922684, -0.03712968900799751, 0.13354383409023285, -0.19385504722595215, 0.1902071088552475, 8.616330160293728e-05, -0.4420147240161896, 0.6204575300216675, -0.10340370982885361, -0.1419028788805008, 0.46366891264915466, -0.011720007285475731, 0.014030545018613338, 0.2003854364156723, -0.08207564800977707, -0.08260105550289154, -0.23416931927204132, 0.1416521817445755, 0.21276824176311493, 0.013626614585518837, 0.20053420960903168, 0.42502814531326294, 0.05368230119347572, -0.5662004947662354, 0.17421846091747284, 0.36301112174987793, -0.2009183168411255, -0.8184013366699219, -0.36462879180908203, 0.09439219534397125, -0.382686972618103, -0.24113459885120392, 0.2707222104072571, 0.4255087375640869, -0.22359232604503632, 0.2630080580711365, -0.07469882816076279, -0.41260361671447754, 0.4090951383113861, -0.20617491006851196, -0.4007459282875061, 0.2194298952817917, 0.3570025563240051, 0.042017534375190735, 0.3131349980831146, 0.10523059219121933, 0.7160580158233643, -0.3698467016220093, 0.17430490255355835, 0.0690176784992218, -0.04965442046523094, 0.04643978551030159, 0.16044433414936066, 0.2315610647201538, 0.17592021822929382, -0.08662334829568863, -0.10989776253700256, -0.44874921441078186, 0.3311980962753296, -0.32610052824020386, -0.1994762420654297, 0.3812929093837738, 0.43102607131004333, 0.3369390666484833, 0.1273059844970703, -0.7108845710754395, 0.28353381156921387, -0.34791451692581177, -0.19034898281097412, -0.17538583278656006, 0.004654603078961372, 0.37734633684158325, -0.29457810521125793, -0.28097814321517944, 0.18912094831466675, -0.11346788704395294, -0.03498057648539543, -0.25455158948898315, -0.082644522190094, 0.17387786507606506, -0.9603132605552673, -0.19140569865703583, 0.07418455183506012, -0.24923793971538544, -0.25637662410736084, -0.06621887534856796, 0.20213961601257324, -0.05167761445045471, 0.2085420787334442, 0.10677492618560791, -0.11234305053949356, -0.31453096866607666, 0.237817645072937, -0.09235497564077377, 0.08348848670721054, -0.23753862082958221, 0.30598440766334534, -0.03873957321047783, 0.0308018010109663, 0.09549770504236221, 0.21231116354465485, 0.4005317986011505, 0.13314156234264374, 0.2314363569021225, 0.07487531006336212, 0.07684282958507538, 0.03352103754878044, 0.1506909877061844, -0.08309260755777359, -0.2848108112812042, 0.2582850158214569, -0.11618164926767349, 0.39602503180503845, -0.30696651339530945, 0.1107846200466156, 0.19488821923732758, 0.2823721766471863, -0.32484182715415955, 0.3538908064365387, 0.3795532286167145, -0.20729857683181763, -0.014056471176445484, 0.007609046529978514, -0.5200907588005066, -0.20060449838638306, 0.401760995388031, -0.228977769613266, -0.43065300583839417, 0.3318943977355957, -0.11664102971553802, 0.022923558950424194, 0.1945270150899887, -0.3949812650680542, 0.05463851988315582, 0.3657795190811157, 0.17941710352897644, 0.3215983510017395, 0.06076691672205925, 0.30945780873298645, 0.25542956590652466, 0.009247161448001862, -0.49627575278282166, -0.056120503693819046, 0.4850938618183136, -0.0824870765209198, 0.24877485632896423, -0.18208959698677063, 0.048507481813430786, -0.6749330163002014, -0.4524743854999542, 0.2552579641342163, 0.3941304087638855, -0.9319573044776917, -0.16634896397590637, 0.6259971261024475, 0.6905153393745422, -0.05255569517612457, -0.12592098116874695, -0.23103317618370056, 0.1940104216337204, -0.22200697660446167, -0.047188494354486465, -0.2092212736606598, -0.0388876348733902, -0.1626291275024414, 0.27838724851608276, 0.11480813473463058, 0.07383494079113007, -0.23569396138191223, 0.011236036196351051, -0.41068458557128906, 0.4871235191822052, 0.21023261547088623, 0.057073865085840225, 0.39246514439582825, 0.1772754192352295, -0.173360213637352], [0.12160170823335648, 0.4440259337425232, 0.3768426775932312, 0.2938274145126343, -0.49970582127571106, 0.27862176299095154, 0.47175535559654236, -0.10273979604244232, -0.39874398708343506, 0.08153797686100006, -0.37624379992485046, 0.36155831813812256, -0.5509880185127258, 0.08529261499643326, -0.002816377906128764, 0.5345974564552307, -0.5809056758880615, -0.004593648482114077, 0.7512885928153992, -0.2879168391227722, 0.6259682774543762, 0.055459003895521164, 0.04091677814722061, 0.4372418522834778, -0.3184908628463745, -0.33227914571762085, 0.3983140289783478, -0.23276422917842865, -0.2631921172142029, 0.261830598115921, 0.3886922597885132, 0.3689410090446472, 0.36157849431037903, -0.5000592470169067, 0.5363417863845825, -0.02329915761947632, 0.5464909076690674, -0.4653673768043518, -0.6735415458679199, 0.10563861578702927, -0.6156666278839111, -0.45658043026924133, 0.6025416851043701, 0.43186718225479126, -0.046658582985401154, -0.1610240787267685, 0.015417970716953278, 0.4592662751674652, 0.2750231623649597, 0.31871315836906433, -0.05502655357122421, 0.33292922377586365, -0.26086485385894775, 0.21900059282779694, -0.45331811904907227, 0.6075180768966675, -0.5533977746963501, 0.21239317953586578, -0.9546529054641724, -0.7342635989189148, 0.46199092268943787, 0.5061396956443787, 0.7398445010185242, 0.3487720489501953, -0.13262489438056946, -0.4706465005874634, 0.1395718902349472, 0.19764278829097748, -0.21319212019443512, 0.4572804868221283, 0.07494466751813889, -0.32317736744880676, 0.5239060521125793, -0.855577826499939, -0.7215743064880371, -0.7667118906974792, 0.07166963815689087, -0.6845386028289795, -0.21639259159564972, -0.0688050389289856, 0.06406880170106888, 0.688351571559906, -0.1523127406835556, 0.24326306581497192, -0.02190791442990303, -0.2866703271865845, 0.46545442938804626, -0.032395139336586, 0.9408168196678162, 0.05682980269193649, -0.3499707281589508, 0.45049870014190674, -0.08254332840442657, 0.603140652179718, -0.6915732026100159, 0.13968220353126526, 0.20554348826408386, 0.038944970816373825, 0.20814017951488495, 0.2960115969181061, 0.7915149331092834, 0.3542978763580322, -0.580808162689209, 0.6879895925521851, 0.19261090457439423, -0.5479007959365845, -0.15569458901882172, -0.9505761861801147, 0.3411383628845215, -0.4683297276496887, -0.08357438445091248, 0.11627238988876343, 0.5102888941764832, -0.23223328590393066, 0.7601505517959595, -0.1264173835515976, -0.10505339503288269, 0.06255566328763962, 0.0019593737088143826, 0.1399850994348526, 0.6404899954795837, 0.43901216983795166, 0.6476340889930725, 0.5013177394866943, 0.02731241285800934, 0.27703917026519775, -0.23851387202739716, 0.11086812615394592, -0.055637769401073456, 0.069084033370018, -0.17126327753067017, 0.08982715755701065, 0.17968131601810455, 0.5418030023574829, 0.24981272220611572, -0.00824286974966526, -0.32112136483192444, 0.492241770029068, 0.5992454290390015, -0.48813068866729736, -0.3616466224193573, 0.5808888673782349, -0.6093378663063049, 0.25708669424057007, 0.20481008291244507, 0.4379146099090576, -0.6125491261482239, -0.5711349248886108, -0.3191218674182892, 0.7980324029922485, -0.3154190182685852, -0.9721870422363281, -0.3285009264945984, -0.4211011230945587, -0.4527696967124939, 0.38692396879196167, -0.9189389944076538, -0.4896990954875946, 0.3509860932826996, 0.28714388608932495, -0.24745669960975647, 0.40485143661499023, 0.7297077775001526, 0.3209604024887085, -0.5244941115379333, 0.8364748358726501, 0.06251774728298187, 0.4268922507762909, 0.8417699337005615, 0.005220616236329079, 0.25026237964630127, 0.42822298407554626, -0.6389096975326538, 0.3126845061779022, 0.37188154458999634, 0.22285106778144836, 0.4493035674095154, -0.3311934173107147, 0.30307522416114807, 0.28598853945732117, -0.01721682958304882, 0.43150126934051514, -0.8538249135017395, 0.6509082913398743, -0.36736640334129333, 0.6268007755279541, 0.0911945030093193, 0.12190322577953339, -0.07932335138320923, 0.19007013738155365, 0.3293020725250244, 0.5812281966209412, -0.3007815480232239, 0.52041095495224, 0.06642808765172958, 0.3700352907180786, -0.5222296118736267, 0.4410792589187622, 0.5260517597198486, 0.08150457590818405, -0.9271931052207947, 0.695918083190918, -0.2996809482574463, 0.5729225277900696, 0.09803365916013718, 0.5953212976455688, 0.2628069221973419, 0.6791298389434814, -0.28039121627807617, 0.34459730982780457, 0.20311863720417023, -0.5258163213729858, 0.05319109186530113, 0.417277991771698, -0.5750880837440491, -0.48795458674430847, 0.03802105039358139, 0.4103359282016754, 0.00032834947342053056, -0.5329382419586182, -0.2160215675830841, -0.19852398335933685, 0.6104499697685242, 0.018211547285318375, 0.28116661310195923, -0.38606908917427063, 0.48984941840171814, -0.4632209539413452, -0.4747994840145111, -0.16230134665966034, -0.3297695815563202, -0.04786606878042221, 0.27615678310394287, 0.32632696628570557, 0.42896923422813416, 0.7643898725509644, -0.08425875753164291, 0.09011354297399521, 0.6864389181137085, -0.5545534491539001, 0.6902611255645752, 0.24416035413742065, -0.09543052315711975, -0.5348950624465942, -0.06416768580675125, 0.6937498450279236, -0.07573893666267395, 0.8782390356063843, -0.8238101601600647, -0.48912546038627625, 0.5169992446899414, 0.7204519510269165, 0.5974125266075134, -0.22729577124118805, 0.6379024982452393, 0.3762666583061218], [-0.13551300764083862, 0.23870183527469635, 0.29523640871047974, 0.2673249840736389, -0.38066786527633667, 0.27182093262672424, 0.25176742672920227, 0.45205047726631165, -0.08463543653488159, -0.2776641547679901, -0.05949365347623825, -0.4382826089859009, 0.02811567299067974, 0.6052101850509644, 0.3076567053794861, 0.03848845139145851, -0.39080649614334106, -0.2708127796649933, 0.17314499616622925, -0.5715763568878174, 0.17585517466068268, 0.03871821612119675, -0.026292843744158745, -0.036714281886816025, -0.2894706428050995, -0.4476325809955597, -0.05728432163596153, 0.10229620337486267, 0.03322098031640053, 0.3750060498714447, 0.31037771701812744, -0.16175223886966705, 0.21352097392082214, 0.2550123929977417, 0.39243781566619873, -0.270336389541626, 0.4511406421661377, 0.0034622875973582268, -0.38965946435928345, -0.03388220816850662, -0.08443174511194229, -0.19803088903427124, 0.46335139870643616, 0.3313334882259369, -0.19930300116539001, -0.25248146057128906, 0.33868950605392456, 0.4036181569099426, 0.25497451424598694, 0.21671490371227264, -0.050888996571302414, 0.3372248113155365, -0.25728467106819153, 0.061271462589502335, -0.07042905688285828, 0.04153023287653923, -0.3628966808319092, 0.3911471962928772, -0.26526951789855957, -0.3967764973640442, 0.458072304725647, -0.11219652742147446, 0.017836812883615494, 0.37646517157554626, -0.04745198041200638, -0.03933713585138321, 0.49247750639915466, -0.17035022377967834, -0.3611794114112854, 0.21612673997879028, 0.21568681299686432, -0.1012396290898323, -0.18378356099128723, -0.25488561391830444, -0.24760781228542328, -0.38441920280456543, 0.14099934697151184, 0.06427540630102158, 0.42753684520721436, 0.08655521273612976, -0.3644255995750427, 0.3521011471748352, -0.5922858715057373, 0.22375589609146118, 0.23448699712753296, -0.46738168597221375, 0.11030802875757217, -0.06794789433479309, 0.35726696252822876, 0.05640840530395508, 0.25413960218429565, 0.0055238292552530766, -0.12225500494241714, 0.31015661358833313, -0.03616352751851082, 0.3214510381221771, 0.06974015384912491, -0.020592281594872475, 0.27204298973083496, 0.5857908129692078, 0.2609443962574005, -0.07591786980628967, 0.06181598827242851, 0.2763301730155945, 0.4102552533149719, -0.04074240103363991, -0.16456195712089539, -0.46939727663993835, -0.30856621265411377, -0.28389278054237366, -0.21199913322925568, -0.1041480228304863, 0.1933186948299408, -0.15243110060691833, 0.30887943506240845, -0.11305826157331467, -0.3134298324584961, 0.35206687450408936, -0.14541113376617432, 0.5248020887374878, 0.371987909078598, 0.14296579360961914, 0.17131544649600983, 0.3792964816093445, 0.1181226372718811, 0.08590517938137054, -0.2343081682920456, -0.0284733809530735, 0.1984679400920868, 0.13366559147834778, -0.221708282828331, 0.036376357078552246, 0.214840829372406, 0.04792654514312744, 0.2320888787508011, 0.11805327236652374, -0.3220800459384918, 0.27484816312789917, 0.6378495097160339, -0.17214716970920563, -0.8072138428688049, 0.22935527563095093, 0.458933562040329, 0.3562145531177521, -0.1036045104265213, 0.2524396777153015, -0.25014886260032654, -0.43640533089637756, -0.40786147117614746, 0.23597674071788788, -0.2973565459251404, 0.07552669942378998, -0.4899665117263794, -0.5424104332923889, -0.3708287477493286, -0.33454573154449463, -0.34494349360466003, -0.13251733779907227, -0.4208354353904724, 0.13660626113414764, 0.24107924103736877, 0.5218755006790161, 0.6838259100914001, 0.4144822359085083, 0.04288562759757042, 0.3143370449542999, -0.1716122180223465, 0.7141577005386353, 0.32871708273887634, -0.11210809648036957, 0.4237756133079529, 0.12594762444496155, -0.042296912521123886, 0.134079709649086, 0.12545907497406006, -0.18249571323394775, 0.026438377797603607, 0.4339764714241028, 0.5229556560516357, -0.09211215376853943, 0.14330004155635834, 0.2589976191520691, -0.39223527908325195, 0.1836627721786499, -0.23342879116535187, 0.05069226399064064, 0.24881760776042938, -0.2636508345603943, -0.14880695939064026, 0.05799160525202751, 0.26545754075050354, 0.5805945992469788, -0.377243310213089, 0.1260853111743927, 0.45763078331947327, 0.48357659578323364, -0.049119893461465836, 0.1722961962223053, 0.24743762612342834, 0.3020228147506714, -0.4013177156448364, 0.03812188655138016, -0.14797161519527435, 0.19466359913349152, 0.030780931934714317, 0.15050499141216278, 0.08023969829082489, 0.45514214038848877, -0.39205795526504517, 0.2838001251220703, 0.2732277512550354, -0.23496420681476593, -0.3696347773075104, 0.22764480113983154, -0.014923010021448135, 0.36011794209480286, 0.215785413980484, -0.16268230974674225, 0.12424246221780777, 0.2552378475666046, -0.14212678372859955, -0.20083750784397125, 0.39273229241371155, 0.25342056155204773, 0.12162463366985321, -0.058721598237752914, 0.3079164922237396, -0.5242923498153687, -0.5129086971282959, -0.11883673816919327, -0.48174813389778137, 0.31824955344200134, 0.33755266666412354, 0.07900553941726685, 0.14935749769210815, 0.40800777077674866, -0.2652904689311981, -0.3243730366230011, 0.5130587816238403, -0.3904961347579956, 0.47070127725601196, 0.24108389019966125, -0.3585914671421051, -0.06515190750360489, 0.1974669247865677, 0.468776673078537, -0.0019123292295262218, 0.04282212629914284, -0.0320596843957901, -0.5024821758270264, 0.1481238305568695, 0.1263667345046997, 0.01782652735710144, -0.3697141110897064, -0.02432563342154026, 0.18267546594142914], [-0.47514140605926514, 0.107127845287323, 0.4184029698371887, 0.18167148530483246, -0.38768428564071655, 0.4202774167060852, 0.48806753754615784, 0.656558632850647, 0.12036903202533722, -0.01334996148943901, -0.02167760208249092, -0.3997863531112671, -0.26294708251953125, -0.052942581474781036, 0.423061728477478, 0.758870005607605, -0.36422622203826904, -0.021564533933997154, 0.06070161610841751, -0.5060870051383972, 0.6948366165161133, 0.36618679761886597, -0.3688419461250305, 0.16204223036766052, -0.3655802309513092, -0.397916704416275, 0.6731292605400085, 0.07894474267959595, 0.46199849247932434, 0.897371768951416, 0.4103185534477234, 0.5976951122283936, -0.08557895570993423, -0.3997177481651306, 0.46625080704689026, -0.11086610704660416, 0.3241158425807953, 0.3413642346858978, 0.27377527952194214, 0.4309447407722473, -0.10813652724027634, -0.294094443321228, 0.3349727690219879, 0.7144089341163635, 0.2929922640323639, 0.300818532705307, 0.03801051899790764, 0.6366349458694458, 0.12751713395118713, 0.3051747977733612, -0.3362140953540802, 0.37528929114341736, -0.3354967534542084, 0.5769754648208618, -0.7009468674659729, 0.09260356426239014, -0.4558359980583191, 0.37860435247421265, -0.5382593274116516, 0.010282200761139393, 0.5029333829879761, 0.37374719977378845, 0.3193128705024719, -0.3176679313182831, 0.49651405215263367, -0.08933763206005096, 0.5406438708305359, 0.09282459318637848, -0.5871366858482361, 0.29879605770111084, -0.1592445969581604, -0.4796975255012512, -0.08221491426229477, -0.49522992968559265, -0.08251692354679108, -0.5467928051948547, 0.01005211565643549, -0.38057923316955566, 0.523629903793335, -0.29382818937301636, -0.15114016830921173, 0.5966585874557495, 0.0028325975872576237, -0.11730226874351501, 0.2806716859340668, -0.16046857833862305, 0.4718623459339142, -0.15873520076274872, 0.3611330986022949, 0.3377986252307892, -0.2522920072078705, -0.20930834114551544, -0.012297926470637321, 0.3195013105869293, -0.48145484924316406, 0.4627293050289154, 0.27985256910324097, 0.10822008550167084, 0.30155646800994873, 0.4249167740345001, 0.43274009227752686, 0.38477811217308044, 0.1366114467382431, -0.1729193776845932, 0.16450153291225433, 0.03275284171104431, -0.5898452401161194, -0.34038838744163513, 0.25966110825538635, -0.3874455988407135, -0.16482219099998474, 0.24185942113399506, 0.30485501885414124, -0.41479387879371643, 0.648253321647644, 0.0852949246764183, -0.423993319272995, -0.1504875123500824, -0.836391031742096, 0.32952040433883667, 0.3775935471057892, 0.5171522498130798, 0.25359541177749634, 0.2552066147327423, 0.1830756664276123, 0.12012103945016861, 0.07219143956899643, 0.342679500579834, 0.554040789604187, 0.07256217300891876, 0.546271562576294, -0.12512455880641937, 0.1560813933610916, -0.10138244926929474, 0.03871435672044754, 0.030854469165205956, -0.19742263853549957, 0.6728990077972412, 0.30140984058380127, -0.3996009826660156, -0.42631804943084717, 0.2751854956150055, -0.3273661434650421, 0.12994080781936646, -0.8409881591796875, 0.33987680077552795, -0.28739821910858154, -0.46582484245300293, -0.40587466955184937, 0.1773800551891327, -0.24186521768569946, -0.4943670928478241, -0.08031480759382248, -0.28849905729293823, -0.9198316335678101, 0.34645774960517883, -0.42432746291160583, -0.2753135561943054, 0.5498977303504944, -0.18297754228115082, -0.17252129316329956, 0.27735260128974915, 0.2290193736553192, -0.274465411901474, -0.10960628092288971, 0.007445062976330519, -0.7873693704605103, 0.0322074294090271, 0.19292204082012177, 0.44434407353401184, 0.25478559732437134, 0.29378122091293335, -0.5082162618637085, 0.23722867667675018, -0.3996955454349518, 0.39536887407302856, 0.39804986119270325, -0.49618372321128845, 0.500813901424408, -0.3055841326713562, 0.12200237065553665, 0.2861991822719574, -0.6376544833183289, 0.3052835464477539, 0.007178632076829672, 0.34975820779800415, 0.041373226791620255, -0.4352443218231201, -0.4249388873577118, 0.12085988372564316, -0.052460603415966034, 0.6957434415817261, -0.45940929651260376, 0.6556795835494995, 0.28045210242271423, 0.30604439973831177, -0.15178139507770538, 0.22017936408519745, 0.6452789306640625, -0.1166912242770195, -0.49503862857818604, 0.31918635964393616, -0.7323615550994873, 0.2349855601787567, 0.5913248658180237, 0.22212821245193481, 0.08287657052278519, 0.3155413568019867, -0.7861508727073669, 0.3323814272880554, -0.030054423958063126, -0.22456523776054382, 0.21612656116485596, 0.60835200548172, -0.3517667353153229, -0.30810776352882385, -0.12378132343292236, 0.6279444694519043, -0.17016108334064484, 0.03186843916773796, -0.5916145443916321, 0.14202862977981567, 0.25017237663269043, 0.5248878598213196, 0.14736950397491455, -0.31062236428260803, 0.5681026577949524, 0.13270387053489685, -0.7789116501808167, -0.2719271779060364, -0.7578014731407166, -0.04196268320083618, 0.35843950510025024, 0.493621289730072, 0.6547178030014038, 0.2797349691390991, -0.2658085525035858, 0.16534686088562012, -0.07127692550420761, -0.03056059405207634, -0.056604109704494476, 0.2391541302204132, -0.11374161392450333, -0.15255802869796753, 0.3070322573184967, 0.2953703999519348, -0.37676844000816345, 0.25411340594291687, -0.7183457016944885, -0.49892503023147583, 0.5096050500869751, -0.07622333616018295, 0.33914560079574585, 0.17557235062122345, 0.19312933087348938, 0.21711599826812744], [-0.1764603704214096, 0.047855768352746964, -0.17198550701141357, -0.0599292553961277, 0.28725099563598633, 0.264737993478775, -0.38076621294021606, 0.2846991717815399, 0.16631747782230377, 0.023326775059103966, -0.02069585956633091, -0.03914646804332733, 0.027944954112172127, 0.11931953579187393, -0.10159057378768921, -0.12037967145442963, 0.02218625880777836, 0.29500484466552734, 0.18933416903018951, 0.14865918457508087, -0.18130125105381012, 0.09908493608236313, 0.12871167063713074, -0.15074127912521362, 0.04126470908522606, 0.32294079661369324, 0.11860192567110062, 0.18586769700050354, -0.42251890897750854, 0.11644105613231659, 0.09671749919652939, -0.3925255239009857, 0.14349623024463654, 0.19736610352993011, 0.20299895107746124, 0.052123457193374634, 0.004244544077664614, -0.4244747459888458, 0.09177052229642868, -0.02591916359961033, 0.05892762541770935, -0.3051123321056366, -0.013061103411018848, 0.1064990982413292, 0.07577365636825562, -0.08323492109775543, -0.1894969791173935, 0.07572942227125168, -0.175553560256958, 0.2790275812149048, 0.08405012637376785, -0.0639084130525589, 0.30036893486976624, -0.10843110084533691, -0.08722762018442154, 0.07550980150699615, 0.03476567193865776, 0.4233992397785187, -0.06237627938389778, -0.13791479170322418, -0.030312035232782364, -0.4094529449939728, -0.0017152313375845551, -0.0956285372376442, -0.15809454023838043, -0.2198236733675003, 0.46722912788391113, 0.1886124610900879, 0.31211182475090027, 0.12254927307367325, -0.33541303873062134, 0.04176996275782585, -0.2237311452627182, -0.1942787766456604, -0.014623744413256645, -0.19548840820789337, 0.24284082651138306, 0.1582971215248108, 0.085972860455513, 0.13622552156448364, 0.07623395323753357, -0.09734993427991867, 0.08117800205945969, -0.02656169980764389, -0.028854789212346077, -0.15611381828784943, 0.09217776358127594, -0.11571408063173294, -0.027101419866085052, 0.09831281006336212, 0.09062481671571732, -0.2825222909450531, 0.24706919491291046, -0.016613155603408813, -0.15522339940071106, 0.3241724371910095, -0.13238611817359924, 0.16248466074466705, -0.15696758031845093, 0.419260710477829, -0.2989102303981781, 0.35247907042503357, 0.025365734472870827, 0.30637845396995544, -0.22596386075019836, 0.29449763894081116, 0.3584638237953186, 0.19493432343006134, 0.3552311360836029, 0.05571555346250534, -0.2724520266056061, 0.08199097216129303, -0.5581466555595398, 0.5033392906188965, -0.15012885630130768, 0.3721507489681244, 0.03354979678988457, -0.04703386500477791, -0.2699371874332428, 0.03797278553247452, 0.0822894349694252, -0.048765867948532104, -0.06036738306283951, 0.10657155513763428, -0.5854978561401367, -0.07968514412641525, 0.3187723457813263, 0.17018359899520874, -0.033907223492860794, -0.18069608509540558, 0.1872134953737259, 0.23711466789245605, -0.3296124339103699, 0.19472616910934448, 0.1062309518456459, -0.3356921970844269, -0.4055006206035614, 0.06062609702348709, 0.4689423739910126, -0.21142098307609558, -0.21397005021572113, -0.28367194533348083, -0.17103320360183716, -0.1043229028582573, 0.02238098904490471, -0.013785285875201225, 0.30922845005989075, -0.5121713876724243, 0.6775106191635132, 0.1326027661561966, -0.3398081660270691, 0.23432612419128418, 0.4021521508693695, 0.40794867277145386, -0.14142733812332153, -0.11095473915338516, 0.23862425982952118, -0.27923622727394104, 0.10234266519546509, 0.5983254909515381, 0.5259565114974976, -0.012102211825549603, 0.047234516590833664, -0.08568015694618225, 0.05376989394426346, 0.06948614865541458, 0.37935036420822144, 0.5603366494178772, -0.15872611105442047, 0.5264380574226379, -0.07151462137699127, -0.10273484885692596, -0.03053007461130619, -0.12439607828855515, -0.09600924700498581, 0.47294187545776367, 0.09817072004079819, 0.08531014621257782, 0.012411938048899174, -0.157148540019989, -0.20641319453716278, 0.08085063844919205, 0.24671682715415955, -0.23225176334381104, 0.03297088295221329, 0.05912768095731735, -0.11012227833271027, 0.20504969358444214, 0.017896616831421852, 0.13667137920856476, 0.04838651791214943, 0.3431819677352905, 0.22066736221313477, -0.16582420468330383, 0.4914928674697876, -0.010215109214186668, 0.037698592990636826, -0.1434507519006729, 0.19831490516662598, 0.0639750137925148, 0.0808044970035553, -0.022816915065050125, -0.3523414134979248, -0.10455384850502014, -0.22417640686035156, -0.008563872426748276, -0.2566051185131073, -0.012938921339809895, 0.21991465985774994, -0.2800959348678589, 0.20723825693130493, -0.10560841113328934, -0.10134962946176529, -0.14439424872398376, -0.08599194139242172, 0.416372150182724, 0.07038342207670212, -0.027318447828292847, -0.09272438287734985, 0.16966402530670166, 0.06403132528066635, 0.07313863933086395, -0.011591845192015171, 0.011433386243879795, -0.26685118675231934, -0.03836999461054802, 0.356527179479599, 0.16735368967056274, 0.0688362643122673, -0.23761798441410065, -0.3243173658847809, -0.20242556929588318, -0.18381552398204803, -0.42352235317230225, -0.055406104773283005, -0.2885012924671173, -0.04707616567611694, -0.12619709968566895, 0.16336216032505035, 0.20704790949821472, 0.10399412363767624, -0.1864997297525406, -0.07965212315320969, -0.10619208216667175, 0.10919344425201416, -0.01857631281018257, 0.5168902277946472, 0.19137105345726013, 0.0014001117087900639, -0.037142690271139145, -0.08997175097465515, -0.14272207021713257, -0.3287653923034668, 0.45106691122055054, -0.005624628160148859, -0.25091856718063354], [-0.0893799439072609, -0.25616079568862915, -0.1381128579378128, -0.07958247512578964, -0.1590641885995865, 0.2510029077529907, 0.07673925906419754, 0.0857066735625267, -0.16513484716415405, -0.12979313731193542, 0.24562959372997284, -0.36025553941726685, 0.3400675356388092, 0.1921997219324112, 0.08475161343812943, -0.04986897110939026, -0.09970582276582718, -0.08418682962656021, 0.020600706338882446, -0.1649453043937683, 0.0006672509480267763, -0.04490773752331734, 0.1913798302412033, 0.12928029894828796, 0.3434305191040039, 0.6808241009712219, -0.25268232822418213, -0.146032452583313, 0.24921414256095886, -0.041871581226587296, -0.051455527544021606, 0.19301775097846985, -0.15135256946086884, -0.15454567968845367, 0.2538556456565857, 0.3806374967098236, -0.05752363055944443, 0.04180561751127243, 0.4140312969684601, 0.21770650148391724, 0.17016084492206573, 0.4171915352344513, -0.037482619285583496, -0.25502270460128784, 0.15287229418754578, 0.1106908917427063, -0.2148364782333374, -0.021162139251828194, -0.16335275769233704, 0.14623728394508362, 0.5477685332298279, -0.07970041036605835, 0.23247991502285004, -0.028633348643779755, -0.08636221289634705, 0.22368350625038147, 0.02804555930197239, 0.08229347318410873, 0.2245190441608429, 0.028119802474975586, -0.2181277722120285, -0.20470793545246124, -0.05333023890852928, -0.2607605457305908, 0.3887802064418793, -0.06223234534263611, -0.04465950280427933, -0.6680514812469482, 0.1471075564622879, -0.03435163199901581, 0.6118760704994202, 0.03342325985431671, 0.23538801074028015, 0.10539032518863678, 0.0728401467204094, -0.17420579493045807, 0.26269814372062683, 0.14800713956356049, -0.35261020064353943, 0.2442150115966797, -0.23579663038253784, 0.05506256967782974, 0.41764575242996216, -0.1246354803442955, 0.45210421085357666, -0.03511881083250046, -0.22021879255771637, 0.3199326694011688, 0.1403772085905075, 0.10374898463487625, 0.5165864825248718, 0.15904223918914795, 0.06495495140552521, 0.12807507812976837, 0.08006266504526138, 0.055511705577373505, 0.2173708826303482, -0.19028021395206451, 0.22332638502120972, 0.15587927401065826, 0.10026917606592178, -0.11493149399757385, 0.45863792300224304, 0.07010281085968018, 0.0626353994011879, 0.5497094988822937, -0.4447365999221802, -0.08295410871505737, -0.14699068665504456, 0.21954403817653656, 0.22373293340206146, -0.0743216797709465, -0.12729912996292114, -0.17926880717277527, 0.06021534651517868, -0.4931058883666992, -0.21624763309955597, -0.017748059704899788, -0.2620648443698883, -0.1850292980670929, -0.03645222261548042, 0.30893421173095703, -0.39822784066200256, 0.08961746096611023, 0.0287573654204607, -0.17076487839221954, 0.34211623668670654, -0.13229887187480927, -0.10543868690729141, 0.11576104164123535, 0.6070271134376526, 0.09747807681560516, -0.21939608454704285, 0.34661611914634705, -0.24145226180553436, 0.3935597836971283, 0.49388545751571655, 0.22730599343776703, -0.09868001192808151, -0.6264254450798035, -0.12186426669359207, -0.14575538039207458, -0.09402988851070404, -0.09744862467050552, -0.2137768268585205, -0.13865926861763, -0.034641657024621964, 0.5737646818161011, 0.12615731358528137, -0.018794389441609383, -0.036688972264528275, 0.1921042650938034, -0.15708909928798676, 0.08101840317249298, 0.4110009968280792, 0.012554979883134365, -0.05390670523047447, -0.26186585426330566, -0.14085707068443298, -0.08390320837497711, 0.031623031944036484, -0.2217859923839569, -0.0010041743516921997, -0.408760666847229, 0.2078694850206375, -0.08106090873479843, 0.3838292956352234, -0.3268677890300751, -0.2901936173439026, 0.2619924545288086, 0.11987490206956863, -0.012856422923505306, -0.23322288691997528, 0.17660030722618103, -0.0287602711468935, 0.1863277703523636, 0.3859370946884155, -0.25266048312187195, 0.2799740135669708, -0.2988986074924469, 0.18270957469940186, -0.0036466543097049, 0.192236989736557, -0.054688312113285065, 0.4618707001209259, -0.06815662980079651, 0.22858355939388275, -0.44721198081970215, 0.18585526943206787, -0.2151309996843338, -0.15411615371704102, -0.23181277513504028, -0.2765624523162842, 0.06433617323637009, 0.010840971022844315, 0.09421905130147934, -0.18022625148296356, 0.12964016199111938, -0.1360793560743332, -0.09560089558362961, -0.17297391593456268, -0.13161680102348328, 0.1362709254026413, 0.1491374373435974, 0.12393492460250854, 0.19704221189022064, 0.005928779020905495, -0.09875043481588364, 0.12336841225624084, -0.4038386046886444, -0.2579570412635803, -0.07203909754753113, 0.17383083701133728, -0.01221818383783102, 0.5468951463699341, -0.3032776415348053, 0.20995782315731049, 0.23410937190055847, 0.006950912065804005, 0.10237614065408707, 0.27963787317276, 0.5770490169525146, -0.2482006847858429, 0.33831900358200073, 0.335838258266449, -0.0176764614880085, -0.15208876132965088, 0.1159258633852005, -0.1013883724808693, -0.040721289813518524, -0.17759226262569427, 0.4422173500061035, -0.2958453595638275, 0.15741172432899475, 0.0840112492442131, 0.23111070692539215, -0.6492668390274048, -0.26127347350120544, 0.21229490637779236, 0.28212401270866394, -0.07716111093759537, 0.0914245992898941, 0.05898226425051689, -0.08900715410709381, -0.20469871163368225, -0.10260631144046783, -0.1342357099056244, -0.14708773791790009, -0.029200635850429535, 0.11585275083780289, 0.185791015625, 0.09799802303314209, -0.192668154835701, 0.027010522782802582, -0.12007659673690796, 0.10500192642211914], [0.15124136209487915, -0.0950922816991806, 0.3286797106266022, 0.5271309018135071, 0.34037455916404724, -0.08089025318622589, -0.2799062430858612, 0.41368260979652405, 0.3579345643520355, 0.14952202141284943, 0.04381510242819786, -0.13638204336166382, 0.31269246339797974, 0.06651072949171066, 0.07126215845346451, 0.2728077173233032, 0.0675625428557396, 0.1700168401002884, 0.5566556453704834, -0.2727839946746826, 0.38014379143714905, -0.41043198108673096, 0.28091925382614136, -0.4519304037094116, -0.10512293875217438, 0.2427312135696411, -0.2960653603076935, -0.08892031759023666, -0.19832436740398407, 0.2690400183200836, -0.034629568457603455, -0.36533322930336, -0.2651287019252777, -0.5359538197517395, 0.09786748141050339, 0.32981544733047485, -0.411144495010376, 0.23336417973041534, -0.4087694585323334, 0.15509678423404694, 0.24364013969898224, -0.1106577143073082, 0.27928799390792847, -0.045418404042720795, 0.2758733332157135, 0.001175637124106288, 0.47709721326828003, -0.2900584638118744, -0.282605916261673, 0.23504190146923065, 0.030535118654370308, -0.20046231150627136, 0.1499854028224945, 0.09098419547080994, 0.4886907935142517, -0.10280540585517883, -0.3539138436317444, -0.26411500573158264, 0.07759634405374527, -0.14410345256328583, -0.20808859169483185, 0.05762003734707832, 0.17566382884979248, -0.13570290803909302, 0.11416842043399811, 0.3952769637107849, -0.08780656009912491, 0.4045136272907257, -0.283610075712204, -0.3310190439224243, -0.12451212108135223, 0.01099385879933834, -0.051603056490421295, 0.05656878277659416, -0.3644139766693115, 0.2548618018627167, 0.5826865434646606, -0.0347120575606823, 0.06322802603244781, -0.33659425377845764, -0.2895660996437073, 0.04969345033168793, -0.4683586359024048, 0.04045170918107033, -0.14048294723033905, 0.03353644162416458, -0.015622338280081749, 0.5259235501289368, -0.0352037213742733, -0.12223542481660843, 0.28835394978523254, -0.2468940019607544, -0.19720742106437683, 0.23598243296146393, -0.4016759991645813, 0.1857811063528061, -0.0951090082526207, 0.08091199398040771, 0.0384712778031826, 0.44989851117134094, -0.016916396096348763, -0.29230397939682007, 0.02471116930246353, -0.11671584099531174, 0.2426929473876953, 0.25636032223701477, 0.27566760778427124, -0.06076798215508461, -0.3756747841835022, 0.7022051811218262, 0.34677186608314514, 0.04702620208263397, 0.017071107402443886, -0.3476538360118866, 0.4046466648578644, 0.17534689605236053, -0.011005683802068233, -0.5628889203071594, 0.0916074588894844, -0.0337875634431839, -0.20457899570465088, 0.16388815641403198, 0.20678451657295227, -0.3217337131500244, -0.014027420431375504, -0.050033506006002426, 0.38921183347702026, 0.19179202616214752, 0.3456331789493561, 0.12965625524520874, 0.11399368196725845, -0.37575846910476685, 0.1575794517993927, 0.20135580003261566, -0.06473315507173538, -0.2496010810136795, -0.22884608805179596, -0.010463586077094078, -0.131058469414711, -0.16494347155094147, 0.22815147042274475, 0.199246346950531, -0.1918957382440567, 0.1316131353378296, 0.4554653465747833, 0.029084578156471252, 0.18226473033428192, 0.046280503273010254, 0.27054619789123535, 0.22117485105991364, -0.19971245527267456, 0.14797019958496094, 0.12441834062337875, -0.24816575646400452, 0.12799495458602905, -0.17725495994091034, 0.005148329306393862, -0.060141853988170624, 0.18926741182804108, 0.07999126613140106, -0.009065359830856323, 0.4117707312107086, 0.38278546929359436, 0.08355377614498138, -0.21238216757774353, -0.33548060059547424, -0.12024911493062973, -0.061176348477602005, -0.26479145884513855, -0.2658565640449524, -0.27904045581817627, 0.16914941370487213, -0.03831515461206436, 0.21318431198596954, -0.059795960783958435, 0.3240968585014343, 0.33160293102264404, 0.18809494376182556, -0.03835391625761986, 0.6919983625411987, 0.1039365902543068, 0.00036530906800180674, -0.356526255607605, 0.016414791345596313, -0.08909907937049866, -0.07781460136175156, 0.40670934319496155, 0.2898077964782715, 0.4822545647621155, 0.3130987882614136, 0.21096540987491608, 0.1271033138036728, -0.13148832321166992, 0.4192608892917633, 0.0026534651406109333, -0.07616452872753143, 0.2738949656486511, 0.21773980557918549, -0.36299723386764526, -0.06436382234096527, -0.04814521223306656, 0.47016653418540955, -0.11288892477750778, -0.33835458755493164, -0.06681201606988907, 0.3795633614063263, -0.045768238604068756, 0.1860680729150772, 0.37981724739074707, -0.1652902513742447, 0.2997867465019226, -0.17345327138900757, -0.22650352120399475, -0.08083273470401764, 0.21568486094474792, 0.24608369171619415, -0.027300911024212837, -0.12414776533842087, 0.41473129391670227, -0.07707683742046356, -0.24320976436138153, -0.09653772413730621, -0.11360979080200195, -0.012380213476717472, 0.09269654005765915, 0.27483007311820984, -0.17698460817337036, -0.05116325244307518, 0.2870975136756897, 0.08677147328853607, -0.06244862824678421, -0.29530784487724304, 0.31853875517845154, 0.06362029910087585, 0.11304396390914917, -0.185760959982872, 0.2759079337120056, -0.09727529436349869, -0.16196684539318085, -0.023451438173651695, 0.1312040388584137, 0.051356296986341476, 0.053136128932237625, 0.4901925325393677, 0.08426389843225479, -0.42153605818748474, 0.0648249089717865, 0.06406883895397186, -0.21825048327445984, -0.1509876698255539, 0.06509245932102203, -0.27579236030578613, 0.024830808863043785, -0.2988113760948181, 0.4637012779712677, 0.1228921115398407], [-0.19368599355220795, -0.1684751659631729, 0.1691880077123642, -0.22346587479114532, -0.628376841545105, -0.6042786836624146, -0.0707438737154007, 0.038355711847543716, 0.004929684102535248, 0.006536327768117189, -0.07355862855911255, -0.10186652094125748, -0.2870703935623169, 0.010693865828216076, 0.17304925620555878, -0.14835354685783386, -0.07560868561267853, -0.10509929060935974, 0.2930412292480469, -0.02185746468603611, 0.3080509305000305, 0.024968715384602547, -0.27658963203430176, 0.08493342250585556, -0.3364843726158142, -0.20638121664524078, -0.07191142439842224, 0.14986459910869598, 0.08946099132299423, -0.35259684920310974, -0.16304586827754974, -0.3091052770614624, -0.27348652482032776, -0.4659014642238617, -0.1440342664718628, -0.19154608249664307, 0.3896346688270569, 0.14452238380908966, 0.30199965834617615, -0.3795947730541229, 0.1520879864692688, 0.6286979913711548, 0.056749723851680756, -0.47360876202583313, 0.231084942817688, 0.07099190354347229, 0.1347990185022354, -0.1319921761751175, -0.04277051240205765, -0.19255299866199493, -0.08559886366128922, 0.07537157088518143, -0.039907440543174744, -0.001885420409962535, 0.22456741333007812, -0.18016061186790466, 0.1876736730337143, -0.14572511613368988, 0.257866770029068, 0.1176844909787178, 0.041682157665491104, -0.11575596779584885, -0.055253803730010986, -0.14334337413311005, 0.030539825558662415, 0.3032500743865967, -0.23049359023571014, -0.027288591489195824, -0.07806873321533203, -0.4703591465950012, 0.061972733587026596, -0.3586197793483734, 0.2711562216281891, -0.1440822184085846, 0.06663777679204941, 0.19929052889347076, -0.06631811708211899, 0.10277136415243149, 0.12987111508846283, 0.3013150095939636, -0.3117963671684265, -0.07160261273384094, 0.03821398690342903, 0.01808059588074684, -0.317613810300827, -0.0669543445110321, -0.06971500813961029, -0.22935381531715393, -0.12647195160388947, 0.21409231424331665, 0.15450672805309296, -0.17180165648460388, 0.12750545144081116, -0.1582392007112503, -0.0580902136862278, -0.1123829111456871, 0.2488614320755005, 0.4906233251094818, -0.010661791078746319, 0.19273827970027924, -0.2718539535999298, 0.06885738670825958, 0.23113341629505157, 0.11320363730192184, -0.18201018869876862, -0.1436420977115631, 0.1475295126438141, 0.05468263104557991, 0.09849955886602402, -0.20982769131660461, 0.039202429354190826, -0.11259264498949051, 0.017524011433124542, -0.09047134220600128, 0.041436903178691864, 0.14324402809143066, -0.19767579436302185, 0.09547500312328339, 0.200416699051857, -0.19383952021598816, -0.021900778636336327, -0.16335608065128326, -0.029934169724583626, 0.11143249273300171, -0.15770472586154938, 0.2606794238090515, 0.17123781144618988, 0.14010590314865112, -0.3708219528198242, 0.10665830224752426, 0.11926083266735077, 0.3330729007720947, 0.3455870747566223, -0.20797540247440338, 0.5422259569168091, -0.13774849474430084, 0.020598337054252625, 0.09602587670087814, -0.24687880277633667, 0.06295164674520493, 0.1580236703157425, -0.21618632972240448, -0.6152709722518921, -0.009099392220377922, 0.11766161769628525, 0.2106185257434845, -0.1776621788740158, -0.3051702082157135, -0.5630610585212708, -0.13347986340522766, 0.1624351441860199, 0.43012160062789917, -0.07213303446769714, -0.21900568902492523, 0.022810103371739388, 0.23244063556194305, -0.03333129361271858, 0.14062640070915222, -0.18543848395347595, 0.28726381063461304, -0.014518536627292633, -0.00024266712716780603, 0.307466983795166, 0.12881386280059814, 0.4052157998085022, 0.2724548280239105, 0.025040432810783386, 0.04067332670092583, 0.1390516608953476, -0.2087942510843277, -0.2750777006149292, 0.37876325845718384, 0.34357890486717224, -0.22030025720596313, -0.429500937461853, -0.3103647232055664, 0.10671120882034302, -0.12500077486038208, -0.18055690824985504, 0.09341105818748474, -0.04043435677886009, 0.3311672508716583, 0.13028426468372345, -0.02409190684556961, 0.2551301121711731, 0.298091858625412, 0.16111774742603302, -0.514432430267334, -0.1756838709115982, -0.06819498538970947, 0.2784237861633301, -0.14365874230861664, 0.28771859407424927, -0.26338765025138855, -0.2254142463207245, -0.07762543857097626, -0.1135624349117279, -0.07585468143224716, 0.07655501365661621, 0.2288246601819992, -0.09589195996522903, 0.1342218965291977, -0.2095337212085724, -0.4789751470088959, -0.24185122549533844, 0.5544004440307617, -0.28222915530204773, -0.3127861022949219, -0.12174240499734879, 0.30154240131378174, 0.04175819084048271, -0.21436573565006256, 0.21323363482952118, -0.36798200011253357, -0.3143373727798462, 0.15507206320762634, 0.08110332489013672, -0.11786962300539017, 0.3069906234741211, 0.13825564086437225, -0.34076234698295593, -0.5648804306983948, 0.09443610161542892, 0.4657303988933563, 0.13164331018924713, -0.2987360656261444, -0.30156975984573364, 0.08690578490495682, 0.1387152075767517, 0.026447037234902382, 0.18153466284275055, 0.0017648404464125633, -0.10682950168848038, -0.3429238796234131, -0.21902045607566833, -0.048859402537345886, -0.16168312728405, 0.17529727518558502, -0.4147266745567322, 0.45200875401496887, 0.16371138393878937, 0.20493267476558685, 0.026541125029325485, 0.23914740979671478, -0.01650967262685299, 0.007402433082461357, 0.06424672156572342, -0.1703711599111557, -0.043039385229349136, -0.3027285039424896, -0.04775623232126236, -0.06680534034967422, 0.2881849706172943, -0.044040482491254807, -0.38656744360923767, -0.054544828832149506], [0.4610500633716583, 0.016346368938684464, 0.013107801787555218, 0.23082852363586426, 0.23493742942810059, 0.30866488814353943, -0.11195719987154007, -0.3943198025226593, -0.48410314321517944, -0.1076992005109787, 0.05139456316828728, -0.8103882074356079, 0.384634792804718, 0.044602733105421066, 0.23386596143245697, -0.15318500995635986, -0.08636686205863953, -0.15550832450389862, 0.08675489574670792, -0.10123191028833389, 0.061726443469524384, 0.35795116424560547, -0.11245163530111313, 0.014510293491184711, -0.18052241206169128, -0.46073198318481445, 0.003054463304579258, 0.14169608056545258, -0.09427350014448166, -0.015969999134540558, -0.004198472015559673, 0.3384486138820648, -0.11711490154266357, 0.17702409625053406, -0.06214573234319687, -0.40153056383132935, 0.11027345806360245, 0.4433356523513794, 0.11760864406824112, 0.22269365191459656, 0.5381319522857666, -0.043316349387168884, 0.22968371212482452, 0.07358665019273758, 0.16005320847034454, 0.19596830010414124, 0.3382822573184967, -0.23597967624664307, -0.2381199449300766, -0.2932571768760681, -0.36353304982185364, 0.11679515242576599, -0.04555903747677803, 0.1362803727388382, 0.0323089063167572, -0.37825581431388855, -0.40099668502807617, 0.7142201662063599, -0.13978011906147003, -0.13302132487297058, 0.17842744290828705, -0.026355037465691566, -0.3369145393371582, 0.050780415534973145, 0.21150311827659607, -0.08022230118513107, 0.010130993090569973, -0.36378300189971924, -0.5564103722572327, 0.0032580941915512085, -0.4030084013938904, -0.3034519553184509, 0.0053291828371584415, -0.20142123103141785, -0.2958839237689972, 0.45622336864471436, 0.013475429266691208, 0.35178953409194946, 0.05737825110554695, -0.16600367426872253, 0.24075087904930115, 0.022466003894805908, -0.13503937423229218, 0.6732606887817383, -0.33884701132774353, 0.21419262886047363, 0.2514220178127289, 0.13330933451652527, -0.12815649807453156, 0.41258561611175537, -0.26506131887435913, -0.21694737672805786, -0.1703851968050003, 0.040267374366521835, 0.14335085451602936, 0.025111131370067596, 0.17422150075435638, 0.37797147035598755, -0.05669495835900307, -0.046299729496240616, 0.16160567104816437, 0.15327930450439453, -0.08396632224321365, 0.08161234855651855, 0.08907900750637054, 0.24110746383666992, 0.027011219412088394, -0.28249773383140564, -0.08188525587320328, 0.008213563822209835, 0.26701268553733826, 0.39156198501586914, 0.006958560552448034, 0.09065214544534683, -0.1651529222726822, -0.15191027522087097, -0.6659154295921326, -0.13807548582553864, -0.5964494347572327, 0.7322971224784851, -0.05079350620508194, 0.15916995704174042, 0.080787293612957, 0.202806755900383, 0.09528850764036179, 0.16935455799102783, 0.02883538044989109, -0.43173840641975403, 0.38149648904800415, -0.3026851415634155, -0.05494221672415733, 0.1647091954946518, 0.1416546255350113, 0.4203331470489502, 0.14554788172245026, 0.1457403600215912, -0.23262488842010498, 0.04847465083003044, 0.06331222504377365, -0.06636334210634232, -0.07044859230518341, 0.0682486817240715, 0.34378406405448914, 0.4733957052230835, 0.12831911444664001, 0.023913832381367683, 0.00018460214778315276, -0.198027104139328, 0.05837835371494293, 0.23191072046756744, -0.21565663814544678, 0.05953165516257286, -0.19014574587345123, -0.17707638442516327, -0.2045774906873703, -0.3404707610607147, -0.28142043948173523, -0.11562799662351608, -0.32002630829811096, -0.11461230367422104, -0.12355419248342514, 0.48500245809555054, 0.12918110191822052, 0.05585293471813202, -0.014143078587949276, -0.019737960770726204, 0.027076972648501396, -0.007933302782475948, 0.0550881065428257, 0.06753883510828018, 0.2525537312030792, -0.15946288406848907, -0.33648619055747986, -0.1997886449098587, -0.162942036986351, 0.2663270831108093, -0.19960424304008484, -0.07580161839723587, -0.30851253867149353, 0.09216028451919556, -0.2716754674911499, -0.09393031895160675, -0.43341031670570374, 0.08529235422611237, -0.04851474240422249, 0.20081757009029388, 0.19564129412174225, 0.21947376430034637, 0.08159703761339188, 0.1251806616783142, 0.043845102190971375, 0.16928520798683167, -0.3521488904953003, -0.10634567588567734, 0.18961283564567566, 0.0858863964676857, -0.10777086764574051, 0.39866697788238525, -0.038478635251522064, -0.30004820227622986, -0.0065496633760631084, -0.10703935474157333, -0.03891967982053757, -0.17835041880607605, -0.23430296778678894, -0.05036837235093117, 0.10842153429985046, 0.06996681541204453, -0.44494184851646423, 0.019078871235251427, 0.29959386587142944, -0.05640663206577301, -0.08863092958927155, 0.1197836846113205, -0.04058230295777321, 0.0880003273487091, -0.24811279773712158, 0.1536119133234024, -0.022263355553150177, -0.02295117825269699, 0.09379301965236664, 0.04298948869109154, -0.03604961186647415, 0.3741026818752289, -0.13135184347629547, -0.2270936816930771, 0.17914144694805145, -0.26320746541023254, -0.2229272425174713, -0.4979120194911957, 0.046192288398742676, 0.35881564021110535, 0.5765401721000671, 0.12659285962581635, 0.005735081620514393, 0.1273391842842102, 0.38763323426246643, -0.05403585731983185, 0.13671743869781494, -0.28372740745544434, 0.010226762853562832, 0.008543281815946102, -0.01717534102499485, 0.06115904822945595, 0.26999619603157043, -0.07979024201631546, -0.5806798934936523, 0.19067896902561188, 0.10670597106218338, 0.09661514312028885, -0.24581469595432281, 0.13600434362888336, -0.06231748312711716, -0.07670019567012787, 0.11213736236095428, -0.011806792579591274], [-0.1330694556236267, -0.19075454771518707, -0.11712244153022766, -0.1310398280620575, 0.3281271755695343, -0.04095246270298958, -0.00223738607019186, -0.5120748281478882, -0.046303827315568924, 0.22136428952217102, -0.42067763209342957, -0.0751383975148201, 0.11861581355333328, -0.020756356418132782, -0.07628851383924484, -0.28850123286247253, 0.15743684768676758, -0.4228667616844177, -0.21973463892936707, 0.27000167965888977, -0.25123539566993713, 0.310133695602417, 0.20826157927513123, -0.16857431828975677, 0.2594492733478546, 0.05140369012951851, -0.20536325871944427, 0.05634913593530655, -0.344984769821167, -0.02781985141336918, -0.21402227878570557, -0.12859268486499786, 0.3256865441799164, -0.18257202208042145, 0.06092163175344467, 0.004037569276988506, -0.057151664048433304, 0.23716142773628235, 0.05180567130446434, -0.3786270320415497, -0.04738835617899895, 0.07231932878494263, -0.15546105802059174, 0.030009640380740166, -0.4071429669857025, 0.05685904994606972, -0.017914630472660065, -0.30110523104667664, -0.09494505822658539, 0.058244604617357254, 0.05379119887948036, -0.006939129903912544, -0.0035222668666392565, 0.10880142450332642, 0.2331126481294632, -0.12767404317855835, 0.24615821242332458, -0.3886686861515045, 0.4134763479232788, 0.49591049551963806, -0.3162599503993988, 0.07834761589765549, 0.35650360584259033, 0.41061317920684814, -0.2218724489212036, 0.10728894174098969, -0.24439285695552826, -0.3302554488182068, 0.3010101020336151, -0.0716562569141388, 0.09586767852306366, 0.2254011034965515, -0.16356882452964783, -0.06692445278167725, 0.5161567330360413, -0.33477047085762024, -0.29971757531166077, 0.1294088065624237, 0.1949804425239563, 0.11034657806158066, -0.2478342354297638, -0.11691118776798248, 0.5613368153572083, 0.08257309347391129, 0.17343904078006744, -0.04582853987812996, 0.16999317705631256, 0.0061487737111747265, 0.18967953324317932, 0.26339030265808105, 0.3591119349002838, 0.13759200274944305, 0.35773512721061707, -0.2216992974281311, -0.12009886652231216, 0.008193747140467167, -0.030432837083935738, -0.10190137475728989, 0.20079867541790009, 0.10490099340677261, 0.07979924231767654, -0.1756080985069275, 0.3342989385128021, 0.049681901931762695, -0.5197951793670654, -0.18256200850009918, -0.15056867897510529, 0.5365622639656067, -0.014920216053724289, -0.07426130026578903, 0.40306857228279114, -0.030339008197188377, 0.24007932841777802, 0.20983129739761353, -0.44485729932785034, 0.13587266206741333, 0.11287572234869003, -0.053195398300886154, -0.13378043472766876, 0.10524995625019073, -0.34624072909355164, 0.1668812334537506, 0.06003551185131073, 0.15759709477424622, 0.11523893475532532, 0.22312749922275543, 0.36157119274139404, 0.15450817346572876, -0.20209316909313202, -0.33718425035476685, -0.7703179121017456, 0.07495246082544327, -0.23814120888710022, 0.0349140428006649, 0.04467211291193962, -0.1163037121295929, 0.11191339790821075, 0.11833123117685318, -0.02409149333834648, 0.002664940431714058, -0.19911304116249084, -0.16643399000167847, 0.015021072700619698, 0.05424150452017784, -0.18363197147846222, -0.17034286260604858, 0.14372502267360687, 0.2455436736345291, -0.045486271381378174, 0.16225239634513855, 0.11555668711662292, 0.4778018891811371, 0.16504211723804474, -0.29325392842292786, 0.15479381382465363, 0.4679069221019745, -0.06170251965522766, 0.10318855196237564, 0.20138081908226013, 0.5272111892700195, -0.6810513734817505, -0.15000997483730316, -0.058923348784446716, -0.2296135425567627, 0.05509069934487343, -0.22012391686439514, -0.023286404088139534, 0.12681446969509125, 0.0003336334484629333, 0.05037106201052666, -0.05926235765218735, -0.17228978872299194, -0.0019170694286003709, 0.213012233376503, 0.036047689616680145, 0.3081124424934387, -0.058856330811977386, -0.2098418027162552, 0.14031921327114105, -0.15134932100772858, 0.27763426303863525, 0.1447714865207672, 0.07470617443323135, 0.10052571445703506, -0.3167066276073456, -0.2624916434288025, 0.3403685688972473, 0.3284112811088562, -0.10279715061187744, 0.10709170252084732, -0.10341031104326248, -0.21859340369701385, 0.12909992039203644, -0.0894564762711525, -0.2514006495475769, 0.06236506998538971, 0.06781095266342163, -0.2510089874267578, -0.24444280564785004, 0.23184098303318024, 0.0020073195919394493, 0.2191697508096695, 0.34224221110343933, -0.04111267253756523, -0.023814918473362923, 0.05073488876223564, 0.6617901921272278, -0.03204459324479103, -0.39943400025367737, 0.1563422977924347, -0.09438231587409973, -0.18828149139881134, 0.039716050028800964, -0.33191996812820435, -0.16913959383964539, -0.1940922737121582, 0.45818471908569336, 0.22551295161247253, 0.11083760857582092, -0.45829957723617554, 0.36762890219688416, -0.15241365134716034, 0.1658029705286026, -0.16655628383159637, 0.05648164078593254, -0.004374073352664709, 0.11337249726057053, 0.2567915618419647, 0.21210910379886627, 0.14825351536273956, 0.01140111405402422, 0.13080401718616486, -0.005616400390863419, 0.1044190526008606, 0.021841177716851234, -0.004062299616634846, -0.11018054932355881, -0.024608636274933815, 0.29093655943870544, -0.05819135904312134, 0.02107636071741581, 0.4380577802658081, 0.3624758720397949, 0.12342436611652374, 0.06398152559995651, 0.2392943799495697, 0.066661536693573, 0.15595793724060059, 0.009401021525263786, 0.14918825030326843, 0.019817546010017395, -0.11842712759971619, -0.12607869505882263, -0.040792256593704224, 0.10420434921979904, -0.14106892049312592], [0.36998099088668823, 0.060273218899965286, 0.059475041925907135, 0.11038017272949219, -0.36115285754203796, -0.041823696345090866, 0.0068457964807748795, -0.2903088331222534, 0.42980679869651794, 0.015340132638812065, -0.06475497037172318, -0.09351618587970734, 0.05247703567147255, -0.08250626921653748, 0.6362591981887817, 0.12185724824666977, 0.36250296235084534, -0.0862552747130394, -0.20774826407432556, -0.061517104506492615, -0.05634554475545883, -0.401558518409729, 0.20720705389976501, -0.19117875397205353, 0.020228778943419456, 0.39198189973831177, 0.00596874812617898, -0.3759607970714569, 0.2740589678287506, 0.09620978683233261, -0.049710918217897415, 0.7968353033065796, -0.2392576038837433, 0.5513087511062622, -0.01650465838611126, -0.612680196762085, -0.23897577822208405, 0.5940018892288208, 0.0003454097895883024, 0.1624404937028885, -0.3092172145843506, -0.7624582052230835, -0.32981178164482117, -0.21224258840084076, 0.32277804613113403, 0.2968003451824188, 0.05308075249195099, 0.04334576055407524, -0.13759000599384308, -0.307218462228775, -0.36282265186309814, -0.01959235407412052, 0.5716367363929749, -0.1329796016216278, 0.4390615224838257, -0.41399896144866943, -0.45484867691993713, 0.03901772201061249, 0.15339164435863495, -0.009142608381807804, 0.014449006877839565, -0.26889511942863464, -0.1278233528137207, 0.030025683343410492, -0.02789294719696045, 0.05293521657586098, 0.23152613639831543, -0.10173758119344711, -0.3781958818435669, 0.2640601396560669, 0.5664058923721313, 0.5845544338226318, 0.022223394364118576, 0.17863433063030243, 0.10392767190933228, -0.23979806900024414, 0.0982627347111702, -0.2416287064552307, -0.001696938881650567, -0.17613160610198975, 0.2484906166791916, -0.0061002131551504135, 0.3175034821033478, 0.2548958361148834, 0.22295469045639038, 0.3413460850715637, 0.40910688042640686, -0.0979929268360138, -0.10897234082221985, 0.05312418192625046, 0.04499657452106476, -0.23091845214366913, 0.08971145749092102, -0.3361068069934845, 0.0804976224899292, -0.3259533941745758, 0.05107743665575981, 0.30305707454681396, 0.06463880836963654, -0.24491342902183533, -0.12905597686767578, 0.012839245609939098, 0.15708836913108826, -0.182917058467865, -0.04817311465740204, 0.26084184646606445, 0.02110658586025238, -0.12818412482738495, -0.39126259088516235, -0.1406061202287674, 0.22306515276432037, -0.0854557603597641, 0.06126992031931877, 0.0775475800037384, -0.1764983832836151, -0.03435266762971878, 0.04664235562086105, -0.14317044615745544, 0.01471769344061613, -0.3461289405822754, 0.1385597139596939, -0.4327206313610077, -0.05852998420596123, 0.4871966242790222, 0.4507301449775696, -0.169220969080925, -0.3139209449291229, 0.20119743049144745, 0.3263883888721466, -0.14362284541130066, 0.22757840156555176, 0.069948710501194, 0.24842283129692078, 0.3086751103401184, 0.0551486611366272, -0.06585489958524704, 0.3502558171749115, -0.28170540928840637, -0.09561231732368469, -0.3120114803314209, 0.23156999051570892, 0.2626051604747772, 0.1481846123933792, 0.22958524525165558, -0.1049574613571167, -0.20116235315799713, -0.18604129552841187, 0.22401446104049683, -0.40159547328948975, -0.11907286196947098, -0.18526029586791992, -0.04992605373263359, -0.019615229219198227, 0.27140527963638306, 0.16950911283493042, -0.2846754789352417, 0.22263166308403015, -0.20972807705402374, 0.11207889020442963, -0.38871681690216064, -0.1412031501531601, -0.03349197283387184, 0.08902616798877716, 0.05845431610941887, -0.15527236461639404, 0.276210755109787, -0.5453339219093323, 0.16216477751731873, -0.2022600620985031, -0.17938917875289917, -0.1523100584745407, 0.07490360736846924, 0.6294219493865967, 0.2047639638185501, -0.14525850117206573, -0.26245179772377014, -0.2726612985134125, 0.3701516389846802, -0.16333314776420593, 0.12427687644958496, -0.18000461161136627, 0.12278696149587631, 0.08609108626842499, 0.058609023690223694, -0.044971756637096405, -0.07026221603155136, -0.34816887974739075, -0.23596711456775665, -0.1599845141172409, -0.2737051248550415, -0.3631703853607178, -0.28391072154045105, -0.1289922297000885, -0.3192620277404785, -0.10353372991085052, -0.2525221109390259, 0.12555909156799316, -0.10574086755514145, 0.01443436462432146, 0.11259038001298904, -0.2594440281391144, -0.0254810880869627, 0.3245057165622711, -0.38467779755592346, 0.15619438886642456, -0.185820072889328, 0.29905977845191956, 0.07587049156427383, -0.2852369546890259, 0.21795572340488434, 0.10630138218402863, 0.552172064781189, -0.18649867177009583, 0.3027362823486328, 0.23406438529491425, -0.06521250307559967, -0.07648369669914246, -0.2815079689025879, -0.44239571690559387, -0.00827056635171175, -0.25195029377937317, 0.603177011013031, 0.34740278124809265, -0.09760003536939621, 0.0756365954875946, -0.24653446674346924, -0.06758370995521545, 0.07923485338687897, -0.4088843762874603, -0.29036745429039, 0.003313149558380246, -0.0412343367934227, 0.08750392496585846, 0.1311229169368744, -0.40458086133003235, -0.08445976674556732, -0.04403373971581459, -0.0972491130232811, -0.25670990347862244, -0.07725700736045837, 0.3839093744754791, -0.1959168016910553, -0.2365751415491104, -0.19664126634597778, 0.0523332841694355, -0.2600557208061218, -0.21468746662139893, 0.13600076735019684, -0.018532155081629753, 0.5491156578063965, -0.08779874444007874, -0.03919438272714615, -0.15374040603637695, 0.2625933289527893, -0.1580517292022705, 0.03415809944272041], [-0.03253874182701111, -0.15087687969207764, -0.0670681893825531, -0.12747928500175476, -0.062241118401288986, -0.13819780945777893, 0.21174943447113037, -0.3874813914299011, -0.11746261268854141, 0.18019433319568634, -0.05676616355776787, -0.25820818543434143, 0.24185949563980103, -0.12218876928091049, 0.20013470947742462, -0.23559504747390747, -0.2528538107872009, 0.07085143774747849, -0.1942269653081894, 0.11859272420406342, 0.05670032650232315, -0.46211642026901245, 0.22605371475219727, -0.011333569884300232, -0.06646305322647095, -0.015584866516292095, 0.11287227272987366, -0.3704557716846466, 0.565355658531189, -0.11291269958019257, 0.18718747794628143, -0.32780084013938904, 0.03752643242478371, -0.04185864329338074, 0.011917121708393097, 0.39500194787979126, -0.31500673294067383, -0.21896153688430786, -0.08816354721784592, 0.07878024876117706, 0.45857101678848267, 0.23343972861766815, -0.3028228282928467, -0.10481162369251251, -0.2157004177570343, 0.09463110566139221, -0.16300131380558014, -0.29100582003593445, -0.1521427035331726, -0.27001193165779114, -0.007908460684120655, 0.04589860513806343, -0.29769691824913025, 0.16244032979011536, -0.08606527745723724, -0.18198780715465546, -0.035746704787015915, -0.05675923451781273, -0.004470738582313061, -0.16713294386863708, 0.1443661004304886, 0.03643108159303665, 0.017781397327780724, 0.05181972682476044, -0.029949821531772614, 0.26097312569618225, -0.15581656992435455, 0.1885695457458496, -0.09701245278120041, 0.035328034311532974, 0.09714139997959137, -0.331801176071167, 0.203487366437912, -0.24481888115406036, -0.16036854684352875, 0.13474829494953156, 0.07392727583646774, 0.12564320862293243, -0.16530561447143555, -0.06442446261644363, -0.09856290370225906, -0.11364895105361938, 0.10438504070043564, 0.09371235221624374, -0.0587809719145298, 0.13594277203083038, -0.09489209949970245, 0.2722336947917938, -0.16202972829341888, 0.4707750976085663, 0.21966838836669922, -0.09524339437484741, -0.008277744054794312, -0.1033385843038559, -0.0426742285490036, -0.1983286738395691, -0.047220971435308456, -0.04813676327466965, -0.10388360917568207, -0.18785212934017181, -0.2173362672328949, -0.19089524447917938, -0.311181902885437, -0.13347578048706055, 0.17367617785930634, -0.3684498369693756, 0.057674527168273926, 0.3648740351200104, 0.11098957061767578, -0.5271893739700317, -0.33708634972572327, -0.25817739963531494, -0.15362247824668884, -0.2736814618110657, -0.04030545800924301, -0.14309333264827728, -0.022946830838918686, 0.24654988944530487, 0.027455497533082962, 0.1829455941915512, -0.015726545825600624, -0.12609809637069702, -0.10384737700223923, 0.14166048169136047, 0.02415074035525322, -0.0009683333919383585, -0.07730849832296371, -0.1126118004322052, 0.23563435673713684, -0.15559548139572144, 0.22447846829891205, 0.3720721900463104, -0.05094475299119949, -0.1394341140985489, -0.3132525086402893, -0.11245507746934891, 0.3653385043144226, -0.35006940364837646, -0.08984392136335373, 0.26940906047821045, 0.09787710011005402, -0.31242790818214417, 0.2781280279159546, -0.24557562172412872, 0.10679881274700165, -0.2258051335811615, 0.18748560547828674, 0.06301255524158478, 0.27328285574913025, -0.2413950264453888, -0.05987696349620819, -0.050938863307237625, -0.32110095024108887, 0.08670151233673096, -0.028220850974321365, 0.0584438182413578, -0.18742769956588745, 0.23590266704559326, 0.15487639605998993, -0.003266539890319109, -0.06021646410226822, -0.0400041826069355, 0.10077078640460968, 0.09105377644300461, 0.28942596912384033, -0.4357740879058838, -0.199990913271904, 0.17603768408298492, 0.08413756638765335, 0.2855994403362274, -0.3979343771934509, -0.05339331179857254, 0.14527256786823273, 0.2069009393453598, 0.22814419865608215, 0.19614778459072113, 0.005075529217720032, -0.2078222632408142, -0.3641970455646515, 0.13652865588665009, -0.4672405421733856, -0.13323767483234406, 0.0644829124212265, -0.05523725226521492, 0.5436078906059265, -0.3243410289287567, -0.09384912252426147, 0.3263567090034485, 0.09650418907403946, 0.0801624283194542, -0.4516075849533081, -0.3066819906234741, 0.357261061668396, -0.11656424403190613, -0.24542921781539917, 0.20066626369953156, 0.20518077909946442, -0.2100687474012375, -0.04743373766541481, -0.09897761046886444, 0.1885361522436142, -0.18803264200687408, -0.1080750823020935, -0.09591175615787506, 0.5041835904121399, -0.18774643540382385, 0.017362114042043686, -0.12218117713928223, 0.5250658988952637, 0.1607174277305603, -0.1976902037858963, 0.4399159252643585, 0.19844862818717957, 0.11971474438905716, -0.15843136608600616, -0.226059228181839, -0.0986160933971405, -0.1274929791688919, 0.26173779368400574, 0.14981412887573242, -0.09383315593004227, 0.08720576018095016, -0.4883011281490326, -0.318480908870697, -0.05168391019105911, 0.08006581664085388, -0.0037939967587590218, -0.03087710216641426, 0.5760906338691711, 0.4130488634109497, 0.05023766681551933, 0.09948277473449707, 0.01272586639970541, 0.28402718901634216, -0.06002131104469299, -0.10026822984218597, 0.41895392537117004, 0.35240602493286133, -0.19618812203407288, 0.49175024032592773, -0.07834522426128387, -0.15904600918293, 0.39376169443130493, 0.09598506987094879, -0.004844399634748697, -0.21077539026737213, 0.3329012989997864, -0.3345424234867096, 0.520235538482666, 0.4109051823616028, -0.23482799530029297, 0.13472852110862732, -0.04142597317695618, 0.16369330883026123, 0.06436734646558762, -0.04421979561448097], [0.08343816548585892, 0.025682123377919197, 0.13705112040042877, -0.23959340155124664, 0.2068634331226349, -0.04200815036892891, -0.15285655856132507, 0.20315590500831604, -0.24359075725078583, 0.04668017476797104, -0.14155757427215576, -0.4321058690547943, -0.6099288463592529, 0.14549441635608673, -0.44245994091033936, 0.08611416071653366, 0.24329279363155365, 0.19667285680770874, -0.026645898818969727, -0.1328013688325882, 0.21355599164962769, -0.5487925410270691, -0.2392798215150833, 0.2026880830526352, 0.1365346908569336, -0.2710513174533844, -0.6135534048080444, -0.11440972238779068, -0.011107574217021465, 0.21363119781017303, 0.11165500432252884, 0.08048335462808609, 0.20099879801273346, -0.3188488781452179, 0.14467550814151764, -0.3710522949695587, -0.04390127584338188, 0.42783212661743164, 0.10075287520885468, -0.607177734375, 0.04979586601257324, 0.2597891092300415, 0.008252551779150963, -0.07495278120040894, 0.30729323625564575, -0.11888561397790909, -0.32887718081474304, -0.0003468068316578865, -0.1689833104610443, -0.02109437622129917, 0.04854240268468857, 0.05415637418627739, -0.17318859696388245, 0.20317625999450684, 0.43003958463668823, -0.39657819271087646, -0.09647472202777863, -0.036809105426073074, -0.12622608244419098, 0.05434636026620865, 0.01499584224075079, 0.09716922789812088, 0.007161193527281284, 0.6223901510238647, -0.12164163589477539, 0.10758133232593536, -0.11859674006700516, -0.28684237599372864, -0.4039762616157532, -0.3380569517612457, 0.31656143069267273, 0.4908845126628876, -0.09587769210338593, -0.4730260372161865, -0.014387481845915318, 0.3387308120727539, 0.1612091064453125, 0.29710105061531067, 0.3915726840496063, -0.1041760966181755, 0.3596012592315674, -0.084909588098526, -0.30789902806282043, -0.041655611246824265, 0.1921120434999466, 0.11817952990531921, -0.20060935616493225, -0.12891364097595215, -0.23219069838523865, -0.1185787171125412, 0.16779635846614838, 0.26243287324905396, 0.07079914957284927, -0.059866636991500854, 0.12017737329006195, -0.02512443996965885, -0.02211376465857029, -0.3054775297641754, 0.006467732135206461, -0.6262639760971069, -0.01848275028169155, -0.2850392758846283, 0.5656394958496094, 0.2239023745059967, 0.3111277222633362, -0.09511592239141464, -0.3036423325538635, 0.1422310620546341, -0.148757666349411, -0.03114999644458294, -0.2977864742279053, -0.017974629998207092, -0.2919939458370209, 0.04528878629207611, -0.11214376240968704, 0.10849905014038086, 0.09094410389661789, -0.3364601135253906, -0.3453221023082733, -0.19467110931873322, 0.009505514055490494, -0.13567933440208435, 0.18032823503017426, -0.008389470167458057, 0.10141314566135406, -0.32958218455314636, -0.051816657185554504, 0.19890032708644867, -0.11298760026693344, -0.1285347044467926, -0.36372509598731995, -0.08729081600904465, 0.02204403094947338, -0.05440828949213028, -0.10441286116838455, 0.23475773632526398, -0.2284688800573349, -0.03843521699309349, -0.3611273467540741, 0.21930599212646484, 0.40436792373657227, -0.27570125460624695, 0.19219918549060822, 0.07083172351121902, 0.351433664560318, 0.19260647892951965, 0.27623605728149414, 0.15206299722194672, 0.061076510697603226, -0.13249877095222473, -0.5322339534759521, 0.13591820001602173, -0.11924868077039719, -0.026815319433808327, -0.1855975091457367, -0.13082312047481537, 0.19121752679347992, 0.0741177350282669, -0.33215317130088806, -0.05848168581724167, -0.19372068345546722, -0.25197634100914, 0.03356371819972992, 0.13968616724014282, 0.34622153639793396, -0.02639412134885788, 0.021135399118065834, -0.5961774587631226, -0.27403581142425537, -0.1691349744796753, 0.0592850036919117, 0.1924782544374466, 0.5822532176971436, 0.25033771991729736, 0.40001943707466125, 0.09057256579399109, 0.6699056625366211, 0.21277734637260437, -0.048409998416900635, 0.2487116903066635, -0.028383109718561172, -0.22429034113883972, 0.20226983726024628, 0.02071792632341385, -0.33144611120224, 0.21107417345046997, 0.04409558326005936, -0.015902049839496613, -0.643831193447113, 0.05814271420240402, 0.025268474593758583, -0.20163922011852264, 0.017589909955859184, -0.25232014060020447, 0.26748427748680115, -0.12759579718112946, 0.3108220398426056, -0.012092984281480312, 0.2187846302986145, 0.30359160900115967, 0.010995905846357346, -0.16750742495059967, 0.029653839766979218, -0.022295311093330383, 0.11704064160585403, 0.16448865830898285, 0.19448143243789673, -0.19694553315639496, 0.31339263916015625, 0.15277524292469025, -0.28856638073921204, 0.3517630696296692, -0.3608366847038269, 0.1988559365272522, -0.23650437593460083, 0.24437099695205688, -0.2387717366218567, -0.17180609703063965, 0.12601029872894287, 0.8234339952468872, -0.2697533667087555, 0.41127750277519226, 0.1022225171327591, -0.38490667939186096, 0.29603439569473267, -0.3536052107810974, -0.18390557169914246, -0.4704152047634125, -0.2902788817882538, 0.22743572294712067, -0.25399473309516907, 0.25290995836257935, -0.16121211647987366, -0.13300247490406036, 0.019144268706440926, 0.18396641314029694, -0.038684140890836716, 0.04370088502764702, 0.14988036453723907, -0.030231855809688568, -0.12896031141281128, 0.06865154206752777, 0.36215221881866455, 0.1571880578994751, -0.26669445633888245, -0.03870683163404465, 0.018182840198278427, -0.0005496751982718706, 0.4121493399143219, -0.14149874448776245, -0.009719878435134888, -0.31123918294906616, 0.052380796521902084, 0.5598269701004028, -0.036518536508083344, -0.46930545568466187], [0.2045166939496994, 0.19056379795074463, -0.20049142837524414, -0.10095172375440598, 0.03887154161930084, -0.08533238619565964, 0.1209714412689209, 0.31342846155166626, -0.21897907555103302, -0.07119662314653397, -0.18998007476329803, 0.13377578556537628, 0.29847511649131775, 0.04145355150103569, 0.10651113092899323, 0.020993711426854134, -0.029556334018707275, 0.1265081763267517, 0.08507062494754791, -0.36778298020362854, 0.14329884946346283, 0.20315539836883545, 0.028837742283940315, 0.12056715786457062, 0.29213589429855347, 0.12927287817001343, 0.01773194409906864, -0.026532066985964775, 0.18564289808273315, -0.09451723098754883, -0.21692880988121033, 0.17070549726486206, -0.04923868551850319, -0.004693036898970604, 0.031949423253536224, 0.4341212213039398, -0.4458748996257782, -0.015398944728076458, 0.19913910329341888, 0.30842024087905884, 0.14980459213256836, 0.3553275167942047, -0.3145575225353241, -0.046060044318437576, 0.2899853587150574, 0.27234894037246704, 0.3065345883369446, -0.14609591662883759, 0.16666144132614136, 0.08786144852638245, -0.08834006637334824, 0.09358833730220795, 0.10222020745277405, -0.2337714284658432, 0.08535932004451752, -0.1740361750125885, 0.04775218665599823, -0.21615122258663177, 0.1738741248846054, -0.183990478515625, 0.055345989763736725, 0.3813473880290985, 0.09392917156219482, 0.3020825982093811, 0.3579873740673065, 0.060641996562480927, -0.008744037710130215, -0.24194234609603882, 0.5056312680244446, -0.10823904722929001, -0.03949428349733353, 0.027515936642885208, 0.0043344502337276936, -0.09247388690710068, -0.09408506006002426, 0.13100016117095947, 0.043095801025629044, 0.007826924324035645, -0.024701213464140892, -0.3638545274734497, 0.4990874230861664, -0.06949404627084732, -0.508357048034668, -0.4415871500968933, -0.0825628861784935, 0.4535924792289734, -0.3129940629005432, -0.0333523266017437, -0.3060874342918396, -0.07578648626804352, -0.15531545877456665, 0.5528731346130371, -0.07882276922464371, -0.22572849690914154, 0.14417830109596252, -0.158750981092453, -0.17803309857845306, 0.2136608213186264, -0.11488194018602371, 0.02055732160806656, 0.18570835888385773, 0.1886395812034607, 0.242995947599411, -0.07276436686515808, 0.2259177714586258, 0.5233669281005859, -0.3934096395969391, -0.546383261680603, 0.11813599616289139, -0.03689250722527504, 0.18356314301490784, 0.19122588634490967, -0.12158997356891632, 