{"STATE_DIM": 101, "MOVE_DIM": 81, "hidden": 256, "num_layers": 3, "layers": [{"type": "linear", "weight": [[-0.010009023360908031, -0.07680142670869827, -0.05907604470849037, 0.02300765924155712, -0.08999903500080109, -0.06583903729915619, -0.08453375101089478, 0.06183580309152603, -0.09672300517559052, -0.009730051271617413, -0.07864176481962204, 0.10444554686546326, 0.05370103940367699, 0.09830614924430847, -0.1067299172282219, -0.010414606891572475, 0.06467141211032867, -0.06311191618442535, -0.05074964091181755, -0.046312905848026276, 0.10553960502147675, 0.03941402956843376, -0.005264200270175934, 0.08887284249067307, 0.06754200905561447, -0.08453614264726639, 0.010254968889057636, -0.06310402601957321, -0.035860270261764526, -0.023852042853832245, 0.07639799267053604, 0.04593756049871445, -0.007222397718578577, 0.011137811467051506, -0.03531549870967865, -0.0680798813700676, 0.03568614274263382, -0.07184117287397385, 0.033539146184921265, 0.014133012853562832, 0.058390114456415176, 0.07240618020296097, -0.08263160288333893, 0.08095331490039825, -0.07120306044816971, 0.013218007050454617, 0.021235119551420212, -0.03971754387021065, -0.028562497347593307, 0.01409736555069685, 0.01699499972164631, 0.027515729889273643, -0.01777026429772377, -0.02668876387178898, 0.08181547373533249, 0.06755338609218597, 0.10049457848072052, -0.01561414822936058, 0.030810661613941193, -0.07361463457345963, -0.03469154238700867, 0.09661545604467392, 0.11090971529483795, 0.022685445845127106, 0.037855684757232666, 0.0764150321483612, -0.05635257810354233, 0.04698173701763153, -0.023193776607513428, -0.0993882268667221, 0.06847184896469116, -0.018382441252470016, -0.0020951079204678535, 0.03738068789243698, -0.09549649804830551, 0.04756198450922966, 0.01458082627505064, -0.036918677389621735, -0.04053366184234619, 0.050817184150218964, -0.04579108953475952, 0.034133121371269226, -0.0200619176030159, 0.0787045881152153, -0.05457311496138573, 0.03127053380012512, 0.01119531225413084, -0.09044001996517181, -0.09097032248973846, 0.056110650300979614, -0.08823446184396744, -0.09221917390823364, -0.027104752138257027, -0.111376091837883, -0.09083397686481476, -0.07313377410173416, 0.01843816414475441, -0.0023752120323479176, -0.0213610976934433, -0.007298857439309359, 0.04462730512022972, -0.03083694539964199, -0.04205254092812538, -0.022470615804195404, -0.09818484634160995, -0.08791147172451019, -0.03658609837293625, 0.055075790733098984, 0.003861993085592985, -0.07898704707622528, 0.04029776155948639, -0.011162449605762959, 0.07888612151145935, 0.04875802993774414, -0.0437479130923748, 0.05220838636159897, 0.01573934033513069, 0.035925351083278656, 0.08250860124826431, -0.03175067529082298, -0.04906385764479637, -0.03309609740972519, -0.03662099316716194, 0.043880268931388855, 0.07432644814252853, 0.07841673493385315, -0.07522112876176834, 0.03250223770737648, -0.09233400225639343, 0.038477033376693726, 0.10758869349956512, -0.054474249482154846, 0.029487552121281624, -0.08572892844676971, -0.030120229348540306, 0.05088956281542778, -0.06659193336963654, 0.1030784323811531, 0.08955343812704086, -0.017984475940465927, 0.08687286078929901, 0.010077138431370258, 0.07949277758598328, -0.052571654319763184, -0.015684163197875023, -0.05514051392674446, -0.03165087848901749, -0.07265470921993256, 0.06582348793745041, 0.061038464307785034, 0.012950328178703785, -0.12176227569580078, 0.06875473260879517, 0.020815663039684296, 0.09275750070810318, 0.03631152957677841, 0.027512768283486366, 0.008448738604784012, -0.05485803261399269, -0.03149830922484398, 0.045611027628183365, -0.03128707781434059, 0.013867232017219067, -0.08416509628295898, 0.005082859192043543, 0.01068405993282795, -0.07749266922473907, -0.08333611488342285, -0.0501302070915699, 0.08912268280982971, -0.011503857560455799, 0.06441682577133179, 0.02044450119137764, 0.0366700254380703, -0.10588962584733963, 0.01930634118616581, 0.10207333415746689, -0.05815455690026283, -0.10050671547651291, -0.03749539703130722, 0.04638909921050072, 0.06633802503347397, -0.07021903991699219, 0.052927784621715546, -0.05218018218874931, -0.018084971234202385, -0.09081942588090897, 0.04159571975469589, 0.013701586052775383, -0.02923237904906273, -0.03879615291953087, -0.10802441090345383, 0.06887632608413696, 0.0035402446519583464, -0.0282287560403347, 0.017292432487010956, -0.03602517396211624, 0.047582339495420456, -0.024671467021107674, 0.05996197834610939, 0.01312296837568283, -0.0861629843711853, -0.04862068593502045, 0.04467571899294853, 0.04128982126712799, -0.09834747016429901, -0.06418609619140625, -0.006623297929763794, -0.0762227326631546, 0.08790946751832962, -0.03941341117024422, 0.07818670570850372, 0.05622869357466698, 0.02595258131623268, -0.0996338352560997, -0.06477562338113785, 0.0034603732638061047, 0.03198607265949249, -0.07828320562839508, 0.0031360494904220104, -0.07848826050758362, 0.0034107938408851624, -0.018673447892069817, 0.012191987596452236, -0.10824273526668549, -0.0882304459810257, 0.042805105447769165, 0.06924302875995636, 0.08806402236223221, 0.02277405560016632, -0.051214609295129776, -0.06598914414644241, -0.009302073158323765, -0.07216253131628036, -0.015321237966418266, -0.022954465821385384, -0.0849580317735672, -0.03520550951361656, 0.06090103089809418, -0.027886725962162018, -0.08508256822824478, -0.10046417266130447, 0.0052725872956216335, 0.04143092781305313, 0.06499263644218445, 0.026397036388516426, -0.06385719031095505, 0.056475307792425156, -0.08849519491195679, 0.07386660575866699, 0.04601176083087921, 0.05042705312371254, 0.003433370031416416, 0.09247002005577087, -0.06041808798909187, 0.08642150461673737], [-0.06691544502973557, 0.09095858037471771, 0.07971343398094177, 0.04998210072517395, -0.05664343759417534, 0.09647352248430252, 0.03807166963815689, -0.008922018110752106, -0.04674050211906433, -0.02941262535750866, -0.06733256578445435, 0.07459267228841782, -0.06293478608131409, 0.06876972317695618, -0.03211970627307892, -0.023832062259316444, -0.08731786161661148, -0.033851731568574905, -0.04039391130208969, 0.08355969935655594, 0.012096967548131943, -0.024876387789845467, -0.0029615869279950857, -0.08632425218820572, 0.027333982288837433, 0.016022076830267906, -0.05288984254002571, 0.08426803350448608, 0.05428275093436241, 0.04538594186306, -0.019084177911281586, 0.03272144868969917, -0.025477370247244835, 0.09879765659570694, -0.010004540905356407, 0.07895779609680176, 0.08059664815664291, -0.039662715047597885, 0.06623044610023499, -0.06552157551050186, -0.07636995613574982, -0.07874594628810883, 0.04597529023885727, -0.03746529296040535, -0.040663205087184906, 0.0447724275290966, -0.06566383689641953, -0.06978806853294373, -0.010773614048957825, -0.03280341252684593, -0.037787407636642456, -0.007619358133524656, 0.026527371257543564, -0.03254950791597366, -0.04819444566965103, -0.07836908847093582, -0.00634582107886672, -0.03241401165723801, -0.08263741433620453, 0.07431015372276306, 0.020420292392373085, -0.0007693032966926694, -0.0790482684969902, 0.005028806626796722, 0.07276713103055954, 0.007136194501072168, 0.07465122640132904, 0.02977822907269001, 0.08343031257390976, -0.056590620428323746, -0.06706147640943527, -0.023391729220747948, -0.07499825954437256, 0.024459820240736008, -0.08676217496395111, -0.06416314095258713, -0.09091612696647644, -0.0386437326669693, 0.06007112190127373, 0.05261540040373802, 0.0029426978435367346, 0.0943865105509758, -0.043157849460840225, -0.1045716181397438, 0.045689817517995834, 0.09870421141386032, 0.043568823486566544, 0.05220559611916542, -0.07267124950885773, -0.0040979813784360886, -0.08868386596441269, -0.03878636658191681, -0.07829102873802185, -0.10953260213136673, 0.0714368149638176, 0.08599860221147537, 0.09841278940439224, -0.012876723892986774, 0.0764055997133255, -0.03472578525543213, 0.07133880257606506, -0.009841890074312687, 0.03466140851378441, -0.07002878934144974, -0.013275736011564732, 0.03482993319630623, 0.08422528952360153, 0.05030914023518562, -0.029008988291025162, 0.059719931334257126, -0.0406268946826458, 0.05100005120038986, -0.11708549410104752, 0.048035748302936554, 0.06258422881364822, -0.07007875293493271, 0.026437312364578247, -0.040631018579006195, 0.015881504863500595, -0.0698060616850853, 0.05361875146627426, -0.0009028621134348214, 0.01732522062957287, -0.020915085449814796, 0.0846879854798317, 0.004994941409677267, 0.10154630988836288, 0.05322284623980522, 0.07527883350849152, 0.04222661256790161, -0.0007477967883460224, -0.09097786992788315, -0.03587136045098305, 0.0892912968993187, -0.006247582845389843, 0.045221224427223206, 0.03315269201993942, -0.004578554071485996, 0.07875996083021164, 0.07947275042533875, -0.05350011959671974, 0.10063868761062622, 0.11086447536945343, -0.0658588856458664, -0.08191947638988495, 0.04670267179608345, 0.09175857156515121, -0.07559631019830704, -0.04518533870577812, 0.006622678600251675, -0.01699760928750038, -0.01269177533686161, -0.002208946505561471, -0.017218442633748055, -0.0897003710269928, -0.03936058282852173, 0.04926097393035889, 0.09157819300889969, -0.04996233060956001, -0.026767924427986145, 0.11000791937112808, -0.016986161470413208, -0.011694333516061306, -0.08761550486087799, 0.08890937268733978, 0.09677287191152573, 0.04433034360408783, -0.07151761651039124, 0.02392343245446682, -0.03207459673285484, 0.04529917612671852, 0.04546453803777695, 0.07509312778711319, 0.029680807143449783, -0.03744092211127281, 0.05521528050303459, 0.012815352529287338, 0.0682150349020958, 0.06691373139619827, -0.0030069954227656126, -0.000362225720891729, 0.0029201917350292206, 0.02141728065907955, -0.05199349299073219, -0.055703096091747284, 0.0870247408747673, 0.08855447173118591, -0.0636807531118393, -0.009572218172252178, 0.07985421270132065, -0.044293709099292755, 0.08162534981966019, 0.055942535400390625, -0.00420737499371171, -0.05504542589187622, 0.06844089180231094, 0.06674735993146896, 0.09484900534152985, 0.020695393905043602, -0.018591545522212982, -0.0026606288738548756, -0.10908273607492447, 0.034134216606616974, -0.012251057662069798, -0.055781006813049316, -0.10066564381122589, 0.02525610662996769, -0.07113997638225555, -0.02722461149096489, -0.03936915472149849, -0.05262797698378563, 0.09200389683246613, -0.014163456857204437, 0.10185655951499939, 0.05785079672932625, -0.10855153948068619, -0.02171817421913147, 0.06407029181718826, -0.06582818925380707, 0.015431658364832401, 0.11218234151601791, -0.045442674309015274, -0.0009262693347409368, -0.07078077644109726, 0.0828857496380806, 0.009119219146668911, 0.051650047302246094, -0.06490544974803925, 0.00925182830542326, -0.060929134488105774, -0.07672955840826035, -0.08766432851552963, 0.036049652844667435, 0.021401535719633102, 0.061151012778282166, -0.025560593232512474, 0.08906587213277817, 0.09989378601312637, -0.0032480694353580475, -0.11526495963335037, -0.06040365621447563, 0.07777553051710129, 0.030624985694885254, -0.057448167353868484, 0.057828571647405624, -0.01936023309826851, -0.03613085299730301, 0.012994736433029175, 0.02153976447880268, 0.05426757037639618, 0.018688229843974113, 0.0018087660428136587, 0.007434820290654898, 0.07306993007659912, -0.02148372121155262, 0.0928925946354866], [0.02241583913564682, -0.00922728143632412, -0.016933586448431015, 0.07406772673130035, -0.005840708967298269, 0.1044999212026596, 0.09308609366416931, -0.02572379633784294, 0.08249741047620773, 0.05307788401842117, 0.03925013169646263, -0.008406964130699635, 0.06040617451071739, 0.020106345415115356, -0.057807743549346924, 0.05287393555045128, -0.06591460853815079, -0.06088282912969589, -0.01530165784060955, -0.06279630213975906, 0.07226835191249847, -0.09401746839284897, 0.017772551625967026, 0.09640464931726456, 0.06128677725791931, 0.06588311493396759, -0.06970296800136566, 0.06038764864206314, -0.08555424958467484, -0.07119381427764893, 0.0608685240149498, -0.06017453968524933, 0.06320460140705109, 0.019613539800047874, -0.047492217272520065, 0.08949856460094452, 0.02731768786907196, 0.08095188438892365, -0.01531186606734991, 0.07774414122104645, -0.08668544143438339, 0.03796200081706047, -0.035801470279693604, -0.056094538420438766, 0.008277188055217266, -0.08967754244804382, -0.0622478649020195, -0.07133430987596512, -0.0870828628540039, -0.07451355457305908, -0.08951657265424728, -0.09623976796865463, 0.0608171746134758, 0.04839295521378517, -0.06379441916942596, 0.1048337072134018, 0.08847515285015106, 0.011648503132164478, 0.03180456906557083, 0.015939215198159218, 0.0031861551105976105, 0.09131655097007751, 0.06814947724342346, 0.03114609234035015, 0.057735130190849304, 0.044000595808029175, -0.04219086095690727, 0.06060519814491272, 0.037851955741643906, 0.06301102042198181, -0.06170972064137459, -0.0006594747537747025, 0.06418802589178085, 0.04475325345993042, 0.07820671051740646, -0.014672006480395794, 0.026844847947359085, -0.0029223989695310593, -0.0022363062016665936, -0.058860018849372864, 0.1016196757555008, -0.040509965270757675, -0.06007350981235504, -0.036780424416065216, -0.024781079962849617, 0.018045755103230476, 0.0788605585694313, -0.01116398349404335, -0.013608905486762524, -0.07325319945812225, 0.018589038401842117, 0.08907540887594223, -0.08519656956195831, -0.022519631311297417, -0.07849065214395523, -0.022539885714650154, -0.06694453954696655, 0.0557248480618, -0.041887469589710236, 0.0006313730264082551, 0.05520559847354889, -0.05757950246334076, -0.01638045907020569, 0.07328390330076218, 0.05079555884003639, -0.057064276188611984, 0.050856757909059525, 0.027511587366461754, 0.011264360509812832, -0.01433694176375866, -0.048293791711330414, -0.10235951095819473, -0.0302333515137434, 0.06426731497049332, -0.061931923031806946, 0.024490535259246826, -0.10215278714895248, 0.044438790529966354, -0.05419018119573593, -0.07410429418087006, -0.023495914414525032, 0.046731721609830856, -0.012981331907212734, 0.062350839376449585, 0.07697311788797379, 0.03216642513871193, 0.014453687705099583, 0.011705226264894009, -0.03364461287856102, 0.020252494141459465, -0.057577911764383316, -0.05399307608604431, 0.02085861749947071, 0.023334961384534836, -0.0543661043047905, -0.02505652606487274, -0.00776513759046793, -0.03218436986207962, -0.029617808759212494, 0.01666082814335823, -0.0346832312643528, -0.0007410517428070307, 0.005870979744940996, 0.08645322918891907, 0.08064664155244827, -0.045282889157533646, -0.06034271419048309, 0.10706190019845963, -0.08975612372159958, 0.0448777861893177, -0.04926397651433945, -0.0005383588722907007, -0.00279884017072618, 0.030577989295125008, 0.0738191232085228, 0.08900772780179977, 0.08821522444486618, 0.0035386127419769764, -0.06953047960996628, 0.04159586504101753, -0.02532864548265934, -0.0635741725564003, 0.014329124242067337, -0.018842196092009544, -0.026230117306113243, 0.04155778884887695, 0.05902901664376259, 0.0712175965309143, 0.06112535670399666, 0.06649404764175415, -0.017719507217407227, 0.07292798906564713, -0.047137171030044556, -0.04103940725326538, 0.031697776168584824, 0.02655971050262451, -0.07479790598154068, 0.05992283299565315, -0.0861230343580246, 0.003634978085756302, -0.018688881769776344, 0.0100043173879385, 0.006435900926589966, -0.04626857116818428, -0.047577835619449615, -0.004111948423087597, -0.048620715737342834, -0.06790143251419067, 0.0008942419663071632, 0.010956180281937122, 0.014510766603052616, 0.052266765385866165, 0.017141500487923622, -0.010388609953224659, 0.06709164381027222, -0.045016396790742874, 0.08704092353582382, 0.0823223665356636, -0.03886282816529274, -0.07246148586273193, -0.0071899848990142345, -0.03854244202375412, 0.006102082785218954, -0.08918257802724838, 0.09818239510059357, -0.06670071929693222, 0.004566916264593601, 0.07348696887493134, 0.032271843403577805, -0.08120012283325195, -0.0020430420991033316, 0.11092918366193771, -0.0006311829201877117, -0.09254585951566696, 0.03825966641306877, -0.038975656032562256, -0.0797453224658966, -0.04187299311161041, -0.025062140077352524, -0.010667556896805763, -0.04479050263762474, -0.08848771452903748, 0.0313025563955307, -0.02305358089506626, 0.03763437271118164, 0.018496816977858543, 0.0746527761220932, 0.03468949347734451, 0.02155642956495285, -0.09212487190961838, 0.04550378397107124, 0.07153747230768204, 0.09584221243858337, 0.07226957380771637, -0.09430268406867981, -0.005297244526445866, -0.033355463296175, -0.022846316918730736, 0.024885043501853943, -0.01922527328133583, -0.07525558769702911, -0.05641208961606026, 0.06053802743554115, -0.0669349655508995, -0.03834620118141174, 0.02425626665353775, 0.021065814420580864, 0.0020040995441377163, 0.01906905509531498, -0.02722916193306446, 0.06483133137226105, 0.027009112760424614, 0.07216674834489822, 0.014512342400848866, 0.02224666066467762, 0.05660003423690796], [-0.1028948575258255, 0.09241098165512085, -0.003776578465476632, 0.03602171316742897, 0.06313180923461914, -0.06268268823623657, -0.06970196217298508, -0.0462581142783165, 0.08275600522756577, 0.034206729382276535, -0.02989937923848629, -0.001867902697995305, -0.011326021514832973, 0.018317343667149544, -0.09165820479393005, -0.047297533601522446, 0.060057032853364944, -0.017084894701838493, 0.10531894862651825, 0.022925738245248795, 0.09922561049461365, -0.026515750214457512, 0.0629863366484642, 0.06228401139378548, 0.02877252921462059, -0.0418669618666172, -0.08632029592990875, -0.0007746579358354211, 0.039164211601018906, 0.02404462732374668, 0.04558435454964638, 0.10096680372953415, -0.05375056341290474, -0.02926197648048401, 0.06124459207057953, 0.04603765532374382, -0.05455998331308365, 0.0182831808924675, -0.03597477823495865, 0.03506418690085411, 0.051687806844711304, 0.007909763604402542, -0.09190111607313156, -0.08082450181245804, 0.032697390764951706, 0.017261927947402, 0.014417063444852829, 0.060687869787216187, -0.08381810784339905, -0.02851502224802971, 0.08092977851629257, 0.06726747006177902, -0.025260919705033302, 0.053042199462652206, 0.053929269313812256, -0.06809809058904648, 0.08191636949777603, 0.02883124351501465, 0.03477379307150841, -0.07453902065753937, 0.10366733372211456, 0.0914146825671196, -0.07463114708662033, 0.07726255804300308, -0.07074575871229172, 0.022735927253961563, 0.026846660301089287, 0.010006341151893139, 0.04883414879441261, -0.050281573086977005, -0.09505168348550797, 0.07497941702604294, -0.10882079601287842, 0.039671074599027634, 0.09497762471437454, 0.06343328952789307, -0.06038687750697136, 0.11609325557947159, 0.08100131154060364, 0.013229724019765854, -0.05658502131700516, -0.06905895471572876, 0.03563941270112991, 0.007606028113514185, 0.036031149327754974, -0.06560656428337097, 0.09253278374671936, 0.059108197689056396, 0.09321386367082596, -0.09302704781293869, 0.1035597175359726, 0.052998136729002, 0.07405170053243637, 0.10241161286830902, -0.06668684631586075, 0.04060015827417374, 0.008381806313991547, -0.06328338384628296, -0.040648989379405975, -0.029445379972457886, 0.08186719566583633, 0.03228885680437088, -0.033752042800188065, -0.04672275111079216, -0.08793472498655319, -0.040549758821725845, 0.03765798732638359, -0.011338203214108944, 0.02918102964758873, -0.05468999966979027, 0.054593950510025024, -0.01549041923135519, -0.027975864708423615, -0.10114195197820663, 0.06282364577054977, 0.03844379261136055, -0.01885826326906681, 0.08086742460727692, -0.03374554216861725, 0.023451855406165123, 0.03699449077248573, 0.0010115372715517879, -0.04265422374010086, -0.07506192475557327, 0.09336790442466736, -0.02692536637187004, 0.08050373196601868, 0.04574263095855713, 0.0038521517999470234, 0.0326998271048069, -0.0368938110768795, 0.07045026123523712, 0.07306648045778275, -0.040680017322301865, 0.006109705660492182, -0.08537542074918747, 0.018576625734567642, 0.009480545297265053, -0.06134805083274841, 0.09990548342466354, -0.08895519375801086, 0.08486758917570114, -0.0010219087125733495, -0.09312514215707779, 0.014474689960479736, 0.04922723025083542, -0.07174249738454819, 0.10801389813423157, 0.08806568384170532, 0.04387185722589493, -0.07268308103084564, 0.05289874225854874, 0.04193201661109924, 0.05865978077054024, 0.05034999921917915, -0.011780314147472382, 0.0824536681175232, 0.08097787201404572, -0.08406995236873627, -0.01957552880048752, -0.02116849645972252, 0.022933056578040123, 0.0587509348988533, -0.039463918656110764, -0.028192153200507164, 0.06530174612998962, 0.04087654873728752, 0.012735730037093163, 0.054283685982227325, 0.0022852937690913677, 0.018749728798866272, -0.09869538992643356, -0.05212483927607536, -0.022093459963798523, -0.001326817786321044, 0.06032577529549599, -0.060422953218221664, 0.03018188290297985, -0.009996861219406128, -0.0817858949303627, -0.07091512531042099, -0.08500220626592636, 0.06250524520874023, -0.0967789813876152, 0.03626265749335289, 0.041831254959106445, 0.09033889323472977, 0.06346109509468079, -0.027483465149998665, 0.01206957083195448, 0.04682210087776184, -0.09399078786373138, -0.09736118465662003, 0.03612839803099632, -0.0366201177239418, -0.06347839534282684, 0.0405457578599453, 0.0007873065187595785, -0.07710754871368408, 0.06021703779697418, 0.06081458181142807, 0.04698937013745308, -0.002538419095799327, 0.05486574023962021, -0.04498349502682686, -0.09783975034952164, 0.07851114124059677, -0.09847863018512726, 0.07953626662492752, 0.017767883837223053, 0.011697518639266491, -0.06508675217628479, 0.11577863991260529, -0.09879472851753235, 0.029991406947374344, 0.02130819484591484, 0.002831778721883893, -0.08528514951467514, -0.009778978303074837, 0.0185783039778471, -0.1069950982928276, 0.0490274652838707, -0.04636714980006218, -0.018114814534783363, 0.007126866839826107, 0.03151718154549599, -0.0069213309325277805, 0.07163728773593903, 0.032106779515743256, 0.0013040954945608974, 0.06444427371025085, 0.07388488203287125, 0.0680825412273407, -0.08100762218236923, 0.05311190336942673, -0.0549345426261425, -0.08201885968446732, 0.00299984123557806, -0.004355420358479023, 0.00482467096298933, -0.09746317565441132, 0.05532029643654823, 0.0491434745490551, -0.09424935281276703, -0.03648019954562187, -0.0018280985532328486, -0.04749918356537819, 0.02021554484963417, 0.07347578555345535, -0.05829477682709694, -0.08898074924945831, 0.08386242389678955, -0.05546383932232857, -0.06684055924415588, 0.020453916862607002, -0.015390402637422085], [-0.005530952475965023, -0.06551797688007355, -0.07770513743162155, -0.01818642020225525, 0.07672080397605896, 0.07125063985586166, -0.029603276401758194, -0.05195694416761398, -0.04138273373246193, 0.006762547884136438, 0.10618710517883301, 0.02952563390135765, -0.08098921179771423, 0.02697613090276718, -0.0015842732973396778, -0.03788093104958534, -0.010234643705189228, 0.03191838786005974, -0.08829855918884277, -0.06865077465772629, 0.08549987524747849, -0.06684374064207077, 0.017467249184846878, 0.04165114834904671, 0.04387524351477623, 0.05977557972073555, -0.06607228517532349, -0.0706566646695137, 0.03155955299735069, 0.03687947988510132, -0.0617278553545475, 0.03621979057788849, -0.08199001103639603, -0.011445164680480957, 0.02986297756433487, -0.05228881910443306, -0.07753869891166687, 0.07896888256072998, 0.04524647444486618, 0.07083512097597122, 0.07704237848520279, -0.019633455201983452, -0.08845338970422745, -0.03480770066380501, -0.0969618633389473, -0.05463208630681038, -0.060889165848493576, -0.09635448455810547, 0.03556491434574127, -0.0027888056356459856, 0.032537322491407394, -0.03526834771037102, -0.09024614095687866, 0.04595448821783066, -0.0783449187874794, 0.08530489355325699, -0.051756251603364944, 0.04732826352119446, -0.013140021823346615, -0.03788987919688225, 0.08590711653232574, 0.008683870546519756, -0.055473338812589645, 0.06265004724264145, -0.07590490579605103, 0.0022121071815490723, 0.0023831562139093876, 0.06616487354040146, -0.06381216645240784, 0.07001124322414398, 0.02215622179210186, 0.02976614609360695, 0.07257840037345886, -0.02688710018992424, -0.05502744019031525, 0.08307696878910065, 0.020291781052947044, -0.1089458242058754, -0.02564273029565811, -0.00026175405946560204, -0.08373162150382996, -0.015682771801948547, -0.000682696932926774, 0.03627851977944374, 0.08860060572624207, 0.006566696334630251, -0.06541257351636887, -0.05223911628127098, 0.0498737171292305, -0.044625673443078995, -0.07653916627168655, 0.05889849364757538, -0.09004531055688858, 0.09502304345369339, -0.09688772261142731, 0.04198632761836052, 0.019546138122677803, -0.018209824338555336, -0.07426731288433075, -0.002611827803775668, 0.0022803039755672216, -0.04356863349676132, 0.09465117752552032, -0.08043034374713898, -0.008104762062430382, 0.08714567124843597, 0.00354064186103642, -0.005438561551272869, -0.00853752251714468, -0.09670813381671906, -0.0946139544248581, -0.056004736572504044, -0.09292794018983841, 0.03947088494896889, 0.09940862655639648, 0.04884013906121254, -0.004545271396636963, -0.07599269598722458, 0.009604858234524727, -0.08980035781860352, 0.10110055655241013, -0.032924916595220566, -0.05495217815041542, 0.007597843650728464, -0.08404570817947388, -0.05865735188126564, 0.026799093931913376, 0.052141014486551285, 0.03913307189941406, 0.016391433775424957, -0.024157840758562088, -0.09316781163215637, 0.06554445624351501, 0.08515873551368713, 0.04813360422849655, 0.032995983958244324, -0.031015673652291298, -0.0513298436999321, -0.04681207239627838, 0.025738900527358055, -0.06582735478878021, 0.033515848219394684, 0.044966768473386765, -0.03914791718125343, -0.010991038754582405, 0.02524033933877945, -0.0036893323995172977, -0.06596872955560684, 0.05073018744587898, -0.08210638165473938, -0.025541620329022408, 0.08373811095952988, 0.06275185942649841, -0.09631304442882538, 0.08068083226680756, 0.03710177168250084, 0.09458492696285248, 0.06715888530015945, -0.022265873849391937, 0.03260573744773865, 0.10303544998168945, -0.09938033670186996, 0.006691944319754839, -0.008923728950321674, 0.019262783229351044, -0.05484494939446449, 0.06257314234972, -0.03192312270402908, 0.044768501073122025, -0.10375902056694031, -0.014812466688454151, -0.02505134604871273, 0.030718998983502388, -0.031727198511362076, -0.08983361721038818, 0.062013354152441025, 0.10466483980417252, -0.04840487241744995, 0.031830575317144394, 0.06652318686246872, -0.038805343210697174, -0.06366264820098877, -0.04632170870900154, 0.0274711512029171, 0.08655194193124771, 0.04131780192255974, 0.020118923857808113, -0.07235276699066162, 0.0335083082318306, 0.05536220967769623, 0.03602251410484314, 0.03799508139491081, -0.07141462713479996, -0.061135172843933105, 0.08460293710231781, 0.10001752525568008, 0.07525573670864105, 0.003930357750505209, 0.04867086187005043, 0.09739792346954346, 0.04451228305697441, 0.049997054040431976, -0.06932995468378067, 0.06816013157367706, -0.09902020543813705, 0.09708151966333389, -0.025964973494410515, 0.008962168358266354, -0.05195444077253342, -0.08059754222631454, 0.07580966502428055, -0.0603276826441288, 0.06706996262073517, -0.06362996250391006, 0.009366674348711967, 0.09608253091573715, -0.07342027127742767, -0.06906772404909134, 0.0015750337624922395, -0.007947709411382675, 0.0281770471483469, 0.049644630402326584, 0.08886941522359848, -0.09590694308280945, -0.011895185336470604, -0.07478310912847519, 0.007611028850078583, -0.10185306519269943, -0.05169351026415825, -0.058875713497400284, -0.027155114337801933, -0.06511197984218597, -0.05392725393176079, -0.037275198847055435, -0.054919153451919556, -0.026694796979427338, -0.07941477745771408, -0.023090189322829247, 0.0761236920952797, 0.08033906668424606, -0.05611424893140793, 0.07613937556743622, 0.061855901032686234, 0.03938094899058342, -0.051914747804403305, 0.08953249454498291, -0.010095368139445782, -0.03661126643419266, -0.030561033636331558, -0.011893234215676785, 0.06870144605636597, 0.06674535572528839, 0.06556796282529831, 0.05077662691473961, -0.07291585206985474, -0.09515590965747833], [-0.03352219983935356, 0.04387621209025383, -0.03829069808125496, 0.04226138815283775, 0.08001744002103806, -0.06616437435150146, 0.06303337961435318, -0.001992871519178152, 0.0562976635992527, -0.047734200954437256, -0.01720591075718403, 0.08003181964159012, 0.07909127324819565, 0.05739482119679451, -0.09166756272315979, 0.08083467930555344, -0.07921889424324036, -0.040982864797115326, -0.03564244881272316, 0.1052892804145813, -0.045636627823114395, -0.006262378767132759, 0.05555639788508415, 0.02957657352089882, 0.007608703803271055, -0.01334527600556612, -0.023925116285681725, -0.008995095267891884, 0.01961345039308071, -0.086839459836483, 0.0818176195025444, -0.004398515447974205, 0.09049269556999207, -0.11036775261163712, 0.09478552639484406, -0.03178149461746216, 0.07626059651374817, 0.06677515059709549, -7.144385017454624e-05, 0.07156358659267426, -0.05795314908027649, -0.04284454137086868, -0.01916055753827095, 0.07397331297397614, 0.09362666308879852, 0.10278692841529846, 0.0731654018163681, -0.03353951871395111, 0.04592667892575264, -0.03071729466319084, 0.0695599839091301, -0.07222862541675568, -0.01873602718114853, -0.009993502870202065, -0.012989397160708904, -0.07248261570930481, 0.04354699328541756, -0.05650978162884712, 0.037118442356586456, -0.0314737930893898, -0.09350265562534332, -0.010591436177492142, 0.02646247297525406, -0.054946038872003555, 0.09727697819471359, 0.06682270765304565, 0.07127191126346588, 0.0022294786758720875, -0.07395648211240768, 0.0758357048034668, 0.055307500064373016, -0.09287112206220627, -0.03211895376443863, -0.11245468258857727, -0.08381243795156479, -0.01917559653520584, -0.02703765034675598, -0.07569540292024612, -0.04247463867068291, -0.04773610457777977, 0.04207683727145195, 0.09542994946241379, -0.09872311353683472, 0.07293971627950668, 0.045390546321868896, -0.03431973606348038, -0.0015212015714496374, 0.030974989756941795, -0.09115967899560928, 0.03019106760621071, 0.00851762481033802, -0.04592294991016388, -0.08941030502319336, 0.03633304685354233, 0.04851716011762619, 0.09534286707639694, -0.07676629722118378, -0.08448184281587601, -0.06664127856492996, -0.088821180164814, -0.06282445043325424, 0.07783178985118866, 0.015078233554959297, -0.008619509637355804, 0.01397203840315342, -0.02165811136364937, 0.012902545742690563, 0.041914623230695724, 0.030415218323469162, 0.010593736544251442, -0.03035428375005722, -0.04793286323547363, 0.07553458213806152, 0.014998933300375938, -0.010408836416900158, -0.057084351778030396, 0.013462797738611698, 0.06252624839544296, 0.050952229648828506, -0.05559147521853447, -0.04062221944332123, -0.04923193156719208, 0.010527288541197777, 0.07530819624662399, -0.016512634232640266, 0.013339262455701828, -0.02474665455520153, 0.07936643809080124, 0.05677313730120659, 0.042473625391721725, -0.05899814888834953, -0.06884761899709702, 0.0963669940829277, -0.08781342208385468, 0.08631383627653122, 0.0354941189289093, 0.00032115395879372954, -0.1032586619257927, -0.05332006886601448, 0.05138979107141495, 0.027615610510110855, -0.10197403281927109, -0.07678771018981934, -0.04819542542099953, 0.006705934647470713, -0.10086247324943542, -0.04208550974726677, -0.10223806649446487, 0.04391497001051903, -0.09935938566923141, -0.05106460303068161, 0.09616181999444962, 0.03585765138268471, 0.05202548950910568, -0.04409804567694664, -0.038976747542619705, -0.014272007159888744, 0.06238393485546112, -0.07740823924541473, 0.04522314295172691, -0.014786986634135246, 0.07308194041252136, -0.06905907392501831, 0.08059079200029373, -0.0298666600137949, -0.03074069879949093, 0.034208592027425766, -0.08733493834733963, 0.04102005437016487, -0.0841517522931099, -0.0002518211549613625, 0.023008020594716072, 0.013612397946417332, -0.10567425191402435, 0.09142809361219406, -0.00882677175104618, -0.005174541380256414, -0.096622534096241, 0.07221681624650955, 0.06538038700819016, 0.06733082979917526, -0.1007586345076561, -0.10324497520923615, 0.03880948945879936, -0.009112268686294556, 0.05856723710894585, 0.05708557367324829, 0.04652315378189087, -0.07064582407474518, -0.007465636357665062, -0.01788341999053955, -0.02876855991780758, 0.06826478987932205, -0.08583315461874008, -0.028765831142663956, 0.010762045159935951, -0.04974958673119545, 0.07757637649774551, -0.036927200853824615, -0.10261423885822296, 0.04996176064014435, -0.05830281227827072, 0.05197842791676521, 0.03492678701877594, -0.07682149857282639, -0.07511527836322784, 0.088420569896698, -0.007348155602812767, -0.0949535071849823, 0.09031249582767487, 0.0752502977848053, 0.01728532277047634, 0.0730593129992485, 0.06217315420508385, -0.04445597156882286, 0.07635204493999481, -0.09305231273174286, 0.06877008825540543, -0.08161059767007828, 0.005011985544115305, 0.06730730831623077, -0.09193851053714752, 0.024365892633795738, 0.03695807605981827, 0.055971454828977585, 0.021303240209817886, -0.09206511080265045, 0.036576248705387115, 0.012646600604057312, -0.048240479081869125, -0.033819779753685, -0.0019472964340820909, 0.02617795020341873, -0.0007737535052001476, -0.09529010951519012, 0.11513473838567734, -0.09909644722938538, -0.0748046264052391, -0.018687307834625244, 0.036326970905065536, -0.05260896682739258, -0.07897448539733887, -0.0013156771892681718, 0.035990189760923386, 0.08411847054958344, -0.022726688534021378, 0.07067779451608658, 0.025640616193413734, 0.053131572902202606, 0.08353731781244278, 0.027822749689221382, 0.08871296048164368, -0.03485117852687836, 0.021006504073739052, 0.10329389572143555, 0.03372468054294586], [0.003916265908628702, -0.048625435680150986, -0.08754629641771317, -0.022260254248976707, -0.024171559140086174, -0.08030801266431808, -0.033743347972631454, -0.06188153848052025, -0.006021030712872744, 0.04682859405875206, -0.10350211709737778, -0.008463682606816292, 0.10011863708496094, 0.06137686222791672, -0.05627717822790146, -0.10022886842489243, 0.0034795135725289583, 0.0027087745256721973, -0.06904006004333496, -0.07888885587453842, 0.08302281051874161, -0.03696421533823013, 0.04780559241771698, 0.009627689607441425, -0.06439995765686035, -0.01841708831489086, 0.04460883140563965, 0.05938209965825081, 0.0936753898859024, 0.037746328860521317, -0.06414072960615158, -0.002465402940288186, -0.08936696499586105, -0.010875638574361801, 0.05028775706887245, 0.09645718336105347, -0.02007749117910862, 0.01947791315615177, -0.05063765496015549, -0.0608661063015461, -0.06375067681074142, -0.026869652792811394, -0.014468255452811718, 0.009262420237064362, -0.07961324602365494, 0.046133704483509064, -0.061998993158340454, 0.01633596420288086, 0.008986294269561768, 0.06846072524785995, 0.06089254841208458, -0.06002213433384895, -0.02066485583782196, -0.05571989342570305, 0.0009011685033328831, 0.001245867577381432, 0.017206715419888496, 0.06085851788520813, -0.02131037600338459, 0.06021953374147415, -0.06212824955582619, -0.03775058314204216, -0.05506967380642891, -0.023758357390761375, -0.09296976774930954, -0.010142684914171696, -0.0010414344724267721, -0.03884745389223099, 0.05607011169195175, -0.0185643769800663, 0.09048577398061752, -0.024556772783398628, -0.017714988440275192, -0.10529247671365738, 0.09880439937114716, -0.08571749925613403, 0.035064034163951874, -0.05453367531299591, 0.02078402228653431, -0.08822274953126907, 0.002029359806329012, -0.009974720887839794, 0.0891420915722847, -0.045195288956165314, 0.06456843763589859, -0.05905493348836899, -0.09901124238967896, -0.025781022384762764, -0.08257640153169632, 0.009762867353856564, -0.10598702728748322, -0.014995955862104893, 0.027055205777287483, 0.07281238585710526, 0.03042367845773697, 0.021570945158600807, -0.02098950743675232, -0.09490425884723663, -0.04379814490675926, 0.09602336585521698, 0.06994786113500595, -0.10489285737276077, 0.03395659103989601, 0.0021582837216556072, 0.05694204941391945, -0.018297478556632996, -0.0633862316608429, -0.08250531554222107, -0.006427010055631399, -0.039807118475437164, -0.10777626186609268, -0.0087198531255126, 0.013940086588263512, -0.06299201399087906, -0.006266978103667498, -0.022032074630260468, 0.03505071997642517, 0.029289236292243004, -0.0039575654082000256, -0.08592280000448227, -0.061364855617284775, -0.00010870053665712476, -0.05311039462685585, 0.055944472551345825, 0.05258388817310333, -0.05268368870019913, 0.025377321988344193, 0.030331579968333244, 0.04680870845913887, 0.001964504597708583, -0.012651446275413036, 0.08031436800956726, -0.03246539831161499, 0.09164588898420334, 0.014574510976672173, -0.007522522937506437, -0.042265649884939194, 0.031748201698064804, 0.04240717366337776, -0.0027451913338154554, 0.07926680892705917, 0.08253488689661026, -0.05164772644639015, 0.039052948355674744, 0.05763096734881401, 0.07209040969610214, -0.06970454752445221, -0.023260513320565224, -0.10332566499710083, -0.006635406985878944, -0.07101956754922867, -0.03371521085500717, -0.003966656047850847, 0.05707138031721115, -0.10003222525119781, 0.03328631818294525, -0.01846478506922722, -0.07136993855237961, -0.0929495245218277, -0.05754408612847328, -0.02710018865764141, -0.0721055194735527, 0.0007375514833256602, -0.01255802996456623, 0.0521797239780426, -0.08779086172580719, 0.0634750947356224, -0.06516875326633453, 0.057496149092912674, -0.09293194115161896, 0.08028978109359741, -0.07769445329904556, 0.004051936324685812, 0.01967540755867958, -0.07020369917154312, -0.04341644421219826, 0.05212675780057907, 0.0874827429652214, -0.009592735208570957, -0.08977306634187698, 0.016026362776756287, 0.09930451214313507, -0.037873320281505585, -0.06926461309194565, 0.07922056317329407, 0.06255847960710526, 0.008428109809756279, 0.09457957744598389, 0.004965370520949364, 0.012613779865205288, 0.06850375235080719, -0.08975230157375336, -0.08421793580055237, -0.10638789087533951, 0.07610100507736206, -0.08609020709991455, -0.049385469406843185, 0.08023117482662201, 0.02929808385670185, 0.03386397287249565, 0.04416368156671524, 0.0117921382188797, 0.018343206495046616, -0.09209200739860535, -0.027664363384246826, -0.022640276700258255, -0.04383976012468338, 0.03788219019770622, -0.06711278110742569, -0.0026772217825055122, -0.01875925622880459, 0.05717518553137779, -0.06815630197525024, 0.030041635036468506, 0.016288993880152702, -0.06950350850820541, -0.04364560544490814, 0.05644388496875763, -0.07925915718078613, -0.04895099997520447, 0.02538747526705265, 0.08871500194072723, -0.040158506482839584, 0.07640820741653442, 0.0484868548810482, 0.05661331117153168, 0.009419774636626244, 0.06434045732021332, -0.07315429300069809, -0.0071091316640377045, -0.048093169927597046, -0.027859976515173912, -0.06328809261322021, 0.0032795399893075228, 0.016552848741412163, -0.023325836285948753, -0.028788430616259575, -0.05388520285487175, 0.040156688541173935, 0.06724587082862854, -0.06336108595132828, 0.014388092793524265, 0.07461830228567123, 0.002204491989687085, 0.08313329517841339, 0.03690478950738907, 0.050187014043331146, 0.08568296581506729, 0.020831530913710594, 0.053578250110149384, 0.06369253247976303, -0.05676959455013275, 0.046559106558561325, 0.028882531449198723, -0.04569293186068535, -0.011772199533879757], [0.06255010515451431, -0.10175081342458725, -0.08415580540895462, -0.0910385474562645, -0.09392088651657104, -0.02222806215286255, -0.03654756024479866, 0.010126834735274315, 0.053723953664302826, 0.02861102670431137, 0.03813984617590904, 0.018019599840044975, -0.028250491246581078, 0.06669439375400543, 0.060287002474069595, -0.03958024084568024, -0.0775112435221672, 0.00021266224212013185, -0.10202261060476303, 0.012860381044447422, 0.07079993188381195, -0.09781570732593536, 0.10543206334114075, -0.04646525904536247, -0.07399312406778336, 0.020760919898748398, 0.05018740892410278, 0.0733824297785759, 0.08138953149318695, 0.02569863386452198, -0.1026914194226265, -0.008774938061833382, -0.024775629863142967, -0.04460778459906578, -0.05318697541952133, 0.09549924731254578, 0.11409630626440048, -0.03848520293831825, 0.04397229105234146, -0.028902582824230194, 0.012784578837454319, 0.03684663027524948, -0.04507720097899437, 0.024347111582756042, 0.07873393595218658, -0.04229516163468361, -0.0654677003622055, -0.05498666688799858, -0.03664121776819229, -0.008902347646653652, 0.08464407175779343, -0.07101775705814362, 0.01622975617647171, -0.08086482435464859, 0.00449060695245862, 0.0018371018813923001, 0.043549180030822754, 0.044412173330783844, 0.029646921902894974, 0.050565410405397415, 0.02491934597492218, 0.10124678164720535, 0.04080145061016083, -0.006913234479725361, -0.08063775300979614, 0.048844486474990845, -0.06341548264026642, -0.02032093144953251, -0.09481233358383179, 0.02651412971317768, 0.0807572454214096, 0.0657370388507843, 0.003570535220205784, 0.034058827906847, 0.08378591388463974, 0.11676767468452454, 0.10756393522024155, 0.07813907414674759, 0.00018774415366351604, 0.07315684854984283, -0.0749039277434349, 0.10228016972541809, -0.03826116397976875, -0.06134750694036484, 0.0446159690618515, -0.07172685116529465, 0.008826304227113724, -0.06848429143428802, 0.07914772629737854, -0.021133309230208397, -0.013874119147658348, -0.042431723326444626, 0.0066170101054012775, -0.032594457268714905, 0.029726684093475342, -0.11266397684812546, 0.07912930846214294, 0.05806562304496765, -0.04787028580904007, -0.04361075907945633, -0.013147779740393162, -0.09815983474254608, 0.08214572817087173, 0.05982230231165886, 0.036849260330200195, -0.0566459596157074, -0.09704852849245071, -0.09815920144319534, 0.06954122334718704, -0.024374738335609436, 0.060739971697330475, 0.05682065337896347, -0.10456474125385284, -0.045460209250450134, -0.0695400983095169, -0.08326289802789688, -0.010456579737365246, -0.069615937769413, -0.05942223221063614, -0.0802263543009758, -0.05526288226246834, -0.05263948068022728, 0.004939652979373932, -0.02126675844192505, 0.02016478218138218, 0.05181983485817909, -0.027010774239897728, -0.09710868448019028, -0.011300109326839447, 0.03815881535410881, 0.029780955985188484, 0.0002230113750556484, 0.07155908644199371, -0.03374757617712021, 0.004040632396936417, -0.030208267271518707, 0.07263744622468948, -0.03434869647026062, 0.07114283740520477, -0.03586995601654053, 0.040002353489398956, -0.0051791169680655, 0.03545784577727318, 0.006358390673995018, 0.03836270421743393, 0.03444545343518257, 0.022435640916228294, 0.10389970988035202, -0.03881477564573288, -0.05330463871359825, 0.04839840903878212, -0.019360044971108437, 0.09390193223953247, 0.06975618749856949, -0.08348662406206131, -0.06537847965955734, -0.03571948781609535, 0.011927488259971142, -0.043251167982816696, -0.008990069851279259, 0.003462782595306635, 0.09318862110376358, -0.02575426921248436, 0.009119251742959023, -0.015416483394801617, 0.05370577424764633, -0.01977885328233242, 0.05957598611712456, -0.06470724195241928, 0.022706104442477226, 0.05363335832953453, 0.0005055614747107029, -0.041971731930971146, -0.08893851935863495, -0.008678486570715904, -0.07841858267784119, 0.0587746798992157, -0.09051714092493057, 0.025913741439580917, -0.009153326973319054, 0.04658825695514679, 0.08188566565513611, -0.04223223775625229, -0.07781064510345459, 0.08617256581783295, -0.04068286716938019, 0.05623270943760872, 0.028436074033379555, -0.09751935303211212, -0.004247391130775213, -0.0620732381939888, 0.09838825464248657, -0.03686395287513733, -0.02156832255423069, -0.04704086482524872, 0.0511418916285038, 0.043463826179504395, 0.0230025053024292, 0.07187913358211517, -0.07897882908582687, -0.06971938163042068, -0.040214747190475464, -0.07723934948444366, -0.005958436522632837, 0.047600891441106796, -0.038104183971881866, 0.026089809834957123, 0.09101273119449615, 0.038611166179180145, -0.09667876362800598, -0.03261534497141838, -0.054377809166908264, 0.03371727466583252, -0.007093772292137146, 0.0897904708981514, 0.07453804463148117, -0.04435666650533676, -0.03289453685283661, -0.09288593381643295, 0.07295940816402435, 0.08134160935878754, -0.06587037444114685, -0.06754954904317856, 0.11333120614290237, -0.021736755967140198, 0.053537767380476, 0.05163979157805443, -0.03328722342848778, 0.03493932634592056, -0.05504758283495903, 0.08396872878074646, -0.04569463059306145, -0.03173332288861275, 0.04367688298225403, 0.060422517359256744, 0.01058907713741064, -0.028805239126086235, 0.021169433370232582, 0.013460161164402962, 0.006582628469914198, 0.05490191653370857, -0.037942059338092804, -0.0624784417450428, 0.08356355130672455, 0.08155274391174316, -0.050414297729730606, 0.09253402799367905, 0.05572797358036041, -0.020453626289963722, 0.04260170832276344, 0.06313814222812653, 0.06126309558749199, -0.06377974897623062, -0.03590838611125946, -0.03968439996242523, 0.08233264833688736], [0.06066947057843208, -0.03372054174542427, -0.07279107719659805, 0.041875582188367844, -0.05976727604866028, 0.028697529807686806, -0.006270807236433029, 0.09291169792413712, -0.05015941709280014, 0.034496013075113297, 0.02490055374801159, -0.03047763556241989, -0.04520652815699577, 0.06418103724718094, -0.06713210791349411, 0.04433270916342735, 0.10238710790872574, 0.07078064233064651, -0.044434819370508194, 0.018355369567871094, 0.09882880002260208, 0.06481160968542099, -0.021531132981181145, -0.07106560468673706, -0.1021469235420227, -0.02614160254597664, 0.06192915514111519, -0.01433014590293169, 0.08175286650657654, -0.008577096275985241, 0.06084004044532776, 0.0278258565813303, -0.0135040283203125, -0.06761994957923889, 0.037915948778390884, 0.0023354310542345047, -0.007184471003711224, 0.032080668956041336, -0.09204196184873581, 0.07051803171634674, 0.04865483194589615, -0.017033450305461884, 0.06120654568076134, 0.05392848700284958, 0.06880427896976471, -0.013636885210871696, 0.07710562646389008, 0.0908348485827446, 0.01975161023437977, -0.011549164541065693, -0.05906115844845772, 0.03932628780603409, 0.0485270619392395, 0.0680726170539856, -0.07767453044652939, 0.03539494052529335, -0.0435841903090477, -0.008421271108090878, -0.08826956152915955, 0.06865757703781128, -0.028974007815122604, -0.007628004997968674, 0.06840731203556061, 0.062263742089271545, 0.012225179001688957, -0.03433947265148163, -0.06195111572742462, 0.09641647338867188, 0.029508154839277267, 0.09339754283428192, 0.10385999083518982, -0.07540625333786011, 0.03466220200061798, 0.008338416926562786, 0.05676332861185074, -0.07830412685871124, -0.013023379258811474, 0.004261159338057041, 0.03696061670780182, -0.07927380502223969, -0.06513847410678864, -0.08025215566158295, 0.050225913524627686, 0.037932150065898895, 0.010568995960056782, -0.06782371550798416, 0.10622367262840271, -0.08477572351694107, 0.09283909201622009, 0.05590551346540451, -0.01651655323803425, -0.08326653391122818, 0.03873274102807045, 0.07018265128135681, 0.0808955729007721, 0.032017432153224945, -0.036205146461725235, 0.010468688793480396, 0.056898195296525955, -0.028484933078289032, -0.04259162396192551, -0.012025881558656693, -0.09730492532253265, -0.061104025691747665, 0.06625808030366898, 0.0991368219256401, -0.00808715634047985, -0.04325538128614426, -0.048275768756866455, -0.07472613453865051, 0.0734538808465004, 0.06847032904624939, 0.037109602242708206, -0.018847299739718437, 0.0684397742152214, -0.03909570351243019, -0.03143228590488434, 0.025235669687390327, -0.029478996992111206, -0.002596844919025898, -0.029145224019885063, 0.0032225986942648888, 0.08420500159263611, -0.0004912014119327068, -0.050413262099027634, 0.053354356437921524, 0.008002457208931446, 0.0016267335740849376, -0.011595696210861206, 0.049671970307826996, -0.023131418973207474, -0.0878475159406662, -0.04582339897751808, -0.03356737643480301, -0.037141140550374985, 0.07946537435054779, 0.02357945591211319, -0.017715100198984146, 0.013743720948696136, -0.04085021838545799, -0.07127008587121964, 0.0445219911634922, -0.016645891591906548, -0.06108623743057251, 0.08216949552297592, 0.08481936901807785, 0.0593152679502964, 0.011071226559579372, -0.0854947492480278, 0.05463923513889313, -0.08317585289478302, -0.08694241940975189, -0.0163592379540205, -0.08517784625291824, -0.016440685838460922, -0.038366369903087616, -0.0622427761554718, 0.03146038576960564, 0.05921795964241028, -0.011188806034624577, 0.09968864172697067, 0.10335155576467514, -0.08252303302288055, -0.10011673718690872, 0.10012520104646683, -0.022181592881679535, 0.007517014164477587, -0.08039965480566025, -0.06420726329088211, -0.08910511434078217, -0.06411447376012802, 0.08097554743289948, 0.04701628163456917, 0.0950259417295456, 0.07311385124921799, -0.06939646601676941, -0.10120275616645813, 0.03605753928422928, -0.04551512748003006, -0.08488699793815613, 0.06264527142047882, 0.005566918291151524, 0.014813102781772614, -0.08464052528142929, -0.053639546036720276, 0.08045951277017593, -0.06915499269962311, 0.09509419649839401, -0.031617421656847, 0.014184877276420593, 0.05036228895187378, 0.03674248978495598, -0.09354257583618164, 0.025993481278419495, 0.06724786758422852, 0.0673498883843422, -0.06017439439892769, -0.010874105617403984, 0.08188533037900925, 0.06357933580875397, -0.06072414666414261, -0.09023778140544891, -0.06130453199148178, 0.0075189173221588135, -0.07950612157583237, -0.0695716068148613, -0.026408720761537552, 0.04106002300977707, -0.0794871523976326, -0.02219996228814125, 0.022921396419405937, -0.042252492159605026, 0.06699824333190918, 0.043186210095882416, -0.08100169897079468, 0.06390786170959473, -0.05104970186948776, -0.03042948991060257, 0.08205585181713104, 0.03387455269694328, -0.067625492811203, 0.09383004158735275, -0.06795814633369446, -0.0419764518737793, -0.0524551160633564, 0.08942028880119324, -0.029026394709944725, -0.06099199876189232, 0.02373162843286991, 0.06863389909267426, -0.02456865832209587, 0.0642324686050415, 0.018168337643146515, 0.052929047495126724, 0.02225056290626526, -0.09435288608074188, -0.048851367086172104, 0.0006888650823384523, 0.03693689778447151, 0.06507773697376251, -0.05216527357697487, 0.0077830106019973755, -0.008127616718411446, -0.005507215391844511, -0.044222403317689896, -0.052767302840948105, -0.02457692101597786, -0.044847067445516586, 0.020880257710814476, -0.06733063608407974, 0.0741623193025589, 0.002251559169963002, -0.012777550145983696, -0.057353369891643524, 0.0675918236374855, 0.10849718004465103], [0.020527638494968414, 0.036718983203172684, -0.06989096850156784, 0.05319175496697426, 0.05623852089047432, 0.10527811199426651, -0.09004892408847809, -0.04425043985247612, 0.03341125324368477, 0.05445397272706032, 0.056791629642248154, 0.05371071398258209, -0.002843925729393959, 0.047332022339105606, -0.05702037736773491, -0.0683063343167305, -0.06796067208051682, -0.060185037553310394, -0.011807643808424473, -0.08140427619218826, -0.0008652047254145145, 0.09254400432109833, 0.06438420712947845, -0.055910609662532806, 0.053884584456682205, 0.040326837450265884, -0.08304871618747711, 0.06095380336046219, -0.06820153445005417, 0.08219355344772339, -0.009940500371158123, 0.08113414794206619, 0.026417965069413185, 0.007478056475520134, 0.011357972398400307, -0.03227030858397484, -0.02755548804998398, 0.07820381224155426, -0.10197535157203674, 0.064281165599823, 0.08577464520931244, -0.09462946653366089, -0.011095206253230572, -0.09680075943470001, 0.01820448599755764, 0.08824525028467178, -0.03411250188946724, -0.06981229782104492, 0.005697348155081272, -0.04715736582875252, -0.004412136971950531, -0.050607360899448395, -0.0012281463714316487, -0.058165621012449265, -0.05606398358941078, -0.013436967507004738, -0.03722093254327774, 0.09207330644130707, 0.01992066018283367, 0.05268038809299469, -0.018244966864585876, 0.02844337932765484, 0.08754938095808029, 0.08510231971740723, -0.04681266471743584, 0.07333356142044067, 0.06209200993180275, -0.031550485640764236, -0.08951716870069504, 0.08497846871614456, 0.041509825736284256, -0.08030024915933609, 0.031095057725906372, 0.04405660927295685, -0.07147619128227234, -0.10840656608343124, 0.023412121459841728, -0.044434718787670135, 0.012956470251083374, -0.08694073557853699, 0.054278794676065445, -0.07837894558906555, 0.028457552194595337, -0.09227969497442245, 0.07674280554056168, -0.09449700266122818, 0.09922272711992264, 0.04897783696651459, 0.029231194406747818, 0.028577536344528198, -0.015470845624804497, -0.04713927581906319, -0.07089221477508545, 0.07225286215543747, -0.02670874632894993, 0.01896706037223339, 0.04030647873878479, -0.012752039358019829, -0.08963245153427124, -0.07544151693582535, -0.03389190882444382, -0.04587651416659355, 0.03806205093860626, -0.08509018272161484, 0.0738055557012558, -0.022818773984909058, 0.009742259979248047, -0.039863407611846924, -0.08970454335212708, 0.05271383747458458, 0.07377829402685165, 0.02365274913609028, 0.06527570635080338, 0.09069477766752243, 0.01573065295815468, -0.0692964643239975, 0.08603140711784363, -0.003686292329803109, 0.03243285045027733, -0.04244767129421234, 0.025722159072756767, 0.04039674624800682, -0.0363541804254055, 0.07342229783535004, 0.006148676387965679, 0.013848885893821716, 0.02426907606422901, 0.06457693874835968, 0.015844369307160378, -0.007998607121407986, -0.020870015025138855, -0.08290311694145203, -0.04848408326506615, 0.032903607934713364, -0.026224186643958092, -0.07430943101644516, 0.07370120286941528, -0.08827034384012222, -0.02419055998325348, -0.08145322650671005, 0.052792731672525406, 0.0016365121118724346, 0.08855658769607544, -0.025771208107471466, 0.0811634510755539, -0.014367083087563515, 0.08026659488677979, -0.09546993672847748, 0.04672204330563545, -0.09182173013687134, -0.08955002576112747, 0.10151110589504242, 0.08157119154930115, 0.07232607901096344, -0.02443571388721466, 0.10633455216884613, -0.010591614060103893, 0.022248655557632446, 0.09039177000522614, -0.002421822864562273, -0.03228149935603142, -0.06807276606559753, 0.00011916640505660325, -0.01142543088644743, 0.06932201981544495, -0.06628073751926422, 0.032355327159166336, 0.08765508979558945, 0.046512018889188766, 0.025000102818012238, 0.007071101572364569, -0.10755744576454163, 0.042324498295784, -0.02306535094976425, -0.08894601464271545, 0.06512024998664856, -0.027486693114042282, 0.07968500256538391, 0.05385027453303337, 0.051817387342453, -0.04615030437707901, 0.04823511466383934, -0.07220287621021271, 0.07312864810228348, 0.006630284246057272, 0.036059360951185226, -0.012021057307720184, 0.043395671993494034, 0.04742470756173134, 0.06483694911003113, 0.07106022536754608, 0.03370572254061699, 0.06904149055480957, -0.09784460067749023, -0.08660916239023209, -0.05930317938327789, -0.09141543507575989, -0.026211706921458244, -0.03642379119992256, 0.05010782927274704, -0.06553100049495697, -0.050685733556747437, -0.037727195769548416, 0.06721111387014389, -0.009409991092979908, 0.09541746228933334, -0.08544992655515671, -0.02005285583436489, 0.02321300096809864, 0.07353393733501434, 0.08144254237413406, 0.06312555819749832, -0.07786646485328674, 0.004413680173456669, -0.011836884543299675, -0.04528075084090233, 0.10478435456752777, 0.03105599246919155, -0.1009456217288971, 0.08189494162797928, 0.037123262882232666, 0.07207125425338745, 0.09833882004022598, -0.02458851970732212, 0.04098648950457573, 0.09755496680736542, 0.09915665537118912, 0.04926109313964844, -0.09204476326704025, 0.0010188529267907143, -0.009162074886262417, -0.03289327397942543, -0.06306244432926178, 0.09091964364051819, -0.060856256633996964, -0.06696487963199615, -0.02272096462547779, 0.04213118180632591, 0.03462136164307594, -0.011032044887542725, 0.011562654748558998, -0.05005795508623123, -0.10965083539485931, -0.06050658971071243, 0.03922377899289131, 0.06653698533773422, -0.033547934144735336, 0.08227545022964478, -0.03506817668676376, -0.012208638712763786, -0.03526819869875908, -0.03784380108118057, 0.0033336502965539694, -0.028969421982765198, -0.042467065155506134, 0.046974584460258484], [0.09291403740644455, -0.02692314237356186, 0.0715731531381607, -0.00029010334401391447, 0.08259239047765732, -0.04949747771024704, 0.05606125667691231, 0.008468669839203358, 0.009654308669269085, -0.09358205646276474, 0.02570897713303566, -0.062230076640844345, 0.09749813377857208, 0.01852544955909252, 0.025632642209529877, -0.05644302815198898, 0.05374211072921753, -0.021763866767287254, -0.02561848610639572, -0.09221930056810379, 0.004540691152215004, -0.035298801958560944, 0.11051960289478302, -0.06866180896759033, -0.05924667418003082, 0.05151806399226189, 0.06442141532897949, -0.07910580188035965, 0.055692341178655624, 0.04440108314156532, 0.09614453464746475, -0.08563965559005737, -0.014890274032950401, 0.014789899811148643, -0.014394798316061497, 0.026271400973200798, 0.02727399207651615, -0.09507293999195099, -0.04195983707904816, -0.056265268474817276, 0.09038565307855606, 0.017408715561032295, -0.032835762947797775, 0.015681171789765358, 0.020289389416575432, -0.07356955856084824, -0.046204738318920135, 0.07366687804460526, 0.06576939672231674, -0.0862269252538681, -0.03029540926218033, -0.050167493522167206, -0.0038579204119741917, -0.01206920761615038, -0.003422674722969532, 0.03442484885454178, 0.053770918399095535, -0.04315665364265442, 0.08860571682453156, 0.08346311002969742, 0.015341049060225487, -0.06904705613851547, -0.07116419076919556, -0.02048720233142376, -0.020030399784445763, 0.0013367426581680775, -0.03425626456737518, -0.04425734654068947, 0.006775410380214453, 0.06910263746976852, 0.01879558153450489, 0.04745835065841675, 0.028769217431545258, -0.03452784940600395, -0.022084996104240417, -0.009205677546560764, 0.08352148532867432, -0.08562435209751129, -0.009733530692756176, -0.051937054842710495, 0.10640675574541092, -0.045005377382040024, 0.03825008496642113, 0.07936415821313858, 0.059589628130197525, -0.060062527656555176, -0.05696288123726845, 0.07219212502241135, -0.09804581105709076, -0.09448572248220444, 0.059509001672267914, 0.01813444122672081, -0.05050453916192055, 0.021042659878730774, -0.05404873564839363, 0.012451845221221447, 0.06533509492874146, -0.04788447916507721, -0.02248823642730713, 0.10018283873796463, 0.06923142075538635, 0.04368064925074577, -0.019893471151590347, -0.008818200789391994, 0.020934993401169777, -0.062335480004549026, 0.06463400274515152, 0.056806161999702454, 0.022054830566048622, 0.005019018892198801, 0.06879454106092453, 0.060929447412490845, 0.05780281499028206, 0.0377625934779644, -0.044963255524635315, -0.0901440903544426, 0.03358309715986252, -0.10106053203344345, 0.07644142955541611, 0.04966667667031288, -0.00702609121799469, 0.064157634973526, 0.008934827521443367, -0.018615493550896645, 0.07857409119606018, 0.06610096246004105, 0.07899696379899979, 0.0374690517783165, 0.04669274762272835, -0.07490261644124985, -0.020575357601046562, -0.09021798521280289, 0.05970263481140137, 0.10993678867816925, -0.0374147854745388, 0.052215930074453354, 0.04462870955467224, 0.10727081447839737, -0.08648693561553955, 0.06325038522481918, 0.007122253067791462, 0.03369085118174553, -0.10331637412309647, 0.08785654604434967, -0.06532029062509537, -0.03322653844952583, 0.06369181722402573, 0.04187285155057907, -0.05678471922874451, -0.07218053936958313, 0.07145725935697556, -0.06310126930475235, 0.04051821306347847, -0.01077057421207428, -0.09701209515333176, 0.01692057214677334, 0.06372348964214325, 0.010194774717092514, -0.0011999744456261396, 0.007616270333528519, -0.07126838713884354, 0.07170143723487854, 0.020893612876534462, 0.07165086269378662, -0.037182874977588654, 0.08541188389062881, 0.021871743723750114, -0.07936154305934906, 0.09423837065696716, -0.03951402008533478, 0.06983460485935211, -0.11450116336345673, 0.031236762180924416, -0.08282533288002014, -0.051078010350465775, -0.06812995672225952, -0.015858525410294533, -0.05976823717355728, -0.01663036271929741, 0.08574706315994263, 0.09018697589635849, 0.02575649321079254, 0.08050179481506348, 0.04076134413480759, -0.03588029369711876, 0.06586123257875443, 0.07183912396430969, -0.0797487422823906, 0.06412887573242188, 0.06279831379652023, 0.08654353022575378, -0.0019076665630564094, -0.023364491760730743, 0.055399324744939804, 0.051311928778886795, 0.03130197152495384, 0.053262703120708466, -0.03791926056146622, -0.05128646641969681, 0.06613926589488983, 0.02149895951151848, -0.0342872217297554, 0.07973532378673553, 0.07423434406518936, 0.059381153434515, -0.06736477464437485, 0.05483504384756088, 0.0027140039019286633, -0.08400309085845947, 0.0041013858281075954, -0.01133140828460455, 0.08534598350524902, -0.020748546347022057, 0.05904514342546463, 0.026727624237537384, -0.01977277547121048, 0.007043247111141682, 0.05111198127269745, 0.07994379103183746, 0.10258909314870834, 0.01841067336499691, 0.05750773847103119, -0.054652269929647446, -0.08131756633520126, 0.013162289746105671, 0.005352715030312538, -0.07957112044095993, 0.08476655930280685, -0.0831155925989151, 0.08973724395036697, 0.08324173092842102, -0.012358254753053188, -0.05149412155151367, 0.048949651420116425, 0.03523050248622894, -0.005140987690538168, 0.04320892319083214, 0.09232654422521591, -0.091069795191288, -0.0008616216364316642, -0.019098853692412376, -0.028347281739115715, -0.0389489084482193, 0.050509486347436905, -0.031399574130773544, 0.05050581321120262, 0.03544612228870392, 0.03713873773813248, 0.004187458660453558, -0.05779530853033066, 0.023932091891765594, -0.08656006306409836, 0.029017675668001175, 0.05853358283638954, -0.05221594125032425, 0.06402802467346191], [0.031212151050567627, -0.01909845694899559, -0.049025703221559525, 0.032684918493032455, -0.056037526577711105, -0.08017529547214508, 0.03047916293144226, 0.07501540333032608, 0.07630708068609238, 0.0033599473536014557, -0.07940716296434402, -0.0024273411836475134, 0.03319227322936058, -0.024296950548887253, 0.040746454149484634, -0.057564809918403625, 0.04552624002099037, 0.09298849105834961, 0.025588512420654297, -0.045515045523643494, -0.06997333467006683, -0.04450496658682823, 0.06348693370819092, -0.07107873260974884, 0.011834388598799706, -0.02586306817829609, -0.03633880615234375, 0.015586397610604763, -0.08552118390798569, 0.03931976854801178, -0.0036400901153683662, 0.09550835937261581, 0.03272320702672005, -0.03239470347762108, 0.09230955690145493, 0.010232324711978436, 0.026459289714694023, 0.07977347075939178, 0.003475600853562355, 0.02385125495493412, -0.053900547325611115, -0.09444092959165573, 0.0593830943107605, -0.01188571285456419, -0.05636700615286827, -0.029459159821271896, -0.07287752628326416, -0.014342546463012695, 0.006740691605955362, -0.04836249351501465, -0.07528934627771378, 0.0052290502935647964, -0.08311734348535538, -0.026006462052464485, -0.054616257548332214, -0.06580837815999985, 0.08709830790758133, -0.04363645985722542, 0.008915629237890244, -0.054856281727552414, -0.05098617821931839, 0.07271233201026917, -0.021647680550813675, -0.08402025699615479, 0.04778676480054855, 0.06419926881790161, 0.006042570807039738, -0.06342310458421707, 0.0746934786438942, 0.009059443138539791, 0.07880052179098129, -0.005163697991520166, -0.02882596291601658, -0.026039663702249527, 0.04841668903827667, -0.047963447868824005, -0.03563380613923073, 0.07929930835962296, 0.04134611785411835, -0.025339176878333092, -0.0862058624625206, -0.027454620227217674, 0.006949245929718018, -0.030392564833164215, -0.018719522282481194, -0.0067636314779520035, -0.1031617671251297, -0.002651515416800976, 0.06917962431907654, 0.007447810843586922, 0.0676996260881424, -0.09760912507772446, -0.056678734719753265, 0.03141539543867111, -0.0813659206032753, -0.07575829327106476, 0.02568032592535019, -0.07868887484073639, 0.0037378359120339155, -0.01699110120534897, -0.09714851528406143, -0.0018557552248239517, 0.09398266673088074, 0.041427988559007645, -0.09493350237607956, -0.02814982272684574, 0.0381925031542778, -0.014886814169585705, 0.09337436407804489, -0.05964858457446098, 0.03749026730656624, -0.10010931640863419, 0.08165901154279709, 0.00643030134961009, -0.058147069066762924, 0.053286660462617874, -0.008287844248116016, 0.08467249572277069, 0.05379997193813324, 0.02360960654914379, -0.04671543091535568, 0.09404885023832321, -0.02864772453904152, -0.03767628222703934, 0.08487603813409805, -0.067072294652462, -0.10597483813762665, -0.07709655910730362, -0.08456598967313766, -0.052229203283786774, -0.06216751039028168, -0.00403058435767889, -0.0922279953956604, 0.07633829861879349, -0.032697126269340515, -0.08084453642368317, -0.0415896438062191, -0.006923574022948742, 0.036785900592803955, 0.040472012013196945, 0.032689742743968964, 0.004736138042062521, 0.0619879812002182, 0.07152393460273743, -0.001092039979994297, 0.010622802190482616, 0.07759178429841995, 0.011054514907300472, 0.03701699525117874, 0.06989210844039917, -0.067634716629982, 0.06553153693675995, 0.016733752563595772, -0.0007824391359463334, -0.067528635263443, 0.024909542873501778, 0.08065257966518402, 0.055415816605091095, 0.10309700667858124, 0.07514631003141403, 0.012636926025152206, -0.04394132271409035, 0.09474799036979675, 0.03259599953889847, -0.07387975603342056, -0.00408170698210597, 0.06234424561262131, -0.03527103736996651, 0.08859492838382721, 0.09066500514745712, -0.020450305193662643, 0.10648290812969208, -0.09019255638122559, -0.023595182225108147, 0.026179257780313492, -0.07554793357849121, -0.015274224802851677, 0.09343628585338593, -0.043032776564359665, 0.031860969960689545, -0.022387996315956116, 0.07602069526910782, -0.08872499316930771, -0.00440357718616724, -0.056028902530670166, -0.0985264852643013, 0.09115631878376007, -0.07707434147596359, 0.04816385358572006, -0.029135610908269882, -0.011460738256573677, 0.0465625636279583, 0.05535273626446724, 0.008846483193337917, 0.042310699820518494, 0.09160593897104263, 0.0840611606836319, -0.06593666970729828, -0.06681490689516068, 0.04846035689115524, -0.10733650624752045, -0.039008598774671555, -0.08167288452386856, -0.030059369280934334, -0.005534840747714043, -0.06059880554676056, -0.0374421551823616, -0.060910824686288834, -0.03695076331496239, -0.059966251254081726, 0.08958006650209427, -0.07095538824796677, -0.006895045749843121, -0.0818701758980751, -0.017902199178934097, -0.009846541099250317, 0.052366241812705994, 0.07249248027801514, -0.09155935049057007, -0.06733060628175735, 0.04969291016459465, 0.05596792325377464, 0.07360926270484924, -0.08955524116754532, -0.04025782644748688, 0.10162569582462311, -0.04719807952642441, -0.06333597004413605, 0.0020729717798531055, 0.03736753761768341, -0.05045866593718529, -0.0050040860660374165, 0.07697570323944092, 0.08707616478204727, 0.0320173054933548, -0.02579219825565815, 0.06960328668355942, -0.10768264532089233, -0.09513913094997406, 0.09158716350793839, 0.0334138460457325, -0.05195341259241104, -0.05292737856507301, -0.029723230749368668, 0.045334406197071075, -0.05911531299352646, 0.062144000083208084, -0.017323242500424385, 0.09193822741508484, 0.0414472259581089, 0.031955935060977936, 0.045258358120918274, 0.08540614694356918, 0.06404951214790344, -0.03312239423394203, 0.08756794780492783], [-0.03814314678311348, 0.03910765051841736, -0.011842520907521248, 0.08177145570516586, 0.04289564862847328, 0.018583545461297035, -0.058533377945423126, -0.03208667039871216, -0.05899006128311157, -0.007576920557767153, -0.0021824303548783064, 0.023913130164146423, -0.06435023993253708, 0.07227940857410431, -0.04838554933667183, -0.09136908501386642, 0.027102256193757057, 0.04268607497215271, 0.0015513432445004582, -0.027561241760849953, 0.01416229922324419, -0.07786929607391357, 0.0838337391614914, 0.06669590622186661, 0.013445050455629826, 0.03633439168334007, 0.012826833873987198, 0.09916704148054123, -0.036945585161447525, 0.06466099619865417, 0.0015070097288116813, 0.0023443715181201696, -0.05489668995141983, 0.04764221981167793, 0.05894024670124054, -0.017527515068650246, -0.006311378441751003, 0.03272689878940582, -0.024485940113663673, -0.04389600455760956, 0.07038256525993347, -0.07950804382562637, 0.04807930067181587, -0.05419544503092766, -0.03916789963841438, 0.06439580023288727, 0.05140237882733345, 0.09997178614139557, 0.044598210602998734, 0.004916008096188307, 0.03506052866578102, 0.09245938807725906, -0.08273661136627197, -0.06226979196071625, -0.06733781099319458, -0.0010535018518567085, 0.07929061353206635, -0.0634799674153328, -0.023733889684081078, -0.09293373674154282, 0.0448281392455101, 0.034606363624334335, 0.05616769939661026, 0.037936732172966, 0.021991413086652756, -0.09817192703485489, -0.08187155425548553, -0.003299711039289832, -0.037099629640579224, -0.09440034627914429, 0.05887467786669731, 0.019951386377215385, -0.06996859610080719, 0.026726705953478813, -0.09094183146953583, -0.040625009685754776, -0.06262549757957458, 0.08318959921598434, 0.002014475641772151, -0.07257483899593353, -0.07574725896120071, 0.06046677008271217, -0.06795500218868256, 0.07689236849546432, 0.040052685886621475, 0.025395074859261513, 0.0007063781376928091, -0.044999223202466965, -0.033841703087091446, 0.08610392361879349, -0.06775517761707306, 0.01299255806952715, -0.025448696687817574, -0.08533958345651627, -0.0013457864988595247, -0.061566054821014404, -0.0415835902094841, -0.05665278434753418, -0.028458859771490097, -0.05175049230456352, 0.08827292919158936, 0.04820219427347183, 0.07650211453437805, 0.01316497940570116, -0.032905977219343185, -0.02776636742055416, 0.0207649115473032, 0.02163800597190857, 0.05722171813249588, 0.09488198906183243, -0.03028557263314724, 0.08265096694231033, -0.03225267678499222, -0.017579300329089165, -0.07976251095533371, -0.09499053657054901, -0.10020262748003006, -0.07634390890598297, -0.04225210100412369, -0.08579249680042267, 0.06996819376945496, 0.052158892154693604, -0.05424705892801285, -0.005817065015435219, -0.021247541531920433, 0.02614908665418625, 0.07401670515537262, 0.08255257457494736, -0.006285381503403187, 0.10509596019983292, 0.07366439700126648, -0.053901806473731995, -0.08373918384313583, 0.06974261999130249, -0.022480390965938568, -0.001905140234157443, 0.07702173292636871, -0.022778887301683426, 0.056200865656137466, 0.010412735864520073, 0.032762546092271805, 0.013104056008160114, 0.08205132931470871, -0.07407911866903305, -0.018570618703961372, 0.07581575214862823, -0.03728759288787842, 0.06481186300516129, -0.013015138916671276, 0.04458877071738243, 0.009706691838800907, -0.023060156032443047, -0.059731293469667435, 0.034281134605407715, -0.08495763689279556, 0.0001727937487885356, 0.06855922937393188, -0.06058431416749954, 0.03460010513663292, 0.04516294226050377, -0.08588703721761703, -0.07391943782567978, -0.08754197508096695, -0.06357941031455994, 0.030473101884126663, -0.09223438799381256, -0.039084285497665405, -0.07364284992218018, -0.04248529300093651, 0.04848159849643707, -0.007649171631783247, -0.05990338325500488, -0.01808200031518936, -0.07376116514205933, 0.002193101914599538, 0.05177107825875282, 0.010220627300441265, -0.005127952434122562, -0.03322753682732582, -0.10578803718090057, 0.07193168997764587, 0.0208011232316494, -0.08032907545566559, -0.10151263326406479, 0.02322554960846901, 0.036805760115385056, -0.0019010803662240505, 0.017673388123512268, -0.02246806025505066, -0.062319785356521606, 0.039798904210329056, -0.08654726296663284, -0.04479513689875603, -0.06695840507745743, -0.06768296658992767, -0.06209860369563103, 0.037497520446777344, 0.056929826736450195, -0.06861100345849991, -0.048733700066804886, -0.06650564819574356, 0.07948930561542511, -0.078907810151577, 0.023757461458444595, -0.04308902472257614, -0.019625112414360046, -0.08441851288080215, -0.029680481180548668, -0.07330948859453201, -0.10613444447517395, 0.01657368242740631, 0.05663901939988136, 0.025399666279554367, -0.04141366109251976, 0.02608761563897133, -0.05899934098124504, -0.06592728197574615, 0.09625031054019928, -0.009318111464381218, 0.0884203165769577, -0.04516840726137161, 0.0532262921333313, 0.09072766453027725, 0.06145742908120155, -0.04788560792803764, -0.02799413539469242, -0.016100117936730385, -0.07645706087350845, -0.039706163108348846, -0.029804052785038948, 0.05657026544213295, 0.00600691232830286, 0.013121458701789379, 0.07340632379055023, -0.023098498582839966, 0.04745059087872505, 0.07865297049283981, 0.10407477617263794, -0.013946622610092163, -0.05626954883337021, 0.08462674915790558, 0.01654558815062046, 0.08892692625522614, 0.038799844682216644, 0.10349557548761368, 0.08811698853969574, -0.005895845126360655, -0.04629470035433769, 0.039937641471624374, -0.016058506444096565, -0.027271205559372902, -0.09700573980808258, 0.052226658910512924, -0.08162058889865875, 0.009525908157229424, 0.023669997230172157], [-0.06491128355264664, 0.07772443443536758, -0.010485639795660973, -0.02174980938434601, -0.053300969302654266, 0.01129401195794344, -0.0405217781662941, -0.07227087020874023, 0.051762521266937256, -0.022591285407543182, -0.008246691897511482, -0.006246575154364109, -0.039408259093761444, 0.0009708330035209656, -0.0769573524594307, -0.05157027021050453, -0.07121105492115021, 0.047123949974775314, 0.06588931381702423, -0.06768129020929337, -0.0259062722325325, -0.016010252758860588, 0.06760439276695251, 0.06645794212818146, -0.006290923338383436, 0.03498576954007149, 0.09447573125362396, -0.08719466626644135, 0.06308765709400177, -0.006724722217768431, 0.06859532743692398, 0.09322848170995712, -0.10032238811254501, 0.025604339316487312, -0.11165539175271988, 0.06653142720460892, -0.09919260442256927, -0.021332312375307083, 0.08900387585163116, 0.031926773488521576, -0.09292440116405487, -0.09931135922670364, 0.03709118440747261, 0.05002090707421303, -0.017546238377690315, 0.04997515305876732, -0.04691147059202194, 0.033718034625053406, 0.019120795652270317, -0.01987156644463539, -0.04021880403161049, 0.004275558050721884, -0.0682748556137085, -0.03171464800834656, 0.06637275964021683, 0.03997954726219177, 0.07196120917797089, 0.06429537385702133, -0.007460589520633221, 0.042820967733860016, 0.048205990344285965, -0.0810215175151825, -0.07711810618638992, -0.04757532477378845, -0.023695746436715126, 0.04735509306192398, 0.03477928414940834, 0.01126585528254509, 0.0019138932693749666, -0.04384148493409157, 0.0568554550409317, 0.05515104904770851, -0.050781141966581345, 0.0788126289844513, 0.07702011615037918, 0.009832930751144886, -0.07059953361749649, 0.040588896721601486, 0.04768593609333038, 0.05501613765954971, 0.012887938879430294, 0.04095472767949104, -0.027370169758796692, 0.014798855409026146, 0.03210728242993355, 0.062137577682733536, 0.03536536172032356, 0.053815875202417374, -0.0373896062374115, -0.07065261900424957, 0.01606818474829197, -0.04167209938168526, -0.04476861655712128, 0.033733073621988297, -0.04489503800868988, 0.0829802080988884, 0.016666878014802933, -0.07259472459554672, -0.08479326218366623, -0.022764073684811592, -0.04720687121152878, -0.02133401483297348, 0.007408308796584606, -0.09156244993209839, -0.042668212205171585, 0.023480139672756195, -0.030381282791495323, 0.06637147814035416, -0.06919113546609879, -0.07396542280912399, -0.06947087496519089, 0.05483032390475273, 0.07191885262727737, 0.08409058302640915, 0.07004914432764053, 0.004561570007354021, -0.061623986810445786, 0.0925823450088501, -0.0747540146112442, 0.06295894831418991, 0.07387400418519974, 0.0667773112654686, 0.08214706182479858, -0.06485330313444138, 0.04632372409105301, -0.0615387037396431, -0.01671948842704296, -0.04153512790799141, 0.08123957365751266, -0.08377578109502792, -0.05042498931288719, 0.036847855895757675, -0.030698681250214577, -0.08944917470216751, -0.07723414897918701, -0.007141198497265577, 0.054744966328144073, -0.0033781242091208696, -0.09701800346374512, 0.012398055754601955, -0.05956539139151573, 0.004083745647221804, 0.06492561101913452, 0.011312931776046753, 0.08547573536634445, -0.036495789885520935, 0.08897121250629425, 0.034681521356105804, 0.03187102451920509, 0.05817689001560211, 0.05476812273263931, -0.05968724191188812, 0.021391527727246284, -0.03175054118037224, 0.0872332975268364, 0.02136848121881485, 0.10856044292449951, 0.049741748720407486, -0.05121023207902908, 0.04631013423204422, -0.0012777900556102395, 0.01265659462660551, 0.062000591307878494, 0.023600416257977486, 0.016794780269265175, 0.004801224451512098, 0.017403263598680496, 0.08595354855060577, -0.10902673006057739, -0.030800718814134598, 0.07979469746351242, -0.034004028886556625, -0.08996977657079697, -0.004363653715699911, 0.04783129319548607, -0.09196943789720535, -0.006088586524128914, -0.07182180881500244, 0.02216970920562744, 0.07152951508760452, -0.08151523023843765, -0.056854117661714554, -0.03025364689528942, 0.024820052087306976, -0.04083719104528427, -0.0818830281496048, 0.04560346156358719, -0.07696662098169327, 0.07573533058166504, 0.0009762123227119446, -0.045365966856479645, -0.04133040830492973, 0.006955266930162907, 0.024879705160856247, 0.10593603551387787, -0.001079918467439711, -0.002345555927604437, 0.06894174963235855, -0.042182356119155884, -0.03837552294135094, 0.07766221463680267, 0.03477039560675621, 0.028754372149705887, -0.009975874796509743, 0.00497027300298214, 0.03770015388727188, 0.10464490205049515, -0.026285896077752113, 0.026775328442454338, 0.00830778107047081, 0.06330837309360504, 0.04819433018565178, 0.025265764445066452, -0.0020574380178004503, 0.012936064042150974, -0.06986377388238907, 0.06919562816619873, -0.03295557573437691, -0.014895844273269176, -0.08229386061429977, -0.06340529769659042, -0.03817587345838547, 0.039119619876146317, 0.0641721785068512, -0.04782160744071007, -0.08618392795324326, 0.03418654575943947, -0.043937645852565765, 0.025695938616991043, 0.06219841167330742, -0.05161317065358162, -0.056309353560209274, -0.026334768161177635, -0.042987674474716187, 0.03582722321152687, 0.09227269142866135, -0.07863783091306686, 0.04578394442796707, -0.08402437716722488, -0.019801761955022812, 0.046864621341228485, -0.097636878490448, -0.039715006947517395, 0.06744420528411865, -0.08455431461334229, 0.08741004765033722, 0.013741862028837204, -0.06147801876068115, -0.08860567957162857, 0.010002934373915195, 0.0005563839222304523, -0.04194643720984459, 0.09133307635784149, -0.09221819043159485, -0.0187410656362772, -0.03766971826553345], [-0.037110041826963425, 0.013085858896374702, 0.0964384600520134, 0.06521213799715042, -0.051791783422231674, -0.027576159685850143, -0.050882525742053986, -0.030172118917107582, -0.07164641469717026, -0.031103413552045822, -0.059877440333366394, 0.08760464936494827, 0.04099727049469948, 0.010576346889138222, -0.06862679123878479, -0.06302164494991302, -0.030272511765360832, 0.0022952330764383078, 0.07622131705284119, 0.02765807695686817, 0.07099997252225876, 0.06369325518608093, 0.0746091678738594, -0.031156428158283234, -0.08910593390464783, -0.011176086962223053, 0.04017036780714989, 0.0800480917096138, 0.08691013604402542, -0.04847543686628342, -0.01895464025437832, -0.04382850229740143, -0.0912257581949234, 0.10471677035093307, 0.05473831295967102, 0.05411259084939957, 0.002558870939537883, -0.06750763207674026, 0.05051892623305321, 0.05385028198361397, -0.004850022029131651, 0.05378540977835655, 0.0812583863735199, 0.05242805555462837, -0.08758517354726791, 0.10651329159736633, -0.04194913059473038, -0.09849999099969864, 0.002920068334788084, -0.027342315763235092, 0.0813797116279602, 0.003877673065289855, -0.0957522988319397, -0.071501225233078, -0.03135554492473602, -0.09620296955108643, 0.030339844524860382, -0.07298720628023148, 0.06753422319889069, 0.03332812339067459, 0.07374676316976547, 0.08511912077665329, -0.0670551285147667, 0.011577405035495758, 0.025497911497950554, 0.055409207940101624, 0.08641818165779114, -0.0794033333659172, 0.09521599113941193, -0.09229089319705963, -0.05644037574529648, 0.006052130833268166, -0.02243594080209732, 0.0740853026509285, -0.080649234354496, 0.04672272503376007, -0.02684697136282921, 0.06890890747308731, 0.020435594022274017, -0.10919740796089172, -0.08546603471040726, -0.03873830661177635, -0.013193483464419842, 0.06706879287958145, -0.02887716516852379, -0.02493753284215927, 0.029917335137724876, 0.004691298119723797, 0.049874767661094666, -0.06401295959949493, -0.012414336204528809, 0.0803360566496849, -0.04068196937441826, 0.002386899199336767, 0.08682141453027725, -0.05437248945236206, 0.03964506462216377, 0.001990500371903181, -0.045542724430561066, 0.07116957008838654, 0.05090177059173584, 0.08079998940229416, -0.06682801991701126, 0.060422200709581375, 0.07639601081609726, 0.04889819771051407, 0.02603791654109955, -0.004354880191385746, -0.06302016228437424, 0.06756974011659622, 0.051506347954273224, 0.06109797582030296, -0.05010499805212021, 0.014809150248765945, 0.04969971999526024, -0.008159979246556759, 0.063722163438797, -0.0033830483444035053, 0.0196633692830801, -0.07443195581436157, -0.09949273616075516, -0.0899040624499321, -0.050060953944921494, 0.0970669612288475, 0.08969935774803162, 0.07044879347085953, -0.06294161826372147, 0.08611273765563965, -0.006386640947312117, -0.02517136186361313, -0.044316694140434265, -0.016366945579648018, 0.03590010106563568, -0.019857455044984818, 0.03650142624974251, -0.007201050873845816, 0.018344677984714508, -0.016316812485456467, 0.09340133517980576, -0.03648566082119942, -0.008943109773099422, 0.022188130766153336, -0.04030948132276535, 0.04871335253119469, -0.014695881865918636, 0.03502056002616882, -0.07715311646461487, -0.07154171913862228, -0.03754831850528717, 0.06703716516494751, -0.062086112797260284, -0.04529659077525139, -0.005256460048258305, -0.06875685602426529, -0.03380041569471359, 0.015879450365900993, 0.09136959165334702, 0.04067380726337433, -0.08555680513381958, -0.047249238938093185, -0.04497256502509117, -0.0485500767827034, -0.08940426260232925, 0.0287350844591856, 0.057816505432128906, -0.08749687671661377, -0.012497731484472752, -0.045452117919921875, -0.09284254908561707, 0.1074288859963417, 0.08877801150083542, 0.013247481547296047, -0.03652597591280937, 0.0733029767870903, 0.08611685037612915, -0.06309206038713455, 0.09313298761844635, 0.09564833343029022, 0.0053850202821195126, -0.06566440314054489, -0.01946135237812996, 0.05379727482795715, -0.07094461470842361, 0.09288585186004639, -0.09853920340538025, -0.07626260071992874, 0.034340377897024155, 0.06822232902050018, 0.0844755470752716, 0.010524545796215534, 0.008913496509194374, 0.0556391142308712, 0.07326404005289078, 0.02854156121611595, -0.09061629325151443, 0.08962339162826538, -0.021893728524446487, -0.01609116792678833, 0.04847118258476257, 0.057530008256435394, -0.020099032670259476, 0.027239324524998665, -0.08567699790000916, 0.012564443983137608, 0.03285949304699898, 0.07616797834634781, 0.07657399773597717, -0.0013620108366012573, 0.042266543954610825, -0.08872650563716888, 0.0678059384226799, 0.015054116025567055, -0.03976692259311676, -0.06354869157075882, 0.04708961769938469, -0.004626698326319456, -0.06718970090150833, -0.014964372850954533, 0.004519147798418999, -0.08974961191415787, -0.09179996699094772, 0.028190361335873604, -0.01659657433629036, -0.07688885927200317, -0.09162253886461258, -0.09198591113090515, -0.020235156640410423, -0.06976106017827988, -0.0369548462331295, -0.09188656508922577, 0.019163943827152252, -0.100073903799057, 0.0861794725060463, 0.04248280078172684, 0.07487168163061142, 0.0712936669588089, -0.006676327902823687, 0.06115933135151863, -0.08436242491006851, -0.03467436879873276, -0.05601998418569565, -0.0444515235722065, 0.06759493052959442, -0.03952973335981369, -0.006552661769092083, -0.05392857640981674, -0.0732637569308281, -0.08577270060777664, 0.013836733996868134, -0.03208949416875839, 0.005348271690309048, 0.03536878526210785, -0.03565889969468117, 0.048293016850948334, 0.04868680238723755, 0.0848502516746521], [0.03712448850274086, -0.056702423840761185, 0.03438795357942581, 0.029445527121424675, 0.030809417366981506, -0.058095790445804596, 0.05265121906995773, -0.041178442537784576, -0.03419872000813484, 0.08566427230834961, 0.06697345525026321, 0.09513333439826965, -0.023190965875983238, -0.020099984481930733, -0.043431710451841354, -0.053525473922491074, -0.03848644718527794, 0.08321437984704971, 0.05248303711414337, 0.09068655967712402, 0.026441112160682678, -0.07181811332702637, -0.07320038974285126, -0.033188506960868835, -0.03876197338104248, 0.04262809455394745, 0.07406599074602127, -0.06656841188669205, -0.016087189316749573, 0.07912297546863556, 0.03810378909111023, 0.09249985963106155, -0.06356365978717804, 0.06406265497207642, -0.0007044094381853938, -0.09050294011831284, 0.04778318852186203, 0.07390750199556351, 0.07601042836904526, -0.015690108761191368, -0.009060618467628956, 0.07068855315446854, -0.07884929329156876, -0.05803516134619713, 0.1013045385479927, -0.04254267364740372, 0.02881673350930214, -0.012720475904643536, 0.026837501674890518, -0.09713497757911682, -0.0976143553853035, -0.08731669187545776, -0.0003183739900123328, -0.04397821053862572, 0.06578846275806427, -0.05669962242245674, -0.029202621430158615, 0.07918489724397659, -0.060619041323661804, -0.005138906184583902, 0.06375085562467575, 0.01034301146864891, -0.02958962693810463, -0.0663866400718689, -0.020324723795056343, -0.044703830033540726, -0.040727440267801285, 0.04938385263085365, -0.04566270485520363, -0.014984361827373505, 0.03670426458120346, 0.07590991258621216, 0.01614222303032875, -0.0006839606212452054, 0.04599844291806221, 0.09492330253124237, -0.06238970533013344, -0.07066801935434341, 0.07280516624450684, 0.10298150777816772, -0.08406928181648254, 0.10156942903995514, 0.02624102123081684, -0.08851256221532822, 0.03370503708720207, 0.030314328148961067, -0.0018127632793039083, -0.011350643821060658, 0.0633290633559227, 0.023247746750712395, -0.040827251970767975, 0.01936960779130459, 0.09557519108057022, 0.06368084251880646, 0.04278353229165077, -0.0946270301938057, 0.003011508611962199, 0.010741068981587887, -0.06397693604230881, 0.0053984071128070354, 0.091854028403759, -0.07871108502149582, 0.07780525833368301, -0.0025203004479408264, 0.006395454052835703, -0.07887537777423859, -0.09752099215984344, 0.050105608999729156, 0.0017248807707801461, -0.0047774529084563255, -0.05530817061662674, -0.061463043093681335, -0.05655090510845184, -0.08693826198577881, 0.0018184451619163156, 0.04599960893392563, 0.052675511687994, -0.08147755265235901, -0.01727023907005787, 0.03182277828454971, 0.008746004663407803, 0.06766898930072784, -0.029048781841993332, -0.09738262742757797, 0.04785778746008873, -0.05901703983545303, 0.09709197282791138, -0.06724874675273895, -0.07306108623743057, 0.004501371644437313, -0.08694944530725479, -0.02625669166445732, 0.046881165355443954, 0.02026454173028469, 0.07961714267730713, -0.030948186293244362, 0.028852755203843117, 0.02426067553460598, 0.0788542628288269, 0.0021402109414339066, -0.03994390740990639, 0.025110434740781784, -0.0320553295314312, 0.08449907600879669, 0.037572748959064484, 0.07608253508806229, -0.085752472281456, 0.09394898265600204, 0.026586418971419334, 0.073516845703125, 0.03908401355147362, -0.022140083834528923, -0.027828274294734, 0.048075415194034576, -0.014062076807022095, -0.0019120582146570086, -0.028111226856708527, -0.016197359189391136, -0.04225701838731766, -0.09256579726934433, 0.036756664514541626, -0.040779393166303635, 0.08129309117794037, 0.041159968823194504, 0.03951083868741989, -0.04421764984726906, 0.07503766566514969, 0.07604878395795822, 0.09599406272172928, 0.04056559130549431, -0.003151240525767207, -0.018329454585909843, -0.025958921760320663, 0.05435328558087349, -0.042259640991687775, -0.08546125143766403, 0.007117852568626404, -0.0010922986548393965, 0.06607605516910553, -0.04500284790992737, -0.08576057106256485, 0.05761037394404411, -0.07751727849245071, 0.05079852417111397, -0.04661206156015396, 0.033003244549036026, 0.006832897197455168, 0.060600996017456055, -0.08902101963758469, -0.024626055732369423, -0.09875360131263733, 0.07518887519836426, 0.07173147052526474, 0.03362350910902023, -0.0784188061952591, 0.09494003653526306, -0.04235708713531494, -0.019515348598361015, 0.07864359766244888, 0.0021608832757920027, 0.10774851590394974, 0.10806877166032791, 0.009864600375294685, -0.019643500447273254, 0.004356968216598034, -0.008605829440057278, -0.10196972638368607, 0.014455677010118961, -0.016179386526346207, 0.03872093930840492, 0.07536183297634125, -0.05516940355300903, 0.061411455273628235, -0.04644037038087845, -0.009859399870038033, -0.08973643183708191, -0.019383221864700317, -0.10873758047819138, -0.0639909952878952, -0.10994921624660492, -0.03809572011232376, 0.07205680012702942, -0.09821714460849762, -0.04544985666871071, 0.0165064949542284, 0.07353735715150833, 0.07147004455327988, 0.08172079920768738, 0.07956280559301376, -0.07646842300891876, -0.04719412326812744, -0.02597219869494438, -0.02677665837109089, -0.10012179613113403, -0.027889201417565346, -0.043213069438934326, 0.04602130502462387, 0.05710196867585182, 0.05896797776222229, -0.09293132275342941, -0.08011651039123535, -0.04390513524413109, -0.010900507681071758, -0.0349775105714798, 0.022518010810017586, 0.05415758118033409, -0.013356977142393589, 0.1028887927532196, 0.06352772563695908, -0.01985057070851326, -0.02127070166170597, 0.03567976504564285, -0.0631006732583046, 0.09485407918691635, -0.061120446771383286, -0.041765835136175156], [-0.07090465724468231, 0.007704474963247776, -0.06036136671900749, 0.07596156746149063, 0.08262018859386444, 0.07234082370996475, -0.009477115236222744, 0.047164034098386765, 0.06344830244779587, -0.027236005291342735, 0.02109672874212265, -0.04813619330525398, 0.046956613659858704, -0.05733202397823334, 0.013214429840445518, 0.04049517959356308, 0.055289752781391144, -0.04343514144420624, 0.0364096574485302, 0.02962673455476761, 0.004763066302984953, 0.01971503347158432, -0.08697888255119324, 0.021848032251000404, -0.08507879823446274, 0.047429408878088, -0.07023193687200546, 0.045958008617162704, -0.06320174783468246, -0.014679835177958012, 0.023303713649511337, 0.09164886176586151, 0.061723943799734116, 0.027353880926966667, 0.09784374386072159, -0.07522263377904892, -0.04360182583332062, -0.060978420078754425, -0.026536274701356888, -0.051832083612680435, 0.0038690485525876284, -0.07195693254470825, 0.06596323847770691, -0.06617993861436844, 0.006922537926584482, 0.06086480990052223, -0.027805158868432045, 0.009457601234316826, 0.08075660467147827, 0.09352289885282516, 0.018906114622950554, 0.052960846573114395, 0.09164737164974213, -0.04467729106545448, -0.0904550850391388, -0.02648545242846012, 0.00592076824977994, -0.0874052569270134, 0.029824107885360718, -0.041730351746082306, 0.08435142785310745, 0.0618591345846653, 0.02331564575433731, -0.04426037147641182, 0.03947833180427551, -0.05109170451760292, 0.04277142137289047, 0.013621685095131397, 0.07359860837459564, -0.005806998815387487, -0.0708414688706398, 0.09430937469005585, -0.022992651909589767, -0.03735535591840744, 0.019090989604592323, -0.08323390781879425, 0.05085358768701553, 0.049693696200847626, -0.024937765672802925, -0.06539303809404373, 0.06288310140371323, -0.015987033024430275, -0.03215688467025757, -0.08417249470949173, -0.029019413515925407, -0.04864915460348129, -0.039872489869594574, 0.019301971420645714, -0.07162327319383621, 0.056807808578014374, -0.0271284356713295, 0.08966099470853806, 0.01118012610822916, -0.03361852467060089, -0.08380318433046341, -0.02282586134970188, -0.02041465789079666, -0.015654554590582848, -0.0014900009846314788, -0.018376009538769722, 0.0019061341881752014, 0.02780987322330475, 0.06671003997325897, -0.03074471466243267, 0.0665321946144104, -0.003387457225471735, 0.0054475911892950535, 0.08501557260751724, 0.09429936856031418, 0.015491009689867496, -0.08347011357545853, 0.09610196948051453, -0.07420045882463455, 0.008091908879578114, -0.03553968667984009, -0.09612151980400085, 0.0670897513628006, 0.08779524266719818, 0.022484559565782547, -0.06034237891435623, 0.0987718477845192, -0.03766858950257301, 0.0726550817489624, 0.05893377587199211, 0.048188161104917526, -0.07959946244955063, -0.028935257345438004, 0.03308183699846268, 0.060369085520505905, 0.06614114344120026, -0.011434948071837425, 0.04190546274185181, 0.0051871235482394695, -0.03408225625753403, -0.05344493314623833, 0.04357936233282089, 0.020237552002072334, -0.008376953192055225, 0.05122304707765579, -0.09999686479568481, 0.041652534157037735, 0.010137752629816532, 0.052603237330913544, 0.017666811123490334, 0.08216146379709244, 0.02627662755548954, 0.055423080921173096, 0.03803211450576782, 0.0835334062576294, -0.057878799736499786, -0.07568636536598206, -0.017702830955386162, 0.046344779431819916, 0.09656199812889099, -0.025867631658911705, -0.01960056647658348, -0.08834560960531235, -0.033120475709438324, 0.04911820963025093, -0.01090383529663086, -0.034468770027160645, 0.043291930109262466, 0.01876666583120823, -0.08722447603940964, -0.10258621722459793, -0.07338546216487885, -0.08874621242284775, 0.03375940024852753, -0.042010556906461716, -0.028542105108499527, -0.07740597426891327, -0.03246895968914032, -0.0923474058508873, 0.023393189534544945, -0.0905466377735138, 0.011789223179221153, 0.03374578803777695, 0.07049348205327988, 0.09183618426322937, -0.03318950533866882, 0.09017280489206314, 0.008024247363209724, -0.048802606761455536, -0.06583457440137863, 0.08175311982631683, 0.07325107604265213, -0.05665767565369606, 0.05596524477005005, -0.08635637164115906, -0.03376215696334839, 0.08871765434741974, 0.024020515382289886, -0.008974228985607624, -0.07316678762435913, 0.0019241521367803216, 0.01614258997142315, 0.05950281023979187, 0.019721606746315956, -0.021731236949563026, -0.0325593501329422, 0.0008265510550700128, -0.04979430139064789, -0.008089414797723293, -0.09439025074243546, -0.07571174204349518, 0.04042397066950798, -0.08759178221225739, -0.05291016399860382, -0.08583968877792358, 0.062249403446912766, 0.09136524051427841, -0.09697842597961426, 0.027139855548739433, -0.0796622633934021, 0.105549156665802, -0.019770391285419464, -0.09494583308696747, 0.0834127813577652, 0.009082790464162827, -0.08462904393672943, 0.031171800568699837, -0.021164093166589737, 0.026127004995942116, 0.061163805425167084, -0.03097521699965, -0.003705081529915333, 0.0033085127361118793, -0.06701002269983292, 0.0022240092512220144, 0.050503987818956375, 0.08665585517883301, -0.08256230503320694, 0.013454188592731953, -0.07277433574199677, -0.0763292908668518, 0.09496841579675674, 0.07688736915588379, 0.0763607770204544, 0.06493479758501053, 0.07464945316314697, -0.03141336143016815, -0.0717836394906044, 0.08305630832910538, -0.016933346167206764, -0.061763279139995575, -0.048453010618686676, -0.029394065961241722, -0.10501881688833237, 0.05454974249005318, -0.07763836532831192, 0.008464246056973934, -0.03211648389697075, -0.019531212747097015, -0.008059615269303322, -0.046610232442617416, 0.032111141830682755], [0.027592431753873825, 0.06880171597003937, -0.09553457796573639, -0.050009798258543015, -0.005108985584229231, -0.05990653485059738, 0.029361631721258163, 0.030325161293148994, 0.10096259415149689, 0.07017163187265396, -0.046364352107048035, 0.027672747150063515, -0.10021702200174332, -0.021353162825107574, -0.06458184868097305, 0.04402214288711548, 0.030874159187078476, -0.040292833000421524, -0.034792009741067886, 0.01578228920698166, 0.05841995030641556, -0.06087058410048485, -0.053005047142505646, 0.043951790779829025, 0.0704035833477974, 0.1014895811676979, 0.04418512433767319, -0.005310088861733675, -0.02894357591867447, -0.019132183864712715, -0.014756729826331139, -0.05371728539466858, 0.03455713763833046, -0.01012229360640049, 0.04141874238848686, 0.010270352475345135, 0.060391057282686234, -0.0921512320637703, 0.04923189803957939, 0.036291468888521194, -0.00946156308054924, 0.08556661754846573, -0.06214326620101929, -0.02898561768233776, -0.002913313452154398, 0.06807053089141846, 0.07916860282421112, 0.0669943168759346, -0.028095021843910217, 0.06622050702571869, -0.05033699795603752, -0.014449892565608025, 0.008615612983703613, -0.03879258409142494, -0.011949329636991024, 0.061802685260772705, -0.039538849145174026, -0.07180205732584, 0.09000743925571442, -0.017029371112585068, -0.021530069410800934, 0.09151361137628555, 0.0662982389330864, -0.031189555302262306, 0.09824497252702713, -0.09127873182296753, -0.09333726763725281, -0.07060469686985016, -0.03809795901179314, 0.07124610990285873, 0.07789846509695053, 0.06962770223617554, -0.020436866208910942, -0.01580793969333172, -0.07229024916887283, -0.012024438008666039, -0.08384105563163757, -0.0569632463157177, 0.054760511964559555, -0.018744731321930885, 0.08325713127851486, -0.061565641313791275, -0.09469712525606155, -0.05764354392886162, -0.0405331589281559, 0.01752176135778427, 0.005612253677099943, 0.029953239485621452, 0.07129383087158203, 0.031694721430540085, 0.0521632544696331, -0.053073957562446594, 0.10601206123828888, 0.03727696090936661, -0.08140245825052261, 0.004962857812643051, -0.07148731499910355, 0.039230458438396454, -0.01366492360830307, -0.05451767146587372, 0.04712846130132675, -0.05217763036489487, -0.06690017133951187, 0.06203889846801758, 0.027086680755019188, -0.034306954592466354, 0.036584340035915375, 0.04798467084765434, -0.02421095035970211, 0.044145140796899796, 0.04060329124331474, 0.01974763534963131, -0.028820957988500595, 0.05823291465640068, 0.07750337570905685, 0.032398298382759094, -0.03208634629845619, 0.09304123371839523, -0.025954287499189377, -0.03096098266541958, -0.03731805086135864, -0.03403075039386749, -0.02855837345123291, 0.07072862982749939, -0.0402236245572567, -0.04956208914518356, -0.060258135199546814, 0.00369541859254241, 0.08312232792377472, -0.03674333542585373, -0.0760282576084137, 0.0049668834544718266, 0.07712320238351822, -0.000165358476806432, 0.026967661455273628, -0.04513028264045715, -0.0069985659793019295, 0.028242439031600952, 0.051240187138319016, -0.023537766188383102, -0.04086730256676674, 0.07238475233316422, 0.04247982054948807, 0.029580984264612198, 0.05564158782362938, 0.03879939764738083, 0.033582862466573715, 0.07269072532653809, -0.03144927695393562, -0.0598776638507843, 0.018165230751037598, 0.018411479890346527, 0.05995945259928703, -0.021043546497821808, 0.022808250039815903, -0.025159228593111038, -0.058528508991003036, -0.045396868139505386, -0.027695894241333008, -0.03840789571404457, -0.07067553699016571, -0.00249268626794219, -0.06562209129333496, 0.06819134205579758, -0.04837214946746826, -0.056241534650325775, -0.06561912596225739, -0.09754059463739395, 0.002419391879811883, -0.01876901648938656, -0.03204578906297684, 0.006813412997871637, 0.09157640486955643, -0.004585314076393843, -0.006610405165702105, 0.07646182179450989, -0.018803926184773445, -0.09411125630140305, 0.027393223717808723, -0.07590615749359131, -0.03516625240445137, 0.10143860429525375, -0.0786251500248909, -0.06665228307247162, 0.07622909545898438, 0.09262816607952118, 0.040268898010253906, -0.0819321796298027, 0.023339159786701202, 0.05710016191005707, -0.012816756963729858, 0.00600071344524622, 0.08846566081047058, -0.010733325965702534, 0.01939774490892887, 0.07592612504959106, 0.025575561448931694, 0.060338716953992844, -0.046652939170598984, -0.0896628350019455, 0.017760559916496277, -0.010127759538590908, 0.05285590887069702, -0.07122974097728729, -0.04902276024222374, -0.04178470000624657, 0.05219098553061485, -0.004264972172677517, -0.02104596421122551, -0.08412229269742966, 0.04327460005879402, -0.0020859898068010807, 0.014951440505683422, -0.04683367535471916, 0.08314862102270126, -0.08380521088838577, -0.07377132028341293, -0.08192752301692963, -0.03319380804896355, -0.003705168841406703, -0.004154077265411615, 0.08463154733181, 0.09111831337213516, 0.035316381603479385, -0.010364443995058537, -0.03640444204211235, -0.04451042786240578, -0.060527220368385315, 0.012243657372891903, -0.02575801871716976, -0.06515603512525558, 0.03387109562754631, 