{"STATE_DIM": 101, "MOVE_DIM": 81, "hidden": 256, "num_layers": 3, "layers": [{"type": "linear", "weight": [[-0.024667732417583466, 0.015203718096017838, 0.01826622523367405, 0.15753938257694244, 0.12831495702266693, -0.22215279936790466, -0.050897251814603806, 0.09315711259841919, -0.027196338400244713, 0.03929099813103676, -0.17048513889312744, -0.13930223882198334, -0.0874205008149147, 0.26137372851371765, 0.06976759433746338, -0.19459088146686554, -0.01622668467462063, 0.0543382503092289, 0.2605152428150177, -0.1578613817691803, -0.024825414642691612, -0.08470916002988815, 0.25452637672424316, -0.004103894345462322, -0.2136581540107727, -0.3947991132736206, 0.21912674605846405, -0.09718519449234009, -0.1325768679380417, 0.20996829867362976, -0.03375658765435219, 0.09150271862745285, 0.07157519459724426, 0.09999238699674606, -0.27115118503570557, 0.1390080600976944, -0.15093883872032166, 0.053214360028505325, -0.004108735825866461, 0.1277748942375183, -0.04475662484765053, 0.37736374139785767, 0.24446821212768555, 0.07954034209251404, 0.14103806018829346, 0.035655755549669266, 0.08032917976379395, 0.16605272889137268, -0.04924200847744942, -0.16612473130226135, -0.17523863911628723, 0.011484642513096333, 0.0219779834151268, -0.10831882059574127, 0.33011648058891296, -0.26984092593193054, 0.16843585669994354, 0.10431989282369614, 0.10750672221183777, 0.011788474395871162, 0.050550706684589386, -0.22519001364707947, 0.2714117169380188, 0.09204062074422836, 0.09261934459209442, 0.039036825299263, -0.2577827572822571, -0.12251102924346924, -0.21877439320087433, -0.21269579231739044, -0.1687602996826172, -0.17657972872257233, -0.025138819590210915, -0.06211259216070175, -0.17335344851016998, 0.19104796648025513, 0.0016684593865647912, 0.06241213157773018, -0.009482369758188725, 0.06528940796852112, -0.031167704612016678, -0.009705967269837856, -0.1173909455537796, 0.005101290997117758, 0.24309082329273224, -0.016464930027723312, -0.36910519003868103, 0.02971658483147621, 0.1824088990688324, -0.23017507791519165, 0.05155695229768753, 0.15133796632289886, 0.09269817173480988, 0.0997239276766777, 0.13737870752811432, -0.22486455738544464, -0.07434520870447159, 0.13607749342918396, -0.053570620715618134, 0.01701241545379162, -0.15230464935302734, 0.16133350133895874, -0.05186736583709717, 0.20836801826953888, 0.020991463214159012, -0.021880002692341805, -0.16943372786045074, 0.2541530430316925, 0.0534789003431797, -0.12315701693296432, -0.03943072631955147, 0.08848389983177185, 0.1434173732995987, -0.10709577053785324, -0.28853270411491394, 0.08832187205553055, 0.19584432244300842, 0.014282606542110443, -0.12848840653896332, -0.09851566702127457, 0.09157589823007584, 0.1417306661605835, 0.017850695177912712, 0.13431593775749207, 0.052626997232437134, 0.06913596391677856, -0.1044040098786354, 0.3214761018753052, -0.10516542941331863, -0.05925999581813812, -0.02778169885277748, -0.20603793859481812, 0.04238530993461609, -0.11696144193410873, 0.012419509701430798, 0.24004846811294556, -0.23664899170398712, 0.05752953514456749, 0.1643521636724472, -0.015496731735765934, -0.05890815705060959, -0.08791231364011765, 0.019541313871741295, 0.16404670476913452, 0.21527333557605743, 0.1926196813583374, -0.08414233475923538, 0.02065104804933071, 0.21117520332336426, -0.21907469630241394, -0.11043326556682587, -0.2529674172401428, -0.2447471171617508, 0.2078220546245575, 0.08944672346115112, 0.09834358096122742, -0.04128945618867874, -0.29249194264411926, -0.220799520611763, -0.003227780805900693, 0.24129420518875122, -0.2248639464378357, 0.11413135379552841, 0.011602940037846565, 0.13790273666381836, 0.00016060206689871848, 0.005027575418353081, -0.0704270526766777, -0.10094082355499268, 0.2526560425758362, -0.24402065575122833, -0.03673074021935463, -0.17199811339378357, 0.05628146603703499, -0.29105082154273987, -0.10032094269990921, 0.2552984654903412, -0.09550916403532028, -0.06575702130794525, 0.052974384278059006, -0.008527025580406189, 0.10734336823225021, 0.07271210104227066, -0.27504628896713257, -0.10662182420492172, 0.3066820502281189, -0.21677392721176147, -0.15346214175224304, -0.2055908739566803, -0.024356398731470108, 0.20757530629634857, 0.03240201249718666, -0.08556792140007019, 0.11550050228834152, -0.005490497685968876, 0.12659284472465515, 0.2046314924955368, 0.003475591540336609, -0.1358017921447754, 0.12160876393318176, 0.1201840341091156, 0.1627451628446579, -0.16307437419891357, -0.049266863614320755, -0.2862808108329773, -0.14411130547523499, -0.21209631860256195, 0.38816362619400024, -0.06889930367469788, 0.04076880216598511, -0.19997787475585938, 0.1803065985441208, -0.12866723537445068, -0.020465638488531113, 0.25999531149864197, 0.17486292123794556, 0.12041009217500687, 0.015306665562093258, -0.18406657874584198, 0.2894526422023773, -0.13813476264476776, 0.0536748543381691, -0.06049569323658943, 0.06058920919895172, -0.055226992815732956, 0.12010250985622406, -0.052109718322753906, -0.04916415736079216, -0.04779164120554924, -0.05701238662004471, 0.1615149974822998, 0.2132807821035385, -0.14944696426391602, -0.09337711334228516, -0.1587459146976471, -0.18895991146564484, 0.0867920070886612, -0.040233392268419266, -0.026390785351395607, -0.012179911136627197, -0.1948525756597519, -0.39730021357536316, 0.20546530187129974, 0.18672926723957062, -0.12601692974567413, 0.07396157085895538, 0.2551036477088928, -0.03571957349777222, 0.05749557912349701, -0.031000977382063866, -0.13045118749141693, 0.26695096492767334, 0.08528850972652435, -0.14014595746994019, -0.1849062740802765, 0.009188971482217312], [-0.0144895538687706, -0.008767839521169662, 0.08893895894289017, -0.006706581450998783, 0.047889579087495804, -0.19112032651901245, 0.1388728767633438, -0.07740837335586548, -0.02190251834690571, -0.0747852548956871, 0.31842103600502014, -0.06919784098863602, 0.23759682476520538, 0.17565661668777466, 0.09110026806592941, -0.14719587564468384, -0.05105629935860634, 0.14786948263645172, -0.02483522519469261, 0.1030086800456047, -0.06917376071214676, -0.14908811450004578, 0.05683259665966034, 0.1547093540430069, -0.021295160055160522, -0.251686155796051, -0.38558176159858704, -0.005810251459479332, 0.00019777326087933034, -0.11581116169691086, -0.11097381263971329, -0.012065316550433636, 0.079704150557518, 0.13960446417331696, 0.1715126931667328, 0.15437312424182892, -0.23272986710071564, -0.13055336475372314, 0.1963866949081421, 0.0819147527217865, 0.3821697533130646, 0.13845112919807434, 0.08635974675416946, 0.06430500745773315, -0.08301437646150589, 0.23055410385131836, -0.13330872356891632, 0.010798657312989235, -0.039116308093070984, -0.10914576053619385, -0.2440754622220993, 0.08276445418596268, 0.11173377931118011, 0.02304021641612053, 0.16688980162143707, -0.14141172170639038, 0.06056612730026245, 0.15341246128082275, -0.033368878066539764, -0.10736463963985443, -0.002633330412209034, 0.2027093470096588, 0.02240835875272751, 0.12729908525943756, -0.12254349887371063, -0.03573623299598694, -0.07150000333786011, -0.007460653316229582, -0.008546625263988972, 0.10786660015583038, 0.06728930026292801, -0.1452593356370926, 0.08926714956760406, 0.01579834148287773, -0.06843643635511398, 0.01904473267495632, 0.017535755410790443, 0.0800560787320137, 0.0007681921706534922, 0.003568844636902213, 0.29648929834365845, -0.04013912007212639, -0.09120369702577591, 0.01370398048311472, 0.19161318242549896, 0.06680473685264587, -0.07990317046642303, -0.2098909616470337, 0.006598145235329866, -0.21160759031772614, 0.19267117977142334, 0.16115491092205048, -0.13033387064933777, -0.08042564243078232, -0.11954119801521301, -0.1892978399991989, -0.08147452771663666, -0.04085740074515343, -0.02798740565776825, 0.0068940818309783936, -0.03830692917108536, -0.061790093779563904, -0.06129409000277519, 0.22164203226566315, 0.08434911072254181, 0.1465890109539032, 0.10384364426136017, -0.12716783583164215, 0.15782545506954193, -0.08513038605451584, -0.030688036233186722, 0.07474427670240402, 0.15029184520244598, -0.2456623613834381, 0.10612838715314865, 0.1510690599679947, 0.1543016880750656, 0.022954916581511497, 0.13235877454280853, 0.08747219294309616, -0.1566365659236908, 0.008154511451721191, -0.2054223120212555, -0.08259160816669464, -0.15065163373947144, -0.08022608608007431, -0.17425929009914398, 0.15169042348861694, -0.043725572526454926, -0.04713954031467438, 0.14831240475177765, 0.012561151757836342, -0.1361481249332428, -0.10584800690412521, 0.07948797941207886, 0.03560086339712143, 0.19848622381687164, -0.1139773428440094, 0.16295760869979858, -0.05860432609915733, -0.08720696717500687, 0.011262524873018265, 0.19506913423538208, -0.04414605721831322, -0.12487384676933289, 0.09953083842992783, 0.07674012333154678, -0.13469243049621582, -0.028510980308055878, -0.10896187275648117, -0.17254190146923065, 0.06838086247444153, -0.10179067403078079, 0.21769839525222778, 0.021519185975193977, -0.09486301243305206, 0.007500259205698967, -0.06223036348819733, -0.05305316671729088, -0.2434185892343521, 0.11218267679214478, -0.02942613698542118, -0.003355868626385927, -0.06275627017021179, 0.12286227941513062, -0.05723659694194794, 0.17179323732852936, -0.12814339995384216, 0.028954489156603813, 0.030660836026072502, -0.31857162714004517, 0.3870393633842468, -0.06220003217458725, 0.07949303090572357, -0.26317545771598816, -0.13223765790462494, 0.02303842082619667, -0.11521843820810318, -0.039066389203071594, 0.019923347979784012, -0.027417805045843124, -0.04995858669281006, -0.1783410757780075, -0.20435838401317596, 0.17981114983558655, 0.11942585557699203, -0.11750902980566025, -0.25323498249053955, 0.14629250764846802, 0.1777801215648651, 0.1322021186351776, 0.1106305867433548, -0.03394196927547455, 0.09478069841861725, 0.09303486347198486, -0.13479746878147125, 0.061061907559633255, -0.07258950173854828, -0.17099112272262573, 0.15621761977672577, -0.056777019053697586, 0.051675740629434586, 0.02211516723036766, 0.016498258337378502, 0.054612718522548676, 0.06253723055124283, -0.02903768979012966, -0.03560357540845871, -0.024615686386823654, -0.0046144453808665276, -0.10596314072608948, -0.020465442910790443, -0.11952489614486694, -0.11754398792982101, -0.06191296875476837, 0.021681325510144234, 0.0018350327154621482, 0.10804019123315811, 0.05919799953699112, 0.27222132682800293, 0.2572772204875946, -0.086027130484581, -0.011531863361597061, -0.10050660371780396, -0.25183242559432983, 0.07553083449602127, 0.08079370111227036, -0.04600934684276581, 0.006487315986305475, -0.025776490569114685, 0.10424696654081345, 0.011457208544015884, 0.016709843650460243, -0.050604451447725296, -0.035634927451610565, 0.310241162776947, 0.019464189186692238, -0.09957662969827652, -0.18589627742767334, -0.1131911650300026, 0.2754049003124237, -0.14310556650161743, 0.04811588674783707, 0.21232886612415314, 0.21843360364437103, -0.05271191522479057, 0.176735058426857, 0.05147795379161835, 0.12612080574035645, 0.1924162060022354, -0.275959312915802, -0.12292323261499405, 0.2661001980304718, -0.06031130254268646, -0.06202961504459381, 0.1941952258348465], [-0.10100291669368744, 0.11113570630550385, 0.13546566665172577, 0.05863938480615616, 0.3158591091632843, -0.1468747854232788, 0.12774962186813354, -0.1417214274406433, -0.18510009348392487, -0.4067845344543457, -0.12080365419387817, 0.11216752976179123, 0.2591712176799774, 0.3288898468017578, 0.061847761273384094, -0.030509307980537415, -0.012907206080853939, -0.1803550124168396, 0.043524205684661865, -0.18044668436050415, -0.14078007638454437, -0.04472445324063301, 0.19116517901420593, 0.089121513068676, 0.16856133937835693, -0.03381691500544548, -0.05281277373433113, -0.08611214905977249, 0.04989587888121605, 0.1177365779876709, 0.06147836148738861, 0.09020499885082245, -0.18885129690170288, 0.306506484746933, 0.011892181821167469, 0.1954745501279831, 0.1119953989982605, 0.14731648564338684, 0.09476566314697266, -0.018785184249281883, 0.1457693725824356, -0.26946428418159485, 0.31172671914100647, 0.07450815290212631, -0.02238866314291954, 0.06502614915370941, -0.03493953123688698, 0.0625794380903244, -0.1047443300485611, -0.14653609693050385, -0.031689856201410294, -0.03497904911637306, 0.015008877962827682, 0.12412413209676743, 0.043355558067560196, -0.07664483785629272, 0.1481855809688568, 0.0046424465253949165, -0.15162372589111328, -0.038590673357248306, -0.18216663599014282, -0.1908433437347412, 0.21476897597312927, -0.002858111634850502, -0.034802839159965515, 0.043473124504089355, -0.00379829085431993, 0.08098084479570389, -0.18081629276275635, 0.025341806933283806, 0.11478734016418457, -0.012092065997421741, 0.2274768352508545, -0.03896939754486084, -0.10254000127315521, 0.037667449563741684, -0.022622834891080856, -0.0036745553370565176, -0.11957283318042755, 0.048981089144945145, 0.32179394364356995, 0.04762923717498779, -0.05725652724504471, 0.10775334388017654, 0.1689368635416031, -0.28704899549484253, -0.20849694311618805, 0.0033736820332705975, 0.0062971338629722595, -0.2567982077598572, 0.07995661348104477, -0.27122560143470764, 0.09351667016744614, -0.028769683092832565, -0.12853680551052094, -0.13252156972885132, -0.19781634211540222, -0.012373662553727627, 0.05716133117675781, 0.0339866578578949, -0.07461457699537277, -0.14649540185928345, 0.28530871868133545, 0.034006960690021515, -0.12168752402067184, -0.027456363663077354, 0.047950878739356995, 0.15107664465904236, 0.042074836790561676, 0.03346680477261543, 0.058258671313524246, -0.08845022320747375, -0.01741901971399784, -0.11155246943235397, -0.06950066238641739, 0.06177041307091713, 0.38923630118370056, 0.04382380470633507, -0.18040820956230164, 0.04602927342057228, 0.07417650520801544, -0.05009012296795845, 0.010800880379974842, -0.02346234768629074, 0.025483224540948868, 0.028967685997486115, -0.30916449427604675, -0.08831228315830231, -0.026770614087581635, -0.10644298046827316, -0.3174421489238739, 0.06855501234531403, -0.08026619255542755, 0.004025703761726618, 0.053621936589479446, 0.028511416167020798, 0.16814583539962769, 0.19068658351898193, -0.011592203751206398, -0.3568367063999176, -0.06606922298669815, 0.09232930094003677, -0.0339861698448658, 0.1568223536014557, 0.08114249259233475, 0.08154361695051193, -0.15229524672031403, -0.04589168354868889, 0.14478808641433716, -0.12031567096710205, -0.20677047967910767, -0.07146542519330978, -0.15687647461891174, 0.017107879742980003, 0.3634425699710846, -0.12416081130504608, 0.1147712916135788, -0.10840611904859543, -0.02616904117166996, -0.05009802430868149, 0.10126945376396179, -0.4034804701805115, 0.0020166237372905016, 0.18926596641540527, -0.019619716331362724, 0.1337178498506546, 0.12801812589168549, -0.03770732879638672, -0.09632815420627594, 0.24229972064495087, -0.20048342645168304, 0.003563525853678584, -0.1397707313299179, -0.052161265164613724, -0.012433011084794998, -0.13077087700366974, 0.033971723169088364, 0.17485235631465912, -0.1552945375442505, -0.055047474801540375, -0.14272746443748474, -0.03436676040291786, 0.05441360920667648, -0.17310398817062378, -0.014819363132119179, 0.24758024513721466, -0.1963883489370346, 0.05535558611154556, -0.0368187353014946, 0.15939484536647797, 0.17100095748901367, -0.1145285964012146, -0.06462020426988602, 0.1650255173444748, -0.048811450600624084, 0.13008086383342743, 0.047453053295612335, 0.036930300295352936, 0.17426207661628723, -0.018591489642858505, -0.03639320284128189, 0.27539879083633423, 0.013762063346803188, 0.1894928365945816, -0.0028205409180372953, -0.25047799944877625, -0.24561414122581482, -0.014119148254394531, 0.37672969698905945, -0.046259380877017975, -0.14650610089302063, 0.006599544547498226, -0.11308228969573975, -0.25848710536956787, 0.050358615815639496, 0.20139701664447784, -0.13906800746917725, 0.2077481597661972, 0.1076667308807373, 0.08541654795408249, -0.09020522236824036, -0.031006718054413795, -0.2852645218372345, -0.019854674115777016, -0.11629509925842285, -0.11103199422359467, -0.007133778650313616, 0.03648243471980095, -0.10815455764532089, -0.12758706510066986, -0.10519338399171829, 0.25704342126846313, -0.09426272660493851, 0.05270673334598541, -0.19986620545387268, -0.12733709812164307, 0.03239740431308746, -0.05881384760141373, -0.3229672312736511, -0.23833748698234558, 0.04632480815052986, 0.007327528670430183, -0.029651012271642685, -0.12217109650373459, 0.07517050206661224, -0.12333570420742035, 0.013257844373583794, 0.05350538343191147, 0.11359807103872299, -0.07834476977586746, -0.0648685097694397, -0.18721236288547516, -0.059791188687086105, -0.284768283367157, 0.05005238577723503, 0.07447509467601776], [0.13585148751735687, -0.14159858226776123, 0.08585963398218155, 0.13753756880760193, -0.03810873627662659, 0.010672413744032383, 0.08805881440639496, -0.054875824600458145, 0.05128459632396698, -0.13894356787204742, -0.14524488151073456, -0.1914447396993637, 0.1581168919801712, 0.05498002469539642, 0.1258987933397293, -0.1279137283563614, 0.07127994298934937, 0.017372218891978264, 0.03956928104162216, 0.09185019880533218, -0.13537634909152985, 0.046770501881837845, -0.05450405180454254, -0.08202321082353592, 0.019000286236405373, -0.21829919517040253, -0.11755038052797318, 0.19253769516944885, 0.17450644075870514, 0.10432922840118408, -0.061006851494312286, 0.13962052762508392, 0.13208231329917908, 0.11155358701944351, 0.13999401032924652, 0.24126993119716644, -0.13081645965576172, -0.0464412160217762, 0.13650624454021454, 0.052091438323259354, 0.049931008368730545, 0.02447372116148472, 0.19763724505901337, -0.17242813110351562, 0.08341282606124878, -0.09793753176927567, 0.13875100016593933, 0.16610868275165558, -0.17148683965206146, 0.0623314306139946, -0.1985173523426056, 0.11545653641223907, 0.19937650859355927, 0.030990321189165115, 0.1323021501302719, -0.2229466736316681, 0.20475083589553833, 0.15344242751598358, -0.10653136670589447, 0.10189346224069595, 0.25932687520980835, -0.11683590710163116, -0.21256688237190247, 0.17112545669078827, -0.25450417399406433, 0.16976703703403473, -0.15961141884326935, 0.2821497619152069, 0.09747178852558136, -0.035496655851602554, -0.035610638558864594, -0.11816766113042831, -0.09384319931268692, -0.0780886709690094, 0.040839023888111115, 0.02995583787560463, 0.01115342415869236, -0.058814920485019684, 0.11248819530010223, 0.014180033467710018, 0.05080113559961319, -0.015591437928378582, 0.15188924968242645, -0.04246559739112854, -0.02030974067747593, -0.10355165600776672, -0.16075894236564636, 0.07870727777481079, -0.10882636904716492, 0.11378032714128494, -0.058656129986047745, 0.12511537969112396, 0.07386651635169983, -0.10044949501752853, 0.10179295390844345, -0.20023073256015778, 0.14241909980773926, -0.04121328517794609, 0.15067513287067413, -0.1638820618391037, 0.1457347571849823, -0.08522225171327591, 0.10684604197740555, 0.12807433307170868, -0.17906221747398376, -0.07143008708953857, 0.21281282603740692, -0.06281361728906631, -0.04044521600008011, -0.18874098360538483, -0.14882239699363708, 0.18844787776470184, -0.021798722445964813, 0.055697303265333176, -0.17607948184013367, 0.1472732424736023, -0.29310300946235657, -0.028096795082092285, 0.10735034197568893, 0.17737913131713867, -0.11494286358356476, -0.07117653638124466, 0.02309136837720871, -0.03416570648550987, -0.0025037021841853857, 0.3290528357028961, -0.07214562594890594, 0.07718756049871445, 0.0691310465335846, 0.24622267484664917, 0.13042782247066498, -0.29237914085388184, 0.0647677481174469, -0.34829801321029663, 0.11201795190572739, 0.019415926188230515, -0.09622360020875931, 0.009075142443180084, -0.2606690227985382, 0.0046266415156424046, -0.09305720776319504, -0.1249845027923584, 0.09079382568597794, 0.12719690799713135, 0.20224203169345856, -0.009246893227100372, 0.06272803246974945, 0.023398382589221, -0.05514247715473175, -0.2799230217933655, -0.1442556083202362, 0.2457456737756729, -0.18488946557044983, 0.08883342891931534, -0.12268093973398209, -0.035441212356090546, -0.22185590863227844, 0.051908910274505615, 0.07357500493526459, 0.012496765702962875, 0.19683440029621124, 0.08679307997226715, 0.018325885757803917, 0.11663269996643066, 0.08416034281253815, 0.08416116237640381, 0.05830433592200279, -0.20634400844573975, -0.02984316274523735, 0.025289267301559448, -0.01031216885894537, 0.13726110756397247, 0.06197087839245796, 0.15651795268058777, -0.0005653304397128522, -0.20437191426753998, 0.030883919447660446, 0.1613166183233261, 0.05739883333444595, 0.053286973387002945, 0.006410140544176102, 0.04456325247883797, -0.0318400040268898, -0.09729190915822983, -0.029366251081228256, 0.08285710960626602, 0.13316376507282257, -0.04072261601686478, -0.13939794898033142, 0.2001979947090149, 0.03595319762825966, 0.192841574549675, -0.11651282757520676, 0.09631894528865814, 0.1312076896429062, -0.011060519143939018, 0.16579759120941162, 0.05482509732246399, -0.06863072514533997, 0.08412645757198334, -0.038983054459095, 0.009013859555125237, 0.1928422898054123, 0.11979217827320099, 0.10453268140554428, -0.1533859521150589, -0.02040826342999935, -0.17676228284835815, 0.10644346475601196, 0.16494302451610565, 0.08385974168777466, -0.015420825220644474, -0.19122815132141113, 0.14196786284446716, 0.010629680939018726, 0.0771070197224617, 0.04583410546183586, 0.09084082394838333, 0.03727901354432106, 0.03529656305909157, 0.13119490444660187, 0.011018575169146061, -0.0025246241129934788, -0.15878832340240479, -0.07417125999927521, -0.32668426632881165, -0.0048197065480053425, -0.15194649994373322, -0.0025601896923035383, 0.11066628992557526, 0.14222289621829987, 0.16789738833904266, 0.04448621720075607, -0.03677656129002571, 0.20616349577903748, 0.1354517936706543, -0.017449969425797462, 0.07798931747674942, 0.01516761351376772, -0.04976746067404747, 0.19797645509243011, 0.09543917328119278, 0.09983954578638077, 0.14505305886268616, -0.0004556699423119426, -0.041191812604665756, 0.18296301364898682, 0.1724296659231186, 0.1868823766708374, 0.18430279195308685, -0.2649269104003906, 0.029933201149106026, 0.03417259082198143, 0.17219582200050354, 0.19904428720474243, 0.06381257623434067], [-0.07898420840501785, -0.3067009449005127, 0.45449694991111755, 0.20767433941364288, 0.11350933462381363, -0.10809925943613052, -0.027721211314201355, -0.2251250296831131, -0.32990655303001404, -0.11288577318191528, -0.07490271329879761, -0.21824747323989868, 0.008125020191073418, 0.24447116255760193, 0.1969454288482666, -0.252211332321167, -0.0782753974199295, 0.04881560429930687, -0.008538385853171349, 0.1071467325091362, -0.2779593765735626, -0.1298232227563858, -0.048175182193517685, -0.00825558602809906, -0.029019838199019432, -0.3968297839164734, 0.027783876284956932, 0.011963753029704094, 0.0907265841960907, 0.2953318655490875, 0.004531522747129202, 0.2742743194103241, 0.17461666464805603, 0.12353239208459854, -0.05689728260040283, 0.06770286709070206, -0.3903960883617401, 0.03478638455271721, -0.06560585647821426, 0.2891519069671631, 0.12942230701446533, -0.010056962259113789, 0.2570783495903015, 0.10617989301681519, 0.05760323256254196, -0.024661336094141006, 0.18900209665298462, -0.003738594939932227, 0.023975277319550514, 0.16856825351715088, -0.20353363454341888, 0.054030224680900574, 0.19932471215724945, 0.27340102195739746, 0.2320316731929779, -0.034249648451805115, 0.30643588304519653, 0.07031594216823578, 0.0013703331351280212, 0.01984528824687004, 0.27912968397140503, -0.026099715381860733, 0.35481107234954834, 0.011755318380892277, 0.24340790510177612, 0.0003776534285861999, 0.060810137540102005, 0.15827354788780212, -0.21773377060890198, 0.2517739236354828, -0.2166433483362198, -0.21006901562213898, -0.156138077378273, -0.0984489768743515, -0.12184993922710419, 0.2521118223667145, 0.07866353541612625, 0.1857033520936966, -0.1356772482395172, 0.06745684891939163, 0.11732614040374756, 0.10773876309394836, 0.0788150206208229, -0.22506514191627502, 0.061196714639663696, -0.19685401022434235, -0.3216891586780548, 0.3051708936691284, 0.1416514664888382, -0.18012920022010803, 0.13770313560962677, 0.1792178750038147, -0.13183638453483582, -0.3178388774394989, 0.06317037343978882, -0.3165654242038727, 0.04189601168036461, 0.03924602270126343, -0.030203184112906456, -0.04929644241929054, -0.09622132033109665, -0.06085526570677757, -0.13787679374217987, 0.019639402627944946, -0.08226431906223297, -0.12915346026420593, 0.16286826133728027, 0.13355644047260284, -0.12047284841537476, 0.10931504517793655, -0.09184028208255768, 0.2018865942955017, 0.16931205987930298, -0.305267333984375, -0.10318225622177124, 0.27826395630836487, 0.2773391306400299, -0.13443884253501892, -0.14673076570034027, -0.16169309616088867, 0.5190868377685547, -0.07269514352083206, -0.1364249289035797, 0.22917144000530243, -0.0067566875368356705, 0.07745324820280075, -0.28053349256515503, 0.3130801022052765, 0.030380619689822197, 0.01979563944041729, -0.3672069013118744, -0.031566593796014786, 0.07122622430324554, -0.2066534012556076, 0.16126736998558044, 0.212845116853714, -0.049622759222984314, 0.010348518379032612, -0.05610734596848488, -0.30659568309783936, 0.041080884635448456, -0.1607215255498886, 0.35420653223991394, 0.2580995559692383, 0.26143425703048706, 0.5102119445800781, -0.06213682144880295, -0.26853233575820923, 0.17405027151107788, -0.14075851440429688, 0.017732810229063034, 0.08605977892875671, -0.13351020216941833, 0.12373385578393936, 0.08514033257961273, -0.0891905203461647, 0.07016432285308838, -0.18269909918308258, -0.022451750934123993, -0.03833219036459923, 0.16635626554489136, 0.0835331380367279, 0.08938349038362503, 0.25308316946029663, -0.16632118821144104, 0.2894597351551056, 0.02455436810851097, 0.24519509077072144, 0.04036097601056099, 0.08171098679304123, -0.3350287675857544, 0.20387987792491913, -0.1549147218465805, -0.0600733682513237, -0.24852004647254944, -0.15890957415103912, 0.0858454778790474, -0.1288629174232483, -0.45343881845474243, -0.33587872982025146, 0.15472440421581268, -0.011864488013088703, -0.1546771377325058, -0.31357935070991516, 0.19717322289943695, 0.23618018627166748, -0.002873985329642892, -0.17491880059242249, 0.08271098136901855, 0.12164733558893204, 0.1546979695558548, -0.28622615337371826, -0.03595837950706482, 0.07662595808506012, 0.19499993324279785, 0.09250157326459885, 0.16282258927822113, 0.12370003014802933, -0.03428734466433525, 0.039480313658714294, 0.2009774148464203, 0.10906705260276794, 0.1453908532857895, 0.20386701822280884, 0.08163199573755264, -0.18269185721874237, -0.0258144773542881, 0.16933119297027588, 0.11286835372447968, -0.34368041157722473, -0.060551710426807404, 0.1274789571762085, -0.1174902468919754, -0.09410684555768967, -0.09379401803016663, 0.37057939171791077, 0.28016313910484314, 0.37451207637786865, 0.11259190738201141, 0.4630727171897888, -0.189536914229393, -0.3380168378353119, -0.05075380578637123, -0.19568553566932678, 0.0549699030816555, 0.12997516989707947, 0.16898459196090698, -0.12440505623817444, -0.11670088022947311, 0.09352441877126694, 0.20007678866386414, 0.22419002652168274, -0.10959339886903763, -0.3646584451198578, -0.2127901017665863, 0.11678951978683472, 0.20941545069217682, 0.030420254915952682, -0.2677525281906128, -0.10023310035467148, 0.28803279995918274, 0.012742080725729465, 0.05381007865071297, 0.21081966161727905, -0.29036596417427063, -0.20556743443012238, -0.1034332886338234, -0.2487972229719162, 0.1670311987400055, 0.28720539808273315, -0.0670289397239685, -0.2993309199810028, 0.12082935869693756, -0.19868017733097076, -0.09929967671632767, 0.1469918042421341], [-0.07644392549991608, 0.23271618783473969, 0.1281864494085312, -0.033658355474472046, 0.30514490604400635, -0.238347128033638, -0.029287630692124367, -0.0996389240026474, -0.17314986884593964, 0.002724146004766226, 0.011801570653915405, 0.0236823633313179, -0.18544234335422516, 0.023371215909719467, 0.25831925868988037, -0.10529185086488724, -0.12144122272729874, 0.10974354296922684, -0.23042035102844238, -0.1146998479962349, -0.13714784383773804, 0.06814069300889969, -0.20049965381622314, -0.10069196671247482, 0.1870148479938507, 0.05550842732191086, 0.1988212764263153, -0.13666407763957977, -0.1515795886516571, -0.11211076378822327, -0.07779207080602646, 0.13871902227401733, 0.11415915191173553, 0.10069610178470612, -0.08298058807849884, 0.061147354543209076, -0.04391271248459816, 0.0802808478474617, -0.03880320116877556, 0.1375342458486557, 0.15441983938217163, -0.1495724618434906, -0.10484741628170013, -0.268482506275177, 0.09667393565177917, 0.01836322247982025, -0.053230807185173035, 0.26986056566238403, 0.2150801718235016, 0.22676320374011993, -0.11513932794332504, 0.2178868055343628, 0.02073352411389351, 0.20756544172763824, 0.11625564098358154, 0.07935743778944016, 0.017046181485056877, -0.12453455477952957, 0.09637665748596191, -0.17707529664039612, 0.07248751819133759, -0.2848547101020813, 0.11228345334529877, -0.2550565004348755, 0.004286719486117363, 0.052158381789922714, 0.040697131305933, -0.07118743658065796, -0.03966137394309044, 0.10086381435394287, -0.005206740461289883, -0.1815916746854782, -0.08067052811384201, -0.01680251769721508, 0.015535900369286537, 0.12836110591888428, 0.09797090291976929, 0.09160459041595459, -0.005600116681307554, 0.21578170359134674, 0.09353326261043549, 0.054127201437950134, 0.24161909520626068, -0.4397684633731842, 0.3540198504924774, 0.22734369337558746, -0.18608109652996063, -0.17971579730510712, 0.20472314953804016, -0.2181471735239029, 0.15573076903820038, 0.3583523631095886, 0.03503021225333214, -0.19340327382087708, 0.16253995895385742, -0.08902508020401001, 0.10232783854007721, 0.11920814216136932, 0.02092284895479679, 0.035445284098386765, -0.04002046957612038, 0.07878264039754868, 0.11770235747098923, 0.10303927958011627, 0.06006988137960434, 0.22274014353752136, 0.09761467576026917, 0.02576325088739395, 0.17427702248096466, -0.10213321447372437, -0.12339301407337189, -0.1454068422317505, 0.2835407257080078, -0.1032060906291008, -0.04393796995282173, 0.19110028445720673, -0.024272151291370392, -0.08335155993700027, 0.06554092466831207, -0.0264136902987957, 0.011310763657093048, -0.21855907142162323, -0.30065736174583435, -0.013545856811106205, -0.14681516587734222, 0.03327300027012825, 0.04516549035906792, 0.11278078705072403, -0.14293156564235687, -0.07143343985080719, -0.18649935722351074, -0.1938609480857849, -0.11251278966665268, 0.04232379049062729, -0.2061757892370224, 0.07890327274799347, 0.08252546936273575, -0.029997391626238823, -0.2607768177986145, -0.2854846715927124, 0.11596813052892685, -0.5282936692237854, 0.21209180355072021, -0.11418740451335907, 0.10090189427137375, 0.2011786252260208, 0.13340935111045837, -0.013794478960335255, 0.2062167078256607, -0.13132239878177643, 0.03713814169168472, -0.020574983209371567, 0.03868141397833824, 0.011408310383558273, -0.08524888753890991, 0.11660610884428024, -0.040623247623443604, 0.10605272650718689, 0.011705286800861359, -0.1066470667719841, 0.06391388177871704, -0.15304647386074066, 0.1512736976146698, -0.11233511567115784, -0.05987869203090668, 0.07966174185276031, 0.07768064737319946, 0.23500092327594757, 0.008821827359497547, 0.13388730585575104, 0.058314405381679535, 0.08224614709615707, -0.08616135269403458, 0.136150524020195, -0.014477899298071861, -0.25034597516059875, 0.14136981964111328, -0.11086122691631317, -0.21235540509223938, 0.08772546797990799, 0.0607883594930172, -0.048758942633867264, -0.08042316883802414, -0.26723092794418335, 0.23007577657699585, 0.3718617856502533, -0.11311537772417068, -0.1285160332918167, 0.0138394171372056, 0.3326497972011566, 0.009073968976736069, 0.03203145042061806, -0.225089430809021, -0.04190314933657646, 0.2897566556930542, -0.03965423256158829, 0.041783079504966736, -0.014309599064290524, -0.17130346596240997, 0.1820998191833496, -0.13517598807811737, 0.056264255195856094, 0.0798412635922432, -0.1736595630645752, -0.268298476934433, -0.2747355103492737, 0.010114620439708233, 0.14796829223632812, -0.2401898354291916, 0.11118385195732117, -0.031221851706504822, -0.10629080981016159, -0.17190201580524445, -0.11251873522996902, -0.02889290638267994, 0.003400396555662155, 0.07493124902248383, 0.28217607736587524, 0.11926023662090302, 0.26828470826148987, -0.11940491199493408, -0.007887006737291813, 0.08247882127761841, -0.12008929252624512, 0.004562153946608305, -0.017165198922157288, 0.03954176977276802, -0.14317907392978668, -0.20590481162071228, 0.15527614951133728, -0.06671339273452759, 0.19605055451393127, -0.2328944206237793, 0.0951135978102684, -0.05703335627913475, 0.13438281416893005, 0.29856327176094055, 0.29539892077445984, 0.29708924889564514, -0.19891157746315002, -0.04311378672719002, -0.04766390100121498, 0.14330625534057617, 0.1293390393257141, -0.05658337101340294, -0.07728219777345657, 0.19316090643405914, 0.1427118182182312, 0.12971605360507965, 0.1311674267053604, -0.053183890879154205, -0.012669668532907963, 0.24966993927955627, -0.052367087453603745, 0.3342355787754059, -0.1353355199098587], [0.056872159242630005, 0.029494011774659157, 0.13268306851387024, -0.09481774270534515, 0.06293238699436188, -0.18230710923671722, -0.13381719589233398, -0.1706259697675705, 0.06032593920826912, -0.007251186762005091, -0.1315152645111084, -0.08249232172966003, 0.16770634055137634, 0.07747972011566162, 0.1570521891117096, 0.10189682245254517, -0.07496491074562073, 0.17076782882213593, -0.13504353165626526, 0.20315374433994293, -0.2850797176361084, -0.07265166193246841, -0.34185051918029785, -0.1836894303560257, 0.2333875447511673, -0.16853083670139313, -0.039634063839912415, 0.19125612080097198, 0.1378144770860672, 0.1479615569114685, -0.14037486910820007, -0.0017046027351170778, -0.005434582941234112, 0.04507092386484146, -0.03950720652937889, 0.02197452075779438, 0.09514544159173965, 0.13304147124290466, 0.1473243236541748, -0.19235846400260925, -0.005659627728164196, 0.11009868234395981, 0.2272951453924179, 0.0518319196999073, -0.25725945830345154, 0.03915970399975777, -0.0007265993626788259, 0.3245972692966461, -0.06541197746992111, -0.11429881304502487, -0.2014673799276352, -0.00022328519844450057, -0.08883630484342575, 0.07735501974821091, 0.1959049552679062, -0.17349274456501007, -0.08042636513710022, 0.20175179839134216, 0.08309197425842285, -0.17201529443264008, 0.2527347207069397, -0.006524932570755482, 0.05438228324055672, -0.17003658413887024, -0.17029868066310883, -0.04917512461543083, 0.2194584757089615, 0.44816654920578003, -0.14788706600666046, -0.15291601419448853, 0.027714455500245094, -0.035410281270742416, 0.08986765891313553, -0.08074764907360077, 0.11039628088474274, 0.1343579888343811, -0.05429409071803093, 0.2075246423482895, -0.2380165457725525, 0.3882131278514862, 0.27927908301353455, -0.1865895539522171, -0.12474504113197327, -0.15728600323200226, -0.05340871214866638, -0.30415305495262146, -0.338546484708786, -0.037966061383485794, 0.24917903542518616, -0.2941190004348755, 0.3469046354293823, 0.0850658193230629, 0.12901131808757782, 0.055550865828990936, 0.1767292618751526, -0.03187902271747589, 0.2244936227798462, 0.03886495530605316, 0.15551820397377014, -0.07237949967384338, -0.025059325620532036, -0.39261314272880554, -0.2320711314678192, 0.29074445366859436, -0.09485016763210297, -0.0503210723400116, 0.174610897898674, 0.22103849053382874, -0.15313176810741425, -0.11086135357618332, 0.22760629653930664, -0.00835831556469202, 0.06297735124826431, -0.15089711546897888, 0.027819955721497536, 0.24464893341064453, 0.07794421166181564, -0.01037838589400053, -0.07693398743867874, 0.20205700397491455, 0.042826708406209946, -0.0810823068022728, -0.19591577351093292, 0.2612585127353668, -0.3703196048736572, -0.05915802717208862, -0.11221447587013245, 0.11555774509906769, 0.065384641289711, -0.0701017826795578, -0.00871068425476551, 0.17802299559116364, 0.15076744556427002, -0.12423534691333771, -0.011531101539731026, 0.07857920229434967, 0.13655108213424683, -0.1540871560573578, -0.013983327895402908, -0.03180835768580437, -0.10722441226243973, -0.19718709588050842, 0.14216598868370056, -0.08977332711219788, 0.1525081843137741, 0.17470522224903107, -0.012824122793972492, 0.07175508886575699, -0.04129510000348091, 0.08981304615736008, -0.09574463218450546, 0.2822481393814087, 0.05384387820959091, 0.21023255586624146, -0.01773930713534355, 0.18931272625923157, 0.0868758037686348, -0.2768844962120056, -0.09126561135053635, 0.053775180131196976, 0.2104562222957611, -0.14668314158916473, 0.18194480240345, 0.06217099353671074, 0.15596342086791992, 0.177933007478714, 0.021313343197107315, -0.035163313150405884, 0.047732945531606674, 0.11395909637212753, -0.16348525881767273, 0.26650264859199524, 0.16974835097789764, 0.06317847967147827, -0.14339037239551544, -0.1235233023762703, -0.20411349833011627, -0.05102298781275749, -0.01514093205332756, 0.06900370121002197, -0.18143680691719055, -0.18449106812477112, -0.10077130794525146, -0.13480466604232788, -0.07909780740737915, -0.003971828147768974, 0.013126662001013756, -0.07906091213226318, 0.2916991412639618, 0.08561680465936661, 0.11306098848581314, -0.18089011311531067, -0.3628270924091339, 0.1995318979024887, -0.020484723150730133, 0.11232946813106537, 0.2713395059108734, -0.1634904146194458, -0.052245549857616425, 0.1266171634197235, -0.17765167355537415, 0.39383363723754883, -0.0511363260447979, 0.0790645107626915, -0.20211254060268402, -0.261237233877182, -0.03864097595214844, -0.008364583365619183, -0.05093362182378769, -0.16718153655529022, -0.12998755276203156, -0.03321284428238869, -0.08347908407449722, -0.33665212988853455, -0.21218720078468323, 0.04082285240292549, 0.09015700221061707, -0.09443054348230362, -0.138688325881958, 0.28860360383987427, -0.15425105392932892, -0.2488003671169281, 0.018713001161813736, -0.20789363980293274, -0.10318266600370407, -0.23400704562664032, -0.3605184257030487, 0.016568204388022423, 0.024124139919877052, 0.0966915488243103, 0.11284390091896057, 0.13937607407569885, 0.07401937991380692, -0.3435724675655365, -0.0821305587887764, 0.15170729160308838, 0.030178939923644066, 0.22497308254241943, -0.08569730073213577, -0.1857873648405075, 0.0710543617606163, -0.050609342753887177, 0.04846503585577011, 0.00836929865181446, -0.004094339907169342, 0.00615654606372118, 0.011257355101406574, -0.06949121505022049, 0.11083802580833435, 0.18149863183498383, -0.13113190233707428, -0.08611483871936798, 0.14556343853473663, 0.1568487584590912, -0.23292294144630432, 0.05540819093585014], [-0.1603558361530304, -0.12349238246679306, -0.0450088232755661, -0.1429673731327057, 0.08646516501903534, -0.05069079250097275, -0.037729717791080475, -0.06342495232820511, -0.08745849877595901, -0.2257435917854309, 0.06996867060661316, -0.014138408936560154, -0.08014392107725143, 0.3192826807498932, -0.07665780931711197, -0.0538371317088604, -0.03959042951464653, 0.09556474536657333, 0.12973159551620483, -0.06584654003381729, -0.17858727276325226, 0.055487554520368576, 0.08045603334903717, -0.1865295022726059, 0.2430327832698822, -0.1908608078956604, -0.22509489953517914, -0.08992856740951538, 0.07333634793758392, 0.27297842502593994, -0.0789678618311882, 0.07690338045358658, 0.06155580282211304, 0.02521820180118084, 0.054967667907476425, -0.03162974864244461, 0.016034601256251335, -0.1892123520374298, 0.13743586838245392, -0.03352196887135506, 0.2676689326763153, 0.012323597446084023, 0.14174090325832367, 0.09999945014715195, -0.19297745823860168, 0.16923992335796356, 0.017291245982050896, -0.01240962278097868, 0.04667266085743904, 0.1566096395254135, 0.04497518390417099, 0.340408593416214, 0.22332417964935303, 0.06852773576974869, 0.13345301151275635, -0.046165671199560165, -0.0518985316157341, 0.09503360092639923, -0.0311368927359581, -0.11956588923931122, -0.022319313138723373, -0.13691449165344238, -0.03401891142129898, -0.015302280895411968, 0.12723557651042938, -0.05550404638051987, -0.09880529344081879, 0.02640623226761818, -0.19426138699054718, -0.1033422201871872, 0.14828655123710632, -0.028051016852259636, 0.15086014568805695, -0.2570083737373352, 0.038731060922145844, 0.1881067454814911, 0.14876632392406464, -0.029025545343756676, -0.03310247138142586, -0.019285494461655617, 0.4541681408882141, -0.03730686008930206, -0.16108250617980957, 0.10910850763320923, 0.08677227795124054, -0.04167743772268295, -0.23867416381835938, 0.2148894965648651, 0.2746815085411072, -0.18810422718524933, 0.1600904017686844, 0.003621632233262062, 0.14901916682720184, -0.03263955935835838, 0.22733332216739655, 0.011604868806898594, -0.16117003560066223, 0.301548570394516, -0.20826704800128937, -0.0800880640745163, -0.06004789099097252, -0.14197281002998352, 0.11753199249505997, 0.112165167927742, 0.12624356150627136, -0.007498059421777725, 0.15658706426620483, 0.09808080643415451, 0.0037919552996754646, 0.01659844070672989, 0.12689854204654694, 0.023289764299988747, 0.34386491775512695, -0.15177862346172333, -0.1180490255355835, 0.22399720549583435, 0.13260197639465332, -0.3132264316082001, -0.06761599332094193, 0.0571594201028347, -0.04257716238498688, 0.19137337803840637, -0.1621459275484085, 0.07571173459291458, -0.05286172032356262, 0.15729328989982605, -0.08833211660385132, 0.13902196288108826, 0.03855486214160919, -0.09860357642173767, -0.1717977225780487, -0.13128192722797394, 0.0976032167673111, -0.04875163361430168, 0.1740218847990036, 0.3094136714935303, 0.11464255303144455, 0.21161529421806335, -0.03487829118967056, 0.040746256709098816, -0.10647863894701004, -0.3235384225845337, 0.06321010738611221, 0.18689081072807312, 0.2832511067390442, 0.10030435025691986, -0.11954659223556519, 0.11702669411897659, -0.07161729037761688, -0.05541255325078964, -0.1679830104112625, -0.13997919857501984, -0.037933722138404846, 0.22706717252731323, 0.20568621158599854, -0.046443868428468704, -0.01968430168926716, -0.18310107290744781, 0.1331644356250763, -0.16080129146575928, 0.23649080097675323, 0.11329707503318787, 0.22062750160694122, 0.2234276384115219, 0.026551486924290657, -0.011735533364117146, -0.059020768851041794, 0.0625738576054573, -0.061456385999917984, 0.31383684277534485, -0.0345088355243206, 0.21765805780887604, 0.08908916264772415, 0.0835067480802536, 0.040080562233924866, -0.0024229176342487335, -0.14875082671642303, -0.14497977495193481, -0.11293874680995941, -0.1101430356502533, -0.22298546135425568, -0.3066863715648651, -0.18204759061336517, -0.20850852131843567, -0.04326106235384941, 0.25119858980178833, -0.036172520369291306, -0.14065369963645935, 0.1879003793001175, 0.23226869106292725, -0.02469102293252945, -0.01874452829360962, -0.12240220606327057, 0.08103467524051666, 0.33877235651016235, -0.006792931351810694, 0.07085885852575302, 0.13592828810214996, -0.206975057721138, 0.01158679649233818, -0.2193458080291748, 0.09174422174692154, -0.11491915583610535, 0.3026289641857147, -0.1230209544301033, -0.25492894649505615, -0.15602289140224457, 0.12672896683216095, -0.09434253722429276, -0.09560041129589081, -0.14619749784469604, 0.04469688609242439, 0.12042606621980667, -0.03904161974787712, -0.17353399097919464, 0.0811130553483963, -0.24444814026355743, 0.20535287261009216, 0.07713575661182404, 0.22686877846717834, -0.23964059352874756, -0.14144961535930634, -0.023928174749016762, -0.06670250743627548, 0.009076673537492752, 0.24658240377902985, 0.1016724482178688, -0.13021546602249146, 0.19653138518333435, 0.1023394912481308, 0.17698925733566284, -0.07858505845069885, -0.22807732224464417, -0.020627981051802635, -0.12761445343494415, 0.07582889497280121, 0.568627655506134, 0.054013073444366455, 0.0657871812582016, -0.22845607995986938, 0.11963727325201035, 0.044055838137865067, -0.028528455644845963, 0.3251804709434509, -0.07850799709558487, 0.10226642340421677, -0.030221352353692055, 0.12384577095508575, 0.2527964413166046, 0.0847310945391655, -0.09448343515396118, -0.2864265739917755, 0.2728501856327057, -0.13673442602157593, -0.2401687353849411, 0.23743566870689392], [0.06448949128389359, -0.051589593291282654, 0.42788323760032654, 0.10638299584388733, 0.07438891381025314, -0.25052574276924133, -0.07042209059000015, -0.21845336258411407, -0.0396249033510685, -0.2538764476776123, -0.023570682853460312, -0.052082888782024384, -0.04447348415851593, 0.11267507076263428, 0.037796638906002045, 0.018741389736533165, 0.045699041336774826, -0.004194358363747597, 0.06090554967522621, 0.1237797737121582, -0.16278591752052307, 0.2062269151210785, 0.09651303291320801, -0.23651854693889618, 0.22677621245384216, -0.06553567200899124, -0.24724875390529633, 0.09497951716184616, 0.11926797032356262, 0.3529071509838104, -0.14275437593460083, -0.0797911211848259, -0.11063652485609055, -0.05262317508459091, -0.2649584114551544, 0.07668903470039368, -0.20481128990650177, -0.08974254876375198, -0.007396106142550707, 0.0036207339726388454, 0.12641257047653198, 0.2327679842710495, 0.15678663551807404, 0.08021466434001923, 0.031117137521505356, -0.055622171610593796, -0.16738112270832062, -0.01152334176003933, -0.08543596416711807, -0.05182310938835144, 0.12186222523450851, -0.12323135137557983, -0.2280515432357788, -0.030569247901439667, 0.21451979875564575, -0.09672466665506363, 0.31389355659484863, 0.004379180260002613, 0.20573364198207855, -0.1737600564956665, -0.3831041157245636, -0.1290605366230011, 0.20038515329360962, 0.2318764477968216, -0.11271005868911743, 0.1282767802476883, -0.08582671731710434, 0.2286996692419052, 0.014645205810666084, -0.0020578925032168627, -0.07851050049066544, -0.03279578313231468, 0.22508296370506287, -0.1504705846309662, 0.12464874237775803, 0.15098220109939575, 0.029873907566070557, -0.020488256588578224, -0.09103599190711975, -0.10634835064411163, 0.20722053945064545, -0.22537969052791595, 0.03149637207388878, 0.0485699288547039, 0.12055494636297226, -0.3305269777774811, -0.1663925051689148, 0.17171205580234528, 0.09793596714735031, -0.28667500615119934, 0.1906055510044098, 0.26479989290237427, 0.30224743485450745, 0.028973247855901718, -0.22763025760650635, 0.03188485652208328, 0.06847566366195679, 0.01457881648093462, 0.17120122909545898, 0.1332474648952484, -0.316853791475296, 0.01486768014729023, -0.07076992094516754, 0.05755222588777542, -0.1278817355632782, -0.0031354676466435194, 0.2469349205493927, 0.23745720088481903, 0.24447321891784668, -0.0019360989099368453, 0.011248426511883736, 0.1713130921125412, 0.07301446795463562, -0.09003261476755142, 0.042829252779483795, 0.027914848178625107, 0.16899904608726501, -0.07140130549669266, -0.06706401705741882, -0.017884084954857826, -0.05615159496665001, 0.1562793254852295, 0.041063349694013596, 0.20590528845787048, 0.08275944739580154, -0.1687980741262436, -0.024080678820610046, 0.3282693922519684, -0.19170592725276947, 0.05900095775723457, 0.11638786643743515, -0.12713463604450226, 0.00466605881229043, -0.26768845319747925, 0.10529717803001404, 0.27844172716140747, 0.02767552062869072, 0.08232660591602325, 0.10850874334573746, -0.1129482313990593, 0.011608895845711231, -0.08214053511619568, 0.07813504338264465, 0.038455188274383545, 0.14781326055526733, 0.16728883981704712, 0.05229198560118675, 0.08988820761442184, -0.10403954982757568, -0.08367680758237839, 0.0379985012114048, 0.04139981418848038, 0.04301001876592636, 0.02053358592092991, 0.15133005380630493, 0.012561737559735775, -0.05438840761780739, -0.13348887860774994, -0.16438916325569153, 0.18530523777008057, 0.1430497020483017, 0.07073438912630081, -0.026751121506094933, -0.08085507154464722, 0.1271916925907135, 0.14567236602306366, -0.25663942098617554, -0.04631173238158226, 0.06600750237703323, 0.05502428859472275, -0.3599977195262909, -0.04793653264641762, -0.14331327378749847, 0.08102646470069885, -0.36210623383522034, -0.005923564545810223, 0.21828074753284454, 0.03102073073387146, -0.17566260695457458, 0.02434011735022068, 0.04803584888577461, 0.012208769097924232, -0.13675138354301453, 0.012333071790635586, -0.11873824149370193, -0.05940953642129898, 0.11688224971294403, 0.160782128572464, -0.11236865818500519, -0.07362169027328491, -0.22044092416763306, 0.13041158020496368, 0.009242258965969086, -0.06241537630558014, 0.11034566909074783, -0.04206527769565582, 0.01866324618458748, 0.11506636440753937, -0.2802833020687103, 0.248335063457489, -0.18636348843574524, 0.08831913024187088, -0.19742879271507263, 0.1301245093345642, -0.0007127037970349193, -0.034144289791584015, -0.06164853274822235, 0.22921808063983917, 0.13621889054775238, -0.17688767611980438, -0.13793666660785675, 0.0961701050400734, -0.07818371802568436, -0.13795551657676697, 0.05836321413516998, 0.13534480333328247, 0.12191547453403473, -0.07291356474161148, 0.04951925948262215, 0.10583177208900452, -0.24281327426433563, -0.13705435395240784, 0.03023921139538288, 0.07162994891405106, -0.15373444557189941, -0.3185196816921234, -0.2474970817565918, -0.15733054280281067, -0.0035838077310472727, -0.02434392459690571, 0.13285833597183228, 0.26095032691955566, -0.024681152775883675, -0.07757238298654556, -0.01803394965827465, 0.22229689359664917, 0.0343373604118824, -0.0042304061353206635, -0.11548814922571182, -0.03027905896306038, 0.1281372755765915, -0.05380110442638397, 0.2534949481487274, 0.10420706868171692, -0.23693133890628815, -0.15848858654499054, 0.12165714055299759, -0.2210703045129776, 0.17942842841148376, 0.12934456765651703, -0.18676498532295227, 0.12675616145133972, 0.13067574799060822, 0.002932166215032339, 0.11206847429275513, 0.006029833573848009], [-0.02309357188642025, 0.28466784954071045, 0.06299477070569992, 0.1352403312921524, 0.155488520860672, -0.07442858815193176, -0.09364739060401917, 0.2557765543460846, -0.12075485289096832, 0.02140149474143982, -0.07416847348213196, -0.05303240939974785, -0.11033361405134201, 0.037646882236003876, -0.20495475828647614, -0.05549098178744316, -0.09395457804203033, -0.1873113065958023, -0.15191397070884705, -0.13191284239292145, -0.06652234494686127, 0.022166311740875244, -0.32549068331718445, -0.07793061435222626, -0.22660869359970093, 0.025970207527279854, 0.13632424175739288, -0.009329468943178654, -0.28769227862358093, -0.18471695482730865, -0.033661868423223495, -0.29418787360191345, 0.0009251851588487625, 0.12836217880249023, -0.09040006995201111, -0.11286994069814682, 0.11215145140886307, 0.11048870533704758, 0.023621704429388046, -0.1583956927061081, 0.021163715049624443, -0.20112378895282745, -0.1440756618976593, -0.04733441025018692, -0.08207912743091583, -0.08381503820419312, -0.1539943814277649, -0.12259761244058609, 0.2387125939130783, -0.22652578353881836, -0.07647588104009628, 0.15308693051338196, -0.02253657579421997, 0.16801565885543823, 0.023593906313180923, -0.0935581848025322, -0.12956036627292633, -0.1226213276386261, 0.3722110986709595, -0.08149538934230804, -0.2486433982849121, 0.1586676836013794, -0.18558655679225922, 0.05168590694665909, 0.1573026031255722, -0.008794622495770454, -0.08124952018260956, -0.15149380266666412, 0.1012066975235939, 0.0009061935706995428, -0.12089492380619049, -0.1366058588027954, 0.015469948761165142, -0.040052950382232666, -0.08671332150697708, 0.09762003272771835, -0.15644726157188416, 0.03810678422451019, 0.22830627858638763, -0.10135043412446976, -0.26540231704711914, 0.2057938426733017, 0.06683523207902908, -0.1327812522649765, 0.010959816165268421, 0.19774731993675232, -0.17150907218456268, -0.14492151141166687, 0.1737184226512909, -0.08184020966291428, -0.17528289556503296, -0.17987434566020966, -0.06750299036502838, 0.034040652215480804, -0.01627887785434723, -0.1538190245628357, 0.08752775192260742, -0.17915138602256775, 0.04146530479192734, 0.2811134457588196, 0.1769494265317917, 0.17233525216579437, 0.011972189880907536, -0.1298467069864273, 0.23544932901859283, 0.06481211632490158, -0.0093667171895504, -0.036465905606746674, -0.336747944355011, 0.2055346965789795, -0.04281741380691528, -0.07051271200180054, 0.17969170212745667, 0.16570426523685455, -0.04617587476968765, -0.00927409902215004, -0.16981302201747894, -0.017163880169391632, 0.11338245123624802, 0.30060964822769165, 0.15508624911308289, 0.05626257136464119, -0.13641755282878876, -0.051496975123882294, -0.12528657913208008, -0.32493922114372253, 0.27835094928741455, 0.08245399594306946, 0.13038761913776398, 0.13166704773902893, 0.013733858242630959, 0.0820978432893753, -0.1540222018957138, 0.1904359608888626, -0.0031680152751505375, -0.14968867599964142, -0.1407034546136856, -0.20622535049915314, 0.14680741727352142, 0.22614486515522003, 0.08478568494319916, 0.13708584010601044, -0.26935964822769165, -0.1381516456604004, -0.04352197423577309, -0.10691309720277786, -0.19400781393051147, -0.033567607402801514, 0.22842642664909363, -0.09611010551452637, -0.024607988074421883, -0.3353339433670044, 0.18958209455013275, 0.2852409780025482, 0.016554061323404312, 0.13514305651187897, -0.24611593782901764, 0.14377093315124512, 0.04926550015807152, 0.26818910241127014, -0.06674493849277496, 0.1318487823009491, 0.048004765063524246, 0.005359084811061621, -0.11215285956859589, 0.26230588555336, 0.09751307219266891, -0.06702402234077454, 0.005179954692721367, 0.1814272105693817, 0.24917612969875336, -0.05518685281276703, 0.13649053871631622, -0.006316210608929396, -0.07521110028028488, -0.2967824339866638, -0.08979424089193344, -0.006990745663642883, 0.18128898739814758, 0.1964002400636673, -0.06992322206497192, -0.11634133011102676, -0.15449777245521545, 0.11576632410287857, 0.15372976660728455, -0.05131194740533829, -0.07899818569421768, -0.1224169060587883, 0.08065816760063171, -0.16759881377220154, 0.11903852224349976, 0.21377749741077423, -0.2106306254863739, -0.08147631585597992, 0.11689066886901855, -0.053545452654361725, -0.11122198402881622, 0.10788299888372421, 0.07818275690078735, -0.20015370845794678, 0.062413349747657776, -0.05043819174170494, 0.012381644919514656, -0.3403755724430084, -0.16302907466888428, -0.0705716535449028, 0.10547943413257599, 0.07333613187074661, -0.17304030060768127, -0.11396157741546631, -0.2674509584903717, 0.06571731716394424, 0.29491978883743286, 0.260050505399704, 0.5136442184448242, 0.2168923318386078, 0.016330383718013763, -0.01886330358684063, 0.26330479979515076, -0.03679092973470688, 0.28821152448654175, -0.1569211333990097, 0.038566749542951584, 0.27863290905952454, 0.08279450982809067, -0.021735409274697304, 0.047629084438085556, -0.10870607197284698, 0.08514831960201263, 0.45926618576049805, 0.0285447109490633, 0.07872210443019867, -0.25124800205230713, -0.015674946829676628, -0.023127198219299316, 0.02902914583683014, 0.01547915581613779, 0.1825070083141327, -0.05071760341525078, 0.144864022731781, 0.09772194176912308, -0.10647643357515335, 0.12162740528583527, -0.17138783633708954, 0.01193868089467287, -0.20001064240932465, 0.24045923352241516, 0.05627496540546417, -0.07760841399431229, 0.04967872425913811, 0.18103238940238953, 0.07785733789205551, 0.2292988896369934, -0.0852866992354393, 0.05794000253081322, 0.29129478335380554], [0.07636474072933197, -0.08420228958129883, 0.22824960947036743, -0.1979169398546219, 0.02544090524315834, 0.12903115153312683, 0.11748988926410675, 0.21317750215530396, 0.10474677383899689, -0.013433411717414856, -0.1025521382689476, 0.41325557231903076, -0.36750903725624084, 0.0006141223711892962, 0.10420286655426025, -0.013793891295790672, 0.0670795664191246, -0.1049925684928894, -0.014180739410221577, 0.14993390440940857, -0.039227403700351715, -0.2534545958042145, -0.036808449774980545, 0.1027892678976059, -0.23723441362380981, -0.30322420597076416, -0.0516807958483696, 0.003513909177854657, -0.0629522055387497, -0.0923210084438324, -0.020566243678331375, 0.1920948624610901, 0.1034320667386055, 0.163906067609787, 0.03050689585506916, 0.21612800657749176, 0.05664196237921715, 0.07819216698408127, 0.10647247731685638, -0.0270340908318758, 0.029284628108143806, 0.0925147756934166, 0.07811515778303146, 0.1575731486082077, -0.09578964859247208, 0.04690989851951599, -0.03010551631450653, -0.2326594740152359, -0.05925421789288521, -0.13054335117340088, 0.08234988898038864, -0.050513848662376404, -0.013705307617783546, -0.08552204817533493, 0.209161177277565, 0.14280278980731964, 0.18368496000766754, -0.023128559812903404, -0.30721578001976013, 0.09372254461050034, -0.044619280844926834, 0.11817262321710587, -0.20301583409309387, 0.24745780229568481, -0.16968195140361786, -0.047073762863874435, -0.02007012441754341, 0.07860624045133591, -0.10888995975255966, 0.40304669737815857, -0.02739914134144783, 0.020565208047628403, 0.16430114209651947, -0.08506905287504196, 0.29092589020729065, 0.0069907791912555695, 0.1319659799337387, 0.07810184359550476, -0.2935851216316223, -0.08032641559839249, 0.05239369347691536, 0.08106797933578491, -0.2064092606306076, -0.27494940161705017, 0.22510884702205658, 0.14916084706783295, -0.062490031123161316, 0.014355561695992947, -0.2125016301870346, -0.03748345747590065, 0.014459175989031792, 0.04014162719249725, -0.10400290787220001, -0.031623173505067825, -0.15293611586093903, 0.09687121212482452, 0.2212272435426712, -0.17760294675827026, 0.19843953847885132, 0.1223134994506836, 0.2541320025920868, 0.040926918387413025, 0.14727158844470978, -0.19406196475028992, 0.19008545577526093, 0.2405676394701004, 0.18667180836200714, -0.061310943216085434, 0.27490898966789246, 0.12296035885810852, 0.26617980003356934, 0.13859783113002777, -0.039491187781095505, -0.19234077632427216, -0.20567767322063446, -0.11187060922384262, 0.34160134196281433, 0.2382505238056183, 0.1090044230222702, -0.14303284883499146, -0.10268882662057877, -0.17619241774082184, 0.07903926074504852, -0.18788275122642517, 0.006211425177752972, 0.12805978953838348, 0.12862978875637054, 0.24342168867588043, -0.01922781765460968, 0.031069613993167877, 0.020674392580986023, -0.24664534628391266, -0.018859516829252243, -0.1702178716659546, -0.07814231514930725, 0.07768205553293228, 0.06570465862751007, -0.006641849875450134, -0.15854066610336304, -0.06441628932952881, -0.01216545607894659, 0.013106566853821278, 0.05529458820819855, -0.05256011709570885, -0.09961364418268204, -0.037755437195301056, -0.04685167968273163, 0.2164299488067627, -0.0587596669793129, 0.02533188834786415, 0.10299865901470184, 0.15529268980026245, -0.004064913373440504, 0.10741090029478073, -0.10749978572130203, 0.13022686541080475, 0.222028449177742, -0.0006934545235708356, 0.23190827667713165, -0.04933779686689377, 0.0976095050573349, -0.14017818868160248, -0.14512041211128235, -0.03772052377462387, -0.14327749609947205, -0.07363899052143097, 0.0321587435901165, 0.15197180211544037, 0.1292147934436798, 0.15390433371067047, -0.04333622753620148, -0.10715506225824356, 0.06591333448886871, -0.06821302324533463, 0.031792402267456055, 0.0031598727218806744, -0.22674095630645752, 0.016950808465480804, -0.057943448424339294, -0.11402418464422226, 0.17299383878707886, 0.25827503204345703, -0.180385023355484, -0.0026216264814138412, -0.12708398699760437, 0.12900589406490326, 0.15427930653095245, 0.04771171510219574, 0.29491445422172546, 0.07491929829120636, 0.15688756108283997, 0.1934831440448761, -0.10790688544511795, -0.27277153730392456, -0.41137146949768066, 0.12634339928627014, -0.03619471937417984, -0.09989678859710693, 0.1124366968870163, -0.06146007776260376, 0.04453103616833687, -0.13857349753379822, -0.11621544510126114, 0.052845317870378494, -0.03284943848848343, -0.04072266072034836, 0.05706019699573517, 0.019788457080721855, 0.1465020626783371, -0.1304497867822647, -0.12635783851146698, 0.13631856441497803, 0.06400099396705627, -0.07772012054920197, -0.15718506276607513, 0.2490757554769516, 0.25428515672683716, 0.12767210602760315, -0.11096508055925369, 0.029600897803902626, -0.1239771842956543, 0.15107567608356476, 0.148900106549263, -0.15856197476387024, 0.0807015597820282, 0.11397109180688858, 0.031434066593647, -0.1737511157989502, -0.07148309797048569, -0.07561863958835602, -0.1658729463815689, -0.036006659269332886, -0.12604866921901703, -0.14479607343673706, 0.18701322376728058, 0.08488483726978302, 0.19876569509506226, -0.09821029752492905, 0.2706679403781891, 0.08691403269767761, -0.1341206133365631, -0.06557805836200714, 0.028187692165374756, -0.1320924609899521, -0.2048669010400772, 0.12474679201841354, -0.021518368273973465, -0.18024510145187378, 0.013453986495733261, -0.08514343947172165, 0.08686940371990204, -0.12091599404811859, 0.03079063817858696, 0.049528513103723526, -0.01588771492242813, 0.2642534375190735], [0.24948112666606903, -0.06706845760345459, -0.029849952086806297, 0.0724128931760788, 0.16245807707309723, 0.018385810777544975, 0.07776542007923126, -0.16231350600719452, -0.13256996870040894, 0.08454567939043045, 0.10278348624706268, 0.028340760618448257, 0.15851859748363495, 0.025712139904499054, -0.06649652123451233, 0.02676600217819214, 0.08560192584991455, 0.15481461584568024, 0.29319313168525696, 0.05882155895233154, 0.17540402710437775, -0.0605439692735672, 0.05781286209821701, 0.0009179754997603595, 0.04774320125579834, -0.0053388020023703575, 0.17135052382946014, -0.07666666060686111, 0.07186612486839294, 0.10604243725538254, 0.05190907418727875, -0.024220451712608337, -0.061861950904130936, -0.04055837541818619, 0.05108305811882019, -0.08897756785154343, -0.01623314805328846, 0.13182403147220612, -0.12227474898099899, -0.2760859429836273, -0.07231570035219193, 0.3342330753803253, 0.06901247054338455, 0.2255588173866272, -0.07243409007787704, -0.24319709837436676, -0.0009322259575128555, 0.03658980503678322, 0.060707949101924896, 0.04775918275117874, -0.24576100707054138, 0.10816480219364166, 0.1117536872625351, -0.17772245407104492, 0.24520447850227356, -0.0736306682229042, 0.29104381799697876, 0.14127786457538605, -0.1280374825000763, 0.35030776262283325, -0.036587756127119064, 0.2354503571987152, -0.049020394682884216, -0.3541443943977356, 0.08306615054607391, -0.1108931452035904, 0.20948317646980286, -0.24645984172821045, -0.16402031481266022, -0.09322509169578552, -0.1625514179468155, -0.19961391389369965, 0.08202117681503296, 0.21431118249893188, -0.061876218765974045, 0.22906611859798431, -0.0091444356366992, -0.3162660002708435, -0.06974752247333527, -0.12328591197729111, 0.16957806050777435, 0.0828886479139328, 0.022990453988313675, 0.15771736204624176, -0.09205396473407745, -0.004382274579256773, -0.17593398690223694, -0.08305451273918152, -0.23794174194335938, 0.0943402498960495, -0.10286813229322433, 0.023709407076239586, 0.06580591201782227, 0.32191312313079834, -0.1262424737215042, -0.10059747099876404, -0.26359742879867554, 0.19311435520648956, -0.14211910963058472, -0.004522261675447226, 0.10275165736675262, 0.028347330167889595, 0.03312569111585617, -0.1500225067138672, -0.04107710346579552, -0.016614126041531563, -0.1359887719154358, 0.0685691088438034, 0.0746641680598259, -0.15844197571277618, 0.14244255423545837, 0.09830579161643982, 0.04848816618323326, 0.17616304755210876, -0.26650968194007874, 0.21564780175685883, -0.08972378820180893, -0.10117051750421524, 0.07722965627908707, 0.2565772235393524, 0.383780837059021, -0.029953286051750183, 0.04127810150384903, 0.24710603058338165, 0.11199951171875, -0.06724093854427338, 0.24510738253593445, 0.29005080461502075, 0.005156297702342272, 0.0642642080783844, -0.009260212071239948, 0.08537236601114273, 0.0899641364812851, 0.0759398341178894, 0.12441446632146835, 0.15555442869663239, -0.16787071526050568, 0.047637633979320526, -0.12881430983543396, 0.041599079966545105, -0.21442440152168274, 0.16304124891757965, 0.1949567347764969, 0.13726285099983215, 0.017254848033189774, 0.00904654711484909, 0.10708247125148773, -0.07933332026004791, -0.08479220420122147, 0.07988240569829941, 0.07262313365936279, -0.12821891903877258, -0.11957206577062607, -0.032139625400304794, -0.16469693183898926, 0.20017226040363312, -0.11018074303865433, 0.1342923492193222, 0.19991758465766907, -0.011258259415626526, -0.21415828168392181, -0.2009153813123703, -0.2100791037082672, -0.3432804048061371, 0.26850342750549316, -0.01234256662428379, -0.0038717417046427727, -0.04429537430405617, -0.09640428423881531, -0.3430544435977936, -0.01677027717232704, -0.18456551432609558, -0.19573082029819489, -0.018540674820542336, 0.08838927000761032, -0.061673130840063095, -0.03868793696165085, 0.010890799574553967, 0.3546793460845947, 0.2860594391822815, -0.017217405140399933, -0.06665807962417603, 0.006135078147053719, 0.12494339048862457, 0.07122480124235153, -0.10488677769899368, 0.16956010460853577, -0.014434561133384705, -0.09710469096899033, 0.15195822715759277, -0.18139925599098206, 0.10634371638298035, 0.07341226935386658, -0.06789438426494598, 0.030936019495129585, -0.25939464569091797, 0.07029368728399277, 0.1505366563796997, 0.12245551496744156, -0.003913533873856068, -0.06813180446624756, -0.2337777018547058, -0.08666126430034637, 0.0953972265124321, -0.15602172911167145, 0.0667232871055603, -0.22579461336135864, 0.07474343478679657, -0.21404002606868744, 0.1585756242275238, -0.27473199367523193, 0.06548257917165756, 0.04222523421049118, 0.0864751935005188, 0.10452375560998917, -0.375853568315506, 0.021388612687587738, -0.13178320229053497, 0.09905653446912766, -0.03280998766422272, 0.04272520914673805, -0.013429833576083183, 0.07899017632007599, 0.07932287454605103, -0.30415549874305725, 0.13355331122875214, 0.13168834149837494, 0.3037527799606323, 0.050999369472265244, 0.14505188167095184, 0.27781856060028076, -0.15987375378608704, 0.1280403435230255, 0.0921962559223175, -0.15624259412288666, 0.06184661388397217, -0.18637283146381378, 0.32223865389823914, -0.1288532167673111, 0.045757558196783066, -0.09822361171245575, -0.030604524537920952, -0.0979352667927742, 0.15569092333316803, -0.14139589667320251, -0.06684655696153641, 0.0721026211977005, -0.2325054556131363, -0.08914979547262192, -0.02421419508755207, -0.07682161033153534, 0.00821700133383274, 0.09533677250146866, -0.003384989919140935, -0.027160676196217537, -0.1359671950340271], [0.1813480705022812, -0.10197783261537552, -0.1286979615688324, 0.07485733181238174, 0.16215121746063232, 0.23686128854751587, -0.012773867696523666, -0.0019332102965563536, -0.02751588635146618, 0.19943107664585114, -0.1230798065662384, 0.022280167788267136, -0.11147386580705643, -0.019844859838485718, -0.04315623641014099, 0.18148024380207062, -0.052431620657444, -0.20162734389305115, -0.28413066267967224, 0.005024204030632973, -0.0032846247777342796, -0.1687992811203003, 0.03185596689581871, 0.10703413188457489, -0.23969396948814392, 0.04415310546755791, 0.0694657564163208, -0.06343884766101837, -0.111286960542202, -0.021794704720377922, 0.042265914380550385, -0.006164699327200651, -0.056990619748830795, -0.18439820408821106, 0.13326391577720642, 0.0976853296160698, 0.15170137584209442, -0.09779232740402222, -0.162671759724617, 0.13939924538135529, 0.012410307303071022, 0.005991396959871054, -0.09474226087331772, 0.05622512474656105, 0.10530723631381989, -0.0635240450501442, 0.2118021696805954, -0.06851919740438461, -0.1162286251783371, -0.06660082191228867, -0.03611917048692703, -0.24037869274616241, 0.1328219771385193, -0.21188154816627502, -0.16884340345859528, 0.037196479737758636, 0.1651800125837326, -0.07956588268280029, 0.01588800549507141, -0.1438240259885788, 0.036743227392435074, 0.0949242040514946, -0.13497696816921234, 0.17829234898090363, -0.1795244961977005, -0.334220290184021, -0.005878737661987543, 0.12607704102993011, -0.12916868925094604, -0.13006119430065155, 0.22238263487815857, 0.22131961584091187, 0.08576761931180954, 0.15650030970573425, 0.0891885831952095, -0.2767527103424072, 0.11970163136720657, 0.24204511940479279, 0.12367864698171616, -0.15207308530807495, -0.012401164509356022, 0.2533874213695526, -0.019749268889427185, -0.04641851410269737, -0.08440729230642319, 0.011816572397947311, -0.017122311517596245, 0.08357017487287521, -0.12312100827693939, -0.13436466455459595, 0.12493591010570526, -0.03805962949991226, -0.22014039754867554, 0.08265986293554306, -0.10851618647575378, 0.14148454368114471, -0.26237794756889343, -0.05780106782913208, 0.3759031891822815, -0.08997119963169098, -0.030358152464032173, 0.1422455608844757, 0.18509136140346527, 0.052594564855098724, -0.11059010028839111, 0.05595746636390686, -0.19274240732192993, 0.08359836041927338, 0.051944032311439514, -0.12523189187049866, 0.008814320899546146, -0.1586885154247284, -0.03430924564599991, 0.06836331635713577, 0.08740705251693726, 0.09905670583248138, -0.1441713124513626, 0.13877934217453003, -0.11761893332004547, 0.23631639778614044, -0.012477366253733635, 0.006824682466685772, 0.05353303626179695, 0.13042889535427094, 0.13888436555862427, 0.08952875435352325, 0.12218956649303436, 0.09180444478988647, 0.26895013451576233, 0.1101839691400528, 0.00886139739304781, 0.348455011844635, 0.0230132807046175, -0.11275879293680191, -0.135747030377388, -0.0847332775592804, 0.283576101064682, 0.16608358919620514, -0.11016876250505447, -0.09387507289648056, 0.2534434497356415, 0.15920239686965942, -0.10125986486673355, 0.05971819534897804, 0.07975877076387405, -0.12833191454410553, -0.11813125014305115, 0.13028943538665771, 0.05060306563973427, -0.08929841220378876, 0.1409495770931244, -0.003916432149708271, -0.047332167625427246, 0.021037640050053596, -0.04863199219107628, 0.20149658620357513, 0.11371495574712753, -0.14060908555984497, 0.046519335359334946, -0.04713396728038788, -0.13507549464702606, -0.04448622465133667, -0.048136156052351, -0.10648003965616226, -0.34161171317100525, -0.32114022970199585, -0.17889195680618286, -0.07401265949010849, 0.13206492364406586, -0.06515641510486603, -0.11400187015533447, 0.010758415795862675, 0.05085473507642746, -0.15090185403823853, -0.336211234331131, 0.17014582455158234, -0.1047058254480362, -0.06188187375664711, 0.10161573439836502, 0.36928457021713257, -0.2004769742488861, 0.023594072088599205, -0.017850469797849655, -0.17200934886932373, 0.10238098353147507, 0.0010532005690038204, -0.1014130488038063, -0.028351057320833206, -0.047941166907548904, 0.04226468876004219, -0.1207485944032669, -0.19036228954792023, 0.21036040782928467, 0.06418689340353012, -0.44464772939682007, 0.40383628010749817, -0.19049279391765594, 0.26001453399658203, 0.10564445704221725, 0.12708689272403717, 0.0018113601254299283, 0.014153322204947472, 0.13709762692451477, 0.23535485565662384, -0.04027573764324188, 0.2597280442714691, -0.11089117079973221, 0.035119615495204926, -0.09919919818639755, 0.14459128677845, 0.07420028746128082, -0.15399304032325745, -0.07965607196092606, 0.1408429890871048, 0.005986073985695839, -0.039150383323431015, -0.10126600414514542, -0.08590848743915558, 0.14702430367469788, 0.03761565685272217, 0.014811577275395393, -0.04718729853630066, -0.07664383202791214, 0.2144428789615631, 0.22016678750514984, 0.06691762804985046, -0.07063982635736465, 0.000170812476426363, 0.005670306272804737, -0.10615284740924835, -0.22850440442562103, -0.10007365792989731, 0.11241638660430908, 0.1004415899515152, 0.06550084799528122, -0.24042007327079773, -0.025998804718255997, -0.3885117769241333, -0.22892500460147858, 0.03137088567018509, -0.07533258199691772, 0.08707493543624878, -0.1378236562013626, -0.034177668392658234, 0.005934346932917833, 0.2522892951965332, -0.0594305694103241, 0.13216300308704376, -0.25501179695129395, -0.2357923984527588, 0.0002509778714738786, 0.10836618393659592, 0.23263384401798248, 0.05975000932812691, 0.11797303706407547, -0.08124421536922455], [0.17036205530166626, 0.12168686836957932, 0.14710530638694763, 0.24830201268196106, -0.026247620582580566, -0.18558697402477264, 0.2847801446914673, -0.25163015723228455, -0.1593065708875656, 0.03692192956805229, -0.06859534233808517, -0.11676222831010818, 0.2467886209487915, -0.08638608455657959, -0.0789918527007103, -0.24098601937294006, 0.1063118726015091, -0.018238842487335205, 0.36051157116889954, 0.13846656680107117, 0.12572385370731354, 0.00022812452516518533, 0.1695009469985962, -0.10357310622930527, 0.21972715854644775, -0.006451461464166641, -0.21160654723644257, 0.040706634521484375, 0.08782707899808884, 0.017835604026913643, 0.00742492126300931, 0.22716525197029114, -0.12814165651798248, -0.04056045040488243, 0.49152594804763794, 0.22526206076145172, 0.031747594475746155, 0.0638098195195198, 0.12372186779975891, -0.07349175959825516, -0.09044269472360611, 0.09686349332332611, 0.09299605339765549, 0.26570749282836914, 0.1123538687825203, -0.13250067830085754, 0.1450553685426712, 0.16668429970741272, -0.24731677770614624, -0.26732105016708374, 0.13262954354286194, -0.016940655186772346, -0.06939646601676941, 0.12572459876537323, -0.00816352479159832, 0.016513681039214134, 0.27643901109695435, 0.2862440049648285, -0.031232114881277084, 0.29991668462753296, -0.0598096027970314, -0.29563429951667786, -0.1129550114274025, 0.12973785400390625, -0.002569837961345911, -0.10038194060325623, -0.2416790872812271, 0.04212835058569908, -0.08709123730659485, -0.31576281785964966, 0.13234490156173706, 0.09053152054548264, -0.1846432387828827, 0.18535706400871277, 0.12219222635030746, -0.05981496721506119, -0.09349279850721359, 0.03160283342003822, 0.06997460871934891, -0.0657898411154747, 0.1636531949043274, -0.05781744420528412, -0.07076212763786316, 0.19594161212444305, -0.03237949684262276, -0.11209563910961151, 0.16431502997875214, -0.13572336733341217, 0.3030044734477997, 0.08158134669065475, 0.028126981109380722, -0.006969104986637831, 0.07260607182979584, -0.018464822322130203, 0.1163216382265091, 0.1420053392648697, -0.10090815275907516, -0.0580718070268631, -0.04508000612258911, -0.2364014983177185, 0.07214340567588806, -0.1930479258298874, 0.08290302008390427, 0.01770012453198433, 0.11734040826559067, 0.14554309844970703, -0.1026558205485344, -0.04558016359806061, 0.21863633394241333, -0.0031058448366820812, 0.10623210668563843, -0.030401384457945824, 0.23231372237205505, 0.005781160201877356, -0.32869312167167664, -0.0570400096476078, -0.06919484585523605, -0.11366808414459229, 0.02333945408463478, 0.10860583186149597, 0.12326258420944214, -0.15074557065963745, -0.17561057209968567, 0.23584678769111633, 0.23177310824394226, -0.19476395845413208, 0.06786955893039703, -0.18062904477119446, -0.11354680359363556, 0.15857578814029694, 0.20881357789039612, 0.057361528277397156, -0.16050200164318085, 0.0090436777099967, 0.08263446390628815, -0.138838991522789, 0.052587635815143585, 0.23040692508220673, 0.3827989995479584, 0.050042036920785904, 0.147490456700325, 0.13584642112255096, -0.058703381568193436, 0.027020564302802086, 0.17063869535923004, -0.11875955015420914, -0.21854105591773987, 0.22610102593898773, -0.16244834661483765, -0.011868263594806194, -0.06822274625301361, -0.03793017193675041, 0.19934198260307312, -0.09207455813884735, 0.11340795457363129, 0.06007563695311546, -0.022842276841402054, 0.07055053114891052, -0.12723001837730408, -0.10338754951953888, 0.13817043602466583, -0.018450479954481125, 0.20835523307323456, -0.1633780300617218, 0.2569344639778137, -0.0351446196436882, 0.18483585119247437, -0.14637400209903717, -0.0867588073015213, -0.03999849781394005, -0.0874573364853859, 0.027604786679148674, -0.20403018593788147, -0.2629703879356384, 0.0214998796582222, -0.12390714138746262, 0.07470356673002243, -0.10310740768909454, -0.05210452154278755, -0.10647229105234146, 0.18995001912117004, 0.0001485490647610277, 0.06269005686044693, 0.034925978630781174, 0.2637788951396942, 0.18516741693019867, -0.027241377159953117, -0.04189284145832062, -0.29631757736206055, 0.25868308544158936, -0.07179262489080429, 0.24306312203407288, -0.07679407298564911, 0.07656243443489075, -0.09100030362606049, 0.1459994614124298, 0.14097242057323456, -0.057911522686481476, 0.028039300814270973, 0.13288863003253937, 0.1562316119670868, 0.23483575880527496, -0.24223163723945618, 0.06276468932628632, 0.06444942951202393, 0.20802147686481476, 0.01722712814807892, 0.18171608448028564, -0.2438955456018448, -0.22035539150238037, 0.2251233607530594, 0.35778993368148804, -0.0314912274479866, -0.1888301819562912, 0.033084429800510406, 0.034630656242370605, 0.15613174438476562, 0.1829225867986679, 0.010585944168269634, -0.16289858520030975, -0.09264066815376282, 0.13895200192928314, -0.22458480298519135, 0.051320549100637436, -0.07443077862262726, -0.22453419864177704, -0.0038264335598796606, 0.11955434083938599, -0.24539582431316376, -0.47357919812202454, 0.16105927526950836, 0.011827822774648666, 0.09123954176902771, 0.19447486102581024, -0.08218890428543091, 0.123600535094738, -0.15360355377197266, 0.11958178132772446, 0.027474425733089447, -0.023352911695837975, -0.03674693405628204, -0.1216861680150032, -0.17546437680721283, 0.052019670605659485, -0.2875121533870697, -0.08945654332637787, -0.045689236372709274, 0.01833294704556465, 0.02774767205119133, 0.02510814182460308, -0.05864616483449936, 0.0506674125790596, 0.10289090871810913, -0.25675687193870544, 0.04434217885136604, -0.12878583371639252], [0.2627541720867157, -0.15881678462028503, 0.3013187050819397, -0.15264645218849182, -0.16976332664489746, 0.13345608115196228, -0.06267126649618149, -0.3041861653327942, -0.32208800315856934, 0.0931101068854332, -0.07663004100322723, 0.2407907247543335, -0.1459921896457672, 0.01011902280151844, 0.13453111052513123, -0.16474606096744537, 0.019889574497938156, 0.10665544122457504, -0.1073368489742279, -0.26964864134788513, 0.024852998554706573, -0.12985210120677948, -0.08171811699867249, 0.07511085271835327, -0.21658842265605927, -0.08114203065633774, 0.07189920544624329, -0.21437227725982666, -0.13933590054512024, -0.1440209597349167, 0.05513026937842369, 0.17662808299064636, 0.2769821286201477, -0.19481486082077026, 0.011936333030462265, -0.055704265832901, -0.057552922517061234, 0.16163957118988037, -0.2370619922876358, -0.11542180180549622, -0.05326451361179352, -0.21209684014320374, 0.02953430637717247, 0.32277053594589233, 0.08705020695924759, 0.20072688162326813, -0.2693049907684326, 0.26500195264816284, 0.1835271418094635, 0.013505448587238789, -0.2615494728088379, 0.16085296869277954, -0.03791755065321922, -0.058379992842674255, -0.08731645345687866, -0.11040009558200836, -0.09550409018993378, 0.11389626562595367, -0.14938867092132568, 0.0334874652326107, 0.19521020352840424, 0.07519946992397308, 0.3434188961982727, 0.07370898127555847, 0.21263964474201202, -0.1130148246884346, -0.00767977861687541, -0.12189176678657532, -0.02464154362678528, -0.10343282669782639, -0.036293573677539825, 0.18388013541698456, 0.187737375497818, 0.11740941554307938, 0.05019965022802353, 0.14843454957008362, 0.1069110855460167, -0.22048193216323853, 0.08442450314760208, -0.14106233417987823, 0.049391791224479675, 0.16239012777805328, 0.250652015209198, -0.20832018554210663, 0.10568489134311676, -0.07880545407533646, -0.049006883054971695, 0.023880137130618095, 0.12385709583759308, -0.0400463342666626, -0.28502753376960754, -0.09153276681900024, 0.06138724833726883, 0.10014083981513977, -0.0006034584366716444, -0.1805412620306015, -0.1680174618959427, 0.41452524065971375, -0.20790626108646393, 0.17357933521270752, -0.27904823422431946, -0.0903513953089714, -0.38333946466445923, 0.11950982362031937, 0.0048110997304320335, -0.04610443487763405, -0.10679305344820023, 0.07581876218318939, -0.025543497875332832, -0.030315754935145378, -0.10344377160072327, -0.06607237458229065, -0.1496247947216034, -0.09150298684835434, -0.01422475092113018, -0.38976290822029114, -0.07209710031747818, -0.009650886990129948, 0.042727138847112656, -0.09052183479070663, 0.024769237264990807, 0.02096770517528057, 0.1325816512107849, 0.11528072506189346, -0.14723649621009827, 0.19794030487537384, 0.04030010849237442, -0.11296903342008591, 0.23388734459877014, 0.2487126886844635, -0.12525653839111328, 0.05923052132129669, 0.18662743270397186, -0.133040651679039, -0.34595680236816406, -0.04526480659842491, -0.011958264745771885, 0.12049885094165802, 0.028758222237229347, 0.20707465708255768, 0.0665215253829956, -0.2285016030073166, -0.1800765097141266, 0.15437184274196625, -0.0306195467710495, -0.05621767044067383, 0.05040597543120384, 0.18394359946250916, -0.22741374373435974, -0.08372985571622849, 0.29526862502098083, -0.042141903191804886, 0.0098746782168746, -0.16225171089172363, 0.17098894715309143, -0.02380090393126011, 0.10036784410476685, -0.0042891837656497955, -0.161355659365654, -0.08268190175294876, 0.21574126183986664, -0.07957436144351959, 0.041923679411411285, 0.15443964302539825, 0.06910081207752228, 0.146409809589386, 0.030003728345036507, 0.06627088785171509, -0.04322066158056259, 0.046519000083208084, -0.07345159351825714, -0.3490535020828247, -0.2353484332561493, 0.3394516110420227, 0.04516131803393364, -0.17295920848846436, 0.05356449633836746, -0.06378664076328278, -0.11608254909515381, 0.0907958447933197, -0.3139394521713257, -0.13946692645549774, 0.13539522886276245, -0.08214563876390457, -0.11537845432758331, 0.052510496228933334, -0.11604171991348267, 0.10861384868621826, -0.06243160367012024, 0.1324731409549713, 0.16425716876983643, -0.0967123806476593, 0.1486363708972931, 0.3006691634654999, 0.09167944639921188, -0.051717013120651245, 0.017367331311106682, 0.05669327825307846, 0.03332631662487984, 0.0075322468765079975, 0.09866392612457275, -0.23293234407901764, 0.13915587961673737, 0.2009458988904953, -0.09762916713953018, 0.20716899633407593, 0.03957795351743698, 0.13436873257160187, 0.08184565603733063, 0.15481510758399963, 0.16030548512935638, -0.26646286249160767, 0.1763562262058258, 0.1478390097618103, 0.17024792730808258, 0.15305224061012268, 0.0614766851067543, -0.2694644033908844, 0.15129967033863068, 0.0724744200706482, -0.15905241668224335, -0.27106794714927673, 0.24698960781097412, -0.4239724576473236, 0.06331019848585129, -0.003452572738751769, -0.011622399091720581, -0.09335441142320633, 0.13439665734767914, 0.277137815952301, -0.12534227967262268, 0.00041813263669610023, -0.16460038721561432, -0.05161212757229805, 0.06483560800552368, -0.14677609503269196, 0.03125101327896118, 0.0593259371817112, -0.03713453933596611, 0.054600559175014496, 0.11636622995138168, -0.1672561764717102, 0.1206739991903305, 0.18477609753608704, 0.08445801585912704, -0.12079692631959915, 0.001679363427683711, 0.04863731935620308, -0.018817676231265068, -0.12905356287956238, 0.10319337248802185, -0.038888633251190186, 0.04954185709357262, -0.035880450159311295, -0.08109840005636215, -0.1721278727054596], [-0.007971088401973248, -0.19069160521030426, -0.2247214913368225, -0.11895205825567245, -0.07160231471061707, -0.1262042075395584, 0.23384733498096466, 0.05438467115163803, 0.020454978570342064, 0.03229773789644241, 0.05635560676455498, -0.11486313492059708, -0.19057264924049377, 0.04333745315670967, -0.37511083483695984, -0.15543892979621887, -0.030311034992337227, 0.09410480409860611, 0.13326053321361542, -0.1339568942785263, -0.07871358096599579, -0.05606750771403313, 0.06196792423725128, 0.12832428514957428, 0.18362058699131012, -0.0036561149172484875, 0.06712929904460907, 0.14226752519607544, 0.0900035873055458, 0.12862426042556763, 0.15909868478775024, -0.06855620443820953, 0.11626847833395004, -0.06212218850851059, -0.07437407970428467, 0.0889740139245987, 0.07117582112550735, 0.02170497737824917, -0.09018116444349289, -0.05414728820323944, 0.09690777957439423, -0.06450120359659195, -0.02690954878926277, -0.02198317088186741, -0.018498361110687256, 0.29774555563926697, 0.028018832206726074, 0.1863684505224228, 0.11184794455766678, -0.11269694566726685, 0.24363932013511658, 0.19962219893932343, 0.15813447535037994, -0.2544788718223572, 0.10328222066164017, -0.050407424569129944, -0.21510890126228333, 0.15496701002120972, 0.16936005651950836, 0.015556206926703453, -0.13955365121364594, -0.14729076623916626, 0.3966920077800751, 0.08085618913173676, 0.28373217582702637, -0.09164420515298843, -0.038779065012931824, 0.057156793773174286, -0.0765317976474762, -0.07502468675374985, -0.18019120395183563, -0.03355678915977478, -0.22566288709640503, -0.010242023505270481, -0.3458033502101898, 0.017542123794555664, 0.04488396272063255, -0.06133120507001877, -0.09162711352109909, 0.2630973160266876, -0.07743131369352341, -0.21970108151435852, -0.33350327610969543, 0.11473960429430008, 0.11846126616001129, 0.07256263494491577, 0.15440970659255981, -0.2855828106403351, -0.31488072872161865, -0.03360674902796745, -0.025451771914958954, -0.0014459810918197036, 0.127420112490654, 0.13560736179351807, 0.015391770750284195, -0.002286012750118971, -0.10395050793886185, -0.20825393497943878, 0.230453759431839, 0.10260026901960373, -0.07870196551084518, -0.030056057497859, -0.2967507243156433, 0.06986874341964722, -0.038658469915390015, -0.26662951707839966, 0.09115196019411087, -0.13511112332344055, -0.1856057047843933, -0.0942034125328064, -0.0019210795871913433, -0.09813088923692703, 0.08749039471149445, -0.1335981786251068, 0.06678495556116104, 0.06153950095176697, 0.16868890821933746, -0.009547112509608269, -0.01065442431718111, -0.04464138299226761, -0.2893555760383606, -0.012025595642626286, 0.09898167848587036, -0.03841071575880051, -0.019078781828284264, -0.03955521807074547, -0.12216704338788986, -0.024702370166778564, -0.27436551451683044, -0.17450784146785736, 0.010095261037349701, -0.1729215383529663, 0.05621572583913803, -0.3346814513206482, -0.17412953078746796, 0.04702318459749222, 0.03881506249308586, 0.02486334927380085, 0.20908130705356598, 0.08882800489664078, 0.1254982203245163, 0.2931109666824341, 0.01853564940392971, -0.08607520908117294, -0.06337019056081772, 0.2343350350856781, -0.11426991969347, -0.3273778259754181, 0.010592345148324966, 0.22351662814617157, -0.15310533344745636, -0.028478611260652542, -0.16349950432777405, 0.1389656811952591, 0.1823681890964508, 0.03099250979721546, 0.11541715264320374, -0.18258614838123322, -0.1344604641199112, 0.000918939767871052, 0.050123851746320724, 0.023846227675676346, 0.11419187486171722, 0.010294338688254356, -0.3463810682296753, 0.05581780523061752, 0.15602846443653107, -0.15090222656726837, 0.17948108911514282, -0.028980756178498268, 0.020897099748253822, 0.3389526605606079, 0.029967235401272774, -0.01619979739189148, 0.2996462285518646, 0.11371813714504242, -0.04287436231970787, 0.1619199514389038, 0.08565384894609451, -0.2648628354072571, -0.046300552785396576, 0.14467428624629974, 0.04208673536777496, 0.08157605677843094, -0.10780580341815948, 0.011621084995567799, -0.35092970728874207, 0.25954151153564453, 0.23815248906612396, -0.08049170672893524, -0.0017982652643695474, 0.040037404745817184, 0.1753915697336197, 0.001027613296173513, -0.0006681399536319077, -0.046552930027246475, 0.026980653405189514, -0.13254430890083313, 0.012120243161916733, -0.016505805775523186, 0.17099137604236603, -0.07117708772420883, 0.15188190340995789, -0.030400047078728676, -0.1273627132177353, 0.026835190132260323, -0.0008773935842327774, 0.06799111515283585, 0.07265480607748032, -0.1457897126674652, -0.15460927784442902, -0.10089879482984543, -0.27692854404449463, 0.060716427862644196, -0.14551909267902374, 0.06739678233861923, 0.14677809178829193, -0.2844672203063965, 0.17419368028640747, -0.1488294005393982, -0.09460277110338211, 0.21658124029636383, -0.154651939868927, -0.19659775495529175, 0.008851123973727226, -0.014102824032306671, 0.20108284056186676, -0.2599330544471741, -0.15761157870292664, 0.04248693957924843, -0.060624849051237106, -0.09412786364555359, -0.07405981421470642, 0.2116670459508896, 0.1309574842453003, 0.13468971848487854, 0.07589595019817352, 0.20454353094100952, 0.05023916810750961, 0.1673963963985443, 0.23158806562423706, -0.3574396073818207, -0.23032492399215698, 0.014703861437737942, 0.0021857719402760267, 0.004249127581715584, 0.06916255503892899, -0.28864023089408875, -0.1282326728105545, -0.0072586932219564915, -0.07836117595434189, -0.03304290398955345, 0.0410928949713707, 0.04736979305744171, -0.12486552447080612, 0.13486050069332123], [-0.17986245453357697, 0.13456933200359344, -0.18957602977752686, -0.3871033191680908, -0.13397066295146942, 0.08671613782644272, 0.13650603592395782, -0.08295966684818268, 0.2250811606645584, 0.2556602656841278, 0.04324302449822426, 0.0020168880000710487, 0.19358928501605988, -0.08061744272708893, 0.10501264780759811, 0.038646403700113297, -0.11964043974876404, -0.14686493575572968, -0.06876970082521439, 0.08811794966459274, 0.2027953863143921, 0.15832746028900146, 0.289121150970459, -0.10859575867652893, -0.26615849137306213, 0.016129225492477417, 0.0811542198061943, -0.10897974669933319, -0.1720765233039856, 0.09325742721557617, -0.0586245097219944, 0.04727991297841072, 0.1312078982591629, 0.06259915977716446, 0.2504725754261017, 0.3326992690563202, 0.1412619799375534, -0.17975981533527374, 0.040310461074113846, 0.11319289356470108, 0.08073288947343826, -0.11591437458992004, -0.23394350707530975, -0.17189975082874298, -0.30252334475517273, -0.019027814269065857, -0.0013274396769702435, -0.11946863681077957, 0.03498396649956703, 0.036403972655534744, 0.1884557008743286, 0.25350135564804077, -0.09852574020624161, 0.19678035378456116, -0.009097696281969547, 0.11986784636974335, 0.025351841002702713, 0.0034227287396788597, -0.20762106776237488, -0.019810566678643227, -0.2562727630138397, -0.0712394118309021, -0.07477640360593796, 0.04347957298159599, 0.016061637550592422, -0.039777129888534546, 0.004842653870582581, -0.0383438915014267, -0.058634981513023376, 0.03659138083457947, 0.09941258281469345, 0.14953415095806122, -0.14412027597427368, 0.020760122686624527, -0.33687523007392883, -0.18528515100479126, -0.11692866683006287, -0.13294190168380737, 0.1480744481086731, 0.1430055946111679, -0.20411759614944458, 0.10141202807426453, -0.06659644842147827, -0.22257788479328156, -0.08887676149606705, 0.1336464136838913, 0.19623206555843353, 0.01008678786456585, -0.16745628416538239, -0.09567578881978989, 0.15887877345085144, -0.23886600136756897, 0.25037267804145813, 0.029682770371437073, 0.07226496189832687, 0.33375364542007446, 0.2512803077697754, 0.028049243614077568, -0.18634632229804993, 0.2216075360774994, -0.04748739302158356, 0.07784323394298553, -0.16265104711055756, -0.09471102803945541, 0.054072096943855286, -0.08703823387622833, -0.026369892060756683, -0.1414623111486435, -0.05469365417957306, 0.19088993966579437, -0.1629742681980133, -0.21895256638526917, 0.0369875393807888, -0.05330416187644005, 0.2835908532142639, 0.15914589166641235, 0.1621994525194168, 0.11393934488296509, 0.0036713264416903257, -0.1466071754693985, 0.0390009842813015, 0.046311624348163605, 0.01477921660989523, 0.014443323947489262, -0.15252307057380676, -0.07598766684532166, -0.17872214317321777, 0.043423186987638474, -0.09526591747999191, -0.29255205392837524, 0.05363175645470619, -0.18447475135326385, -0.0920107364654541, 0.04335811734199524, 0.019513526931405067, -0.040605753660202026, 0.0016945586539804935, 0.04329188913106918, -0.059158992022275925, -0.0029662398155778646, -0.2018582671880722, -0.2246437966823578, -0.05014638230204582, -0.029214583337306976, -0.0016789032379165292, -0.1552034616470337, 0.10540802031755447, 0.1274934858083725, 0.085797019302845, -0.19836297631263733, 0.07825694233179092, 0.07190398871898651, 0.1051928699016571, -0.32515087723731995, 0.10301128029823303, -0.2618970274925232, 0.104130819439888, 0.09252674877643585, -0.1545485258102417, 0.14228707551956177, -0.05480343848466873, -0.18285630643367767, 0.17396990954875946, 0.12541572749614716, -0.11180707067251205, 0.10550122708082199, 0.16504651308059692, -0.10280787944793701, -0.014481935650110245, -0.04298151284456253, -0.002268054522573948, -0.0219861026853323, -0.1165480986237526, 0.07904038578271866, -0.19186101853847504, -0.002892620861530304, 0.18603651225566864, 0.02162865549325943, -0.21356084942817688, -0.17022202908992767, -0.01083594374358654, 0.25151553750038147, 0.21428319811820984, -0.2504478991031647, 0.2858317792415619, -0.16624018549919128, 0.04272661358118057, 0.1072222962975502, -0.06282433867454529, -0.24478988349437714, -0.31329458951950073, 0.11509627848863602, -0.051537998020648956, 0.28164857625961304, -0.2987562417984009, -0.03093205951154232, -0.055020056664943695, -0.15994638204574585, 0.024233387783169746, 0.022067956626415253, 0.35873648524284363, -0.028172077611088753, -0.1902826428413391, 0.2070370316505432, -0.01958664506673813, 0.13054804503917694, -0.17008823156356812, -0.2625834047794342, 0.11938842386007309, 0.23961815237998962, -0.14683771133422852, -0.2601868510246277, -0.12462316453456879, -0.1302059143781662, -0.22088554501533508, -0.1407366693019867, 0.029187051579356194, -0.11757324635982513, 0.29967638850212097, 0.21990811824798584, -0.001860351301729679, -0.06910954415798187, -0.052054621279239655, 0.13808250427246094, 0.22269593179225922, -0.004420974757522345, 0.06680548191070557, 0.13187085092067719, 0.046022746711969376, 0.00618929835036397, -0.04239339753985405, 0.04074393957853317, 0.022135693579912186, -0.3572695255279541, 0.2177223414182663, -0.05023135617375374, -0.01361264381557703, 0.01219227071851492, 0.2613223195075989, 0.13636882603168488, -0.2802473306655884, 0.16133134067058563, -0.14984680712223053, -0.17132528126239777, 0.18597540259361267, -0.02719741128385067, -0.1835728883743286, 0.06916975975036621, 0.17971278727054596, -0.30173778533935547, 0.024263784289360046, -0.08972407877445221, -0.1504995971918106, -0.04965946823358536, 0.2766015827655792, 0.017223313450813293], [-0.18372264504432678, -0.11588065326213837, 0.0759655088186264, 0.07360868155956268, -0.08062873780727386, -0.017894567921757698, -0.2536487579345703, 0.1743181198835373, -0.08878984302282333, 0.09259035438299179, 0.2549710273742676, -0.08917136490345001, -0.13711252808570862, 0.19689032435417175, 0.027810722589492798, 0.08724132180213928, 0.3501769006252289, 0.13960282504558563, -0.06184093654155731, 0.11319220066070557, -0.07115660607814789, 0.18918457627296448, 0.006390152499079704, 0.0233337190002203, 0.23094341158866882, -0.08873102813959122, -0.05775553733110428, 0.22063598036766052, -0.01990511454641819, 0.09035047143697739, 0.06595354527235031, 0.12085060775279999, -0.09378612786531448, -0.06476812064647675, -0.14574584364891052, -0.3382726311683655, 0.30479076504707336, -0.07054972648620605, 0.13452665507793427, -0.012041709385812283, 0.14013773202896118, 0.02395625226199627, 0.2393122911453247, 0.1796916276216507, 0.18245148658752441, 0.16210098564624786, 0.029926951974630356, -0.1868470162153244, 0.08272969722747803, -0.02154354378581047, -0.06772144883871078, -0.05015264078974724, 0.019655434414744377, -0.018052350729703903, 0.12325672805309296, 0.35058122873306274, 0.06331589818000793, -0.007241489831358194, -0.1383182555437088, -0.006691377144306898, -0.20496031641960144, 0.07691482454538345, 0.17695018649101257, -0.0995015799999237, -0.17631760239601135, 0.0002965378516819328, -0.13457036018371582, -0.13117654621601105, -0.0212481040507555, 0.07384909689426422, 0.12197645753622055, 0.014138818718492985, -0.052119433879852295, -0.048851169645786285, 0.004423628561198711, -0.016271712258458138, 0.068809874355793, 0.09556598216295242, 0.14588995277881622, -0.20664334297180176, 0.02578885480761528, -0.023363245651125908, -0.09171216934919357, 0.12836386263370514, -0.13612814247608185, -0.08037766814231873, -0.0848306268453598, 0.12106487900018692, 0.31837719678878784, -0.02188854105770588, 0.02127806842327118, 0.11384181678295135, 0.029844161123037338, 0.02038363181054592, 0.007302507758140564, -0.10607559978961945, -0.003617066890001297, 0.2026609629392624, -0.01270508673042059, 0.1429416388273239, 0.1526152491569519, -0.18672539293766022, -0.03395868465304375, 0.02130843512713909, 0.04761383309960365, -0.09336195886135101, -0.07087588310241699, 0.2882631719112396, -0.23188813030719757, -0.08050749450922012, 0.03282337635755539, -0.18185225129127502, -0.17631398141384125, 0.10013730078935623, -0.014127238653600216, 0.07851710915565491, -0.05973700061440468, -0.18114030361175537, 0.02738625556230545, -0.3682350218296051, 0.20093601942062378, 0.18552613258361816, -0.3665585219860077, 0.3330226242542267, -0.10402543097734451, 0.20525404810905457, -0.09134699404239655, -0.21507485210895538, 0.12769310176372528, -0.029317058622837067, 0.11213899403810501, -0.29339173436164856, -0.09966760128736496, -0.050219420343637466, 0.16881486773490906, 0.05882951617240906, 0.14776046574115753, -0.20500177145004272, 0.13675135374069214, -0.23185963928699493, -0.03465775400400162, 0.32046371698379517, 0.1299775093793869, -0.09164374321699142, 0.23000003397464752, 0.11546434462070465, -0.22079816460609436, -0.2313896268606186, 0.1524268239736557, -0.1907568871974945, -0.18398354947566986, 0.21419759094715118, 0.038757629692554474, 0.02114747278392315, 0.037739347666502, -0.18268299102783203, 0.22686250507831573, -0.046675294637680054, 0.19027242064476013, -0.23252534866333008, 0.18135511875152588, 0.20879076421260834, -0.14198559522628784, 0.04952069744467735, 0.0020529793109744787, -0.0925159826874733, 0.01890619657933712, -0.015110541135072708, -0.2495977282524109, 0.024260492995381355, 0.18853844702243805, -0.004219066817313433, 0.0636305883526802, 0.19027112424373627, -0.1579124927520752, -0.12658937275409698, 0.10336948931217194, 0.26538246870040894, -0.09670712798833847, -0.2111787647008896, 0.04500904306769371, 0.043027132749557495, 0.11784595996141434, -0.1014741063117981, -0.20082198083400726, 0.03345901146531105, 0.12021902203559875, 0.14592725038528442, -0.28659752011299133, -0.23152676224708557, 0.04152767360210419, -0.0004352053801994771, 0.10537151247262955, -0.002517113694921136, 0.32569488883018494, -0.2100551575422287, 0.20808017253875732, 0.12262320518493652, -0.1594802737236023, 0.02634524181485176, -0.024976031854748726, -0.008477563969790936, -0.18780413269996643, 0.016341930255293846, -0.20395106077194214, 0.02821935899555683, 0.04006943851709366, -0.018727652728557587, 0.027356259524822235, 8.058754610829055e-05, -0.1584024876356125, -0.0050920103676617146, -0.11581339687108994, -0.23019441962242126, 0.17911383509635925, -0.1451585441827774, -0.030959002673625946, 0.012269160710275173, -0.17293192446231842, 0.03978258743882179, -0.22279921174049377, -0.04300454258918762, 0.010582540184259415, -0.12175050377845764, -0.12591750919818878, -0.04705874249339104, -0.06080969050526619, 0.1132202297449112, 0.05193213000893593, -0.017025455832481384, 0.1730644851922989, 0.057063523679971695, -0.11796879768371582, -0.305824875831604, -0.20352032780647278, -0.15652571618556976, 0.010408732108771801, -0.10295706242322922, 0.29476115107536316, -0.020752087235450745, -0.025134297087788582, 0.33402830362319946, 0.3496800363063812, 0.049063339829444885, 0.1030043363571167, 0.07337535917758942, 0.030573824420571327, -0.25781357288360596, -0.0670342743396759, 0.2572401762008667, -0.08549904823303223, -0.014571946114301682, -0.2825077474117279, 0.11876892298460007, -0.09793174266815186, -0.24945484101772308], [-0.136443093419075, -0.15233540534973145, -0.10819493979215622, -0.11403856426477432, 0.023831021040678024, -0.1665966510772705, 0.08820562809705734, 0.008201747201383114, -0.1093149334192276, -0.07617047429084778, -0.02388927899301052, 0.12778674066066742, -0.01690097153186798, 0.12112877517938614, 0.0010862190974876285, -0.08877939730882645, -0.1664489358663559, -0.0142356613650918, -0.007835625670850277, 0.13107554614543915, -0.005125108640640974, 0.09577475488185883, -0.04025816172361374, -0.11408212035894394, 0.15308424830436707, 0.2517302334308624, 0.0951208844780922, -0.029367497190833092, 0.2855885624885559, 0.004209072794765234, -0.015735624358057976, 0.004456761293113232, 0.05009903386235237, -0.4117971658706665, -0.13356901705265045, 0.05713067576289177, -0.256127268075943, -0.08275662362575531, 0.05552329495549202, -0.0006061828462406993, -0.03808991611003876, -0.08546794950962067, 0.07180427759885788, -0.023595448583364487, 