{"STATE_DIM": 101, "MOVE_DIM": 81, "hidden": 256, "num_layers": 3, "layers": [{"type": "linear", "weight": [[-0.3437461853027344, -0.07401885837316513, 0.19070518016815186, 0.07184743881225586, -0.3175044357776642, 0.1836148500442505, 0.097622811794281, 0.030320823192596436, -0.30293962359428406, 0.06577052175998688, -0.28808361291885376, -0.1042037233710289, 0.3038025498390198, 0.10702891647815704, -0.6383723020553589, 0.2317628711462021, 0.48587489128112793, 0.36245837807655334, 0.5072237849235535, -0.3458554446697235, 0.30846908688545227, -0.1443312019109726, 0.21927177906036377, -0.7014055252075195, 0.12083626538515091, -0.36158376932144165, 0.5206124782562256, 0.06264539808034897, -0.08152977377176285, 0.34729310870170593, -0.27303168177604675, -0.22381624579429626, -0.0018514591502025723, -0.4837135374546051, -0.09963323920965195, 0.01890498585999012, 0.17344433069229126, -0.3941870927810669, -0.1159496158361435, -0.023846004158258438, 0.057262130081653595, -0.29961097240448, -0.1793079376220703, 0.3259972035884857, -0.13068030774593353, 0.0976286306977272, 0.07270579040050507, 0.5656706094741821, 0.8235698938369751, 0.01760532148182392, 0.29603949189186096, -0.3959310054779053, 0.36769649386405945, 0.2753179669380188, 0.4580414593219757, 0.8477365970611572, -0.15287329256534576, 0.022432556375861168, 0.008586002513766289, 0.6498039960861206, -0.6238446831703186, -0.18363168835639954, -0.23116280138492584, -0.5150699019432068, -0.3920653760433197, -0.03975127637386322, -0.45718348026275635, 0.48479026556015015, 0.35288310050964355, -0.08896726369857788, -0.13707883656024933, 0.32187432050704956, -0.09593065828084946, 0.30451786518096924, 0.4386032521724701, 0.09241610020399094, -0.20896700024604797, 0.6585275530815125, -0.4907560646533966, 0.38038960099220276, -0.29829633235931396, -0.1106867790222168, -0.37001746892929077, -0.3010438084602356, 0.09724220633506775, -0.5188291668891907, -0.7934378981590271, -0.47477367520332336, -0.8042306900024414, -0.1976369321346283, 0.3783402144908905, -0.11140517145395279, 0.6621741652488708, -0.1370958387851715, 0.21175718307495117, -0.501820981502533, -0.23363782465457916, 0.2996673583984375, 0.24122092127799988, 0.14251089096069336, 0.5975081324577332, 0.19513149559497833, -0.14951276779174805, 0.5446241497993469, -0.5285897850990295, 0.36049994826316833, -0.2475978583097458, -0.2529033124446869, -0.45095187425613403, 0.467816561460495, 0.17707137763500214, 0.46108055114746094, 0.5259632468223572, 0.29117757081985474, -0.2960648536682129, -0.26456892490386963, 0.04137275740504265, -0.5128237009048462, 0.08006811887025833, 0.12263208627700806, -0.30019837617874146, 0.5107654929161072, -0.18229976296424866, -0.31680038571357727, 0.5385175347328186, -0.1420113444328308, 0.3794914186000824, -0.019972840324044228, 0.6052040457725525, -0.12234246730804443, -0.05530891567468643, -0.4024592638015747, 0.05092208832502365, -0.23625971376895905, 0.30447709560394287, 0.4713693857192993, 0.006707727909088135, 0.23448388278484344, -0.35194483399391174, 0.1525944024324417, -0.2765026092529297, -0.07752922922372818, 0.4467780292034149, 0.11076579242944717, -0.23423846065998077, -0.12256474047899246, 0.13837078213691711, -0.004831356927752495, 0.38649508357048035, 0.08343490958213806, 0.362844318151474, 0.2093733251094818, -0.4187721014022827, -0.28648847341537476, 0.3617076575756073, -0.1497231125831604, -0.17112888395786285, 0.3741064667701721, 0.42189866304397583, 0.6174219846725464, -0.3010233938694, 0.42886072397232056, 0.7969895601272583, 0.2728327810764313, -0.29865211248397827, 0.5876614451408386, -0.48963937163352966, -0.14295744895935059, 0.007754956372082233, 0.3392665684223175, 0.12373591214418411, -0.5062581896781921, 0.44040700793266296, 0.37763285636901855, 0.4632743000984192, -0.3207199275493622, 0.10421907156705856, 0.097511887550354, -0.6604349613189697, -0.21745307743549347, -0.4868190884590149, -0.06511939316987991, 0.1100318431854248, -0.7155468463897705, 0.4710295498371124, -0.2932124733924866, 0.5472460389137268, -0.14052137732505798, 0.5510360598564148, 0.14410103857517242, 0.5530498623847961, -0.05619306489825249, -0.5415036678314209, -0.19915199279785156, 0.3962732255458832, 0.4096842110157013, 0.39727896451950073, -0.21692050993442535, -0.059699710458517075, -0.45193031430244446, -0.41246628761291504, 0.10676996409893036, 0.17115488648414612, 0.07085904479026794, 0.37281692028045654, 0.4765080511569977, -0.24075183272361755, 0.24055500328540802, 0.2728461027145386, 0.4140687882900238, 0.2185572385787964, 0.3420637249946594, 0.3585195541381836, 0.33608734607696533, 0.3250828981399536, 0.4418792426586151, -0.4889445900917053, 0.26530271768569946, 0.09653958678245544, 0.13808101415634155, 0.3860073387622833, 0.7484806180000305, -0.044523581862449646, 0.06889373809099197, 0.29639309644699097, 0.23876455426216125, 0.40157350897789, -0.2684952914714813, 0.4064904451370239, -0.05970906466245651, -0.0673084706068039, 0.17100636661052704, -0.4117411673069, 0.2145725041627884, -0.6287195086479187, 0.21052925288677216, -0.295521080493927, 0.09228917211294174, 0.1346379518508911, -0.27958014607429504, 0.09210292994976044, -0.22584383189678192, -0.05434991791844368, -0.7116557359695435, 0.25464653968811035, 0.5283308029174805, 0.4951391816139221, 0.5677970051765442, -0.2735815942287445, -0.20842449367046356, 0.33125191926956177, -0.18229717016220093, 0.05393429845571518, -0.29134321212768555, -0.11859806627035141, -0.563993513584137], [-0.4422692656517029, -0.017706967890262604, -0.003319753101095557, -0.08353792876005173, -0.10570418834686279, 0.2558495104312897, 0.20916633307933807, -0.17883414030075073, -0.456375390291214, 0.20652993023395538, -0.3656963109970093, 0.1545483022928238, 0.28981688618659973, 0.41430139541625977, -0.1878463178873062, -0.24670343101024628, -0.013100245036184788, 0.12894392013549805, 0.05525096878409386, -0.3618391752243042, 0.26614871621131897, -0.027595164254307747, 0.005699178669601679, -0.14207032322883606, 0.6922432780265808, 0.3492554724216461, 0.41653046011924744, 0.20833224058151245, -0.023398740217089653, 0.40078338980674744, -0.11936196684837341, -0.7951840162277222, 0.2858314514160156, -0.5246195793151855, 0.05476924404501915, -0.47728994488716125, 0.3500220775604248, 0.40583401918411255, 0.3279343247413635, 0.006875358987599611, 0.49689656496047974, 0.03971278667449951, -0.3135099709033966, 0.40082934498786926, 0.17566220462322235, 0.13829955458641052, -0.2265840619802475, 0.35014820098876953, 0.28568893671035767, 0.12393008917570114, 0.3790961802005768, 0.02447420544922352, 0.008452989161014557, 0.47571471333503723, 0.15221565961837769, 0.13139919936656952, -0.14882101118564606, 0.23212654888629913, -0.22606845200061798, -0.1338697075843811, -0.680790901184082, 0.048300765454769135, -0.5091814994812012, -0.48960158228874207, 0.008156472817063332, 0.5171753168106079, -0.38009265065193176, 0.5930383801460266, -0.0026357851456850767, -0.2614439129829407, 0.22255221009254456, 0.3566347658634186, -0.6570543050765991, -0.18294306099414825, 0.2837139070034027, -0.36610642075538635, -0.21142317354679108, 0.13682520389556885, 0.3955143690109253, 0.30235999822616577, -0.8090308308601379, 0.1990780234336853, -0.03269457072019577, 0.2600998282432556, 0.7979767322540283, -0.5259813666343689, -0.19511407613754272, 0.21299879252910614, 0.11195534467697144, -0.3182379901409149, 0.533470094203949, 0.264199435710907, 0.3064935505390167, -0.2703900933265686, -0.09286483377218246, -0.037966154515743256, -0.29276418685913086, 0.19491493701934814, 0.2712720036506653, 0.332888662815094, 0.023844094946980476, 0.22396129369735718, -0.2989421486854553, 0.1672501266002655, -0.18795473873615265, 0.31339362263679504, -0.49952149391174316, -0.4072548449039459, -0.10273775458335876, 0.3390457034111023, 0.19912461936473846, 0.5298005938529968, 0.17743749916553497, 0.47241559624671936, 0.35492900013923645, 0.2579018175601959, -0.2602173388004303, -0.2963455617427826, 0.40579408407211304, -0.004710018169134855, -0.12380405515432358, -0.17432540655136108, 0.0036772876046597958, -0.19896963238716125, 0.24864985048770905, -0.17847158014774323, 0.10870890319347382, 0.0426626019179821, 0.39191508293151855, 0.15800680220127106, 0.042543962597846985, -0.01211494393646717, -0.062202513217926025, -0.3406303822994232, 0.03841440752148628, 0.5361701250076294, -0.16557519137859344, 0.10812483727931976, -0.4933164119720459, 0.14780178666114807, 0.36213579773902893, -0.25385063886642456, 0.07604140043258667, 0.15954019129276276, 0.0006432787631638348, -0.17168721556663513, 0.16872155666351318, -0.15906384587287903, 0.03459817171096802, 0.17683011293411255, 0.12700927257537842, -0.23873673379421234, 0.11249210685491562, 0.04205062612891197, 0.830380380153656, 0.37465324997901917, 0.41773951053619385, 0.1844865083694458, 0.36399444937705994, 0.27229762077331543, 0.1849222481250763, 0.2694846987724304, -0.0475119911134243, -0.3015848398208618, 0.1812739372253418, -0.05934220924973488, -0.4409599006175995, -0.08142007887363434, -0.4207926094532013, -0.1271388977766037, 0.3306201696395874, -0.842721700668335, 0.4149056077003479, 0.20791903138160706, 0.31332314014434814, -0.3426644504070282, 0.10539848357439041, 0.3641219735145569, -0.46741458773612976, -0.16644659638404846, -0.5619819164276123, 0.08027861267328262, 0.43891507387161255, -0.3600844442844391, 0.10102825611829758, -0.46804794669151306, 0.5061988830566406, -0.31795734167099, 0.022070424631237984, -0.1325206607580185, 0.034303560853004456, 0.36097586154937744, -0.329832524061203, -0.03261997550725937, 0.11598733812570572, 0.11467275768518448, 0.16732829809188843, -0.26948681473731995, 0.11529915034770966, -0.49566417932510376, -0.5022588968276978, 0.2332548201084137, 0.003967333119362593, 0.26155900955200195, -0.1183299645781517, 0.675732433795929, -0.0700201690196991, 0.017364230006933212, 0.14098352193832397, -0.09486330300569534, 0.22019411623477936, 0.01970737613737583, 0.09613413363695145, 0.26780349016189575, 0.25171005725860596, 0.09670233726501465, -0.06958819925785065, -0.3077813982963562, -0.07779693603515625, 0.0630699023604393, 0.012726291082799435, 0.22389006614685059, 0.28717273473739624, 0.09433145821094513, 0.04331822693347931, -0.25374868512153625, 0.5283613204956055, -0.09388156980276108, 0.135480597615242, -0.07389814406633377, 0.01734517142176628, 0.25025683641433716, -0.4330201745033264, 0.12908732891082764, -0.5024408102035522, 0.30878114700317383, -0.45536738634109497, -0.21262460947036743, -0.01523153018206358, -0.26033884286880493, -0.09316389262676239, -0.3626768887042999, 0.002254542661830783, -0.6166316866874695, 0.0071085309609770775, 0.04298524558544159, 0.46325477957725525, -0.0784536823630333, -0.3892269730567932, 0.12348250299692154, 0.3306996524333954, -0.11370125412940979, 0.2929501533508301, 0.0678243488073349, 0.4710575342178345, -0.20813144743442535], [-0.02296380326151848, -0.38340580463409424, 0.6203113198280334, -0.24072058498859406, -0.2775340974330902, 0.4961298108100891, 0.32887470722198486, 0.15282519161701202, -0.5481669306755066, 0.9027565121650696, -0.5022298097610474, -0.2949679493904114, -0.15673542022705078, 1.0919109582901, -0.5957664251327515, -0.09937931597232819, 0.5339838266372681, 0.43128690123558044, 0.3570355176925659, -0.5884764194488525, 0.25513792037963867, -0.5250791311264038, 0.366603821516037, -0.3383137881755829, 0.5584397315979004, -0.00436791917309165, 0.7251124382019043, -0.0265163816511631, -0.8156138062477112, 0.6488533616065979, 0.37259769439697266, -0.7167515158653259, 0.3943185806274414, -0.657999575138092, 0.3184964656829834, 0.6719996333122253, 0.4405824542045593, -0.13068130612373352, -0.09389327466487885, 0.27676713466644287, 0.2351507842540741, 0.16693784296512604, -0.40924331545829773, 0.09691815078258514, 0.04235195741057396, 0.4573240876197815, 0.12133792042732239, -0.16820339858531952, 0.794725775718689, -0.11858014017343521, 0.08212419599294662, 0.2707573175430298, 0.5271787643432617, 0.5225471258163452, 0.6107491850852966, 0.2740801274776459, -0.2172197550535202, 0.7090868353843689, -0.12059757113456726, 0.2980605661869049, -0.8199357986450195, -0.10814523696899414, -0.13616448640823364, -0.5780263543128967, -0.4741320312023163, 0.4946106970310211, -0.5943623185157776, 0.10551747679710388, 0.3979704678058624, 0.32077208161354065, -0.4115387797355652, 0.15962114930152893, -0.10692092776298523, 0.07476558536291122, 0.3008435070514679, 0.757102906703949, -0.037457507103681564, 0.43733587861061096, -0.33731427788734436, 0.45394209027290344, -0.5172970294952393, 0.04569531977176666, 0.0533304363489151, 0.0331120528280735, 0.15819112956523895, -1.1613736152648926, -0.3891136646270752, -0.1784990280866623, -0.187310591340065, 0.0347774364054203, -0.07337122410535812, 0.35310518741607666, 0.5436574220657349, -0.0013518922496587038, 0.5185470581054688, -0.26057755947113037, -0.15864217281341553, 0.5322688221931458, 0.45946621894836426, 0.2066788524389267, 0.5653325319290161, 0.46256688237190247, -0.421603262424469, 0.5675644278526306, -0.5512863993644714, 0.4176243543624878, -0.018806036561727524, -0.4307488203048706, -0.2427157312631607, 0.6726900339126587, 0.08328375220298767, 0.4212704598903656, 0.5811415910720825, 0.3603146970272064, 0.2580919861793518, 0.009838602505624294, -0.18762433528900146, -0.35817950963974, 0.600289523601532, -0.1817229986190796, -0.8346094489097595, 0.16050966084003448, -0.44150209426879883, 0.42958319187164307, 0.48240020871162415, 0.24904310703277588, -0.05006669461727142, -0.14358142018318176, 0.3551315665245056, 0.5621033906936646, 0.20730288326740265, -0.33303534984588623, -0.7905420660972595, -1.0726417303085327, 0.2895474135875702, 0.4758031368255615, -0.3648432791233063, 0.7672174572944641, 0.17188680171966553, 0.2489067167043686, -0.21958491206169128, 0.18168044090270996, 0.1817663311958313, -0.03282462805509567, -0.39362236857414246, 0.13882967829704285, 0.2866855263710022, 0.06624539941549301, 0.24746699631214142, 0.2610816955566406, 0.6116169691085815, -0.02551392652094364, -0.3142096698284149, -0.4398850202560425, 0.4800173044204712, -0.24681897461414337, 0.4320818781852722, 0.6835479140281677, 0.4117051362991333, -0.18365547060966492, -0.041768353432416916, 0.12485310435295105, 0.46014389395713806, -0.6354780197143555, -0.35434600710868835, -0.01787411794066429, -0.6203651428222656, 0.0238694716244936, -0.1773248165845871, -0.457212895154953, 0.10335303843021393, -0.7085572481155396, 0.47072991728782654, 0.6190450191497803, 0.4627085030078888, -0.6282332539558411, 0.3710644841194153, 0.12374640256166458, -0.5712573528289795, -0.23957733809947968, -0.6455793380737305, 0.4459817409515381, 0.4777078926563263, -0.6046702861785889, 0.2604817748069763, -0.7696927189826965, 0.5478162169456482, -0.030158257111907005, 0.6238149404525757, 0.007965708151459694, 0.4674423336982727, 0.07164935767650604, -0.8518885970115662, -0.24775400757789612, 0.2743430733680725, 0.34771299362182617, 0.36906465888023376, -0.2822026312351227, 0.303871750831604, -0.1531844586133957, -0.2932683527469635, 0.5720597505569458, 0.20709389448165894, 0.2926848530769348, 0.0367911122739315, 0.298795223236084, -0.10447321087121964, 0.6259749531745911, 0.3268747925758362, 0.2513883709907532, 0.5780504941940308, 0.4785960912704468, 0.5303134918212891, 0.24849244952201843, 0.530932605266571, 0.8559721112251282, -0.5378276705741882, 0.16633553802967072, 0.17057831585407257, -0.22396594285964966, -0.7124877572059631, 0.3623389005661011, 0.05011960491538048, -0.26721638441085815, 0.5521050095558167, -0.17122413218021393, 0.423739492893219, -0.5627418756484985, 0.7233858108520508, -0.4410029351711273, -0.21422545611858368, 0.5767837762832642, -0.6205266118049622, 0.3127482533454895, -0.629376232624054, 0.4608808755874634, -0.6775316596031189, -0.49835091829299927, 0.14690861105918884, -0.587453305721283, 0.7431689500808716, -0.3589121699333191, 0.20926043391227722, -0.40730229020118713, 0.5459181666374207, 0.3148784935474396, 0.6813457012176514, 0.5600863695144653, 0.2977387607097626, 0.39714497327804565, 0.3888855576515198, 0.4670451879501343, 0.5495067834854126, 0.03279683738946915, 0.43765538930892944, -0.37844106554985046], [-0.25047704577445984, -0.001406362047418952, 0.1825537085533142, -0.43351098895072937, -0.020115014165639877, 0.1648433953523636, -0.134678915143013, -0.24657726287841797, 0.09479115903377533, 0.3408890664577484, -0.28771576285362244, -0.13196055591106415, -0.1028071939945221, 0.029241282492876053, -0.5271415710449219, -0.3032568395137787, -0.11673765629529953, 0.2634103298187256, 0.3071674406528473, 0.5775817036628723, 0.2682819366455078, -0.48177582025527954, 0.4627736508846283, -0.0441768504679203, 0.41122516989707947, 0.4939127266407013, 0.5994518399238586, 0.25393518805503845, 0.02811960130929947, 0.012386549264192581, 0.02009660005569458, -0.5580654144287109, 0.21458345651626587, -0.0027086345944553614, 0.21325945854187012, -0.1659954935312271, 0.48443400859832764, 0.3646678626537323, 0.04398750513792038, 0.3598434627056122, 0.35635069012641907, -0.24211908876895905, -0.2235962599515915, 0.36304840445518494, 0.2613828778266907, 0.33235985040664673, 0.033946115523576736, 0.15426430106163025, 0.7007547616958618, -0.05668229982256889, 0.467614084482193, 0.12947186827659607, 0.3546430766582489, 0.26016393303871155, 0.4262908101081848, 0.5175657868385315, 0.03850676491856575, 0.09770139306783676, -0.0920024886727333, 0.1012682169675827, -0.5288239121437073, -0.26852819323539734, -0.19553138315677643, -0.2756868600845337, -0.08482270687818527, 0.09795709699392319, -0.04595710337162018, 0.5553379654884338, 0.17754152417182922, 0.16616639494895935, 0.03030523471534252, 0.07420442998409271, 0.054253946989774704, 0.4760393798351288, 0.3819739520549774, 0.15695194900035858, -0.02566373348236084, 0.2123841941356659, -0.26384204626083374, 0.07302488386631012, -0.553641676902771, 0.38151612877845764, 0.037149958312511444, -0.4434164762496948, -0.012606099247932434, -0.2367292046546936, -0.46990376710891724, 0.30839046835899353, -0.524522066116333, -0.017737261950969696, -0.0546991229057312, 0.05759759992361069, 0.37868887186050415, 0.06477239727973938, -0.40783149003982544, -0.08363509178161621, 0.03117508627474308, 0.10661280900239944, -0.11598041653633118, 0.5382162928581238, 0.3342108428478241, 0.028088929131627083, -0.45592761039733887, 0.14814847707748413, -0.19081299006938934, 0.2644732892513275, -0.23518915474414825, -0.10162446647882462, -0.4600422978401184, 0.1943729668855667, 0.22107388079166412, 0.44023552536964417, -0.0767468810081482, 0.39050763845443726, 0.2680741846561432, -0.05049242824316025, -0.16675102710723877, -0.1651090681552887, 0.03341689705848694, 0.284237265586853, -0.2216394990682602, -0.08527716249227524, -0.14518916606903076, -0.1683359146118164, 0.6567496061325073, 0.24118468165397644, 0.03156588226556778, -0.24056656658649445, 0.07971946895122528, 0.2930814325809479, -0.29773613810539246, -0.09175286442041397, -0.00590240303426981, -0.1097383126616478, -0.24560528993606567, 0.2988174259662628, -0.5909047722816467, 0.06685453653335571, 0.017443031072616577, -0.019077125936746597, 0.19086043536663055, -0.24628044664859772, 0.020096680149435997, 0.4239588677883148, -0.11762220412492752, -0.04899391159415245, -0.11712208390235901, 0.01898515783250332, -0.4023740887641907, 0.2679421007633209, 0.22027230262756348, -0.2108491063117981, -0.569479763507843, -0.07783691585063934, -0.10515134781599045, 0.17638641595840454, 0.27873966097831726, -0.012146431021392345, -0.0018675915198400617, 0.287514865398407, 0.3349204361438751, 0.33435142040252686, 0.5935915112495422, -0.17204047739505768, -0.08957245200872421, -0.003465424757450819, -0.4994727075099945, 0.24509140849113464, -0.2564072906970978, -0.3698160648345947, -0.17128515243530273, -0.2106899470090866, 0.4026082158088684, 0.40714287757873535, 0.27115991711616516, -0.5757022500038147, 0.15692593157291412, 0.525600254535675, -0.03574807569384575, -0.5732280611991882, 0.09337630122900009, -0.09850864112377167, 0.07826139032840729, -0.4942493736743927, 0.44084349274635315, -0.2626347839832306, 0.41097837686538696, -0.05521734431385994, 0.26598939299583435, -0.11163101345300674, 0.249203160405159, 0.2434772402048111, -0.5623519420623779, -0.33649125695228577, 0.5736566781997681, 0.21248841285705566, 0.2895009517669678, 0.129685640335083, -0.1924562156200409, -0.08618871122598648, -0.007040813565254211, 0.22906489670276642, 0.011633618734776974, 0.5279649496078491, 0.01854083500802517, 0.12798137962818146, 0.014749720692634583, 0.07261703908443451, 0.4635627269744873, 0.14300602674484253, -0.2043057084083557, 0.2738676071166992, 0.4159632921218872, 0.029417268931865692, 0.19113832712173462, -0.04669804126024246, -0.32989203929901123, 0.07511280477046967, 0.11109567433595657, -0.14745964109897614, 0.033078424632549286, 0.3985563814640045, 0.02415643446147442, -0.10815369337797165, 0.32432448863983154, -0.19598056375980377, 0.318603515625, -0.13036920130252838, 0.386519193649292, -0.1761968731880188, -0.25407078862190247, 0.05983171984553337, -0.03857353702187538, 0.13060152530670166, -0.2576860785484314, 0.4360926151275635, 0.20913851261138916, -0.2977714538574219, 0.13602760434150696, 0.08869171142578125, 0.2577524185180664, -0.4160086214542389, -0.056384094059467316, -0.3797321021556854, 0.30647411942481995, -0.04762624204158783, 0.49264290928840637, -0.13553933799266815, 0.30266720056533813, -0.13760526478290558, 0.06237052008509636, 0.046587441116571426, 0.690889835357666, -0.13959260284900665, 0.48030397295951843, -0.44152987003326416], [-0.2428859919309616, 0.7273498773574829, 0.5198935270309448, -0.2994120419025421, -0.40716129541397095, 0.48316624760627747, 0.6425331830978394, -0.06751436740159988, -1.039827585220337, 0.026238081976771355, -0.0750991702079773, -0.44937101006507874, 0.005725879687815905, 0.4980265498161316, -0.5031425356864929, -0.3790924847126007, 0.1231934055685997, 0.4718988239765167, 0.6109901070594788, 0.03749442845582962, 0.6111157536506653, -0.4411797523498535, 0.7348850965499878, -0.939784824848175, 0.3153475821018219, -0.06252557784318924, 0.17918993532657623, -0.1171804890036583, -0.7083168029785156, 0.4500911831855774, -0.5045521855354309, -0.32997575402259827, 0.28314757347106934, -0.760388970375061, 0.11873437464237213, 0.07620713859796524, 0.5168128609657288, 0.37855586409568787, 0.4376192092895508, 0.5989617109298706, 0.14992885291576385, -0.2136203497648239, -0.8243371844291687, 0.5394335389137268, -0.1844564527273178, -0.1547480970621109, 0.4953516125679016, -0.030761532485485077, 0.39102938771247864, 0.3391738533973694, 0.1285514086484909, -0.4909918010234833, 0.7380621433258057, 0.43629512190818787, 0.7705650925636292, 0.23189719021320343, -0.3053376078605652, 0.4123191833496094, -0.6665988564491272, 0.09532628208398819, -0.5873112082481384, -0.8155404329299927, -0.10529052466154099, -0.667789876461029, -0.39243289828300476, 0.32655444741249084, -0.8056739568710327, 0.47821342945098877, 0.48688042163848877, 0.11070485413074493, 0.42849400639533997, 0.8727397918701172, -0.036167729645967484, 0.5307983160018921, 0.6223858594894409, 0.1299109309911728, -0.20625394582748413, 0.04570046439766884, 0.01360862422734499, 0.4344981908798218, -0.41744154691696167, 0.19628192484378815, -0.3211240768432617, 0.0006414481322281063, 0.44137120246887207, -1.1817561388015747, -0.9384394884109497, 0.27649274468421936, -0.4642721116542816, -0.8121898770332336, 0.004291235003620386, 0.11936082690954208, 0.8210853338241577, -0.3234603703022003, -0.12213832885026932, -0.4116092026233673, -0.2845189571380615, 0.49553972482681274, -0.6333221197128296, 0.36538681387901306, 0.8603283166885376, 0.3121972382068634, -0.46641138195991516, 0.1336900293827057, -0.4865432381629944, 0.6360676288604736, -0.24669013917446136, -0.45883724093437195, -0.09407441318035126, 0.5899363160133362, 0.17921273410320282, 0.6465988755226135, 0.7330625653266907, 0.5214813947677612, -0.04754781350493431, 0.19569285213947296, 0.4407033920288086, -0.9190648198127747, 0.3277779221534729, 0.10058576613664627, -0.6688506603240967, 0.6741231083869934, -0.5919479727745056, -0.38717496395111084, 0.43864232301712036, 0.07336225360631943, -0.15194042026996613, 0.004998461343348026, 0.21337413787841797, -0.2075798362493515, -0.16694505512714386, -0.6508924961090088, 0.22811535000801086, -0.6638125777244568, 0.7497004866600037, 0.42912164330482483, -0.838655948638916, 0.45349329710006714, 0.20969608426094055, 0.19375282526016235, -0.45426779985427856, -0.08037152141332626, 0.47358670830726624, 0.40756040811538696, -0.9824250340461731, -0.4332638382911682, -0.07105053961277008, -0.23385928571224213, -0.36627766489982605, 0.22195829451084137, 0.32316267490386963, 0.530513346195221, -0.1927289217710495, -0.2634340822696686, 0.7368622422218323, -0.07104377448558807, 0.1727563738822937, 0.3903575837612152, 0.7960456013679504, 0.6114482283592224, 0.40379565954208374, 0.6818247437477112, 0.37440913915634155, 0.1373916119337082, -0.44327735900878906, 0.7537965774536133, -0.6427506804466248, 0.3579592704772949, -0.29767563939094543, 0.20394952595233917, 0.1461576521396637, -0.6460098624229431, 0.44307199120521545, 0.3089449405670166, 0.0320412814617157, -0.8469008803367615, 0.2155265212059021, 0.463253378868103, -0.7714034914970398, -0.8383651971817017, -0.8243042826652527, 0.2490105777978897, 0.1350092589855194, -0.6420181393623352, 0.22399501502513885, -0.7718774676322937, 0.47966670989990234, -0.6954119801521301, 0.35576391220092773, -0.04361296445131302, 0.8551650643348694, -0.23615455627441406, -0.20354722440242767, -0.5636635422706604, 0.4269750416278839, 0.6445856094360352, 0.37409934401512146, -0.8375594019889832, 0.6039336323738098, -1.2145991325378418, -0.580295979976654, 0.7816932201385498, -0.026578104123473167, 0.16420355439186096, -0.1820317953824997, 0.5561897158622742, 0.03647400811314583, 0.141179621219635, 0.3103827238082886, 0.34273651242256165, 0.2780104875564575, 0.7715457081794739, 0.603314995765686, 0.6008946895599365, 0.5011565685272217, 0.5700302124023438, -0.19965240359306335, -0.052174437791109085, -0.15300244092941284, -0.39272454380989075, -0.05208960920572281, 0.34614142775535583, -0.189412459731102, -0.0717635378241539, 0.7212075591087341, 0.12060568481683731, 0.434578001499176, -0.5920356512069702, 0.3730255663394928, -0.2580154538154602, 0.3144310712814331, 0.08474420011043549, -0.8263121843338013, 0.6018644571304321, -0.45274993777275085, 0.5209704637527466, -0.5730308294296265, -0.23908160626888275, -0.30111217498779297, -0.4878193140029907, -0.10224967449903488, -0.7232131958007812, -0.29352572560310364, -0.20023253560066223, -0.3792403042316437, 0.62293940782547, 0.4442809820175171, 0.680305540561676, -0.6171431541442871, 0.8476022481918335, -0.008698475547134876, 0.32300257682800293, -0.08360239118337631, -0.1626150757074356, -0.3290766179561615, -0.8643003106117249], [-0.197203129529953, -0.19837108254432678, 0.6216121315956116, 0.24146009981632233, 0.036600518971681595, 0.05317861586809158, -0.10754641145467758, -0.25050535798072815, -0.14974258840084076, 0.044668566435575485, -0.13491404056549072, -0.8200907707214355, -0.04532204940915108, 0.516847550868988, -0.08403189480304718, -0.5398528575897217, 0.19887688755989075, 0.3036034405231476, -0.014811890199780464, 0.05538134649395943, 0.23585906624794006, 0.03264949470758438, -0.1315830945968628, -0.35640591382980347, 0.07841682434082031, 0.1955430954694748, 0.33388203382492065, -0.18212804198265076, -0.13281238079071045, 0.5138488411903381, 0.27665436267852783, -0.6422706246376038, -0.133113831281662, -0.3145905137062073, 0.23189015686511993, -0.09515751153230667, 0.4703090786933899, -0.17072883248329163, 0.18055829405784607, 0.714780330657959, -0.3369561433792114, 0.17692479491233826, -0.6572574973106384, 0.6283395886421204, 0.021458184346556664, 0.26968419551849365, -0.15989740192890167, 0.24482667446136475, 0.17331771552562714, 0.055536847561597824, 0.06418083608150482, -0.6556540131568909, -0.08293065428733826, 0.294070839881897, 0.5508285760879517, 0.2375688999891281, -0.29667210578918457, 0.11524254828691483, -0.053380146622657776, 0.436829537153244, -0.11552684754133224, -0.07229460030794144, 0.40658944845199585, 0.13408958911895752, -0.4239789843559265, 0.43950456380844116, -0.22904494404792786, -0.07350637018680573, 0.5851563215255737, 0.2713235318660736, -0.4796657860279083, 0.4242814779281616, -0.298430860042572, 0.2602962553501129, 0.1826818585395813, 0.6960817575454712, -0.3091979920864105, -0.12648558616638184, -0.23316974937915802, -0.06993968039751053, -0.007936805486679077, 0.057031285017728806, -0.18051324784755707, 0.09592676162719727, -0.4478326439857483, -0.12638747692108154, -0.08515329658985138, -0.017361875623464584, -0.5388559103012085, -0.09768399596214294, -0.02912195399403572, 0.0866788923740387, 0.19587935507297516, -0.31863534450531006, 0.15588584542274475, -0.42381927371025085, 0.13595980405807495, 0.7711382508277893, 0.14590130746364594, 0.31806978583335876, 0.18231917917728424, 0.14675460755825043, -0.5587381720542908, -0.2647491693496704, -0.1028609573841095, 0.28096961975097656, -0.24640856683254242, -0.34033438563346863, 0.16840407252311707, 0.1783079206943512, 0.11819607764482498, 0.17220944166183472, 0.47735655307769775, 0.07783807069063187, 0.1997908651828766, 0.3509514331817627, 0.1590002179145813, -0.018919171765446663, 0.024650083854794502, 0.24906431138515472, -0.1826450228691101, 0.29510554671287537, -0.3762954771518707, -0.42965054512023926, 0.3613024950027466, 0.07094254344701767, 0.41294413805007935, 0.3862556517124176, -0.035770900547504425, -0.11397761106491089, 0.07112859189510345, -0.12173973023891449, -0.2638103663921356, -0.041328608989715576, -0.08518955856561661, 0.515214741230011, -0.25629594922065735, 0.2450687140226364, -0.64532071352005, -0.2695096731185913, -0.11215470731258392, 0.33551084995269775, 0.2415386289358139, 0.4054528772830963, -0.49026045203208923, -0.43927696347236633, 0.4794718027114868, 0.0900096669793129, 0.17963576316833496, -0.574316680431366, 0.4549170434474945, -0.023745674639940262, -0.24369779229164124, 0.1938142627477646, 0.45780810713768005, 0.17347195744514465, -0.10381978750228882, 0.37177368998527527, -0.154954195022583, -0.3337974548339844, 0.24331830441951752, 0.03835545480251312, 0.5226901173591614, -0.12365791201591492, -0.3776891827583313, 0.05269629508256912, 0.021600138396024704, 0.005847862921655178, 0.013344419188797474, -0.26051679253578186, 0.25689810514450073, -0.0466323159635067, 0.3266336917877197, -0.061784300953149796, 0.4065810441970825, -0.10245466977357864, 0.49225088953971863, 0.03027251735329628, -0.37839236855506897, -0.14424917101860046, -0.23188185691833496, 0.36332789063453674, 0.10661957412958145, -0.2665764093399048, 0.2469850480556488, -0.2604075074195862, 0.5370938777923584, -0.22708293795585632, 0.5954573154449463, -3.8183003198355436e-05, 0.15900948643684387, -0.35519126057624817, -0.6492884159088135, -0.04299134761095047, 0.5104309916496277, 0.3286687731742859, 0.21121618151664734, -0.15196950733661652, 0.029732586815953255, -0.028476901352405548, -0.516027569770813, 0.5475029349327087, -0.36742907762527466, -0.2564389705657959, -0.13135813176631927, 0.2103109359741211, -0.3010944426059723, 0.06095636636018753, 0.29575487971305847, 0.5320125818252563, 0.37521517276763916, 0.4178360104560852, 0.1623549908399582, 0.4388488233089447, 0.3111482262611389, 0.13067860901355743, -0.12628890573978424, -0.20760458707809448, -0.20775461196899414, -0.04712891951203346, -0.17306216061115265, 0.27847301959991455, -0.5956372022628784, 0.25333020091056824, 0.14119713008403778, -0.26237574219703674, 0.44979965686798096, -0.4229281544685364, 0.30003827810287476, 0.07752647250890732, -0.2528667449951172, 0.1365738809108734, -0.3418586254119873, 0.4179413616657257, -0.14322882890701294, 0.3860853910446167, -0.06084959954023361, 0.019447695463895798, -0.24897576868534088, -0.6142508387565613, 0.2795408070087433, -0.17620381712913513, -0.10521327704191208, -0.18050050735473633, 0.09170848876237869, -0.24883098900318146, 0.23818212747573853, 0.09241252392530441, -0.08742939680814743, 0.35130611062049866, -0.01148650050163269, -0.15055063366889954, 0.3272642195224762, -0.641727864742279, 0.2542780339717865, -0.23395666480064392], [-0.3874005973339081, -0.3761040270328522, -0.07149548828601837, -0.05481170490384102, -0.17577588558197021, 0.14990217983722687, 0.035324372351169586, -0.48713159561157227, 0.1295521855354309, -0.17326083779335022, -0.440525621175766, -0.03996795415878296, -0.15637631714344025, -0.4062032997608185, 0.004576991777867079, -0.2161601185798645, 0.051802780479192734, 0.45367130637168884, 0.4008282721042633, -0.0584922693669796, -0.09754560887813568, -0.10661106556653976, 0.3969363570213318, -0.20677407085895538, 0.38533276319503784, -0.12302356958389282, 0.6217761039733887, -0.11334709078073502, -0.30096644163131714, 0.3039886951446533, -0.025969350710511208, -0.3968397080898285, 0.40494391322135925, -0.3381511867046356, 0.2748628556728363, -0.4058147966861725, 0.38550862669944763, 0.0917489305138588, -0.04357882961630821, 1.1168856620788574, 0.27742674946784973, -0.707825243473053, -0.29596051573753357, 0.821450412273407, -0.46654608845710754, 0.27534782886505127, 0.3362728953361511, 0.375781774520874, 0.11466167867183685, 0.06888159364461899, -0.06751309335231781, -0.19723746180534363, 0.08955363929271698, 0.44354477524757385, 0.4591652452945709, 0.32233771681785583, -0.0003603655786719173, 0.42830029129981995, -0.5948047637939453, 0.37516674399375916, -0.23136413097381592, -0.14207179844379425, 0.3894450068473816, -0.4958227574825287, -0.592683732509613, 0.5054451823234558, -0.45428189635276794, 0.16002216935157776, 0.45058396458625793, 0.11228375881910324, 0.28889575600624084, 0.6192107796669006, -0.10858585685491562, -0.10971611738204956, 0.45899829268455505, 0.7076095938682556, -0.37108534574508667, 0.061591632664203644, -0.22554069757461548, 0.5516659617424011, 0.08591756224632263, 0.027001483365893364, -0.6660129427909851, 0.28979071974754333, 0.7182488441467285, -0.2294594943523407, -0.7363525629043579, -0.15422993898391724, 0.18848221004009247, 0.05380213260650635, 0.24491873383522034, 0.7537556290626526, 0.25549328327178955, -0.5832559466362, 0.25001260638237, -0.13163399696350098, -0.568005383014679, 0.5337221622467041, -0.6921489238739014, 0.4874493181705475, 0.46235230565071106, 0.3661813735961914, -0.4996889531612396, 0.4558138847351074, -0.3530009388923645, 0.2788218557834625, -0.6366643905639648, -0.6820483803749084, -0.15981566905975342, 0.25930142402648926, 0.1442234069108963, 0.15307973325252533, 0.4130050837993622, 0.4650048017501831, 0.3003447651863098, -0.3783336281776428, -0.04855233430862427, -0.40713998675346375, 0.4196794033050537, -0.11281716078519821, -0.6491661071777344, -0.1381642073392868, 0.07351408153772354, 0.052620258182287216, 0.4568181037902832, 0.3662564158439636, 0.42446663975715637, 0.24655400216579437, 0.28391188383102417, 0.2535877227783203, 0.37260958552360535, -0.5648043751716614, 0.170072540640831, -0.6662310361862183, -0.48501142859458923, 0.09232545644044876, -0.645793080329895, 0.4783164858818054, -0.38778725266456604, 0.2126547247171402, -0.2711535692214966, -0.028755439445376396, -0.25555258989334106, -0.27872294187545776, -0.5969626307487488, 0.0029537412337958813, -0.20094721019268036, -0.029213763773441315, -0.7129958868026733, 0.5264482498168945, 0.32481300830841064, 0.39721593260765076, 0.03586948290467262, -0.6748510003089905, 0.3152293860912323, 0.19192494451999664, -0.05025818198919296, 0.3667694926261902, 0.2741040587425232, 0.24624644219875336, 0.22325091063976288, 0.09481340646743774, 0.43752816319465637, -0.04844820871949196, 0.02635246142745018, 0.3739687204360962, -0.29153603315353394, -0.023240169510245323, -0.3477257490158081, -0.14272470772266388, -0.19168534874916077, -0.24986106157302856, 0.3345445692539215, 0.4274875223636627, 0.2647749185562134, -0.2325953245162964, 0.42124834656715393, 0.05437605828046799, -0.4500437080860138, -0.24619673192501068, -0.4715506434440613, 0.5037088394165039, 0.2377621829509735, -0.6500680446624756, 0.5055426359176636, -0.33051252365112305, 0.2693290710449219, -0.29409730434417725, 0.7233035564422607, 0.02999097853899002, 0.07508695870637894, -0.4248539209365845, -0.5194929838180542, -0.30882152915000916, 0.3171939551830292, 0.3229556679725647, 0.37151941657066345, -0.19403447210788727, 0.11981774866580963, -0.19502437114715576, -0.6628296971321106, 0.32631632685661316, -0.35224369168281555, 0.2997882664203644, -0.08339373767375946, 0.3444325029850006, 0.12049215286970139, 0.3222295045852661, 0.47189009189605713, 0.2809225916862488, 0.18668080866336823, 0.5525104403495789, 0.674498438835144, 0.13493849337100983, 0.4586605131626129, 0.2776937484741211, -0.33713749051094055, 0.30529868602752686, -0.4763391613960266, -0.6565964818000793, -0.200918048620224, 0.45095327496528625, 0.12109147757291794, 0.44084474444389343, 0.8399091958999634, -0.021175021305680275, 0.31398388743400574, -0.507151186466217, 0.2669559419155121, -0.4899093806743622, -0.36499324440956116, 0.25843265652656555, -0.21599212288856506, 0.4695945382118225, -0.5826442837715149, 0.596285343170166, -0.6296228766441345, -0.3513033092021942, -0.5120648145675659, -0.35279110074043274, 0.6625261902809143, -0.8129462599754333, -0.3611530661582947, -0.013042695820331573, -0.021153438836336136, -0.0791456401348114, 0.3952265679836273, 0.11095236241817474, -0.2511351704597473, 0.09627923369407654, 0.37925249338150024, 0.4792346954345703, 0.3070809841156006, 0.18048690259456635, 0.3366243243217468, -0.25897154211997986], [-0.17472931742668152, 0.24817779660224915, 0.39504867792129517, 0.23034702241420746, -0.12597787380218506, 0.46034321188926697, 0.2829068601131439, -0.541928768157959, 0.10590055584907532, 0.2274770587682724, -0.6446091532707214, -0.3501175343990326, -0.21788066625595093, 0.24948295950889587, -0.3686741292476654, -0.16158893704414368, -0.13384786248207092, 0.007634476758539677, 0.2088407427072525, 0.03726761043071747, -0.017297005280852318, -0.47443562746047974, 0.053574636578559875, -0.30884888768196106, 0.3786758482456207, 0.08752138912677765, 0.5355315208435059, 0.25845545530319214, -0.0009218312916345894, 0.2525399327278137, 0.25588011741638184, -0.42075666785240173, -0.15931740403175354, -0.24275270104408264, 0.2866206169128418, -0.11076832562685013, 0.17844712734222412, -0.03162211924791336, 0.13558745384216309, 0.23660355806350708, -0.05882980301976204, 0.17564207315444946, -0.291193425655365, -0.25885096192359924, -0.20059357583522797, 0.17465335130691528, 0.5445421934127808, 0.5789574980735779, 0.3944091498851776, 0.2814246416091919, 0.1893504112958908, 0.016371367499232292, -0.16580629348754883, 0.3307492136955261, 0.3343662917613983, -0.016648685559630394, -0.037553250789642334, 0.30452701449394226, 0.0449686236679554, -0.04225940629839897, -0.23088955879211426, -0.3721059560775757, 0.06104075163602829, -0.22314797341823578, -0.31945663690567017, 0.17828738689422607, -0.6682049036026001, -0.20271243155002594, 0.1511164903640747, 0.07125747203826904, -0.25511911511421204, 0.4567960500717163, 0.2244313359260559, -0.011617016978561878, 0.29217901825904846, -0.010719639249145985, -0.18796542286872864, 0.3898984491825104, -0.11126062273979187, 0.24161747097969055, -0.011584999039769173, 0.1881190836429596, -0.2549174726009369, 0.025938671082258224, 0.590975284576416, 0.006789440289139748, -0.09919530153274536, 0.036138441413640976, -0.1674751341342926, -0.4537816643714905, 0.03434319794178009, -0.29279959201812744, 0.0868036225438118, -0.2835150957107544, -0.27031388878822327, -0.39047107100486755, -0.03838249295949936, 0.4128052890300751, -0.05063308775424957, -0.15160836279392242, 0.17574959993362427, 0.18177247047424316, -0.2867518663406372, 0.29282987117767334, 0.06008780002593994, 0.41239240765571594, -0.42704394459724426, 0.014228814281523228, -0.2695808410644531, 0.1607159674167633, 0.1903906911611557, 0.19950921833515167, 0.29064318537712097, -0.019185546785593033, -0.006312780547887087, -0.22615019977092743, -0.04925849288702011, -0.16010813415050507, 0.0018169749528169632, -0.04711233079433441, -0.37625646591186523, -0.02121136710047722, -0.31882333755493164, -0.4360925257205963, 0.1830964982509613, 0.27026498317718506, 0.42138203978538513, -0.14437603950500488, 0.5099714398384094, -0.029758261516690254, -0.25007370114326477, -0.8205500841140747, -0.4934408962726593, 0.0048382580280303955, 0.2887391746044159, 0.11180334538221359, -0.016519611701369286, -0.07341524958610535, 0.5315918326377869, 0.099146768450737, -0.05819554999470711, -0.10088369995355606, 0.1112896054983139, 0.5641235709190369, -0.5191084742546082, 0.1828683614730835, -0.12008614838123322, 0.12453113496303558, -0.0496598519384861, 0.007248556241393089, 0.16131772100925446, -0.242066890001297, -0.05369177460670471, 0.1529182344675064, -0.09552938491106033, 0.3272470235824585, -0.07536166161298752, 0.14049586653709412, 0.11814340204000473, 0.07808153331279755, -0.11714749783277512, 0.30981096625328064, 0.10296892374753952, -0.2084161937236786, -0.4524868428707123, 0.30053237080574036, 0.11831165850162506, -0.23838813602924347, -0.1525900810956955, -0.1898084431886673, -0.16152235865592957, -0.35300785303115845, 0.21322232484817505, 0.2693871557712555, 0.5234853029251099, -0.33698081970214844, -0.03800000622868538, 0.3081856667995453, -0.46695542335510254, -0.5545270442962646, -0.08968497067689896, 0.1507834941148758, 0.1776328980922699, -0.314485102891922, 0.6702982187271118, -0.029860882088541985, 0.07031124085187912, -0.6570903658866882, 0.27452003955841064, 0.08744943141937256, 0.49891096353530884, -0.11179881542921066, -0.37610164284706116, -0.32985442876815796, 0.005009226035326719, 0.4514223039150238, 0.25652015209198, -0.08587168902158737, 0.4915001690387726, -0.23516853153705597, -0.03280528634786606, 0.47524067759513855, -0.22838866710662842, 0.2666569650173187, -0.34002161026000977, 0.06672552227973938, -0.09544096142053604, 0.04903075098991394, 0.2865349054336548, 0.23775731027126312, 0.3857158124446869, 0.23381036520004272, 0.1789723038673401, 0.17285552620887756, 0.20971615612506866, -0.05458812788128853, 0.06557907164096832, -0.1538211852312088, 0.6200056672096252, 0.08385397493839264, -0.19432511925697327, -0.03350963070988655, -0.021380450576543808, 0.23165850341320038, 0.42595773935317993, -0.38765186071395874, 0.2534152865409851, 0.21812382340431213, 0.13011279702186584, 0.021085888147354126, -0.061677418649196625, 0.07262639701366425, 0.0024350336752831936, 0.201582670211792, -0.6145784258842468, 0.25211599469184875, -0.32528096437454224, -0.10021845251321793, -0.157675638794899, -0.4434136152267456, -0.03519125282764435, -0.48098859190940857, -0.09053278714418411, -0.1892014443874359, 0.06850442290306091, 0.15533316135406494, 0.35765063762664795, 0.573708713054657, -0.15127640962600708, -0.05096657946705818, 0.2015799731016159, 0.06323546916246414, -0.39640846848487854, -0.23640626668930054, -0.1170869767665863, -0.12133753299713135], [-0.13369134068489075, -0.3392694294452667, 0.33769476413726807, 0.021292638033628464, -0.6247095465660095, 0.1849461942911148, 0.37614706158638, -0.742479145526886, 0.019813448190689087, 0.8349698781967163, 0.015183273702859879, -0.8072830438613892, -0.10536694526672363, 0.33178988099098206, -0.7180059552192688, -0.12631982564926147, 0.737963080406189, 0.06984961032867432, 0.33943355083465576, -0.24380412697792053, 0.06253853440284729, -0.2225138545036316, 0.6131324768066406, -0.30863359570503235, 0.6925297975540161, -0.08867275714874268, 0.22868309915065765, 0.05908353999257088, -0.03484690561890602, 0.6349503993988037, -0.2293519526720047, -0.2582884430885315, 0.29357218742370605, -0.23859471082687378, 0.28198134899139404, 0.1512991189956665, 0.4959520101547241, -0.03374061733484268, 0.31386667490005493, 0.36456987261772156, 0.037006620317697525, 0.5207963585853577, -0.05809132009744644, 0.5908240079879761, 0.04729147255420685, 0.4908815324306488, 0.6557648777961731, 0.09654228389263153, 0.6446788907051086, 0.08789411187171936, -0.18867477774620056, 0.06256798654794693, 0.006589340511709452, 0.7600730061531067, 0.8021025061607361, 0.6069490909576416, -0.13228562474250793, -0.07716075330972672, -0.398427814245224, 0.3533671796321869, -0.3564123809337616, -0.7548412084579468, 0.067622609436512, -0.6121786236763, -0.2866533398628235, 0.32341769337654114, -0.5880383253097534, 0.5274096727371216, 0.05876920744776726, 0.16624899208545685, -0.09254227578639984, 0.136396586894989, 0.14425785839557648, 0.38124603033065796, 0.058903105556964874, 0.2102261334657669, 0.10536819696426392, 0.7515679001808167, -0.7558279633522034, 0.29118508100509644, -0.48537567257881165, -0.011998132802546024, -0.24591509997844696, 0.3514912724494934, -0.27027565240859985, -0.1465342789888382, -0.5837547779083252, 0.24063245952129364, -0.45238256454467773, -0.1713334023952484, -0.07921906560659409, -0.05662307143211365, 0.09223892539739609, -0.25426289439201355, 0.44350913166999817, -0.5786558389663696, -0.41177910566329956, 0.6134064793586731, -0.42091068625450134, 0.4914802312850952, 0.9091503620147705, 0.45250290632247925, -0.2227436900138855, 0.7721996903419495, -0.10379505902528763, 0.4532867968082428, -0.3010585308074951, -0.4054495692253113, -0.13745710253715515, 0.44118937849998474, -0.29744598269462585, 0.8010680675506592, 0.2163994461297989, 0.1478477269411087, 0.08238715678453445, -0.288861483335495, 0.0038189312908798456, -0.11465048789978027, 0.3429562449455261, -0.38616690039634705, -0.11323187500238419, -0.4343098998069763, -0.855364203453064, -0.4935097396373749, 0.5888651609420776, -0.15854543447494507, 0.36395546793937683, 0.5494783520698547, 0.37782108783721924, -0.03496108949184418, 0.11408045887947083, -0.6184711456298828, -0.19224493205547333, -0.2212916612625122, 0.12423859536647797, 0.8051659464836121, -0.5594921708106995, 0.5530564785003662, -0.15724512934684753, 0.29662370681762695, 0.06823883950710297, 0.2912878692150116, 0.2682572901248932, 0.20967069268226624, -0.8178969621658325, -0.33919626474380493, 0.14044222235679626, 0.09191302210092545, -0.1807485967874527, -0.8139489889144897, 0.590536892414093, -0.04584115371108055, -0.024160290136933327, 0.3739049434661865, 0.6060482263565063, 0.1424662470817566, -0.05116860568523407, 0.5337375998497009, 0.5201300382614136, -0.05472923815250397, -0.023109091445803642, 0.3410363793373108, 0.3731079399585724, -0.3899964392185211, -0.42256492376327515, 0.14543768763542175, -0.4336336553096771, 0.061729807406663895, 0.0714435800909996, 0.09943404048681259, 0.13286256790161133, -0.5692694783210754, 0.8692426681518555, 0.5332498550415039, 0.24770738184452057, -0.5587170720100403, 0.35008537769317627, 0.11833429336547852, -0.3524329364299774, -0.36013171076774597, -0.1712794452905655, 0.42570653557777405, -0.4588182270526886, -0.2591690421104431, 0.48277783393859863, -0.1790812760591507, 0.12657110393047333, -0.602872908115387, 0.5194655060768127, 0.034115444868803024, 0.8337377309799194, -0.19576963782310486, -0.2399597465991974, -0.4963516592979431, 0.837653636932373, 0.3033907413482666, 0.5872470736503601, -0.8196529746055603, 0.6704970598220825, -0.5048075914382935, -0.42908912897109985, 0.5832088589668274, 0.13873779773712158, 0.517479419708252, -0.20132088661193848, 0.385093092918396, 0.10100612789392471, 0.11344809830188751, 0.37594810128211975, 0.907166600227356, 0.1768856793642044, 0.2047988623380661, 0.767372190952301, 0.676374614238739, 0.3755241930484772, 0.6130380630493164, 0.1607670933008194, 0.48000937700271606, 0.013688690960407257, -0.011252155527472496, -0.40915751457214355, 0.1911356896162033, 0.22372525930404663, 0.08968174457550049, 0.3551403284072876, -0.19249285757541656, 0.4151446223258972, -0.7485007047653198, 0.40791141986846924, 0.0643322691321373, -0.20205627381801605, 0.5369328856468201, -0.16110588610172272, 0.19336025416851044, -0.2992473840713501, 0.6369368433952332, -0.5517182350158691, -0.18207599222660065, -0.3930014669895172, -0.3727443814277649, 0.10689085721969604, -0.8269957900047302, 0.21731962263584137, -0.8848291039466858, 0.32598528265953064, 0.10413723438978195, 0.8831172585487366, 0.7617573142051697, -0.0895688459277153, -0.16437868773937225, -0.01387382298707962, -0.21914151310920715, 0.23960235714912415, -0.25810569524765015, 0.6097519397735596, -0.3790752589702606], [0.10847027599811554, -0.1655215620994568, -0.23925305902957916, -0.0012781702680513263, -0.15829230844974518, -0.13776947557926178, -0.1469365805387497, -0.2566491961479187, 0.168016716837883, -0.32928261160850525, 0.3409499526023865, 0.3128589987754822, 0.33898407220840454, 0.03317522630095482, -0.47650250792503357, -0.27864161133766174, -0.01935865357518196, -0.37732043862342834, -0.053626492619514465, 0.3461003601551056, -0.05406656488776207, -0.15558619797229767, 0.11412060260772705, -0.003379078581929207, 0.03382347151637077, 0.2834129333496094, 0.1434342861175537, 0.2898233234882355, 0.3956804871559143, 0.014582897536456585, 0.04993234947323799, 0.18274253606796265, -0.11226429045200348, 0.07502949982881546, 0.09986431151628494, -0.09724962711334229, 0.2026040405035019, 0.2888681888580322, 0.11702113598585129, -0.10074726492166519, -0.028450986370444298, 0.012279406189918518, -0.29186564683914185, 0.20263168215751648, 0.05875980108976364, -0.07657941430807114, 0.1498270183801651, 0.18791823089122772, 0.05005525425076485, 0.16352726519107819, 0.092982716858387, 0.0660296306014061, -0.3942159414291382, 0.10765361040830612, 0.1294039636850357, 0.3726201355457306, -0.01470936555415392, -0.47991135716438293, 0.11437889188528061, 0.2882016599178314, -0.0009070664527826011, -0.3651445806026459, -0.026668667793273926, -0.36893150210380554, 0.28019964694976807, 0.1615666151046753, 0.295498251914978, 0.20522171258926392, 0.13294057548046112, -0.11091464012861252, 0.14231786131858826, 0.27297908067703247, 0.12340682744979858, -0.2636919915676117, 0.17928433418273926, -0.11116383224725723, -0.01216924749314785, -0.17476962506771088, -0.24116173386573792, 0.11511263251304626, -0.04071676731109619, -0.42840251326560974, -0.14064915478229523, 0.03542042151093483, -0.08824467658996582, -0.09278006106615067, 0.14795227348804474, 0.15774758160114288, 0.23937241733074188, -0.12829932570457458, 0.06023367494344711, -0.24951697885990143, 0.2783721089363098, 0.21837900578975677, 0.1849290430545807, 0.4068913757801056, -0.07837346941232681, -0.25438129901885986, -0.303376704454422, -0.14688754081726074, 0.5443825721740723, -0.15450116991996765, -0.0019493508152663708, 0.02634550631046295, -0.09311529248952866, -0.14525289833545685, -0.6051136255264282, 0.060403671115636826, -0.08652637898921967, 0.33667775988578796, -0.2918435037136078, -0.4499817490577698, 0.0189236868172884, -0.12879368662834167, -0.33302342891693115, 0.1790422648191452, 0.11623946577310562, -0.5125280022621155, 0.044203177094459534, -0.5317912697792053, -0.43039676547050476, 0.7025110125541687, 0.3397441506385803, -0.4191928207874298, 0.1915694773197174, -0.25492873787879944, 0.17776238918304443, 0.27832236886024475, 0.10997653752565384, -0.057498786598443985, -0.053021062165498734, -0.3034641742706299, 0.0262487530708313, 0.12519370019435883, 0.3463999032974243, -0.07287401705980301, -0.09088514745235443, -0.1119445189833641, 0.11132990568876266, 0.1897069215774536, -0.031619928777217865, 0.19967050850391388, -0.04456905275583267, -0.025716688483953476, 0.23689386248588562, 0.1485719382762909, 0.08208996802568436, -0.10334769636392593, -0.019942307844758034, 0.17962521314620972, 0.059842079877853394, -0.37830933928489685, -0.29099684953689575, 0.18668214976787567, 0.18652784824371338, 0.09603209793567657, -0.6222337484359741, 0.08742761611938477, -0.1452362984418869, -0.19879931211471558, -0.030745849013328552, -0.023149343207478523, 0.18692174553871155, 0.11034578084945679, -0.1692017912864685, -0.11942706257104874, 0.17456163465976715, 0.3733829855918884, 0.06519343703985214, 0.36857160925865173, 0.1972656399011612, -0.09939464926719666, -0.06355573236942291, -0.06646383553743362, 0.03738635033369064, -0.22769948840141296, -0.09138044714927673, -0.14053136110305786, 0.10043702274560928, 0.05465244874358177, 0.2433452159166336, -0.03164150193333626, 0.0866280049085617, -0.04385342448949814, -0.551912248134613, 0.060205742716789246, -0.24962981045246124, -0.20207281410694122, 0.15408065915107727, 0.01664845645427704, 0.19840261340141296, 0.29922088980674744, -0.05871695280075073, -0.3275454640388489, 0.3190873861312866, -0.07674971967935562, 0.15392754971981049, 0.32052838802337646, 0.24883370101451874, -0.3733854591846466, -0.20865941047668457, 0.06068775802850723, 0.1559426188468933, 0.09964261949062347, 0.08688047528266907, 0.4401077330112457, -0.08913971483707428, -0.030738336965441704, 0.3553442656993866, -0.2498885989189148, -0.18827323615550995, 0.11148031055927277, 0.26628378033638, -0.1575254499912262, -0.14281117916107178, 0.06817632913589478, -0.2321016490459442, -0.2038699984550476, 0.15676073729991913, -0.3010670244693756, -0.03980798274278641, 0.3163408935070038, 0.014979041181504726, -0.21402008831501007, 0.20033447444438934, -0.06110517680644989, -0.22820539772510529, 0.27475056052207947, -0.19957301020622253, -0.2677783668041229, -0.07694869488477707, 0.00424181530252099, 0.05970451980829239, 0.012690572999417782, -0.2989221513271332, -0.09249445796012878, -0.0247761532664299, -0.24077142775058746, -0.002752920612692833, -0.14829248189926147, -0.0926264151930809, -0.007507614325731993, -0.14011617004871368, -0.2468712031841278, 0.01284648384898901, -0.23947232961654663, -0.006358915474265814, 0.2344425469636917, -0.16391684114933014, 0.15465520322322845, 0.23036091029644012, -0.1971999555826187, -0.4142446219921112, 0.1490483582019806, 0.13415388762950897, 0.1624453216791153], [0.0891391709446907, -0.1331448256969452, 0.02131836488842964, -0.22878007590770721, -0.36228296160697937, 0.02502814494073391, -0.3507499098777771, -0.13547071814537048, -0.1625211536884308, -0.15725350379943848, 0.09088459610939026, -0.1798393428325653, 0.15237483382225037, 0.050903867930173874, 0.3148433268070221, 0.36481887102127075, 0.3871627151966095, 0.26097291707992554, -0.15458661317825317, -0.4244347810745239, 0.05313747003674507, 0.07283657044172287, -0.11913653463125229, 0.3862133324146271, 0.09916620701551437, -0.3351755142211914, -0.1962539404630661, 0.3285179138183594, 0.04965053126215935, -0.32234495878219604, -0.159897118806839, 0.6468703150749207, -0.0494229793548584, 0.5461265444755554, 0.1973852515220642, -0.23147517442703247, 0.011559730395674706, -0.2832142114639282, -0.1777224838733673, 0.15916411578655243, 0.10302624851465225, -0.41912949085235596, -0.19899998605251312, 0.14891572296619415, -0.05785547196865082, 0.13047370314598083, -0.1478491872549057, -0.13540107011795044, -0.2689354419708252, 0.22765035927295685, 0.1923360824584961, 0.08175330609083176, -0.14039485156536102, -0.11298079788684845, 0.013675694353878498, -0.2710399627685547, 0.08059904724359512, 0.23022891581058502, 0.3040829300880432, 0.19161781668663025, -0.27223438024520874, -0.3949289321899414, 0.1906769573688507, -0.33240845799446106, 0.445588618516922, 0.039171770215034485, 0.08509420603513718, -0.4393649697303772, 0.20414432883262634, 0.0873112604022026, 0.2999403774738312, -0.1279442012310028, 0.31913310289382935, -0.19649170339107513, -0.07139282673597336, -0.011411775834858418, -0.1919124275445938, -0.12549307942390442, -0.059375401586294174, -0.04071052744984627, 0.1425120085477829, 0.12053509056568146, -0.2589215338230133, 0.07672422379255295, 0.3286730945110321, 0.015438704751431942, 0.026202043518424034, -0.19209060072898865, 0.19247174263000488, 0.2929043173789978, 0.00845336727797985, -0.05175179988145828, -0.33457836508750916, -0.07849043607711792, 0.6385601758956909, -0.28012993931770325, -0.12084941565990448, -0.021925969049334526, -0.0585503950715065, -0.14734148979187012, -0.19384171068668365, 0.14411428570747375, 0.13587923347949982, -0.19608837366104126, -0.23938336968421936, -0.2830503284931183, 0.050261665135622025, 0.20541487634181976, -0.051800213754177094, -0.022432982921600342, -0.2453707456588745, 0.08825275301933289, 0.059439823031425476, 0.07704126089811325, 0.49423810839653015, -0.09588631242513657, 0.3601706027984619, 0.04269455373287201, 0.049400780349969864, 0.322641521692276, -0.25085148215293884, 0.04444216936826706, -0.1758326292037964, 0.15919971466064453, -0.051766395568847656, 0.25933361053466797, 0.01874484494328499, 0.21798615157604218, 0.06043054535984993, -0.15735922753810883, 0.036267224699258804, -0.26221272349357605, -0.3007408380508423, -0.1775667518377304, -0.23432162404060364, 0.03650316596031189, 0.12482082098722458, 0.14487707614898682, -0.1801186054944992, -0.008377758786082268, -0.30471596121788025, -0.18190573155879974, -0.30553197860717773, -0.016927015036344528, -0.09562314301729202, -0.043486274778842926, -0.06863415241241455, -0.1846357136964798, -0.0060255625285208225, 0.10612575709819794, -0.1638612449169159, 0.36822766065597534, -0.25819772481918335, -0.11209132522344589, 0.3491409122943878, -0.3577686548233032, 0.08587751537561417, 0.1181832030415535, 0.19198210537433624, 0.13241694867610931, 0.09224414825439453, -0.1890774518251419, -0.37526097893714905, -0.36764949560165405, 0.043705642223358154, 0.1631363332271576, 0.28741157054901123, -0.1462274044752121, -0.23080754280090332, -0.394892156124115, 0.3899500370025635, 0.2757404148578644, 0.005768770817667246, 0.13662932813167572, -0.16121846437454224, 0.11313087493181229, 0.029470738023519516, 0.06542424112558365, 0.10397490859031677, 0.3793177902698517, -0.37416359782218933, 0.008880861103534698, -0.001152099808678031, 0.42795103788375854, 0.11071518063545227, 0.44522902369499207, 0.3763347566127777, 0.2552412748336792, 0.04358486458659172, -0.3631555140018463, 0.0375838577747345, -0.19034114480018616, -0.24264472723007202, -0.3310023546218872, -0.24880412220954895, -0.2313552051782608, -0.03100781887769699, -0.23298361897468567, 0.007423728238791227, 0.03852495551109314, 0.2355615347623825, -0.006282468792051077, -0.013941668905317783, 0.43510931730270386, -0.31660524010658264, 0.21181795001029968, -0.11974408477544785, -0.23277634382247925, -0.11282458901405334, -0.04843772202730179, 0.020106157287955284, 0.057521503418684006, -0.2252025604248047, -0.36129534244537354, -0.23103941977024078, 0.04462919011712074, 0.21411098539829254, 0.021846674382686615, -0.04397604987025261, 0.3830951750278473, -0.23133181035518646, -0.020384034141898155, -0.1027151346206665, -0.48610419034957886, 0.06042508780956268, -0.23238317668437958, 0.07286422699689865, 0.0781066045165062, -0.36660993099212646, 0.3076844811439514, -0.08880707621574402, 0.4952201545238495, 0.2822677791118622, 0.23544327914714813, 0.48948338627815247, -0.020532457157969475, 0.08842365443706512, 0.11018926650285721, -0.0869319885969162, 0.4887649118900299, 0.31270137429237366, 0.24829484522342682, 0.030447542667388916, 0.2516899108886719, -0.18010881543159485, 0.22899523377418518, -0.4476744830608368, 0.44815218448638916, 0.0247096735984087, 0.031910426914691925, 0.18382969498634338, 0.07894454896450043, -0.2851924002170563, 0.11548072844743729, -0.16114459931850433, -0.024391109123826027], [-0.00023212555970530957, -0.32413405179977417, -0.0004928282578475773, 0.07978085428476334, 0.11108002811670303, -0.2904203534126282, -0.14767006039619446, -0.04015863686800003, 0.3825913667678833, -0.06524186581373215, 0.036159589886665344, -0.2961602807044983, 0.5269922614097595, 0.07111237198114395, -0.2526603639125824, 0.15520870685577393, -0.034111279994249344, -0.20445984601974487, 0.04134001210331917, 0.5163456201553345, -0.07211580872535706, 0.3576740622520447, -0.10531497746706009, 0.2706023156642914, -0.4500422775745392, 0.08749859780073166, 0.29006674885749817, -0.06299244612455368, 0.7669269442558289, 0.1872166097164154, 0.010258076712489128, 0.4108264446258545, -0.3362898826599121, 0.112439826130867, 0.017589954659342766, -0.045465558767318726, 0.3983047902584076, 0.23724442720413208, -0.009545507840812206, -0.35780802369117737, -0.12299282103776932, 0.3941180109977722, -0.059926580637693405, -0.21468891203403473, -0.061165910214185715, -0.22969897091388702, -0.010626563802361488, -0.17484328150749207, 0.19681157171726227, -0.2948695421218872, 0.6084503531455994, 0.15582002699375153, 0.20009219646453857, -0.08876233547925949, -0.1060105413198471, 0.00615190202370286, -0.02333912067115307, -0.29186949133872986, 0.21224409341812134, -0.2546534538269043, 0.29420211911201477, 0.2590911090373993, 0.16625098884105682, 0.12516477704048157, -0.3901291489601135, 0.1830456405878067, -0.16222384572029114, -0.2652648091316223, 0.08379493653774261, -0.28303590416908264, -0.23991011083126068, -0.23578771948814392, 0.3379243314266205, 0.09903619438409805, 0.13359704613685608, -0.14298339188098907, 0.1997692584991455, 0.2721388041973114, 0.06929418444633484, 0.07085169106721878, 0.1741665005683899, 0.005637946538627148, -0.2910727560520172, 0.009073259308934212, -0.4156138598918915, -0.31695058941841125, -0.3516460359096527, 0.1788899004459381, -0.15736185014247894, 0.563797116279602, 0.1811806708574295, -0.06941834092140198, 0.08496589213609695, -0.39002424478530884, 0.03704119473695755, 0.13734905421733856, 0.14169663190841675, -0.17704053223133087, 0.23865734040737152, 0.14409475028514862, 0.05587528273463249, 0.2554648518562317, -0.22269068658351898, -0.04342876002192497, -0.011337422765791416, 0.05898638442158699, -0.030657239258289337, -0.5161293745040894, 0.2772838771343231, 0.05331934615969658, 0.19897711277008057, 0.3600004315376282, -0.03572331368923187, 0.04254952818155289, -0.26716160774230957, 0.20356740057468414, 0.057795025408267975, 0.3372044563293457, -0.38070961833000183, 0.09061618894338608, -0.09564494341611862, 0.17833828926086426, -0.2333632856607437, 0.007854743860661983, -0.19484557211399078, -0.05630127340555191, 0.37538570165634155, 0.18649084866046906, -0.5397874116897583, -0.08182969689369202, -0.2334388643503189, -0.4429282546043396, 0.3064044713973999, 0.34165993332862854, 0.47757381200790405, -0.2424636334180832, -0.12907762825489044, 0.1908782571554184, -0.0840209424495697, -0.027329107746481895, -0.18332180380821228, 0.01520327664911747, 0.541254460811615, -0.2347436100244522, -0.1044214516878128, -0.3056672513484955, 0.15808959305286407, -0.3034532964229584, 0.3926439881324768, -0.300905704498291, 0.19967743754386902, -0.24800965189933777, 0.30307042598724365, 0.13494794070720673, -0.17193102836608887, -0.029087118804454803, 0.06971649825572968, -0.3101237714290619, 0.05032975971698761, 0.11266852170228958, -0.13718898594379425, -0.08718277513980865, -0.0485239252448082, 0.038735296577215195, -0.27378466725349426, 0.3883303105831146, -0.07892777770757675, 0.23264966905117035, 0.2585854232311249, -0.06409543007612228, -0.0033590286038815975, 0.12826451659202576, -0.09288646280765533, -0.03758419305086136, -0.1949511617422104, -0.11991643905639648, -0.0017506723525002599, -0.19296275079250336, -0.16943030059337616, 0.03167230635881424, -0.04274539649486542, -0.040366221219301224, 0.13257594406604767, -0.40035533905029297, 0.11709548532962799, -0.493538498878479, 0.056829728186130524, 0.20065341889858246, 0.04050720855593681, 0.046478621661663055, 0.015385612845420837, -0.15419161319732666, 0.3457447290420532, -0.055156409740448, 0.2704288065433502, 0.23680825531482697, -0.029390227049589157, -0.04476570338010788, -0.1666489988565445, -0.14935912191867828, -0.35417303442955017, 0.1073804572224617, 0.29667606949806213, 0.10917006433010101, 0.0866212472319603, 0.08097916841506958, 0.27482593059539795, 0.178513303399086, 0.10434256494045258, 0.36831605434417725, 0.04902484640479088, 0.006230578292161226, -0.07400427758693695, -0.3628303110599518, -0.00982455350458622, -0.33659690618515015, -0.19033220410346985, -0.3169776201248169, -0.34441351890563965, -0.01876300573348999, 0.2704310715198517, 0.032104652374982834, -0.01059594377875328, -0.015112632885575294, 0.1311282217502594, 0.09022779762744904, -0.10689587891101837, -0.3305702805519104, 0.4252948760986328, -0.5517843961715698, -0.2647884488105774, -0.09307976067066193, -0.3239072263240814, 0.08841583132743835, 0.19408178329467773, -0.03863893821835518, 0.24402254819869995, 0.10701784491539001, -0.45461878180503845, -0.2339305430650711, 0.3462448716163635, -0.156391441822052, 0.5493364334106445, 0.05683428794145584, 0.2832038402557373, 0.2963031530380249, 0.33362817764282227, -0.2952536642551422, 0.0820777639746666, -0.45156389474868774, -0.2536332607269287, 0.18753431737422943, 0.02585897594690323, -0.18924058973789215, 0.10184118151664734, -0.0645255371928215], [0.024447688832879066, -0.9201841950416565, -0.38059327006340027, -0.19945138692855835, 0.4401693046092987, -0.00812563393265009, -0.05468215420842171, 0.04071321710944176, -0.006406643893569708, 0.0795699805021286, -0.28073400259017944, -0.318447083234787, -0.022542212158441544, -0.47392144799232483, -0.26235851645469666, -0.3273319900035858, -0.3864419162273407, 0.21869489550590515, 0.1344849318265915, 0.026194605976343155, 0.07837706804275513, 0.04739077016711235, 0.3310735821723938, 0.1290399730205536, -0.1168307438492775, 0.05248221382498741, 0.01285645179450512, 0.38948988914489746, 0.23307563364505768, -0.002046124776825309, 0.33246299624443054, 0.03663753345608711, -0.27111679315567017, -0.06646132469177246, 0.15927258133888245, 0.11166128516197205, 0.14728406071662903, -0.2009187936782837, -0.34695225954055786, -0.24108314514160156, -0.049736373126506805, -0.4009970724582672, 0.05416049435734749, -0.1256369650363922, 0.08357372879981995, 0.15314126014709473, -0.08481422811746597, -0.1265181601047516, 0.06352727860212326, 0.3475145399570465, 0.41184061765670776, 0.15045146644115448, 0.01823069155216217, -0.30631154775619507, 0.10204103589057922, 0.06880482286214828, 0.48226049542427063, -0.10433392226696014, 0.041565537452697754, -0.0981171578168869, -0.07428009063005447, -0.4587049186229706, 0.028723176568746567, 0.5836530923843384, 0.0009539767634123564, -0.2831699550151825, 0.019053582102060318, -0.08043747395277023, -0.110287606716156, -0.4708150327205658, -0.3238387703895569, -0.02459869161248207, 0.2687961757183075, -0.3596593141555786, -0.03578601032495499, 0.3306801915168762, 0.27797889709472656, -0.15446484088897705, 0.1151699498295784, 0.23493993282318115, -0.08772452175617218, 0.32861852645874023, -0.10049369931221008, 0.04142806679010391, -0.5323180556297302, -0.040218185633420944, -0.20105698704719543, 0.09588297456502914, -0.21097621321678162, -0.08220826089382172, 0.36333733797073364, -0.1944568157196045, 0.05105271562933922, -0.2353312224149704, 0.1726182997226715, -0.5560964941978455, 0.2738438844680786, -0.07980621606111526, -0.0634278878569603, -0.2949117422103882, -0.06850536167621613, 0.18381614983081818, 0.19808270037174225, 0.2321249395608902, -0.005285413935780525, 0.2992439270019531, -0.05447136610746384, 0.047290295362472534, -0.07804939895868301, -0.0785360187292099, -0.10480090230703354, -0.2356525957584381, -0.13822297751903534, 0.06111926957964897, 0.0021148966625332832, 0.07714677602052689, 0.016518766060471535, 0.2980988323688507, -0.02791925147175789, 0.0239860899746418, -0.04926878586411476, -0.04861653596162796, -0.22805704176425934, -0.07343871891498566, -0.22155481576919556, -0.3545455038547516, 0.01784597709774971, 0.1942135989665985, -0.06100063771009445, -0.049608662724494934, 0.313125878572464, 0.365211546421051, 0.23558668792247772, -0.030833149328827858, -0.1270165592432022, 0.101676806807518, 0.1257481575012207, 0.38554245233535767, -0.3336448669433594, 0.3387528657913208, -0.09603111445903778, 0.2775949537754059, -0.18809135258197784, 0.016958320513367653, 0.3270640969276428, -0.03790822997689247, 0.26606062054634094, -0.3970623314380646, 0.19663016498088837, -0.5780030488967896, -0.11801727861166, 0.08167943358421326, -0.09389032423496246, -0.008103587664663792, 0.1686306893825531, -0.35398536920547485, -0.05931541323661804, 0.18842509388923645, -0.03421778604388237, 0.04885316640138626, -0.5770515203475952, 0.13363252580165863, -0.00948061142116785, -0.24357569217681885, 0.04281559959053993, 0.21587605774402618, 0.1377985179424286, 0.041844215244054794, 0.1708478182554245, 0.27066758275032043, 0.18734849989414215, 0.05311383679509163, 0.13382644951343536, -0.16407480835914612, 0.08797801285982132, 0.19940075278282166, -0.04720931872725487, -0.22299903631210327, 0.12365863472223282, 0.17125968635082245, 0.06027170270681381, -0.18773889541625977, 0.3308410048484802, -0.1227923035621643, 0.16170834004878998, 0.12021433562040329, -0.18382813036441803, -0.14926058053970337, -0.14042289555072784, 0.24973152577877045, -0.21611474454402924, -0.45757466554641724, -0.06789951026439667, -0.19414229691028595, 0.11721611022949219, 0.11740201711654663, 0.1705254167318344, -0.07035650312900543, 0.2245420515537262, 0.09909940510988235, 0.3025282323360443, -0.028593463823199272, 0.10554897040128708, -0.0350152850151062, 0.014008971862494946, -0.025670316070318222, -0.11304166913032532, 0.23144970834255219, 0.12535494565963745, 0.1922655701637268, -0.6621952056884766, -0.012049989774823189, 0.052357763051986694, -0.019343353807926178, -0.02010456845164299, -0.05355492979288101, 0.08433863520622253, -0.07140013575553894, -0.33949315547943115, 0.022419247776269913, 0.2657668888568878, 0.10361134260892868, -0.14516520500183105, -0.2294776886701584, -0.2326863408088684, 0.1680196076631546, -0.09833879768848419, -0.43545931577682495, -0.16881676018238068, -0.0007098167552612722, 0.1531989425420761, 0.044831689447164536, -0.22751307487487793, 0.4148322641849518, 0.05910796672105789, 0.029647430405020714, 0.021707000210881233, -0.016638364642858505, -0.2675759792327881, 0.019099658355116844, -0.43737247586250305, -0.23066051304340363, 0.4879768192768097, -0.060967426747083664, 0.257703572511673, -0.32569900155067444, -0.05197427421808243, -0.10725320130586624, 0.05721178278326988, -0.21755479276180267, 0.29349303245544434, -0.09551379084587097, -0.08398477733135223, -0.27657589316368103, -0.031226037070155144, -0.17730921506881714], [-0.14618289470672607, -0.11651134490966797, -0.07200490683317184, 0.07698954641819, -0.05615605413913727, -0.20237165689468384, 0.13464456796646118, 0.29240721464157104, -0.015133829787373543, -0.06886717677116394, 0.09370220452547073, -0.13542093336582184, 0.36540767550468445, -0.2945156991481781, -0.2799938917160034, 0.24054844677448273, -0.0008955977391451597, 0.2463391274213791, 0.5633763670921326, -0.06394068896770477, 0.022605551406741142, 0.15613070130348206, 0.22199082374572754, -0.12465430051088333, -0.21256905794143677, 0.027299169450998306, 0.24021871387958527, 0.012350987643003464, 0.2356388419866562, 0.20390498638153076, -0.009626171551644802, 0.16907787322998047, 0.03760246932506561, 0.3897186815738678, 0.342141717672348, -0.10383740067481995, -0.0626034215092659, -0.4718245267868042, 0.18030811846256256, -0.2576684057712555, -0.14594590663909912, -0.2112244814634323, 0.2826216220855713, 0.27652427554130554, -0.09122073650360107, -0.10444594919681549, -0.4188804030418396, 0.32942327857017517, 0.17350900173187256, -0.37077149748802185, -0.2632980942726135, 0.13841800391674042, 0.011295370757579803, 0.11275847256183624, -0.1057371199131012, 0.26953306794166565, 0.24476073682308197, 0.1459704488515854, 0.049226805567741394, 0.1204790398478508, 0.12907877564430237, -0.004216249566525221, -0.10004652291536331, -0.10535108298063278, 0.015043497085571289, -0.3988286852836609, 0.22417804598808289, -0.024309640750288963, -0.18317686021327972, -0.3842760920524597, -0.05794811248779297, -0.08575049042701721, 0.07383009046316147, -0.31145864725112915, 0.2014220505952835, -0.07677735388278961, 0.4259094297885895, 0.30559638142585754, 0.02061695232987404, -0.08838298171758652, 0.10804490745067596, -0.21337834000587463, 0.636128306388855, 0.03934713080525398, 0.0020670786034315825, 0.16623297333717346, -0.05195453017950058, -0.25946804881095886, -0.09568231552839279, -0.22254042327404022, -0.018368756398558617, -0.025766316801309586, 0.27049100399017334, 0.09975358098745346, 0.2782757878303528, -0.37400928139686584, -0.06987199187278748, 0.16704757511615753, 0.09798813611268997, 0.15141922235488892, 0.11514309048652649, 0.13775238394737244, -0.018336918205022812, 0.35316935181617737, 0.10229193419218063, 0.1744426041841507, 0.2801814079284668, -0.05180993676185608, 0.09794145077466965, 0.11062947660684586, -0.005442481022328138, 0.042785145342350006, 0.12783284485340118, 0.4275490343570709, -0.26626235246658325, 0.06892742216587067, -0.34360939264297485, -0.13836081326007843, 0.024706289172172546, 0.16036733984947205, 0.09329642355442047, 0.3099474012851715, -0.274892121553421, -0.15419873595237732, -0.16505353152751923, -0.1237025260925293, -0.03277086466550827, -0.2765048146247864, 0.2312515527009964, 0.24822014570236206, 0.35821011662483215, 0.2528209388256073, 0.0584784671664238, -0.09975910931825638, -0.23298713564872742, 0.1671774834394455, -0.1757867932319641, 0.11851471662521362, -0.0021332302130758762, -0.28382349014282227, -0.06654991954565048, -0.4559885263442993, 0.4765031933784485, -0.122268445789814, -0.40253254771232605, 0.040334224700927734, 0.1773073673248291, 0.36372488737106323, 0.19132110476493835, 0.09501077234745026, 0.256653755903244, -0.22679807245731354, 0.1519431322813034, -0.15041299164295197, -0.31230977177619934, -0.15116605162620544, 0.11059831827878952, 0.09274625033140182, 0.23694923520088196, -0.04322858899831772, -0.24313856661319733, -0.0525190532207489, 0.26257801055908203, -0.049684107303619385, 0.32200026512145996, 0.28031885623931885, -0.055621594190597534, 0.057812854647636414, 0.10068917274475098, -0.1498231291770935, 0.44437864422798157, -0.03477541357278824, 0.07891546189785004, 0.5349891781806946, -0.21254459023475647, 0.05437640845775604, 0.11243606358766556, 0.0985383540391922, 0.22130164504051208, 0.42390674352645874, -0.16504020988941193, 0.05943510681390762, 0.27480965852737427, 0.03921438008546829, 0.13124814629554749, 0.009602994658052921, 0.10590637475252151, 0.05109766125679016, -0.016098719090223312, -0.0640440285205841, 0.46379297971725464, 0.051602836698293686, -0.10758218169212341, 0.2689504623413086, -0.16053573787212372, -0.08873239159584045, 0.04938194155693054, -0.1949835568666458, -0.006481022574007511, 0.1708032339811325, 0.17446200549602509, -0.12184542417526245, 0.2420242875814438, 0.024569954723119736, 0.26549622416496277, -0.17207589745521545, 0.2736760079860687, -0.04748370498418808, -0.0029396929312497377, -0.2178216427564621, 0.486457496881485, 0.1295054405927658, 0.14747194945812225, -0.25190186500549316, 0.19205491244792938, 0.08906209468841553, -0.2039240151643753, -0.26073887944221497, 0.247245654463768, 0.3799656927585602, 0.4144110381603241, 0.37845900654792786, -0.05458046495914459, -0.019961170852184296, 0.08895806223154068, 0.11967667192220688, -0.2207975834608078, -0.04886050149798393, 0.2351766675710678, -0.25703874230384827, 0.17950335144996643, 0.2118479162454605, 0.2634565234184265, 0.16036365926265717, 0.1881493180990219, -0.13816408812999725, -0.0003079164307564497, 0.3452979624271393, -0.1573907732963562, -0.03259621188044548, -0.03311948850750923, 0.24968160688877106, 0.06936360895633698, -0.15119604766368866, 0.16253340244293213, -0.19791799783706665, 0.02307881787419319, -0.147870272397995, 0.031883370131254196, 0.07430794090032578, -0.22331851720809937, -0.3064936101436615, 0.24469907581806183, 0.10247544944286346, 0.10846640914678574, 0.21456916630268097], [-0.12184908241033554, -0.5692994594573975, -0.45867425203323364, -0.5220562219619751, 0.3356568515300751, 0.07789792865514755, 0.215860515832901, 0.2264872044324875, -0.22400517761707306, -0.27399420738220215, -0.31340450048446655, -0.06625068932771683, -0.1620030254125595, 0.011673728935420513, 0.25169679522514343, 0.002036666264757514, 0.14391537010669708, -0.006310251075774431, 0.30386802554130554, 0.09030699729919434, -0.19613806903362274, 0.07543861120939255, -0.23479938507080078, 0.1405370831489563, 0.26452258229255676, -0.39928579330444336, -0.013986409641802311, -0.15743111073970795, -0.32029902935028076, 0.0681493803858757, 0.2117139846086502, -0.3366970121860504, -0.11749378591775894, 0.09848625957965851, -0.03617851436138153, -0.20898190140724182, 0.4065101444721222, 0.3206420838832855, 0.4877450168132782, -0.09261936694383621, 0.4103965163230896, -0.1413312405347824, 0.049337632954120636, -0.16578282415866852, -0.2536226511001587, -0.012488387525081635, -0.023891113698482513, 0.3184150159358978, -0.2720574140548706, 0.011357149109244347, 0.4190243184566498, -0.02245534025132656, 0.24036620557308197, -0.010256470181047916, 0.13078352808952332, 0.08358072489500046, -0.17251995205879211, 0.10629726946353912, 0.23456241190433502, 0.20707328617572784, 0.029341716319322586, 0.10951901972293854, 0.2607640027999878, 0.10647454112768173, -0.29346609115600586, -0.048382263630628586, -0.04059678316116333, 0.14974439144134521, 0.28608933091163635, -0.134154811501503, 0.2362568974494934, 0.3066135048866272, -0.5385115742683411, 0.24673841893672943, -0.3247074484825134, -0.512962281703949, -0.021739507094025612, 0.38548123836517334, -0.04558311402797699, 0.06292562186717987, 0.03376997634768486, 0.40493690967559814, 0.08129122108221054, -0.16333314776420593, 0.41795480251312256, 0.08160138875246048, -0.12461051344871521, -0.4502289295196533, -0.0584966279566288, -0.19707170128822327, -0.02211206778883934, 0.12257713824510574, -0.14284133911132812, -0.061603013426065445, -0.18028151988983154, 0.017254820093512535, -0.06991400569677353, -0.1445808857679367, 0.06637804955244064, 0.39051690697669983, -0.08288653939962387, -0.1876697838306427, 0.012329261749982834, -0.14370281994342804, -0.17248770594596863, -0.39775824546813965, 0.09740019589662552, -0.017530158162117004, -0.4220529794692993, 0.01514521986246109, 0.39851364493370056, 0.38759538531303406, -0.03719302639365196, -0.23779575526714325, -0.2014196217060089, 0.1369934231042862, -0.2065829038619995, -0.17424602806568146, -0.16149364411830902, 0.1958496868610382, 0.07143998146057129, -0.07606544345617294, -0.07114335149526596, -0.06172892451286316, -0.02759193256497383, 0.21243882179260254, -0.2729335427284241, 0.2593145966529846, 0.32342904806137085, -0.21837495267391205, 0.34479448199272156, 0.11074671894311905, 0.10098341852426529, -0.3965902328491211, 0.10665933042764664, 0.20103497803211212, 0.27271345257759094, 0.09446106851100922, 0.17316585779190063, 0.409436970949173, -0.0828295648097992, -0.2612159252166748, -0.3728102147579193, 0.17027483880519867, -0.1461011916399002, -0.19520291686058044, -0.3242676556110382, -0.09883443266153336, 0.08558028936386108, -0.16202010214328766, 0.17552900314331055, 0.11364516615867615, -0.08712881803512573, 0.3163444697856903, -0.39584997296333313, 0.011788652278482914, 0.012383311055600643, 0.6032575368881226, 0.08842931687831879, -0.05555949732661247, -0.09727931767702103, 0.2733311057090759, -0.27877095341682434, -0.23907212913036346, 0.02384561486542225, -0.2073351889848709, -0.38827019929885864, 0.0032445918768644333, 0.0677822157740593, 0.013459841720759869, -0.41262558102607727, -0.28515443205833435, 0.014769023284316063, -0.3492698669433594, -0.03667266666889191, 0.2972784638404846, 0.0670558288693428, 0.15190494060516357, 0.3054529130458832, -0.03884795680642128, 0.13582588732242584, -0.20930896699428558, 0.12636926770210266, -0.028039993718266487, -0.13187982141971588, -0.07620808482170105, -0.04061831533908844, -0.01311501581221819, 0.02702970616519451, 0.2449158877134323, 0.26181256771087646, -0.18270087242126465, -0.06546522676944733, -0.07375527918338776, 0.05956896394491196, 0.30349013209342957, 0.11620061099529266, 0.22476230561733246, 0.006205060984939337, 0.5065990090370178, 0.5447802543640137, 0.44110703468322754, -0.23674450814723969, 0.20863758027553558, 0.21549397706985474, -0.21127799153327942, -0.20607219636440277, 0.0003113640414085239, -0.258737713098526, 0.08918412029743195, 0.024767177179455757, 0.12810397148132324, 0.193976029753685, 0.03823977708816528, -0.2642202079296112, 0.4369230568408966, 0.03339449688792229, -0.21939507126808167, -0.21541175246238708, 0.19518432021141052, -0.3390379846096039, -0.4152357280254364, 0.531670868396759, 0.33562201261520386, -0.058126356452703476, 0.21211044490337372, -0.06395594775676727, -0.22708480060100555, -0.25453558564186096, 0.009308706037700176, 0.1517775058746338, 0.1387517899274826, 0.32315337657928467, -0.054354213178157806, -0.061958082020282745, 0.35464051365852356, 0.13992685079574585, 0.06714259088039398, 0.06696601957082748, 0.09271802753210068, 0.3690645396709442, 0.19549672305583954, 0.35737326741218567, 0.24266444146633148, -0.23319846391677856, 0.6297580003738403, -0.21155327558517456, -0.04702828451991081, -0.28412461280822754, -0.12913085520267487, 0.3659457564353943, 0.11991456896066666, 0.20959967374801636, 0.6168258190155029, -0.12410459667444229, 0.14899808168411255], [-0.35341376066207886, 0.04254261031746864, 0.04747172072529793, 0.07101237773895264, 0.2469847947359085, 0.14363694190979004, 0.013452225364744663, 0.017634553834795952, -0.010814299806952477, 0.38674691319465637, -0.031115954741835594, 0.32142603397369385, -0.053639963269233704, 0.03505120426416397, 0.2262462079524994, 0.36809948086738586, -0.1027987152338028, -0.045161597430706024, -0.1348213404417038, 0.039455119520425797, 0.13073700666427612, 0.01869630627334118, -0.17520329356193542, 0.05796578526496887, 0.036985330283641815, -0.013697617687284946, -0.099212147295475, -0.17909066379070282, -0.3549240827560425, 0.031891174614429474, -0.4727883040904999, 0.1407041847705841, 0.3264051079750061, 0.0034387975465506315, 0.07253752648830414, -0.16707929968833923, 0.38913261890411377, -0.011188753880560398, -0.02162696234881878, -0.2660119831562042, -0.5248460173606873, 0.13067570328712463, 0.1851397007703781, -0.33511579036712646, 0.038722552359104156, 0.0588875412940979, -0.1288740634918213, -0.04597267135977745, 0.02539350837469101, 0.0972970649600029, -0.3061855435371399, -0.14719267189502716, 0.018775256350636482, 0.11498488485813141, 0.19921724498271942, 0.11650586128234863, -0.3595593273639679, 0.20282386243343353, 0.36057573556900024, -0.0001403506612405181, -0.14737731218338013, -0.16315536201000214, -0.264395534992218, 0.2014758437871933, -0.11499195545911789, -0.16136066615581512, 0.15710659325122833, 0.17372344434261322, -0.09519067406654358, -0.5192578434944153, -0.37462446093559265, -0.40922003984451294, 0.08471548557281494, 0.2953554391860962, 0.17288264632225037, -0.28831422328948975, -0.1105302944779396, 0.027357595041394234, 0.04229830577969551, -0.12800656259059906, -0.1438707858324051, -0.0423099584877491, -0.36194726824760437, -0.05918046087026596, -0.10948760062456131, 0.030395889654755592, 0.2375851720571518, -0.40881577134132385, 0.3877432942390442, 0.1134951114654541, 0.06949447095394135, 0.2918609380722046, -0.12600970268249512, -0.09592915326356888, 0.3165760338306427, 0.008342180401086807, 0.05813012644648552, -0.1855434775352478, 0.3735276758670807, 0.09323568642139435, -0.027546610683202744, -0.129864901304245, 0.00793369859457016, -0.08101993054151535, 0.17524221539497375, 0.4427432417869568, -0.10107246786355972, -0.15818679332733154, -0.03438891842961311, 0.21036787331104279, 0.023686015978455544, -0.04904726892709732, -0.26270461082458496, 0.09036391973495483, -0.1177162155508995, -0.0095310527831316, -0.5764421224594116, -0.05574770271778107, 0.3300956189632416, 0.047603536397218704, 0.1719805747270584, -0.171159029006958, 0.4472403824329376, 0.02974996715784073, 0.3495310842990875, -0.021904533728957176, -0.24938051402568817, -0.4708653688430786, -0.11247650533914566, -0.14302736520767212, -0.1391000896692276, -0.0733497217297554, -0.1872880756855011, 0.4736412763595581, 0.049607254564762115, 0.10947830229997635, 0.36337199807167053, -0.24334269762039185, -0.20225957036018372, -0.341930091381073, -0.1414005011320114, -0.12137488275766373, 0.4232151508331299, -0.2953920364379883, -0.10482273995876312, -0.09621785581111908, -0.0832916870713234, 0.30667099356651306, 0.627956748008728, -0.4003141522407532, 0.15136083960533142, 0.12443377077579498, -0.22214056551456451, 0.05852459743618965, -0.1913379281759262, -0.32092908024787903, 0.16241271793842316, 0.23558680713176727, 0.2617189288139343, 0.3781585395336151, -0.018336718901991844, 0.005528905428946018, 0.3092200458049774, 0.3320404887199402, 0.4759378731250763, -0.1934262216091156, -0.058118902146816254, 0.01725711300969124, 0.1990019977092743, 0.26491039991378784, 0.3984418511390686, -0.049534693360328674, -0.1355997622013092, 0.16524845361709595, 0.09859800338745117, 0.0793614611029625, 0.14844287931919098, -0.09395574778318405, -0.20072031021118164, -0.08231104910373688, 0.04070177301764488, 0.011554506607353687, 0.08686017245054245, 0.02652336098253727, 0.33494505286216736, 0.19199120998382568, -0.13264073431491852, -0.12616708874702454, 0.1567314863204956, 0.36379319429397583, -0.304426372051239, -0.09087032079696655, -0.06848445534706116, -0.18367351591587067, 0.11681891232728958, -0.2897964119911194, 0.16036944091320038, 0.048063118010759354, -0.08884697407484055, -0.10597368329763412, -0.24734972417354584, -0.3306618630886078, 0.04767255112528801, 0.3637097477912903, -0.36886247992515564, -0.2796931862831116, -0.021750913932919502, -0.30297771096229553, 0.018286818638443947, 0.03385481238365173, 0.15113942325115204, -0.001765575259923935, -0.127265065908432, 0.09881456196308136, 0.015484084375202656, 0.07278949022293091, -0.3216332495212555, -0.1139371320605278, 0.24561266601085663, 0.27952075004577637, 0.20176541805267334, 0.24654248356819153, -0.4211983382701874, 0.25515449047088623, -0.1901196539402008, -0.3110259473323822, 0.07679589837789536, 0.1250593513250351, 0.13158617913722992, 0.448668897151947, -0.07133468240499496, -0.1372256726026535, -0.043689221143722534, -0.22714106738567352, -0.1311054527759552, -0.06377651542425156, 0.14942912757396698, -0.12387975305318832, 0.295197457075119, -0.08885393291711807, -0.1327471286058426, 0.30856484174728394, -0.13718366622924805, -0.2062954306602478, -0.04125521704554558, 0.0237367395311594, 0.36347058415412903, 0.06613840162754059, -0.01952618733048439, -0.24556003510951996, -0.2866543233394623, -0.2283104807138443, 0.2656773030757904, -0.09291193634271622, -0.29306647181510925, 0.19136086106300354], [0.14508123695850372, 0.21746058762073517, 0.10556529462337494, -0.02626056969165802, -0.1005164384841919, -0.2132185995578766, 0.0824570506811142, -0.048381153494119644, 0.14309585094451904, -0.04437321797013283, -0.4004201292991638, -0.12209915369749069, -0.42103061079978943, 0.09657929837703705, 0.42844358086586, 0.07183481752872467, -0.15003038942813873, 0.29110798239707947, -0.17730700969696045, 0.20664162933826447, -0.09791013598442078, 0.03707890212535858, -0.10940936207771301, 0.005514104384928942, 0.3527126908302307, 0.21910551190376282, -0.07069554179906845, -0.16372501850128174, -0.1848420947790146, -0.09333844482898712, -0.09147178381681442, -0.4690316319465637, 0.39149248600006104, -0.2075977325439453, -0.1952851265668869, 0.05378977581858635, 0.2546525001525879, -0.38495075702667236, -0.27988794445991516, -0.34626832604408264, 0.05599571764469147, 0.0746779516339302, 0.1361711621284485, -0.04865671321749687, 0.5102971792221069, -0.03951238840818405, 0.10612805932760239, 0.3847368061542511, 0.19290153682231903, 0.6702494025230408, -0.0892305076122284, 0.009267137385904789, 0.02528744749724865, -0.03922390192747116, -0.009194216690957546, 0.5357187390327454, -0.07512132823467255, 0.06461431086063385, -0.3160535991191864, -0.002602712018415332, -0.019860437139868736, 0.11128707975149155, 0.2325323075056076, -0.0780908614397049, 0.11401976644992828, -0.35267406702041626, 0.2229880839586258, -0.24855032563209534, -0.07511263340711594, 0.18749435245990753, 0.4035814702510834, -0.04687895625829697, 0.4610130488872528, -0.27344828844070435, 0.09377942979335785, -0.040747515857219696, 0.19536298513412476, 0.3026953339576721, -0.15611368417739868, -0.21988874673843384, 0.4002496302127838, 0.012852105312049389, 0.011022726073861122, -0.39227065443992615, 0.014861091040074825, -0.016410985961556435, -0.04147455096244812, -0.22249366343021393, -0.0863056480884552, 0.10555683076381683, 0.3442980647087097, 0.19757080078125, -0.19895224273204803, -0.07019118964672089, -0.04945627972483635, 0.18281422555446625, 0.619378924369812, -0.2979455590248108, 0.286231130361557, -0.02027682401239872, -0.24158801138401031, 0.42262330651283264, -0.24142897129058838, -0.05236082151532173, -0.5252543687820435, 0.001789166941307485, 0.2724793255329132, 0.28060489892959595, -0.012105104513466358, -0.12101805955171585, 0.18772536516189575, 0.17820732295513153, 0.0726381242275238, -0.15022696554660797, -0.23441463708877563, 0.0209145937114954, 0.12103307247161865, -0.07617426663637161, 0.2971726953983307, 0.11924907565116882, 0.04659651592373848, 0.03696758672595024, -0.14815253019332886, 0.01763499714434147, -0.2723645567893982, -0.5575909614562988, -0.14163441956043243, -0.14027921855449677, -0.1989821046590805, 0.25047817826271057, 0.12425054609775543, 0.36699509620666504, -0.5018173456192017, 0.22955413162708282, 0.21645131707191467, -0.22005519270896912, 0.15992724895477295, 0.18410862982273102, -0.2878105640411377, -0.21291495859622955, 0.16805677115917206, 0.3232485353946686, 0.007373166270554066, -0.1085263267159462, -0.0800214558839798, 0.5577726364135742, 0.12874069809913635, -0.08763708919286728, -0.3467690050601959, -0.003568421583622694, 0.0468856617808342, -0.18306200206279755, -0.2173706740140915, -0.061001185327768326, -0.31161558628082275, 0.22277192771434784, 0.14132355153560638, -0.21575169265270233, 0.12938174605369568, 0.23297423124313354, -0.43274664878845215, -0.11631663888692856, -0.036526329815387726, 0.29623615741729736, -0.24662968516349792, 0.2911890149116516, -0.18812014162540436, -0.25036096572875977, -0.2556939423084259, 0.04299738630652428, 0.18085487186908722, 0.0993809849023819, -0.12288373708724976, -0.28973624110221863, 0.1275753378868103, -0.2392623871564865, -0.2558811604976654, -0.20534648001194, 0.4495350122451782, -0.09661514312028885, 0.4314233958721161, -0.12431547045707703, -0.16925887763500214, -0.03701740503311157, 0.1153963953256607, 0.26906391978263855, 0.21423278748989105, 0.2178191840648651, -0.2349701076745987, 0.04729526862502098, -0.054154783487319946, 0.023996680974960327, -0.17014165222644806, 0.576504647731781, -0.07093024253845215, -0.17839215695858002, -0.17681238055229187, 0.011065849103033543, -0.29146212339401245, -0.008884118869900703, -0.0515461266040802, 0.06821058690547943, -0.17693737149238586, 0.22153489291667938, 0.07094251364469528, -0.12241942435503006, -0.04759799316525459, 0.28947266936302185, 0.3330654799938202, 0.23363225162029266, 0.29845908284187317, 0.014632810838520527, 7.75481021264568e-05, 0.0652729943394661, 0.20237621665000916, -0.15981820225715637, -0.17797419428825378, 0.3326791524887085, 0.09956815838813782, 0.21450911462306976, 0.1657366007566452, -0.094770148396492, -0.10200770944356918, 0.22183682024478912, 0.11281390488147736, 0.08994040638208389, -0.40011218190193176, -0.041664522141218185, -0.2852226197719574, 0.48718205094337463, -0.14727647602558136, -0.1341255158185959, 0.20015688240528107, -0.037690918892621994, -0.310243159532547, -0.03668993338942528, -0.07479006052017212, -0.11914710700511932, 0.18721188604831696, -0.19934822618961334, -0.2706966698169708, -0.001708952710032463, 0.3052044212818146, 0.10448897629976273, 0.34153100848197937, 0.2689439654350281, 0.28076261281967163, -0.1508961021900177, -0.15565282106399536, -0.4943864345550537, 0.11195941269397736, 0.06259970366954803, -0.20838618278503418, -0.31803271174430847, -0.4740149974822998, 0.02289891429245472], [-0.10913175344467163, -0.03932616859674454, 0.038303639739751816, 0.022774595767259598, 0.12662915885448456, 0.41155770421028137, -0.11875079572200775, 0.3408661484718323, -0.006108933128416538, -0.06227512285113335, 0.10346686840057373, 0.09343142062425613, -0.008772931061685085, 0.1532202810049057, -0.13045357167720795, 0.10620478540658951, -0.07700737565755844, 0.21558409929275513, 0.12338811159133911, -0.2995961308479309, -0.11744070798158646, -0.13870784640312195, 0.1179891899228096, 0.2319529503583908, 0.00708733731880784, -0.22836582362651825, 0.06400079280138016, 0.17799386382102966, -0.4280952513217926, 0.053672805428504944, 0.3441435396671295, -0.247963085770607, 0.04350263997912407, 0.06204793229699135, 0.0638134554028511, -0.6559368968009949, 0.38697031140327454, -0.1429733783006668, 0.15236786007881165, 0.15221305191516876, 0.006175662856549025, -0.08758023381233215, 0.048903077840805054, -0.12625887989997864, -0.002476633060723543, 0.28429877758026123, -0.06066909059882164, 0.043697379529476166, 0.19550831615924835, -0.034232813864946365, 0.2570725083351135, 0.04465913400053978, 0.0755857303738594, -0.049344923347234726, 0.12230271100997925, 0.08603501319885254, 0.31743332743644714, 0.10969531536102295, 0.07289203256368637, 0.4535784125328064, -0.03831665962934494, -0.21444867551326752, -0.2501987814903259, 0.3989563584327698, -0.2052517682313919, 0.055445894598960876, 0.1056370809674263, -0.2559397518634796, 0.10518262535333633, -0.3878389894962311, -0.23180873692035675, 0.4853188693523407, 0.06187301501631737, 0.3108595013618469, 0.22638176381587982, 0.08628829568624496, 0.1697760373353958, 0.19916993379592896, 0.2038675993680954, -0.02350659854710102, 0.2829349935054779, -0.22404912114143372, -0.0707896277308464, -0.4852047562599182, -0.10803396999835968, -0.1858534961938858, 0.13098196685314178, -0.19084382057189941, -0.09369964897632599, -0.17210255563259125, 0.1811995953321457, 0.16164067387580872, 0.022502698004245758, -0.049351390451192856, -0.3613159656524658, 0.39495885372161865, -0.2513338029384613, -0.08510507643222809, 0.20265927910804749, 0.073137067258358, 0.03294644504785538, 0.03110111504793167, -0.09376177936792374, 0.1290828287601471, -0.10159022361040115, -0.216476708650589, -0.4772452712059021, -0.35199934244155884, -0.06931216269731522, 0.11957896500825882, 0.4366517663002014, 0.14579148590564728, 0.10632164776325226, 0.444604754447937, 0.033292390406131744, -0.21063649654388428, -0.2616823613643646, -0.29472097754478455, 0.272375226020813, 0.34319499135017395, -0.0070313503965735435, 0.010270068421959877, 0.2599038779735565, 0.2556981146335602, 0.48543331027030945, -0.027588168159127235, 0.18940569460391998, -0.07701235264539719, 0.4144462049007416, -0.11118385195732117, -0.36754003167152405, 0.05471201241016388, -0.36404919624328613, -0.1396579146385193, 0.1984008550643921, -0.196573406457901, -0.26773738861083984, -0.5103693008422852, -0.1443094164133072, -0.249154195189476, 0.09549838304519653, -0.11360350251197815, 0.09060404449701309, -0.4797053933143616, 0.14454394578933716, -0.1384657770395279, 0.17096586525440216, -0.08506032079458237, 0.26272356510162354, 0.045825839042663574, -0.0265510231256485, 0.1445239931344986, -0.4503253400325775, -0.29887905716896057, 0.05037055164575577, -0.21460823714733124, -0.12427368015050888, 0.13830403983592987, 0.1945510059595108, 0.46849697828292847, -0.0692831501364708, -0.1101638525724411, 0.5483494997024536, 0.3100464940071106, -0.016497157514095306, 0.16866786777973175, 0.04863867163658142, -0.24160687625408173, -0.24232879281044006, 0.0480915904045105, -0.01605953648686409, -0.4844324290752411, 0.05371290445327759, -0.07604891806840897, -0.038566481322050095, -0.10179506242275238, -0.050902046263217926, -0.03695862367749214, -0.17648442089557648, -0.1298503577709198, -0.0761311873793602, -0.1517511010169983, 0.39687401056289673, -0.0208424124866724, 0.29491549730300903, -0.4499008357524872, 0.053102102130651474, 0.008284343406558037, 0.14283032715320587, 0.05710379779338837, -0.0711829662322998, 0.15005214512348175, -0.1532590687274933, 0.18120123445987701, 0.12887758016586304, 0.13378652930259705, -0.122776098549366, 0.3447757959365845, 0.23379142582416534, -0.03394869342446327, -0.029314178973436356, -0.2001897692680359, -0.1889340579509735, -0.13096478581428528, -0.0318806916475296, 0.1727154552936554, -0.22672368586063385, -0.009233919903635979, -0.12762610614299774, -0.29706746339797974, 0.39609795808792114, 0.03724554553627968, -0.3400198221206665, 0.18840943276882172, -0.030456146225333214, 0.017934810370206833, -0.6045345067977905, 0.6400169134140015, -0.011126347817480564, 0.13397216796875, 0.1826329231262207, -0.28259792923927307, 0.4426121115684509, 0.38840070366859436, -0.11863108724355698, -0.4317966103553772, -0.05302618816494942, 0.09640475362539291, 0.12411081790924072, -0.24276091158390045, 0.2764498293399811, 0.05883653834462166, -0.20012521743774414, 0.10204500705003738, 0.03591074422001839, 0.15119773149490356, -0.03139946237206459, -0.3460427224636078, 0.46919840574264526, 0.2630849778652191, 0.09329798072576523, 0.12440413981676102, -0.2826731503009796, -0.27524107694625854, -0.4808128774166107, 0.26081225275993347, -0.002808299381285906, -0.06241992115974426, -0.13899701833724976, 0.3863869905471802, -0.12342602014541626, 0.5397242307662964, -0.03449643775820732, -0.3297197222709656, 0.08630380034446716, -0.2901144027709961], [0.03388746455311775, 0.3626578152179718, 0.03197352588176727, -0.15968415141105652, -0.3605267405509949, 0.14271311461925507, 0.1445683389902115, -0.02329947240650654, 0.29324185848236084, -0.2670624554157257, -0.356749027967453, 0.3534703254699707, -0.03599337488412857, -0.21225088834762573, 0.31728386878967285, 0.054732777178287506, -0.2122117131948471, -0.039364609867334366, 0.03065977431833744, -0.3495120406150818, 0.015758654102683067, -0.19921129941940308, 0.14516781270503998, -0.19726967811584473, 0.07680080831050873, -0.08884070813655853, -0.02657170593738556, -0.2261962592601776, -0.24499647319316864, -0.14146552979946136, 0.05756775289773941, 0.037579748779535294, 0.16022436320781708, -0.0561978854238987, -0.08527206629514694, 0.22811292111873627, -0.12022081017494202, 0.25856056809425354, 0.19531473517417908, 0.3722817301750183, 0.16165480017662048, 0.26171785593032837, 0.23369458317756653, 0.047521647065877914, 0.1303725391626358, -0.2358906865119934, 0.22304080426692963, 0.11422290652990341, -0.15919575095176697, -0.17098182439804077, 0.09409353882074356, 0.030078301206231117, -0.2743237316608429, -0.024046430364251137, -0.22231438755989075, -0.1708301305770874, -0.27257075905799866, 0.5037517547607422, -0.09602392464876175, -0.3564298748970032, 0.245639368891716, -0.10032030940055847, 0.4585086405277252, 0.013741237111389637, 0.005099813919514418, -0.20074217021465302, -0.23927858471870422, 0.352952241897583, -0.23589293658733368, -0.1366833746433258, 0.2772027254104614, -0.1298064887523651, 0.07402762025594711, -0.035330090671777725, -0.2702066898345947, -0.052478887140750885, 0.17792417109012604, -0.5291100740432739, 0.26838719844818115, -0.10266240686178207, 0.11879388988018036, 0.49764007329940796, 0.3037188649177551, 0.27173444628715515, 0.03185570612549782, -0.03785490244626999, 0.34348610043525696, 0.18132519721984863, 0.2805827558040619, 0.06874393671751022, -0.5986696481704712, -0.18444140255451202, -0.2110622376203537, -0.21131795644760132, -0.197040393948555, -0.08036965131759644, -0.06899093091487885, 0.36090728640556335, 0.47260329127311707, 0.2713267207145691, -0.30450284481048584, -0.0010300797875970602, -0.32738280296325684, -0.549602210521698, -0.11134244501590729, 0.2266930788755417, -0.07733717560768127, 0.2752784788608551, -0.496249794960022, -0.12062077969312668, -0.06679622083902359, -0.12239158898591995, 0.0028267414309084415, 