{"STATE_DIM": 101, "MOVE_DIM": 81, "hidden": 256, "num_layers": 3, "layers": [{"type": "linear", "weight": [[0.04409497231245041, -0.07830222696065903, 0.02126244269311428, -0.10872191190719604, 0.07573146373033524, 0.08327814191579819, 0.08780870586633682, 0.05451299250125885, -0.07963825017213821, -0.09729554504156113, -0.04610639438033104, -0.015414011664688587, 0.07189325243234634, 0.10059788823127747, -0.04399750754237175, 0.06986362487077713, 0.009241072461009026, -0.045737557113170624, 0.023266959935426712, 0.05196748673915863, 0.02875756472349167, -0.01396111585199833, 0.01115993782877922, 0.04862101748585701, 0.09008617699146271, 0.051907073706388474, 0.039327073842287064, 0.09385043382644653, -0.05186239629983902, 0.030928824096918106, -0.05158725380897522, -0.029228873550891876, -0.00894692912697792, 0.05378855764865875, -0.08889924734830856, 0.04782141000032425, 0.04587407782673836, 0.10599981248378754, 0.03902604430913925, 0.03320437669754028, -0.07719095796346664, 0.050412893295288086, 0.046698734164237976, -0.06775520741939545, 0.011356637813150883, 0.07583658397197723, -0.0933045893907547, 0.03309442475438118, -0.08899274468421936, 0.05746651440858841, 0.08884884417057037, -0.04016105830669403, -0.09044744074344635, -0.06945288926362991, -0.08735740929841995, -0.02298252284526825, -0.038504842668771744, 0.001877005910500884, -0.06891339272260666, -0.0752701461315155, 0.03442955017089844, -0.042228635400533676, -0.011552836745977402, 0.044747840613126755, 0.058704402297735214, 0.09682629257440567, -0.004038908518850803, -0.0785423070192337, -0.08786673843860626, 0.010676533915102482, -0.084368996322155, -0.05626510828733444, -0.01421939767897129, -0.026629671454429626, 0.06723792850971222, 0.05398742854595184, -0.02612767368555069, -0.09863495081663132, -0.08427567034959793, 0.010904858820140362, -0.07077086716890335, -0.02238103747367859, -0.03638343885540962, 0.0009550917311571538, -0.08665351569652557, 0.04474334418773651, -0.011869065463542938, -0.03590810298919678, 0.06945889443159103, 0.01913469471037388, -0.08037975430488586, -0.016285208985209465, 0.023225991055369377, -0.03036395274102688, 0.05175632983446121, -0.09356319159269333, -0.06113225221633911, -0.04498890042304993, 0.07775040715932846, 0.0717092901468277, -0.07518145442008972, 0.08584148436784744, -0.09737353026866913, -0.04137739911675453, 0.07386675477027893, 0.03993454575538635, 0.04240395501255989, 0.06331176310777664, -0.059082020074129105, -0.0655565932393074, -0.05503843352198601, 0.024012424051761627, -0.04711627587676048, -0.07004059851169586, 0.053281087428331375, -0.08366087079048157, -0.04782266169786453, -0.08181880414485931, -0.04399675130844116, -0.08116960525512695, 0.0002493922074791044, 0.008122239261865616, -0.0434223935008049, 0.020013004541397095, -0.032843101769685745, -0.046846549957990646, -0.01915399730205536, -0.022416330873966217, 0.024496961385011673, 0.020828796550631523, -0.013192267157137394, 0.03750038146972656, 0.014578968286514282, -0.05753101408481598, 0.07388211786746979, -0.0591556690633297, 0.07666328549385071, 0.010553723201155663, -0.04889250919222832, 0.02611371874809265, 0.019268661737442017, -0.08269916474819183, -0.024514667689800262, 0.07219313830137253, 0.009606149047613144, 0.06447959691286087, 0.008635880425572395, 0.07522885501384735, 0.045975834131240845, -0.05393591150641441, -0.06632555276155472, 0.08129288256168365, 0.060637377202510834, -0.0448094941675663, -0.0010693593649193645, 0.0287164393812418, 0.046344950795173645, -0.02168670855462551, -0.04877486824989319, 0.04238448292016983, -0.027053656056523323, -0.017491543665528297, -0.10311064124107361, -0.04973314329981804, 0.023074224591255188, 0.052667297422885895, -0.1051613986492157, 0.10232172161340714, 0.019008800387382507, 0.013564305379986763, 0.008866389282047749, 0.012765693478286266, -0.0861767828464508, 0.09514196217060089, -0.03187887370586395, -0.06367400288581848, -0.0838860496878624, -0.041324034333229065, 0.07912816852331161, -0.03270353004336357, 0.03221939131617546, -0.04387235268950462, -0.03322979435324669, 0.05942368507385254, 0.05690548196434975, -0.041718706488609314, 0.07844134420156479, -0.0572550892829895, 0.01579645648598671, 0.030651003122329712, 0.03707337751984596, 0.027603568509221077, 0.024460814893245697, 0.021977510303258896, -0.09883339703083038, -0.09431825578212738, 0.009355535730719566, -0.0842282772064209, 0.04604855179786682, -0.03249059244990349, 0.008425964042544365, 0.01380234956741333, 0.04986655339598656, -0.03186887875199318, 0.06154482066631317, -0.08889229595661163, -0.08081874996423721, 0.08317934721708298, -0.061781130731105804, 0.0807754173874855, 0.06511480361223221, 0.037252385169267654, -0.029156148433685303, -0.09264308214187622, -0.07543947547674179, -0.057495880872011185, 0.07328879088163376, -0.09215374290943146, -0.09316892921924591, 0.04958081617951393, 0.07397501915693283, 0.047647230327129364, 0.029513126239180565, 0.03303484246134758, -0.02160370722413063, 0.10966391116380692, 0.02869836613535881, 0.07515421509742737, -0.0430382676422596, -0.0019108356209471822, -0.05246715992689133, -0.024607915431261063, 0.055407434701919556, 0.0908825621008873, -0.04363146051764488, 0.1030065268278122, -0.04139780253171921, -0.018103299662470818, 0.004140257835388184, 0.08184997737407684, -0.037242840975522995, -0.007780781015753746, -0.05337834358215332, 0.0019195966888219118, 0.008859880268573761, 0.0022116575855761766, -0.07057737559080124, -0.023990336805582047, 0.0003780724364332855, -0.0340714156627655, 0.0015633280854672194, -0.05137525871396065, -0.0434068888425827, 0.012711278162896633, -0.012091503478586674, -0.003975354600697756], [-0.056140925735235214, 0.06394816935062408, 0.09520608931779861, -0.06989144533872604, -0.02430189773440361, 0.0927063599228859, -0.011479653418064117, 0.05905676633119583, 0.04960205405950546, 0.08712666481733322, -0.09428248554468155, -0.007021751720458269, 0.026247292757034302, 0.10137543827295303, 0.000648649875074625, 0.08571913093328476, 0.019710179418325424, 0.027480598539114, -0.0312776081264019, 0.05371188372373581, 0.019214851781725883, 0.04267929121851921, -0.07787624001502991, -0.0022578209172934294, -0.07985379546880722, 0.0300323273986578, -0.0007170937024056911, 0.07030729949474335, 0.00843688566237688, 0.014651020057499409, -0.0019254919607192278, 0.03213225677609444, -0.03840671479701996, 0.07483220845460892, 0.06457868963479996, 0.02739339880645275, -0.06926319748163223, 0.028760230168700218, 0.0532819963991642, -0.024610647931694984, 0.03787296637892723, -0.06364675611257553, -0.04589470475912094, 0.022833727300167084, -0.10771025717258453, 0.01583787612617016, 0.028777072206139565, -0.10324788093566895, -0.07789470255374908, 0.08291714638471603, 0.022417841479182243, -0.04069747403264046, 0.011250955052673817, -0.0104452446103096, -0.021934179589152336, -0.04720830172300339, -0.08619287610054016, -0.09896225482225418, -0.0641494020819664, -0.10330334305763245, -0.012254190631210804, -0.09854479134082794, -0.07071398943662643, 0.077266626060009, -0.0833975151181221, -0.09963402152061462, 0.031797051429748535, -0.016505785286426544, -0.004427305422723293, -0.09472675621509552, 0.03215442970395088, 0.033274948596954346, -0.03476926311850548, 0.01073362585157156, 0.10188031941652298, 0.029849667102098465, 0.08875029534101486, 0.03272669389843941, 0.06306087970733643, -0.08303007483482361, -0.00863591767847538, -0.07529016584157944, 0.07899048179388046, -0.015284105204045773, -0.06926354765892029, 0.10156309604644775, 0.04587415233254433, 0.04636554419994354, -0.06945770233869553, -0.05625740438699722, 0.066349558532238, -0.040051210671663284, -0.0017537865787744522, -0.019543923437595367, 0.10164042562246323, -0.0791683942079544, 0.06385272741317749, -0.025509150698781013, -0.04945598542690277, 0.08720024675130844, -0.020322101190686226, 0.05164262279868126, -0.08407992869615555, 0.06318419426679611, -0.004297991748899221, 0.0205734521150589, 0.033238839358091354, -0.0053618298843503, 0.10418269038200378, -0.09620099514722824, -0.02932460606098175, -0.10662867873907089, 0.03614930808544159, -0.031077204272150993, -0.08044782280921936, -0.08378443866968155, -0.05654117837548256, -0.006583618465811014, 0.05676155164837837, 0.02927182801067829, -0.027999458834528923, -0.04880019277334213, 0.0741998478770256, 0.08363176137208939, 0.06648202240467072, 0.040161650627851486, 0.0809171199798584, 0.031729161739349365, -0.049235716462135315, -0.06772886961698532, -0.05086540803313255, 0.0035056304186582565, 0.07468212395906448, 0.07875397056341171, 0.08267764747142792, 0.0650608092546463, -0.07747334241867065, -0.011069835163652897, -0.054392144083976746, -0.030982762575149536, -0.06393512338399887, -0.08297384530305862, 0.08906702697277069, 0.04569941386580467, 0.07243460416793823, 0.03820033371448517, 0.030985567718744278, -0.04207974299788475, 0.07777079194784164, 0.03702417388558388, 0.07927074283361435, 0.03296107426285744, 0.07808221876621246, 0.021638842299580574, -0.0738639160990715, -0.060339782387018204, 0.08725539594888687, 0.006721611134707928, 0.001603484502993524, 0.1023314967751503, 0.07453311234712601, -0.00959725771099329, -0.05162440985441208, -0.03360164165496826, -0.006834408268332481, 0.033131182193756104, -0.08600962162017822, 0.005294945556670427, -0.03127215802669525, -0.07648363709449768, 0.015568895265460014, -0.07924946397542953, -0.010507375001907349, 0.02105589769780636, -0.030426761135458946, 0.06663747876882553, 0.08604297786951065, -0.0037697255611419678, 0.02324029989540577, -0.022524001076817513, 0.05719290301203728, 0.018209407106041908, 0.030255386605858803, 0.021533040329813957, 0.0427764356136322, -0.09108826518058777, 0.0652557834982872, 0.0640643760561943, 0.05264546349644661, 0.0348353236913681, 0.025426382198929787, 0.05313049629330635, 0.009715097956359386, -0.03859785571694374, 0.08076629042625427, -0.10071266442537308, -0.028459647670388222, 0.03127147629857063, 0.043455835431814194, -0.04994656518101692, 0.1043219342827797, 0.042528826743364334, -0.025084644556045532, -0.016876542940735817, 0.07832637429237366, 0.05695793032646179, 0.0035884131211787462, -0.014926222153007984, -0.034313566982746124, -0.0504772812128067, -0.010223230347037315, -0.09008128196001053, -0.005028639454394579, -0.06456801295280457, 0.08737878501415253, -0.02429847978055477, 0.01817316561937332, 0.04735734313726425, 0.03033282421529293, 0.08285727351903915, 0.0039837174117565155, 0.08121462911367416, -0.10437360405921936, -0.06422622501850128, -0.05747903510928154, -0.08629857748746872, 0.09650374203920364, -0.05247912183403969, -0.08062973618507385, 0.007869978435337543, -0.01653321273624897, 0.011179209686815739, -0.024900732561945915, 0.08542466908693314, -0.08263444900512695, -0.008425718173384666, -0.01873834803700447, -0.10216070711612701, -0.03386840596795082, 0.040584832429885864, 0.07260572910308838, 0.10221857577562332, 0.02531062811613083, -0.043872762471437454, 0.0005653213011100888, -0.02466309256851673, 0.062264494597911835, -0.06884591281414032, 0.004896382335573435, -0.06830719858407974, 0.08182159066200256, 0.030308302491903305, 0.08100266009569168, -0.07918918877840042, 0.0027520477306097746, -0.057136330753564835], [-0.028520718216896057, 0.04616328701376915, 0.03691384568810463, 0.04495926573872566, 0.09083535522222519, -0.08298952132463455, -0.03545713052153587, -0.03471514582633972, -0.03822764754295349, -0.03074623830616474, 0.11585929989814758, -0.06896498054265976, 0.08570373803377151, -0.04820876196026802, -0.10212448984384537, -0.04978484287858009, -0.029079655185341835, -0.06804462522268295, -0.006008206866681576, -0.008421646431088448, -0.06189276650547981, -0.06702934205532074, -0.004841215908527374, 0.06301551312208176, 0.048034459352493286, -0.015553250908851624, 0.018798455595970154, 0.08526312559843063, 0.06078200787305832, 0.08361610770225525, -0.05097107216715813, 0.03296588733792305, 0.037324510514736176, 0.09936168789863586, 0.014656136743724346, 0.0084169777110219, 0.04177378490567207, -0.09584350138902664, -0.05804849788546562, -0.08999843895435333, -0.03250752389431, -0.10603577643632889, -0.05041012167930603, -0.03239988163113594, 0.05156198889017105, 0.04807364568114281, -0.04759000241756439, 0.010177839547395706, -0.00710785947740078, -0.07300849258899689, -0.06255395710468292, -0.0010524599347263575, -0.09874773025512695, -0.11808482557535172, 0.05091100186109543, -0.05235327407717705, -0.08993849158287048, 0.007986740209162235, -0.09074341505765915, -0.03977590054273605, 0.025523388758301735, 0.05761736258864403, -0.032219551503658295, 0.016553131863474846, 0.08045633882284164, 0.04844880476593971, -0.06503229588270187, 0.07535185664892197, 0.045528311282396317, 0.06908509135246277, -0.04251660406589508, 0.03190828859806061, -0.10742124170064926, -0.009079676121473312, -0.018549596890807152, 0.08135431259870529, 0.03650929406285286, -0.04014051705598831, 0.0836678296327591, 0.03748574107885361, 0.028892923146486282, -0.042234160006046295, 0.10788814723491669, 0.08774968981742859, 0.055018823593854904, 0.06953766942024231, 0.05692385509610176, -0.06982676684856415, 0.00832479540258646, -0.08016696572303772, 0.07147723436355591, -0.05635424330830574, 0.04615101218223572, -0.04820636287331581, -0.012983713299036026, 0.05879926308989525, -0.09581943601369858, -0.005983257666230202, 0.06133980304002762, -0.05595427006483078, 0.02963830716907978, -0.08063044399023056, -0.055875014513731, 0.09241879731416702, 0.0027700832579284906, 0.049731913954019547, 0.08581636101007462, 0.05280790105462074, -0.05973343178629875, -0.026688704267144203, -0.0647355318069458, -0.04651749134063721, 0.09278564900159836, 0.04099828749895096, -0.05286545306444168, 0.04598293825984001, 0.07311806827783585, 0.030659513548016548, 0.07179956138134003, 0.0016631274484097958, 0.053381215780973434, -0.06090155243873596, 0.07846172899007797, 0.09130308777093887, 0.029513753950595856, 0.035379812121391296, 0.07216931879520416, 0.02495177835226059, 0.07140723615884781, -0.10991450399160385, -0.03602216765284538, 0.03624841943383217, -0.08820214122533798, 0.07126366347074509, 0.022456740960478783, -0.022275686264038086, 0.10135409981012344, -0.03132118284702301, 0.04392233118414879, 0.0812242180109024, 0.08439157903194427, 0.052278436720371246, -0.07865659147500992, -0.01080667320638895, -0.06756944209337234, 0.093157097697258, 0.03213810175657272, -0.012075291015207767, -0.02430773712694645, 0.05128001794219017, 0.030231386423110962, 0.05700920894742012, -0.007172784302383661, 0.03864895924925804, 0.07451578974723816, -0.021304670721292496, 0.05581905320286751, 0.014730185270309448, 0.08628035336732864, -0.07244718819856644, 0.04739614203572273, 0.02711225487291813, -0.08714395761489868, 0.04368799179792404, -0.017872406169772148, -0.056716591119766235, 0.027030019089579582, 0.014097021892666817, 0.03172661364078522, -0.0665324330329895, 0.040636319667100906, -0.028738729655742645, 0.0655021145939827, -0.039750710129737854, -0.060339175164699554, 0.11305147409439087, 0.0961412787437439, -0.029142525047063828, 0.059806521981954575, 0.053139109164476395, -0.03869501128792763, -0.049934953451156616, -0.017300289124250412, 0.09564736485481262, 0.0006562066846527159, 0.0806765928864479, -0.014739077538251877, 0.00714252982288599, 0.03713836520910263, 0.05547523498535156, -0.04486888647079468, -0.06888917833566666, 0.04137636348605156, 0.045673344284296036, 0.00886037852615118, -0.1069970652461052, -0.0005159270949661732, -0.07561079412698746, 0.034506574273109436, -0.021459264680743217, -0.021508820354938507, -0.08623932301998138, -0.08901200443506241, 0.02535812184214592, -0.022361043840646744, -0.06577394157648087, 0.05728695169091225, -0.03453122079372406, -0.023516448214650154, -0.000962133752182126, 0.016549531370401382, -0.019437113776803017, 0.036198940128088, 0.0009808121249079704, 0.005188012029975653, -0.012775816023349762, 0.06263314932584763, 0.040654055774211884, -0.057095032185316086, 0.07620804011821747, -0.015244536101818085, -0.02571212686598301, -0.017002390697598457, 0.007708301767706871, 0.004837182350456715, -0.0016992000164464116, -0.07568241655826569, 0.012513522990047932, 0.08465766161680222, -0.05745241791009903, 0.06830411404371262, 0.06022600829601288, 0.07425948232412338, -0.02199968881905079, -0.044184863567352295, 0.08705493807792664, -0.0004768653598148376, 0.0571928434073925, 0.07558155804872513, 0.023301295936107635, -0.058519743382930756, 0.06793945282697678, -0.029081832617521286, -0.014773920178413391, 0.0034792032092809677, -0.039123546332120895, 0.017820309847593307, 0.08558227121829987, 0.0764649286866188, 0.0677112266421318, 0.10450270771980286, -0.11781246960163116, 0.004523556213825941, -0.042749449610710144, -0.09298639744520187, 0.006385501939803362], [-0.08857908099889755, -0.04127725213766098, -0.09636309742927551, 0.015493293292820454, 0.0428844653069973, -0.039137568324804306, -0.0490843802690506, 0.030170679092407227, 0.07143233716487885, 0.025950530543923378, -0.007513826712965965, 0.04000396654009819, -0.031381696462631226, -0.0544683076441288, 0.05753481760621071, 0.08395375311374664, 0.014960603788495064, 0.031871914863586426, -0.07800028473138809, -0.03962373360991478, -0.013466009870171547, -0.013286354951560497, 0.01607535593211651, 0.01677587442100048, -0.06668557226657867, 0.10158005356788635, 0.09408620744943619, 0.04758797585964203, 0.0535326711833477, 0.04476289078593254, -0.05837024748325348, 0.07090992480516434, 0.06424424797296524, 0.07065732777118683, -0.08592614531517029, -0.006931812036782503, -0.05533960461616516, -0.04549558088183403, 0.02983611822128296, 0.014338240958750248, -0.01498369313776493, -0.10926275700330734, 0.03380560502409935, 0.05921506881713867, 0.07761476188898087, 0.06255961209535599, -0.061453789472579956, -0.04652430862188339, 0.060932647436857224, -0.08092396706342697, 0.06430082768201828, 0.06727274507284164, -0.09037092328071594, -0.07310674339532852, 0.008996490389108658, -0.0678236186504364, -0.10401881486177444, -0.05264277383685112, -0.03463250771164894, 0.05665987730026245, 0.09387274086475372, 0.08983244001865387, -0.08289586752653122, 0.032906439155340195, 0.0032773707062005997, -0.09226486086845398, 0.05798822268843651, 0.09535813331604004, -0.0979635939002037, -0.03216804191470146, 0.06229396536946297, -0.0715721994638443, 0.025184519588947296, 0.04401566833257675, -0.09609567373991013, 0.024154996499419212, -0.09398819506168365, -0.04540320485830307, -0.03591624274849892, -0.09004057943820953, -0.03267015144228935, 0.0906464233994484, -0.015860052779316902, -0.07085604965686798, 0.007327595725655556, 0.05394810438156128, 0.10821665823459625, 0.07116302102804184, 0.030092181637883186, 0.02818245254456997, -0.06871043890714645, 0.011089813895523548, -0.04799523577094078, 0.009654508903622627, 0.001618106965906918, -0.03804757446050644, 0.05105648562312126, 0.018818365409970284, 0.061096347868442535, 0.09091398119926453, -0.0568058118224144, -0.035517022013664246, -0.06321855634450912, 0.03760167583823204, 0.05747652053833008, -0.025981426239013672, -0.05408681184053421, -0.053781624883413315, -0.0076323701068758965, 0.010962053202092648, 0.019817402586340904, 0.04676993936300278, 0.08639607578516006, 0.024920180439949036, 0.09537248313426971, 0.08145712316036224, -0.024964714422822, 0.06966616958379745, 0.04790407046675682, -0.06701964884996414, -0.03779015690088272, -0.0708610787987709, 0.08929412811994553, 0.011372341774404049, -0.03826705738902092, 0.009070077911019325, 0.0002228603116236627, 0.04464029148221016, 0.020743703469634056, 0.02631503716111183, -0.058356672525405884, -0.060376495122909546, 0.06758826225996017, 0.07928269356489182, -0.06972641497850418, -0.0662725642323494, 0.06284280121326447, -0.07660344243049622, -0.06659065932035446, 0.07630064338445663, -0.013777989894151688, 0.0762757733464241, -0.06993028521537781, 0.04694732651114464, 0.03592104837298393, 0.06833711266517639, 0.01965959183871746, -0.08373109251260757, 0.041466038674116135, -0.039255015552043915, 0.08232154697179794, -0.07239597290754318, 0.0726497545838356, 0.06256618350744247, 0.042751558125019073, -0.06472864001989365, -0.026065628975629807, 0.021427398547530174, 0.02505488134920597, -0.004128981847316027, -0.012076196260750294, 0.07519347220659256, 0.0480143241584301, 0.09560377895832062, -0.09722195565700531, 0.08004933595657349, -0.043500080704689026, -0.018376149237155914, -0.019083861261606216, 0.026616204530000687, -0.000633479852695018, 0.017249250784516335, -0.06908269971609116, 0.0586312897503376, -0.012617183849215508, -0.07908696681261063, 0.060866910964250565, -0.045042771846055984, 0.06931591033935547, 0.0029125597793608904, -0.09588532894849777, -0.05682629346847534, 0.04718395322561264, 0.08276944607496262, 0.05626259744167328, -0.09223269671201706, -0.06593052297830582, 0.10320229083299637, 0.015325067564845085, -0.04424178600311279, 0.07075627893209457, -0.02803882211446762, 0.029997829347848892, -0.0027203531935811043, 0.09124565869569778, -0.0824817642569542, 0.03675547614693642, -0.0545375682413578, -0.09954256564378738, 0.030778957530856133, 0.015852823853492737, 0.05765509232878685, 0.003549655433744192, -0.06919204443693161, -0.06272897869348526, -0.052120011299848557, -0.004621551837772131, 0.0029873887542635202, -0.05129208788275719, 0.00793752633035183, 0.0831470936536789, 0.028732961043715477, 0.0377376414835453, -0.08408121764659882, -0.0026711837854236364, 0.06318207085132599, -0.060329634696245193, 0.06265497952699661, -0.028221944347023964, 0.07324273884296417, -0.043429162353277206, -0.03485767915844917, -0.04967987537384033, -0.10269954055547714, 0.03174402937293053, -0.055885281413793564, -0.08075083792209625, 0.0030925010796636343, 0.024251481518149376, 0.07819710671901703, -0.08539693802595139, -0.02429213933646679, 0.09931083023548126, 0.06602480262517929, 0.05574646592140198, 0.05832092463970184, -0.03694276511669159, -0.033215753734111786, 0.09979230165481567, -0.08029327541589737, 0.03404688462615013, 0.02610972337424755, -0.05049363151192665, -0.0443219393491745, 0.04508751258254051, -0.019731350243091583, -0.06329108774662018, 0.03208453953266144, 0.04790419340133667, 0.0991530790925026, -0.08348654955625534, 0.08489323407411575, -0.08409485965967178, -0.08454906195402145, -0.01222081109881401, 0.0018953679827973247], [-0.04322366416454315, 0.01966775953769684, 0.04273880273103714, 0.0628863200545311, 0.012130621820688248, -0.006208626087754965, 0.09455812722444534, -0.08220349997282028, 0.08710066229104996, -0.04827926680445671, -0.023762475699186325, -0.04257175326347351, -0.05512385070323944, 0.03986850753426552, 0.06528256833553314, 0.0508551187813282, 0.0645364448428154, 0.08188213407993317, 0.034577593207359314, 0.019133754074573517, -0.03619333729147911, 0.014050556346774101, 0.03956944867968559, -0.03419055789709091, 0.046631500124931335, 0.019382109865546227, -0.05001423880457878, -0.03767889365553856, -0.016335053369402885, -0.028235256671905518, -0.005451217759400606, 0.06562890857458115, -0.10576056689023972, -0.07037369161844254, -0.054065946489572525, -0.07374972850084305, 0.058202944695949554, 0.03580288216471672, 0.014213915914297104, -0.025452857837080956, 0.04847792163491249, 0.09784092009067535, 0.0618659108877182, 0.06272199004888535, 0.05068810656666756, -0.004137834534049034, -0.04636741429567337, 0.042405977845191956, 0.0825420618057251, 0.038778360933065414, -0.005707393866032362, 0.007786721922457218, 0.015415630303323269, 0.02241896279156208, 0.04423007369041443, 0.027368944138288498, -0.007650118321180344, -0.02222336083650589, -0.07660812884569168, -0.0011570926290005445, -0.023209694772958755, 0.018984369933605194, 0.04119158163666725, 0.02011018432676792, 0.07154040783643723, 0.010067999362945557, -0.035837482661008835, 0.03600313514471054, -0.059244297444820404, -0.004032078664749861, 0.08098900318145752, -0.03979329392313957, 0.025102898478507996, 0.021612409502267838, -0.09031468629837036, -0.05829261615872383, 0.06692563742399216, -0.044971566647291183, 0.05297582969069481, -0.007368568331003189, -0.09592115879058838, -0.01822347566485405, 0.009741217829287052, 0.021254470571875572, 0.018995121121406555, -0.012197612784802914, -0.05475563928484917, -0.013957580551505089, 0.10078464448451996, 0.10104354470968246, 0.07446105778217316, -0.02389313280582428, -0.08346769958734512, -0.02614562027156353, 0.0903155654668808, -0.059679046273231506, 0.09094768017530441, 0.01517535001039505, 0.042241111397743225, 0.06971447169780731, 0.08097897469997406, -0.09146368503570557, -0.02089196816086769, 0.0780680850148201, 0.03815269097685814, 0.07846291363239288, 0.025342917069792747, 0.08087105304002762, -0.09354566037654877, -0.07239502668380737, 0.0660189539194107, -0.05379924923181534, -0.010269934311509132, -0.04667431116104126, 0.0586765892803669, 0.030521638691425323, 0.05760298669338226, 0.05737530440092087, 0.074924036860466, -0.008192196488380432, -0.09921101480722427, -0.002135226968675852, 0.0991867259144783, 0.028871014714241028, -0.04658842831850052, -0.024078847840428352, -0.05629910156130791, 0.05528577044606209, 0.062446631491184235, -0.07806364446878433, -0.02394295111298561, 0.05300852283835411, -0.040217507630586624, 0.03836039826273918, -0.019024839624762535, -0.04850950837135315, 0.10700833052396774, -0.06664520502090454, 0.07296666502952576, 0.015434220433235168, 0.02985966019332409, -0.007699130568653345, -0.09929764270782471, -0.0442289263010025, 0.01197229977697134, 0.0010060399072244763, 0.029442239552736282, -0.053115785121917725, -0.023893335834145546, 0.019111858680844307, 0.00027007018798030913, 0.07859417051076889, -0.041433319449424744, -0.06674886494874954, -0.02138138934969902, 0.097078338265419, -0.027784518897533417, 0.06404297053813934, -0.027162037789821625, -0.026977984234690666, 0.09038431197404861, -0.024244099855422974, -0.07872413843870163, -0.08079225569963455, -0.06256149709224701, 0.0053657228127121925, -0.0417545847594738, 0.06099395826458931, 0.04156067967414856, 0.015146136283874512, 0.0006523155607283115, -0.058264344930648804, -0.046220842748880386, 0.06752313673496246, 0.07177087664604187, 0.08257737010717392, 0.028129076585173607, 0.011753564700484276, -0.0398227833211422, 0.07628605514764786, -0.08460040390491486, -0.055313702672719955, 0.046449337154626846, -0.011211244389414787, -0.02499687299132347, 0.09504608809947968, 0.09533462673425674, 0.009537408128380775, 0.015159307979047298, 0.04778870940208435, -0.002320102881640196, 0.07446300983428955, -0.03022778034210205, 0.11305829882621765, -0.08080340176820755, 0.021559609100222588, -0.0019137683557346463, -0.07419407367706299, -0.061109643429517746, -0.04617323726415634, 0.02041384018957615, -0.06355684250593185, 0.07434478402137756, -0.02169227786362171, 0.06863380968570709, 0.0570952333509922, -0.06209803372621536, 0.019498009234666824, 0.07651891559362411, -0.0513736829161644, -0.036785565316677094, 0.013598628342151642, -0.059184275567531586, 0.05606168136000633, 0.05235644057393074, -0.07097837328910828, 0.021724926307797432, 0.08903500437736511, -0.03073100559413433, -0.0051394132897257805, -0.07383668422698975, -0.08654110878705978, 0.057936325669288635, 0.053918443620204926, 0.009239932522177696, -0.01525944098830223, -0.09369099885225296, -0.049027279019355774, -0.043334491550922394, -0.07072548568248749, -0.03408655524253845, -0.06140565872192383, -0.08263134956359863, -0.028473947197198868, -0.0697973221540451, -0.017826547846198082, -0.021189607679843903, -0.08481072634458542, 0.004490704741328955, 0.012778420001268387, 0.057976264506578445, -0.007603642996400595, 0.05239976942539215, 0.010140541009604931, -0.023765988647937775, 0.07714566588401794, -0.05164993181824684, -0.011108593083918095, 0.03260630741715431, -0.021048959344625473, 0.002504579722881317, -0.020317621529102325, -0.07666575163602829, -0.029315859079360962, -0.09957335889339447, 0.0942481979727745], [0.08857601135969162, 0.01880272664129734, 0.09951906651258469, 0.004924667999148369, 0.023066455498337746, 0.08775428682565689, 0.03483141213655472, -0.08538040518760681, -0.03564280644059181, -0.07382046431303024, -0.07766243070363998, 0.027722004801034927, 0.048372719436883926, -0.09335105121135712, -0.06589473783969879, 0.02418476529419422, 0.03152836114168167, 0.060321979224681854, -0.06594239175319672, 0.0416594073176384, 0.029084879904985428, 0.08834058791399002, 0.05834456533193588, -0.08998116850852966, -0.06824203580617905, 0.008442560210824013, 0.0319889560341835, -0.018938325345516205, 0.057216182351112366, -0.07192619889974594, 0.005552347749471664, -0.019091900438070297, -0.01112380437552929, 0.05734524503350258, 0.03440267592668533, 0.07315488159656525, -0.1021031066775322, -0.07789888978004456, 0.07748766243457794, 0.08385554701089859, 0.02590080164372921, 0.005521433427929878, -0.008108125068247318, 0.05788331478834152, 0.0966845378279686, 0.031434979289770126, 0.04472589120268822, 0.043689876794815063, 0.0758291557431221, 0.015354404225945473, 0.07532992959022522, -0.028819238767027855, -0.03003901243209839, -0.00632665678858757, 0.05751890316605568, -0.05233518406748772, 0.04950730502605438, 0.0598284974694252, -0.10014010965824127, -0.1135185956954956, 0.07636870443820953, -0.03094835765659809, 0.0027234619483351707, -0.08160731196403503, 0.09980590641498566, 0.024999132379889488, 0.05940515547990799, 0.020524203777313232, 0.04511980339884758, 0.0642591267824173, -0.06341440230607986, -0.08447779715061188, 0.012043861672282219, -0.057131703943014145, -0.016203153878450394, -0.007677882444113493, -0.07826168090105057, 0.06733910739421844, -0.03862634673714638, 0.01904989220201969, -0.037623755633831024, -0.05050010606646538, -0.0650363340973854, 0.07049675285816193, -0.06103034317493439, -0.06627296656370163, 0.019170602783560753, 0.02793138287961483, 0.06198877841234207, -0.02131490223109722, 0.06213316693902016, 0.002880682470276952, 0.09118444472551346, 0.07624330371618271, -0.05652608349919319, 0.02677980437874794, 0.0325486958026886, -0.08856215327978134, -0.07557814568281174, -0.0416928306221962, -0.027681486681103706, 0.01003782358020544, 0.05306249484419823, -0.030993793159723282, 0.0012345282593742013, -0.013445351272821426, 0.05603271722793579, -0.05116332322359085, -0.021608585491776466, 0.024541137740015984, 0.0758424773812294, -0.003499011741951108, -0.05523953586816788, 0.05819966644048691, -0.08705506473779678, -0.0011306877713650465, 0.05013606324791908, -0.07219373434782028, -0.05512220039963722, 0.02789079211652279, 0.009520028717815876, -0.08628346771001816, -0.08529208600521088, -0.07344698905944824, 0.04416878521442413, -0.09972159564495087, -0.0834704264998436, -0.04851717874407768, -0.09421758353710175, 0.007254236377775669, 0.012466148473322392, -0.004449604079127312, -0.07586559653282166, 0.037836819887161255, 0.07280945777893066, 0.014652606099843979, 0.0371166355907917, -0.013595335185527802, 0.045465197414159775, 0.031141463667154312, 0.0629047304391861, -0.05955604836344719, 0.10721396654844284, 0.0462862066924572, -0.06290895491838455, -0.006534351035952568, -0.06102398410439491, -0.08196219801902771, -0.02905048429965973, -0.03815783932805061, -0.01371116004884243, -0.05377640202641487, -0.027740634977817535, -0.08616005629301071, -0.0013817970175296068, 0.06570428609848022, 0.007039716001600027, 0.013992292806506157, -0.043712373822927475, 0.09093731641769409, 0.0009725861018523574, 0.08488594740629196, 0.0351947546005249, -0.08361129462718964, 0.0844380185008049, -0.022211244329810143, -0.06104038655757904, 0.03970083221793175, -0.003055618144571781, -0.06785489618778229, -0.022385139018297195, -0.07458430528640747, -0.008983107283711433, 0.0025595941115170717, -0.09492715448141098, -0.04462413489818573, 0.014632116071879864, -0.009716996923089027, -0.06744333356618881, -0.019605249166488647, 0.10810014605522156, -0.04017248377203941, 0.0008344764937646687, -0.06231510266661644, 0.07074329257011414, -0.0326811708509922, 0.0872780978679657, -0.06783747673034668, 0.01457464974373579, -0.054576825350522995, 0.049767643213272095, -0.07180062681436539, 0.07412479817867279, -0.10809671133756638, 0.07095392793416977, -0.0778796374797821, -0.06929384171962738, -0.017014112323522568, 0.026394622400403023, -0.09510384500026703, 0.06006152555346489, -0.08693250268697739, 0.04568583518266678, -0.03898043930530548, -0.025309784337878227, 0.06818980723619461, -0.052415795624256134, 0.02945771813392639, 0.08212952315807343, -0.0727292150259018, -0.0068108015693724155, 0.10244615375995636, -0.06612704694271088, 0.008365829475224018, 0.09079744666814804, 0.020217202603816986, 0.011621864512562752, -0.11083357781171799, -0.0756257176399231, -0.0213270615786314, 0.08182889223098755, -0.08915197849273682, -0.0033806650899350643, 0.08611161261796951, -0.05929373577237129, -0.10164754837751389, -0.10305830836296082, 0.06667309999465942, 0.027885811403393745, 0.037479326128959656, 0.03250574693083763, 0.09447409212589264, -0.003927014768123627, -0.04647253826260567, 0.09820859879255295, -0.010751042515039444, 0.01681390032172203, 0.10693400353193283, 0.03255916386842728, -0.05857780948281288, 0.01078200526535511, -0.07534758746623993, -0.10793236643075943, 0.03732195124030113, -0.03342072293162346, -0.08589396625757217, -0.04945959895849228, 0.000951223773881793, -0.00010146138083655387, 0.09169245511293411, -0.07859107851982117, -0.09144829958677292, 0.08629491925239563, -0.03976334631443024, -0.0038250938523560762, -0.009902942925691605], [-0.08131971210241318, 0.033104557543992996, -0.05811670050024986, -0.018166393041610718, -0.025627750903367996, -0.020824898034334183, -0.08303077518939972, -0.03624521568417549, 0.09288794547319412, -0.011483503505587578, -0.037944138050079346, 0.10171229392290115, -0.05949963629245758, -0.038535330444574356, 0.10701843351125717, 0.0991225317120552, -0.08620678633451462, -0.09010746330022812, 0.004079878330230713, 0.01982717588543892, -0.08892609179019928, 0.06807679682970047, 0.038417212665081024, 0.06162978708744049, -0.0234807338565588, -0.07880449295043945, 0.06455247104167938, 0.03393740952014923, -0.04354022815823555, 0.0793912336230278, -0.06401040405035019, 0.08363661915063858, 0.0885973572731018, -0.0613614059984684, -0.06252327561378479, 0.006726171355694532, -0.06287429481744766, -0.01959746517241001, 0.061441220343112946, -0.020845364779233932, 0.09696243703365326, 0.009902662597596645, -0.0820993036031723, -0.031070947647094727, -0.045226726680994034, -0.01562841236591339, -0.028689632192254066, -0.05904087796807289, -0.04726381599903107, -0.029864639043807983, 0.05506296083331108, -0.06010371446609497, 0.05335200950503349, -0.02981308475136757, 0.011318977922201157, -0.07428877800703049, 0.028597157448530197, -0.08986290544271469, -0.02874426357448101, -0.08133501559495926, 0.05462106317281723, -0.07113583385944366, 0.067711241543293, 0.10838303714990616, -0.07991722226142883, -0.08416546136140823, -0.10478727519512177, 0.06673582643270493, -0.06044645980000496, 0.07208187878131866, 0.06307307630777359, -0.06206187233328819, -0.049415383487939835, -0.0199738722294569, -0.04327486827969551, 0.04419442266225815, 0.09460343420505524, 0.09585446119308472, -0.07576016336679459, -0.0036958891432732344, 0.022428156808018684, -0.04251296818256378, 0.03810384124517441, 0.0026441900990903378, 0.07606461644172668, 0.011013458482921124, -0.10681969672441483, 0.04660464823246002, -0.06614260375499725, 0.10378298163414001, 0.04699301719665527, 0.060803305357694626, 0.06551334261894226, -0.07368087768554688, -0.018683025613427162, -0.091222383081913, 0.08738061785697937, -0.07695865631103516, 0.011941981501877308, -0.011291100643575191, -0.005775881931185722, -0.0636741891503334, -0.016088951379060745, 0.07593915611505508, 0.040981218218803406, -0.041087422519922256, -0.0014304841170087457, 0.02662375010550022, -0.006991229951381683, -0.006774554960429668, -0.07158119976520538, -0.08192690461874008, -0.005109544377774, 0.0064168148674070835, 0.04929717630147934, -0.0018557518487796187, -0.024138182401657104, -0.015450905077159405, 0.038323432207107544, -0.03888819366693497, -0.06132960319519043, -0.0446866936981678, -0.11191530525684357, 0.09572231769561768, -0.07259375602006912, 0.11435580998659134, 0.07163295894861221, -0.04887479171156883, -0.03292514383792877, -0.020935768261551857, -0.04838784784078598, 0.05468660965561867, -0.020960357040166855, -0.08439777791500092, -0.055302996188402176, 0.057043131440877914, -4.5279477490112185e-05, -0.06336505711078644, -0.08241172879934311, 0.05129268765449524, -0.028378836810588837, -0.08874206990003586, -0.08127020299434662, -0.11138777434825897, 0.052650902420282364, 0.062402114272117615, 0.04027741402387619, 0.1048692986369133, -0.09066621959209442, -0.08027321100234985, 0.09141627699136734, -0.07243046909570694, -0.08519189059734344, 0.07792617380619049, -0.07833708077669144, 0.07749078422784805, -0.08044551312923431, -0.0851837545633316, 0.09021640568971634, -0.03876272216439247, 0.08926547318696976, 0.028702838346362114, 0.016261452808976173, -0.025884883478283882, -0.08776557445526123, -0.05644850432872772, 0.06250478327274323, -0.082769013941288, 0.04444747418165207, 0.011379494331777096, 0.0637197270989418, -0.03237617015838623, -0.08641625940799713, 0.05608956143260002, 0.04713277146220207, 0.06198110431432724, 0.03658873215317726, 0.06354467570781708, -0.09668116271495819, 0.05342700332403183, 0.02173815295100212, 0.05673639103770256, 0.09372945129871368, -0.01951839029788971, -0.027541158720850945, -0.10244476795196533, 0.09915811568498611, -0.0096798837184906, 0.06293962895870209, -0.035823408514261246, -0.077546127140522, 0.04242689535021782, -0.026983683928847313, -0.03730076178908348, -0.09674228727817535, 0.01775473728775978, 0.038866810500621796, 0.015320193953812122, 0.0077448394149541855, 0.0746726244688034, -0.08334517478942871, -0.01301621738821268, 0.035410620272159576, -0.009363846853375435, 0.09244275093078613, -0.0388321653008461, -0.029846295714378357, 0.10449902713298798, 0.030329998582601547, -0.04324807599186897, 0.0769207626581192, -0.01739780232310295, 0.044497422873973846, 0.027105094864964485, 0.009506241418421268, -0.017465785145759583, -0.021145084872841835, 0.06687217205762863, 0.06428506970405579, 0.01437928806990385, -0.07198279350996017, -0.03456725925207138, 0.0009889896027743816, 0.0884195938706398, 0.00993015430867672, -0.045490190386772156, -0.010845694690942764, 0.08434104919433594, -0.03539084270596504, -0.029887018725275993, -0.029849253594875336, -0.03390320762991905, 0.06265658140182495, 0.04381675273180008, -0.04977547377347946, 0.05703404173254967, -0.03284464031457901, -0.03508874028921127, -0.05495460703969002, -0.004669472109526396, 0.06091448664665222, -0.051181331276893616, 0.03455511853098869, 0.09276477247476578, -0.06047942489385605, 0.0014616603730246425, -0.09960217028856277, 0.015208967961370945, 0.07256019860506058, 0.028749575838446617, -0.09712386131286621, -0.02723218873143196, -0.010138644836843014, 0.06389269232749939, -0.03936314955353737, 0.03340187296271324], [0.04239877313375473, -0.04036717489361763, 0.07615196704864502, 0.06976437568664551, -0.06449360400438309, -0.01193908415734768, 0.01663062907755375, 0.07941407710313797, -0.050598904490470886, -0.09442861378192902, 0.05495379865169525, -0.06908943504095078, -0.040188029408454895, 0.11044445633888245, 0.026136063039302826, 0.034126829355955124, 0.019205432385206223, 0.03999531269073486, 0.06137894093990326, -0.05978240817785263, -0.05103781074285507, 0.0783805400133133, -0.08586839586496353, 0.010573668405413628, 0.048248205333948135, -0.035831108689308167, 0.005459308624267578, 0.006026976276189089, -0.08504218608140945, 0.02340766414999962, 0.06695419549942017, 0.028542395681142807, 0.024107495322823524, 0.005011160392314196, -0.07545387744903564, -0.09113249182701111, -0.006182356737554073, 0.07531598955392838, 0.035518694669008255, -0.004537587519735098, -0.03133998066186905, 0.004282611422240734, -0.08402963727712631, -0.03157057985663414, 0.07543439418077469, 0.049938518553972244, 0.022546052932739258, 0.025457177311182022, 0.09296257048845291, 0.08164196461439133, 0.02986975759267807, 0.0043703592382371426, -0.007965908385813236, -0.07168377190828323, 0.032056987285614014, 0.004946143366396427, 0.058605268597602844, -0.09272798150777817, 0.05940160155296326, -0.014553139917552471, -0.049447327852249146, -0.010351201519370079, -0.06267149746417999, -0.0036709182895720005, 0.08139025419950485, 0.007375529035925865, 0.060300007462501526, 0.052182637155056, -0.025070223957300186, 0.050791185349226, -0.039841849356889725, 0.008476837538182735, -0.012781630270183086, -0.0675281509757042, -0.09496006369590759, -0.10317115485668182, -0.04218209534883499, -0.10079420357942581, -0.031129490584135056, 0.039587173610925674, 0.03401033207774162, 0.0029802448116242886, -0.06318578124046326, -0.02813691273331642, 0.028024807572364807, -0.006838758941739798, 0.08229569345712662, 0.0598301962018013, 0.02906668558716774, -0.05095292255282402, 0.035804182291030884, -0.047105394303798676, 0.09911676496267319, -0.06783275306224823, -0.07155142724514008, -0.021045789122581482, 0.09200219810009003, -0.05004555732011795, -0.04442422837018967, -0.00780192855745554, 0.09122172743082047, -0.02762816846370697, 0.03366847708821297, 0.08192992955446243, -0.03369079902768135, -0.11488458514213562, 0.008563823997974396, -0.026750650256872177, -0.047754738479852676, 0.08252614736557007, 0.09900324046611786, -0.10166984051465988, -0.09006791561841965, -0.02288701944053173, -0.09416842460632324, 0.003183952998369932, -0.019256172701716423, -0.013999013230204582, 0.06431165337562561, -0.054562609642744064, 0.005819874815642834, -0.06452982127666473, 0.019044533371925354, -0.03466314449906349, 0.06434213370084763, 0.09673172235488892, -0.0002941272687166929, -0.08731026947498322, 0.01715141162276268, 0.034878939390182495, 0.0343690849840641, 0.003430521348491311, -0.08833606541156769, 0.05332411453127861, -0.04800218716263771, 0.08187101781368256, -0.10153523832559586, -0.09625428915023804, -0.07550472766160965, 0.08190242946147919, -0.05428001284599304, -0.07800126075744629, 0.05451948568224907, -0.08518163859844208, -0.05205129459500313, -0.06492714583873749, 0.06429088115692139, -0.068683922290802, 0.0791487917304039, 0.02054140903055668, -0.010706499218940735, 0.05400439351797104, 0.02617359347641468, 0.09332332015037537, -0.10578624159097672, -0.0624280646443367, -0.02923424541950226, -0.07268378138542175, 0.08029050379991531, 0.04486767202615738, 0.09271716326475143, -0.047985851764678955, 0.05029413104057312, 0.08052197098731995, -0.0048028468154370785, -0.038008175790309906, 0.09463144093751907, -0.06376983970403671, 0.04799479991197586, 0.024664416909217834, 0.03591468930244446, -0.06295117735862732, 0.02029845491051674, -0.11017217487096786, 0.03912509232759476, 0.030490629374980927, 0.09101443737745285, 0.08423977345228195, 0.04674134775996208, 0.0808878168463707, 0.019086092710494995, 0.011730680242180824, -0.06978125125169754, 0.008879167027771473, 0.05725696682929993, 0.0011485593859106302, 0.08424542099237442, -0.0238321665674448, 0.03711898624897003, -0.058811575174331665, 0.027553347870707512, -0.07211636006832123, -0.011302165687084198, 0.09942445158958435, 0.005028510931879282, -0.10803280770778656, 0.09208844602108002, 0.06071389839053154, -0.0016368853393942118, -0.0009899633005261421, -0.08025076240301132, 0.08862953633069992, 0.040329303592443466, 0.04682699218392372, -0.006501386407762766, 0.023845521733164787, 0.08907836675643921, 0.06119079142808914, 0.06927090138196945, 0.09701457619667053, -0.05026647448539734, 0.07111247628927231, -0.009304233826696873, -0.09691157191991806, -0.015324567444622517, -0.001734396442770958, -0.0936652347445488, -0.06306106597185135, 0.014631790108978748, 0.0684543028473854, -0.029130738228559494, 0.02796177566051483, 0.021312961354851723, -0.07456105947494507, -0.06825554370880127, -0.06279516220092773, -0.07589105516672134, -0.07145889848470688, 0.05827264487743378, 0.10570625215768814, 0.04543089494109154, 0.07123107463121414, -0.037084419280290604, 0.02024330012500286, -0.026507657021284103, 0.08319855481386185, -0.02933569811284542, -0.02968584932386875, 0.013750040903687477, -0.008477509021759033, -0.05275799334049225, -0.04263582453131676, 0.09217102080583572, 0.027085835114121437, 0.06456020474433899, -0.08201028406620026, -0.06076187640428543, -0.020942050963640213, 0.0835936889052391, -0.017075687646865845, 0.04541872814297676, 0.07446029037237167, -0.07394558936357498, 0.013562249019742012, 0.06094760447740555, 0.006982726510614157], [-0.05871182680130005, -0.08565425127744675, -0.08988965302705765, -0.021130405366420746, -0.05092868581414223, -0.05200774595141411, 0.063579261302948, -0.032705843448638916, -0.06269530206918716, 0.012578527443110943, 0.03387001156806946, 0.001669156365096569, 0.004285892006009817, -0.002596213947981596, -0.028797855600714684, 0.0854719802737236, 0.05023186653852463, -0.0871896967291832, 0.08499813079833984, 0.048075925558805466, -0.04911525920033455, -0.062229737639427185, -0.009143101051449776, 0.004907478578388691, 0.03945506736636162, -0.05937223881483078, -0.026053259149193764, 0.04626411199569702, 0.0139309698715806, -0.0038475729525089264, 0.07999198883771896, 0.017833977937698364, -0.03784419596195221, -0.021710220724344254, 0.06317119300365448, 0.03869149461388588, 0.0173554178327322, -0.059112560003995895, -0.05439118295907974, 0.020196355879306793, -0.03682843968272209, -0.030301207676529884, 0.09555904567241669, 0.014364603906869888, -0.0554184764623642, 0.03258959949016571, 0.07365857809782028, 0.050721678882837296, -0.041636087000370026, -0.05072462558746338, -0.10182343423366547, -0.0651085376739502, -0.038159288465976715, -0.08079274743795395, 0.00799597892910242, 0.02691587060689926, 0.06750808656215668, 0.03938781097531319, -0.10684647411108017, 0.0417521633207798, -0.009082837961614132, -0.007776511833071709, 0.08283983170986176, 0.06232040375471115, -0.09654795378446579, 0.07438775897026062, -0.10676442086696625, -0.0003836496907752007, -0.07499755918979645, 0.019585449248552322, -0.006651876028627157, 0.029582682996988297, 0.06108244135975838, -0.06774990260601044, 0.06862261891365051, -0.05998292937874794, 0.001691340352408588, -0.09444314241409302, 0.03589295968413353, 0.09003815054893494, 0.013489093631505966, 0.08516170084476471, 0.05653524398803711, -0.007764576002955437, -0.05816562473773956, 0.061404258012771606, 0.1033645048737526, -0.052791740745306015, -0.022005075588822365, -0.04039044305682182, 0.08336416631937027, 0.0358843058347702, -0.018708685413002968, 0.038606882095336914, -0.018367834389209747, -0.020794497802853584, -0.07827748358249664, -0.05632267892360687, -0.0012215240858495235, 0.09859728068113327, 0.03152977302670479, 0.005817494820803404, -0.01287186611443758, 0.02395131252706051, -0.06633596867322922, -0.00112096406519413, -0.0647953599691391, 0.09612242877483368, -0.06698864698410034, -0.022172128781676292, -0.025240421295166016, -0.06739119440317154, -0.0033006505109369755, 0.007671760395169258, -0.09410452842712402, -0.02226274088025093, -0.06361384689807892, -0.041876085102558136, 0.09095606952905655, -0.08535712212324142, 0.05479176715016365, -0.06948669254779816, -0.030804894864559174, -0.06438562273979187, 0.07757514715194702, 0.06078854575753212, -0.019438033923506737, -0.09094859659671783, 0.037290289998054504, -0.05349405109882355, 0.0505896620452404, 0.03973943740129471, 0.06746699661016464, -0.034458328038454056, -0.10219457745552063, 0.05087196081876755, 0.013759344816207886, 0.041366640478372574, 0.02212350443005562, -0.002372651593759656, -0.03479544818401337, -0.06440430134534836, 0.02036619931459427, 0.0890042632818222, -0.015435194596648216, -0.09170827269554138, -0.0050591533072292805, 0.08534513413906097, -0.03815674036741257, 0.015829555690288544, 0.013126980513334274, 0.020166447386145592, -0.0862303078174591, 0.08493294566869736, -0.059225425124168396, -0.07981518656015396, 0.05226493626832962, -0.019460374489426613, -0.09863314777612686, -0.032170891761779785, 0.01524918619543314, -0.061316344887018204, 0.047459688037633896, -0.07265599817037582, -0.06659307330846786, 0.027897585183382034, -0.09874485433101654, 0.06545595079660416, -0.041351571679115295, 0.07131844758987427, 0.04654596373438835, 0.07346998900175095, 0.0984068512916565, -0.02349742501974106, -0.08647008240222931, 0.03748675808310509, 0.07839908450841904, -0.00749795651063323, -0.030187508091330528, -0.04796876013278961, -0.06965475529432297, -0.051161523908376694, -0.050414517521858215, 0.08828568458557129, -0.02077479287981987, 0.08979504555463791, 0.07968837767839432, 0.07925636321306229, -0.006077317986637354, -0.07895613461732864, 0.09081520140171051, 0.0848233550786972, 0.10241477936506271, -0.06303706020116806, -0.020608915016055107, -0.03191087394952774, -0.07101292908191681, 0.07624173909425735, 0.03314969688653946, -0.04847259446978569, -0.04585276171565056, -0.011850603856146336, 0.08747901022434235, 0.011649860069155693, -0.08321843296289444, 0.04067215323448181, -0.04832879453897476, -0.07146042585372925, -0.03420310467481613, 0.03833698481321335, 0.011750036850571632, -0.01749316044151783, 0.011789961718022823, -0.0755302906036377, -0.040127918124198914, -0.11031309515237808, 0.00021817679225932807, -0.04514536261558533, -0.04467296972870827, -0.06431712955236435, 0.043515343219041824, -0.04530481621623039, 0.0030951627995818853, 0.025377804413437843, 0.07413721829652786, 0.028829975053668022, -0.01870102249085903, 0.05121135339140892, 0.05726373568177223, 0.03953589126467705, -0.010461301542818546, 0.034937161952257156, -0.08212260156869888, 0.007249524816870689, 0.045858390629291534, -0.09279707074165344, -0.09039177000522614, 0.016628222540020943, -0.04327089339494705, 0.048598892986774445, -0.05829448625445366, 0.0820242241024971, -1.784859341569245e-05, 0.059762146323919296, 0.09719464927911758, -0.008444414474070072, -0.002598090562969446, 0.027724698185920715, 0.005161419976502657, -0.04408121481537819, -0.03609997406601906, -0.026665354147553444, -0.005195878446102142, 0.008536134846508503, -0.0013667622115463018, 0.03082730993628502], [0.05673537030816078, 0.06761915981769562, 0.0011257851729169488, 0.07640156149864197, -0.09709033370018005, -0.08235840499401093, 0.07863683998584747, 0.01977219060063362, 0.06396718323230743, 0.08383631706237793, 0.0974745899438858, -0.020641127601265907, 0.04989657923579216, 0.0022496783640235662, -0.0056273494847118855, 0.10332126170396805, -0.04818349704146385, 0.07603545486927032, 0.013955446891486645, -0.08384731411933899, 0.08374371379613876, 0.03881066292524338, -0.07613937556743622, -0.09975818544626236, 0.03230191767215729, -0.04688628017902374, 0.04913324862718582, -0.015684157609939575, -0.009719530120491982, 0.0901111364364624, 0.05488745495676994, 0.08710350096225739, 0.0101332301273942, -0.005485381931066513, 0.08532757312059402, 0.014457151293754578, 0.08577045053243637, 0.07210009545087814, -0.008829688653349876, 0.05580573156476021, 0.02123192511498928, 0.03753344342112541, -0.0020099047105759382, 0.09329520165920258, -0.02774958685040474, 0.026617852970957756, -0.028089428320527077, -0.041720665991306305, -0.0359402634203434, 0.011792992241680622, -0.021832920610904694, -0.022723469883203506, -0.08631400018930435, -0.05435492843389511, -0.09207531064748764, 0.02006404474377632, 0.05906681343913078, -0.03647021949291229, -0.05426888167858124, -0.08985632658004761, 0.018187960609793663, -0.024342965334653854, -0.10363196581602097, -0.09186038374900818, -0.03608899563550949, 0.001041199779137969, 0.05629096180200577, 0.033087585121393204, 0.01411816943436861, -0.0019463923526927829, -0.05858093500137329, 0.10524584352970123, -0.019895145669579506, -0.06191486865282059, -0.04221360385417938, -0.015458935871720314, 0.005700158886611462, -0.05735732242465019, -0.03307763487100601, -0.0032228652853518724, 0.030679237097501755, -0.06877876818180084, 0.05258544534444809, -0.08868235349655151, -0.0829431414604187, 0.05067913606762886, 0.03696887195110321, 0.04191695898771286, 0.0028662472032010555, -0.00015767922741360962, 0.1007005050778389, -0.06302528083324432, -0.04399004951119423, 0.007398138754069805, 0.03785182163119316, 0.0526636466383934, -0.032904814928770065, -0.055522531270980835, 0.023329563438892365, 0.009283795021474361, -0.005136254243552685, -0.05021047219634056, -0.09608787298202515, 0.090371273458004, 0.04750842601060867, 0.06744363158941269, -0.08794809877872467, -0.07073590159416199, -0.004717132076621056, 0.03768021613359451, -0.0028046134393662214, -0.016833825036883354, 0.03798241168260574, -0.0763397067785263, 0.027216173708438873, 0.07884790748357773, 0.06552198529243469, 0.00791796576231718, 0.06789186596870422, -0.0437089204788208, -0.07504390925168991, -0.0927223339676857, -0.0069118645042181015, -0.06563091278076172, 0.030959634110331535, 0.0699942484498024, 0.00035109996679238975, 0.006217987742275, 0.07560490816831589, -0.0016622402472421527, 0.04415542259812355, 0.03366163745522499, 0.07291770726442337, -0.06766413897275925, -0.054809924215078354, -0.09816021472215652, -0.0029727399814873934, -0.08951837569475174, 0.010187177918851376, -0.05990885570645332, 0.09403441101312637, 0.07681867480278015, 0.06387054175138474, -0.05409766361117363, -0.01086618471890688, -0.06286494433879852, 0.08453840762376785, 0.042553070932626724, 0.08992472290992737, 0.04025506600737572, -0.04377874732017517, 0.03138146176934242, 0.09042266011238098, -0.03202182427048683, -0.08822696655988693, 0.003150338539853692, 0.08474179357290268, 0.03122030198574066, -0.03929733857512474, -0.04321330413222313, -0.025135835632681847, 0.05442378297448158, -0.06916511803865433, -0.051843028515577316, -0.0029610476922243834, -0.06403468549251556, -0.09630157053470612, 0.055606942623853683, -0.03587600216269493, 0.04907187446951866, -0.07303082197904587, 0.05969763547182083, -0.038285236805677414, -0.021691415458917618, -0.06210391968488693, 0.009647218510508537, 0.032012876123189926, -0.07554612308740616, 0.054608263075351715, -0.0007324954494833946, -0.10555392503738403, -0.06668911874294281, 0.022595373913645744, -0.07778868824243546, -0.04068547859787941, 0.01628987304866314, 0.041554730385541916, -0.06827672570943832, 0.08012247830629349, -0.05276167020201683, 0.06455663591623306, 0.07185536623001099, 0.03137075528502464, 0.043411917984485626, 0.07116729766130447, -0.0063926042057573795, 0.06334517896175385, 0.09519031643867493, 0.0171749759465456, -0.03807970881462097, -0.06858958303928375, 0.05666171759366989, 0.057641804218292236, -0.025819333270192146, 0.004381637088954449, 0.01564723066985607, 0.06434259563684464, 0.04473821818828583, 0.0856630727648735, -0.04967853054404259, -0.04795428737998009, 0.005810928996652365, 0.022419851273298264, -0.01643931120634079, -0.018818167969584465, 0.08251341432332993, -0.07285714894533157, -0.051232531666755676, -0.045913368463516235, 0.08824450522661209, 0.0890265479683876, -0.10092098265886307, 0.003251266898587346, 0.0681474357843399, 0.07516985386610031, -0.0008144508465193212, 0.10091372579336166, 0.09252627193927765, -0.07525516301393509, 0.02494147978723049, 0.07921416312456131, -0.041724659502506256, -0.030809566378593445, -0.0455969013273716, 0.08382739871740341, -0.03496323153376579, -0.041924070566892624, -0.04583140090107918, 0.08445606380701065, -0.06166059151291847, -0.04462369158864021, -0.05911598727107048, -0.06372798979282379, -0.09117138385772705, -0.056099217385053635, 0.07948525249958038, -0.02862551622092724, 0.03543098270893097, -0.04700228199362755, 0.056098900735378265, -0.03238667547702789, -0.0013092223089188337, 0.08016499131917953, -0.05934460461139679, 0.08920638263225555, -0.027676118537783623], [-0.09287310391664505, 0.006081863772124052, -0.03996631130576134, 0.06623200327157974, -0.023705333471298218, 0.05317864194512367, -0.10146669298410416, 0.06565562635660172, 0.041876863688230515, 0.04632215574383736, 0.02747304178774357, -0.09565654397010803, -0.06837974488735199, -0.05930574610829353, 0.0560586117208004, -0.05215052515268326, 0.06037774682044983, 0.10132443159818649, 0.037335798144340515, 0.06750011444091797, -0.04461539909243584, 0.06555600464344025, -0.010593749582767487, -0.026918672025203705, -0.06704059988260269, 0.01627831533551216, 0.030037205666303635, -0.03453799709677696, -0.07225541025400162, 0.006828971207141876, 0.08329907059669495, -0.09437442570924759, 0.10354110598564148, -0.05786076560616493, -0.06819924712181091, -0.06502953916788101, -0.07012026011943817, -0.051361024379730225, 0.05158219113945961, -0.0015264255926012993, 0.0015843037981539965, 0.06272469460964203, -0.10044810175895691, -0.07513199746608734, 0.08122596144676208, 0.07563353329896927, 0.08499094098806381, 0.06208382174372673, -0.07208427786827087, 0.06861589103937149, -0.02587728761136532, 0.036174092441797256, 0.062491122633218765, 0.0547075979411602, -0.04059309512376785, -0.08710280060768127, 0.03521774709224701, 0.09263458102941513, 0.027584580704569817, -0.06641627103090286, 0.0750569999217987, 0.1070353165268898, 0.08104704320430756, 0.006909048184752464, -0.07389195263385773, -0.03773561865091324, 0.04546777904033661, -0.0255866851657629, 0.04309997707605362, -0.07039577513933182, 0.0849141851067543, -0.0867767482995987, -0.08615473657846451, 0.0036556627601385117, -0.08998130261898041, -0.07915885001420975, 0.047812484204769135, 0.010521505028009415, 0.019184919074177742, 0.05886325612664223, 0.040138039737939835, -0.004016507416963577, -0.048252228647470474, 0.035318952053785324, 0.00040457677096128464, 0.05060647800564766, -0.04379861429333687, 0.01971868798136711, 0.02837396413087845, 0.07361064851284027, -0.0268150195479393, 0.01637718826532364, -0.05394282191991806, 0.09899742901325226, 0.02037915401160717, 0.05373293161392212, -0.0791376456618309, -0.03188813477754593, -0.07534945011138916, -0.07989978790283203, 0.034509286284446716, -0.01946292817592621, 0.0017673035617917776, -0.0524386391043663, 0.029079779982566833, 0.0779709592461586, -0.09859732538461685, 0.00032040930818766356, -0.08732648193836212, -0.025410691276192665, 0.010555856861174107, -0.031095314770936966, -0.08079212158918381, 0.08854338526725769, 0.04768740013241768, 0.05635172873735428, -0.02884439192712307, -0.047471221536397934, -0.0695306807756424, 0.02091747336089611, 0.06103569641709328, -0.09340555965900421, 0.09422009438276291, 0.02268785983324051, -0.0041012149304151535, 0.06995031237602234, -0.01863500103354454, 0.07379607856273651, 0.07584909349679947, 0.021672606468200684, -0.03617937117815018, -0.0018764038104563951, -0.063688725233078, -0.08792003244161606, -0.014518903568387032, 0.03611980378627777, 0.06179646775126457, -0.00946829654276371, -0.02312888763844967, -8.029301534406841e-05, -0.03807270899415016, -0.024044962599873543, 0.014376225881278515, -0.08109287917613983, 0.07420250028371811, 0.05005636066198349, 0.06467936933040619, -0.02393127791583538, 0.08777455985546112, -0.026610935106873512, 0.045550454407930374, 0.013230832293629646, -0.019059913232922554, -0.021325765177607536, 0.06304144859313965, 0.04649781435728073, 0.060130584985017776, 0.08402347564697266, -0.08817772567272186, -0.022539107128977776, 0.07087724655866623, 0.07053996622562408, -0.10182055830955505, -0.0714077278971672, 0.09474395960569382, -0.028011709451675415, 0.07345405966043472, -0.05782673880457878, -0.033898815512657166, 0.03321179375052452, 0.03790432587265968, -0.07988186180591583, 0.03253955394029617, -0.1007203683257103, 0.040777262300252914, 0.06127752363681793, 0.04862126335501671, 0.010116087272763252, -0.03530414402484894, 0.018265342339873314, -0.0005857966607436538, -0.001434951089322567, 0.021849311888217926, -0.10009726881980896, 0.08833203464746475, 0.08114183694124222, -0.004880162887275219, 0.05073252692818642, 0.03521186485886574, 0.03554286062717438, 0.091119684278965, 0.09676771610975266, 0.026594478636980057, 0.0011437758803367615, 0.006621022708714008, 0.05407009646296501, 0.011801812797784805, -0.06234975531697273, 0.01701616868376732, 0.06639005988836288, 0.02638966776430607, -0.07375337183475494, -0.0902341827750206, 0.04961816221475601, 0.06202042102813721, -0.009088566526770592, -0.04372439906001091, -0.029376672580838203, -0.03892158716917038, 0.034377798438072205, 0.009152306243777275, -0.04876880720257759, 0.05348191782832146, 0.057154711335897446, -0.04966939985752106, 0.026792801916599274, 0.03854275867342949, -0.07148642092943192, 0.01980285719037056, -0.10020603239536285, 0.0742865800857544, -0.046251993626356125, 0.07544833421707153, 0.03456772863864899, -0.003382367780432105, 0.03755835071206093, -0.07545486837625504, 0.061017394065856934, -0.034672435373067856, -0.026033490896224976, 0.03860372304916382, 0.0709916427731514, -0.004643106367439032, 0.05318891257047653, 0.09411736577749252, 0.09841100126504898, -0.060616735368967056, -0.034876368939876556, -0.04162506386637688, -0.06386173516511917, 0.0027195329312235117, -0.07014420628547668, -0.009084559045732021, 0.014242376200854778, 0.04571130499243736, -0.05276956036686897, -0.053522683680057526, -0.04062016308307648, -0.04850376397371292, 0.08388599753379822, 0.036168888211250305, -0.07927773147821426, -0.014898081310093403, 0.09346652776002884, 0.05244602635502815, -0.012956462800502777], [0.08113538473844528, 0.007428085897117853, 0.08524888008832932, 0.01148391142487526, 0.052519384771585464, -0.07567256689071655, -0.058907754719257355, 0.07084009051322937, 0.06895435601472855, -0.06649992614984512, -0.06993771344423294, -0.07493554055690765, -0.05731067806482315, 0.03041856922209263, 0.017268965020775795, 0.026818515732884407, -0.07077577710151672, 0.08343823254108429, -0.01122589223086834, -0.09421406686306, -0.0352591946721077, 0.01311237458139658, -0.06246734410524368, 0.019443504512310028, 0.027528200298547745, -0.045682571828365326, -0.10030709207057953, -0.03732149675488472, -0.0936720073223114, 0.0983944833278656, -0.08007179200649261, -0.06278752535581589, 0.09241537749767303, -0.059456974267959595, -0.058000098913908005, 0.034406546503305435, -0.06352793425321579, -0.016410544514656067, -0.08332929015159607, -0.03805181756615639, -0.05240686610341072, -0.0855310931801796, -0.010393120348453522, 0.03537934273481369, -0.07816999405622482, 0.01174827478826046, 0.08681260049343109, 0.01668323390185833, -0.06813983619213104, 0.04885789379477501, -0.07342004776000977, 0.003514155512675643, -0.10608688741922379, -0.09632886946201324, 0.014040074311196804, -0.08737911283969879, 0.009845706634223461, -0.0785013884305954, -0.036552947014570236, -0.03703099861741066, -0.03351500630378723, -0.048988472670316696, -0.08451968431472778, -0.05506760627031326, -0.019165625795722008, -0.09160950034856796, 0.061830610036849976, 0.055799294263124466, -0.04281632974743843, 0.00721163023263216, -0.037406884133815765, 0.08730149269104004, 0.08948784321546555, -0.021569162607192993, -0.04199044406414032, -0.005673629231750965, 0.06622224301099777, 0.08226633071899414, -0.013812422752380371, -0.05627838522195816, -0.041075434535741806, 0.05027011036872864, -0.08804982155561447, -0.0630752295255661, 0.02600700780749321, 0.037198372185230255, 0.05011192709207535, -0.0948888435959816, 0.0921110063791275, 0.0056357309222221375, -0.04369840398430824, -0.06720970571041107, 0.10259510576725006, 0.05624163895845413, 0.00562862167134881, -0.09902584552764893, -0.06190630793571472, -0.0772598385810852, 0.021769674494862556, -0.09547413885593414, -0.045476771891117096, -0.06305409222841263, 0.010958843864500523, -0.08165182918310165, 0.056502122431993484, -0.05236993357539177, -0.06966406852006912, -0.045205507427453995, 0.03652666509151459, -0.059428609907627106, 0.05992662534117699, 0.04786981642246246, 0.0884326845407486, -0.10458524525165558, 0.0024064297322183847, 0.04986373707652092, -0.08310013264417648, 0.046891406178474426, -0.0985812172293663, 0.004087788984179497, 0.0900571271777153, -0.083259716629982, -0.03562065213918686, 0.02016783505678177, -0.06466684490442276, -0.05976998060941696, 0.055087197571992874, 0.0058612339198589325, -0.019538430497050285, -0.05141783878207207, -0.08372309058904648, 0.05550561845302582, 0.07735052704811096, -0.008157082833349705, -0.09013991057872772, 0.005984832067042589, -0.06981747597455978, 0.044893257319927216, -0.0538177452981472, 0.08048103004693985, 0.021914128214120865, -0.03851350396871567, 0.01994086056947708, 0.04107220470905304, -0.03031286410987377, 0.052326999604701996, 0.04366527497768402, 0.09195800870656967, -0.04005354270339012, -0.001985499169677496, -0.017165498808026314, -0.03902072086930275, -0.08242600411176682, -0.04689958319067955, 0.06286108493804932, -0.04057854413986206, -0.007839229889214039, 0.03219131752848625, 0.09106231480836868, -0.008304650895297527, 0.031381428241729736, -0.0902259573340416, -0.012592126615345478, 0.0497240275144577, -0.09028324484825134, 0.029808295890688896, 0.08742200583219528, -0.014473402872681618, -0.02069099061191082, -0.00990382581949234, -0.10018439590930939, -0.04251841828227043, 0.03771299868822098, -0.07497398555278778, 0.1003061980009079, -0.07033272087574005, 0.04360443726181984, -0.00931464321911335, 0.005675635300576687, 0.10348120331764221, 0.015305843204259872, 0.01112616527825594, -0.00693323090672493, 0.019351128488779068, 0.084210105240345, -0.010139190591871738, 0.06147961691021919, -0.0736522227525711, -0.038254398852586746, 0.018748845905065536, -0.005796459503471851, -0.06652756780385971, -0.07083508372306824, 0.09536807984113693, 0.021835550665855408, -0.027478933334350586, -0.03217164799571037, -0.0942874401807785, -0.03863225504755974, 0.06218339875340462, -0.014969131909310818, 0.067446269094944, 0.0396498367190361, -0.09660791605710983, -0.10399314761161804, -0.02105386182665825, -0.03045700490474701, -0.08613871037960052, -0.03008418157696724, 0.05973343178629875, -0.03128783777356148, -0.039642564952373505, -0.025435030460357666, -0.05712289363145828, -0.018118979409337044, -0.04896828159689903, 0.028137871995568275, -0.10836160182952881, 0.005807659588754177, 0.09016863256692886, -0.039195891469717026, 0.034834329038858414, -0.04581378027796745, 0.06698977202177048, -0.02430526353418827, 0.05423852428793907, -0.05845760181546211, 0.06975411623716354, 0.06050089746713638, -0.08748983591794968, 0.09406548738479614, 0.07356113940477371, 0.045341189950704575, -0.031582873314619064, -0.09319137781858444, -0.08230451494455338, 0.09190889447927475, 0.009459711611270905, 0.048645030707120895, -0.0764644593000412, 0.09884970635175705, 0.02095824107527733, -0.06979036331176758, 0.07862607389688492, 0.08310534060001373, 0.07490170001983643, -0.029134094715118408, -0.09430015832185745, -0.025836892426013947, -0.013688727281987667, -0.10174671560525894, 0.023661425337195396, -0.018624162301421165, -0.07340988516807556, -0.0021582208573818207, -0.0038076748605817556], [0.04923040419816971, 0.005573640577495098, -0.00040832770173437893, -0.03188455104827881, 0.017779892310500145, 0.03457994759082794, -0.09146702289581299, 0.04865262657403946, 0.09575695544481277, 0.004433781374245882, -0.02829033136367798, -0.0734763890504837, 0.0331326425075531, 0.07893531769514084, 0.010866922326385975, 0.01062968373298645, -0.05732754245400429, 0.08506985753774643, 0.03235423192381859, 0.028742602095007896, -0.05745217576622963, -0.02547902800142765, -0.039461489766836166, -0.07317034155130386, 0.03831114247441292, 0.021531445905566216, 0.028234802186489105, -0.03405994921922684, 0.006444374565035105, -0.031139569357037544, -0.09322657436132431, -0.006130354478955269, -0.0338565930724144, 0.040047090500593185, 0.06412245333194733, -0.05383957549929619, 0.026406532153487206, 0.03938338905572891, -0.020946655422449112, 0.028526989743113518, 0.04361462965607643, -0.0408451221883297, -0.04274368658661842, -0.0789778083562851, 0.002849187469109893, 0.07746053487062454, -0.026356151327490807, -0.04459734633564949, 0.08988629281520844, -0.01877390593290329, -0.04048653692007065, -0.07364678382873535, -0.016846880316734314, -0.11409332603216171, -0.010808655060827732, -0.06163724511861801, 0.08297041058540344, -0.08410537242889404, 0.10547950118780136, 0.008836263790726662, 0.040769778192043304, 0.10193054378032684, 0.013448845595121384, -0.03150111809372902, 0.08257174491882324, 0.012537655420601368, -0.030486172065138817, 0.015573726035654545, -0.057319868355989456, 0.03364596143364906, 0.03357699140906334, 0.07731927186250687, 0.09126878529787064, -0.06223598122596741, 0.06461560726165771, -0.002893723314628005, 0.0004395271826069802, 0.030372636392712593, 0.05952043458819389, -0.075108602643013, -0.015366991050541401, -0.0636722519993782, -0.09866493195295334, -0.052717193961143494, -0.06455197930335999, 0.07657390087842941, -0.06055228039622307, -0.09412933140993118, -0.08821504563093185, -0.05542575940489769, 0.05494080111384392, 0.031592145562171936, 0.006238356698304415, 0.0371212400496006, -0.016058634966611862, -0.010634475387632847, -0.07556324452161789, 0.005771373398602009, 0.012675544247031212, -0.04514439031481743, -0.03640485182404518, 0.039297282695770264, -0.0858229249715805, -0.06361623853445053, 0.03341975063085556, -0.08024611324071884, 0.0713733658194542, -0.07978522777557373, -0.019304880872368813, 0.08332223445177078, 0.02375449612736702, 0.01838092878460884, -0.02128310687839985, -0.05097751319408417, 0.01842896081507206, -0.09483815729618073, 0.03451598435640335, -0.10144194215536118, -0.019101371988654137, 0.0727396011352539, -0.0005604982725344598, 0.05098098888993263, 0.023369556292891502, -0.02203480154275894, 0.049795057624578476, -0.024668114259839058, 0.07847926020622253, -0.032376669347286224, -0.03749701753258705, -0.017541782930493355, 0.0904802605509758, -0.05290789529681206, 0.0008159076096490026, 0.026709064841270447, -0.003947143908590078, -0.06521777808666229, -0.022252468392252922, -0.05767691880464554, -0.08755920827388763, -0.0004970922600477934, -0.03568524494767189, 0.07951276749372482, -0.010916448198258877, 0.055264007300138474, -0.07312717288732529, 0.09855074435472488, 0.019478479400277138, 0.028449492529034615, -0.018228475004434586, 0.0018923083553090692, 0.06410624831914902, -0.035510703921318054, 0.07306685298681259, 0.04689799249172211, -0.053828608244657516, 0.09142445772886276, -0.06420551240444183, 0.08627121150493622, 0.07957527786493301, 0.0021874592639505863, -0.023788318037986755, -0.09033181518316269, 0.02348850853741169, 0.03863450884819031, -0.08213137090206146, 0.03402546048164368, 0.09205586463212967, 0.0091175502166152, 0.06394217163324356, -0.05761418119072914, -0.059997137635946274, -0.08033188432455063, -0.051329486072063446, -0.014767415821552277, 0.0387718603014946, -0.06880371272563934, 0.04902420938014984, 0.08030635863542557, -0.03485928848385811, 0.06993313878774643, -0.009143476374447346, 0.017568735405802727, 0.028471101075410843, -0.062455013394355774, -0.006634066812694073, 0.006248759105801582, -0.07953480631113052, -0.07927650213241577, 0.01165036205202341, -0.01990325376391411, 0.08436603844165802, 0.0974082499742508, 0.05875631049275398, -0.005847347434610128, 0.08988840878009796, 0.09515666961669922, -0.06828997284173965, -0.06800966709852219, -0.07970377057790756, -0.013859609141945839, 0.10122953355312347, -0.005864300765097141, 0.07864272594451904, -0.05045568197965622, 0.025073595345020294, -0.10332739353179932, 0.008406395092606544, -0.043642569333314896, -0.08536365628242493, 0.059742748737335205, -0.03584303706884384, -0.06964348256587982, 0.02586096152663231, -0.004610119387507439, -0.08842197060585022, 0.04283904656767845, -0.028431635349988937, -0.09123829752206802, -0.022467877715826035, -0.07273047417402267, -0.07753322273492813, 0.04335559904575348, 0.020198917016386986, -0.06659885495901108, 0.03235854580998421, -0.047609925270080566, -0.008850899524986744, -0.0872218906879425, -0.0601356066763401, -0.00645760353654623, -0.05448424443602562, 0.07384978234767914, -0.04200645536184311, -0.046351004391908646, -0.04856148734688759, -0.04047038406133652, -0.02007920667529106, 0.04530474171042442, 0.019528988748788834, 0.07274691760540009, 0.09777078032493591, -0.07385938614606857, -0.05060162395238876, -0.043241750448942184, 0.0431327149271965, 0.04167452082037926, -0.07257534563541412, 0.047799136489629745, 0.02774139866232872, -0.06601957976818085, 0.07086187601089478, 0.057038813829422, 0.027342334389686584, -0.054339971393346786, -0.06396882981061935, 0.01438363641500473], [0.11079564690589905, -0.06560105830430984, -0.08228348940610886, -0.04017594829201698, 0.03739446401596069, -0.0033476606477051973, -0.01030739862471819, -0.08009092509746552, 0.014911348931491375, 0.06038481369614601, -0.0010358694707974792, -0.014710896648466587, -0.04631993919610977, 0.0059742676094174385, 0.07685423642396927, 0.059272002428770065, -0.09334096312522888, -0.022467676550149918, -0.0719190463423729, -0.011716865003108978, -0.07641570270061493, -0.011698286049067974, 0.08208005875349045, -0.08668611943721771, -0.04095850884914398, -0.03293092921376228, 0.06743768602609634, -0.0008885409915819764, -0.07433357834815979, -0.07087428122758865, -0.019581248983740807, -0.04887518286705017, -0.08420058339834213, 0.007122743874788284, -0.06071804091334343, 0.04452008008956909, 0.09614083170890808, -0.023925552144646645, -0.022193096578121185, -0.05894100293517113, -0.018088731914758682, -0.07907475531101227, 0.046711791306734085, -0.043893199414014816, 0.022232770919799805, 0.10368466377258301, -0.057336825877428055, 0.009428882971405983, -0.101837158203125, -0.0009221269865520298, 0.029763570055365562, 0.07563591748476028, -0.054294176399707794, 0.009106682613492012, 0.09687040001153946, -0.1024617850780487, 0.09378570318222046, -0.08078531920909882, 0.08836032450199127, 0.033831290900707245, -0.06054731085896492, -0.011437823064625263, -0.016386600211262703, 0.05917619168758392, 0.0453263521194458, 0.07319912314414978, -0.08612635731697083, 0.006171330343931913, 0.08447860926389694, -0.032651547342538834, -0.07225780934095383, 0.008554009720683098, -0.012775995768606663, 0.03584068641066551, -0.006042785476893187, -0.0595637746155262, -0.008374609984457493, 0.08879600465297699, -0.09295475482940674, -0.046712860465049744, 0.005345446057617664, 0.024441715329885483, 0.026293816044926643, -0.035097815096378326, 0.03168311342597008, 0.07408247143030167, 0.06630107015371323, 0.03303387761116028, 0.004656861536204815, -0.0803622230887413, -0.014354546554386616, -0.04867831617593765, -0.017980404198169708, -0.06570557504892349, -0.07015497237443924, 0.07745292782783508, 0.056460484862327576, -0.04313721880316734, -0.07498273998498917, -0.014950023964047432, -0.04232752323150635, -0.059462133795022964, -0.005682303104549646, -0.05655664950609207, 0.10001138597726822, 0.025585142895579338, -0.01496436819434166, -0.01446886733174324, -0.08237852901220322, -0.05220130458474159, 0.052650101482868195, 0.056445859372615814, 0.07580192387104034, -0.018234454095363617, -0.04093115031719208, -0.046471841633319855, -0.0301979947835207, -0.025942854583263397, 0.05320265144109726, 0.08179235458374023, 0.0016849226085469127, 0.04874835163354874, 0.07041312754154205, -0.06041282042860985, 0.08894581347703934, -0.07581327110528946, -0.02163909748196602, 0.005902423523366451, -0.025627708062529564, -0.007605039514601231, 0.06089160591363907, 0.08369938284158707, 0.04443693533539772, 0.054142970591783524, -0.036110855638980865, -0.024457134306430817, 0.034359581768512726, -0.10084611177444458, -0.08745438605546951, 0.015770303085446358, -0.043502938002347946, -0.08145373314619064, -0.004299193155020475, -0.006627307739108801, -0.08601748943328857, -0.09338724613189697, -0.053043726831674576, 0.06570492684841156, -0.040650490671396255, 0.09255420416593552, 0.08295248448848724, -0.03018699586391449, 0.04683125391602516, -0.09949081391096115, 0.07696438580751419, -0.006843926850706339, 0.005820516962558031, 0.06932584196329117, 0.04397469758987427, -0.05351727083325386, -0.022587167099118233, -0.08050043880939484, -0.023188281804323196, 0.09124545753002167, 0.09024788439273834, -0.0551816001534462, -0.04453275352716446, 0.06925646960735321, -0.06710037589073181, 0.06557156890630722, -0.01983620971441269, 0.0737139880657196, -0.09407386183738708, 0.04177728295326233, -0.014057949185371399, -0.06114264950156212, -0.01893593743443489, 0.08499869704246521, -0.009410662576556206, 0.047120824456214905, 0.057493627071380615, -0.08721538633108139, -0.03917141258716583, -0.032590851187705994, -0.05702473595738411, -0.008521330542862415, 0.05574313551187515, 0.06725573539733887, -0.09541010111570358, -0.015355337411165237, 0.09245266020298004, -0.022921117022633553, 0.07075461000204086, -0.058856382966041565, 0.08991432934999466, 0.05682814493775368, -0.0024005104787647724, 0.06308260560035706, 0.04439773038029671, -0.0019976883195340633, 0.0951693207025528, -0.009961108677089214, -0.09171445667743683, 0.0017250473611056805, -0.07783986628055573, -0.04479597508907318, -0.07474841177463531, 0.10326778143644333, -0.07473234832286835, -0.002015087055042386, 0.08430343866348267, 0.06574533134698868, 0.09072715789079666, 0.059538163244724274, -0.015360607765614986, 0.07825057953596115, 0.0592692531645298, -0.01220609899610281, -0.005274167284369469, -0.01786886155605316, 0.06316429376602173, -0.032543834298849106, -0.044662393629550934, -0.022217435762286186, 0.07166706770658493, 0.026047641411423683, -0.05579740181565285, -0.05863899737596512, 0.06575969606637955, 0.08855459839105606, -0.03136396408081055, -0.0775049701333046, -1.2044940376654267e-05, 0.042315758764743805, -0.0849560797214508, 0.059222571551799774, 0.03184541314840317, 0.08268439024686813, 0.046248406171798706, 0.04971778392791748, -0.024654006585478783, -0.025229107588529587, 0.07278797030448914, -0.06935484707355499, 0.06917334347963333, 0.04821963235735893, 0.049935027956962585, 0.034655630588531494, 0.04340008646249771, -0.06085355207324028, -0.012502584606409073, 0.019292593002319336, -0.02016300894320011, 0.007593859918415546, -0.024860084056854248, -0.044263020157814026], [-0.09672436863183975, 0.05608592927455902, -0.05216369405388832, 0.010983062908053398, 0.03939870372414589, 0.021039552986621857, -0.06297013908624649, -0.05673074722290039, 0.09053147584199905, -0.03033043071627617, -0.08374753594398499, 0.06511098146438599, -0.020066222175955772, -0.08709075301885605, -0.006130948197096586, 0.08241821080446243, 0.012859235517680645, -0.09140968322753906, 0.0001178095699287951, -0.10029235482215881, -0.06277640163898468, -0.08588465303182602, 0.07087544351816177, 0.11395195126533508, 0.052545782178640366, -0.03916081786155701, -0.04843534156680107, -0.0811368003487587, -0.013078426942229271, -0.08461558818817139, 0.07097059488296509, 0.03881487995386124, -0.07588096708059311, -0.06919974088668823, -0.04766792058944702, -0.05939546599984169, -0.015329197980463505, -0.07696349173784256, 0.09301096946001053, 0.08517663180828094, -2.5570534489816055e-06, -0.04451510310173035, 0.08787066489458084, -0.012701354920864105, -0.028027083724737167, -0.046993814408779144, -0.02044730819761753, -0.09658300131559372, 0.05183073505759239, 0.07235967367887497, -0.03401085361838341, 0.02990533784031868, -0.07164115458726883, 0.05385720357298851, 0.020774701610207558, 0.07661616057157516, 0.07543214410543442, -0.040633633732795715, -0.016401240602135658, 0.07930132746696472, -0.03688556328415871, 0.036330536007881165, 0.08367650210857391, 0.013172037899494171, 0.08912358433008194, 0.09608517587184906, 0.07865561544895172, -0.07849399000406265, 0.052697937935590744, -0.04010894522070885, -0.09549923241138458, -0.05494611710309982, 0.03979435935616493, 0.04927637055516243, 0.09318480640649796, 0.011452632956206799, 0.002418722026050091, -0.032535672187805176, 0.04696767032146454, 0.053310368210077286, 0.007471628487110138, 0.006965810898691416, 0.003205997869372368, 0.0583023764193058, -0.03894414007663727, 0.10062812268733978, -0.024071790277957916, 0.08568840473890305, -0.009208002127707005, 0.07890059053897858, 0.009844115003943443, 0.037612855434417725, 0.0691663846373558, 0.02013443037867546, -0.08668500930070877, 0.032371845096349716, 0.09967745840549469, -0.03507581725716591, 0.08126404881477356, 0.033397555351257324, -4.059000639244914e-05, -0.053552888333797455, 0.06310588866472244, 0.07996436208486557, -0.017615582793951035, -0.007067481521517038, -0.05307424068450928, -0.07788830995559692, 0.041692208498716354, -0.01683015748858452, 0.06519591063261032, -0.01360842864960432, -0.03161665424704552, -0.061023298650979996, -0.007182758301496506, 0.021805686876177788, 0.03914304077625275, 0.07488377392292023, -0.004990050103515387, 0.06764595210552216, 0.06567519903182983, 0.005383605603128672, 0.00291637540794909, -0.06955157965421677, 0.04249722510576248, 0.03963415324687958, 0.10012361407279968, -0.07871045172214508, 0.07811569422483444, 0.006014190148562193, 0.064913310110569, 0.07801425457000732, -0.031874705106019974, 0.058968186378479004, 0.019817637279629707, -0.06865564733743668, -0.04983511194586754, 0.04216046631336212, 0.01218294259160757, 0.10470091551542282, -0.005691162776201963, 0.03485230728983879, -0.08008041232824326, -0.03302619978785515, -0.015892133116722107, -0.06963779777288437, 0.006267082411795855, 0.021587487310171127, 0.09884067624807358, -0.03653460741043091, 0.03325334191322327, 0.08617133647203445, 0.03842845559120178, -0.03929890692234039, 0.010952549055218697, -0.010185359977185726, -0.07199477404356003, 0.03975161537528038, 0.04539373889565468, -0.014361243695020676, -0.022825052961707115, 0.0016708823386579752, -0.06713361293077469, -0.0640995129942894, 0.045379508286714554, -0.05468752607703209, -0.013688331469893456, 0.10114459693431854, -0.053701143711805344, -0.06372705847024918, 0.05716434121131897, 0.08784817159175873, -0.0265963114798069, 0.05361926928162575, -0.07898542284965515, 0.03296217694878578, 0.03097483329474926, -0.07358305156230927, -0.003124342765659094, -0.03947049006819725, -0.04593066871166229, 0.001913179992698133, -0.017372315749526024, 0.027890220284461975, -0.06890842318534851, 0.08968575298786163, 0.04342428967356682, 0.008099337108433247, -0.06139149144291878, -0.09738745540380478, -0.011031901463866234, -0.07584607601165771, 0.028009995818138123, -0.02974080853164196, -0.02757292054593563, 0.007681350223720074, -0.02655816078186035, -0.08601120859384537, -0.0955701395869255, -0.04001288115978241, -0.04421379417181015, -0.06171547621488571, 0.04107260704040527, -0.0891774594783783, 0.025257384404540062, -0.08351024985313416, -0.09649816900491714, -0.036517783999443054, 0.03384360671043396, -0.08823630213737488, -0.05827793478965759, -0.09862213581800461, 0.057539746165275574, -0.08456964790821075, -0.025725603103637695, -0.07509433478116989, -0.04323158785700798, -0.046355389058589935, -0.06874535977840424, -0.08442477136850357, -0.02309158258140087, 0.013693109154701233, -0.035231903195381165, 0.0647561252117157, 0.07602839171886444, -0.08495540916919708, -6.386372842825949e-05, -0.014860058203339577, 0.023505574092268944, 0.10103720426559448, -0.08157237619161606, -0.09835347533226013, -0.09958825260400772, -0.0334603376686573, -0.0666205883026123, 0.03903370350599289, -0.046641331166028976, 0.028044844046235085, -0.04257915914058685, 0.03607313707470894, 0.02019633911550045, -0.09615753591060638, -0.08196093142032623, 0.08129245787858963, 0.06985577940940857, -0.049656253308057785, 0.10483064502477646, -0.024256791919469833, 0.06343373656272888, -0.019588515162467957, -0.06183351203799248, -0.051450833678245544, -0.017896505072712898, -0.0930965319275856, 0.07670950144529343, 0.10704762488603592], [-0.09649913758039474, 0.07929684966802597, -0.06581593304872513, 0.03821410983800888, -0.04370974004268646, 0.007939626462757587, -0.0064965588971972466, -0.07871514558792114, -0.009205116890370846, 0.07045374810695648, -0.05498893931508064, 0.024228014051914215, 0.09624902158975601, -0.08138860762119293, -0.018008243292570114, -0.03139352798461914, -0.07230472564697266, 0.07793236523866653, 0.043215878307819366, 0.03812800347805023, 0.050839681178331375, 0.06286054104566574, -0.07004676759243011, 0.09888599812984467, -0.007226232439279556, -0.041237588971853256, 0.07368835806846619, -0.09055615961551666, 0.027391977608203888, 0.026259971782565117, 0.08033473789691925, 0.0456051304936409, -0.01749340631067753, -0.06377463787794113, -0.015489548444747925, 0.09090431779623032, 0.08462069928646088, -0.020024660974740982, 0.0056244065053761005, 0.015773771330714226, -0.09587742388248444, 0.045006394386291504, -0.09378994256258011, 0.000985354301519692, -0.012978829443454742, 0.08104326575994492, 0.10030211508274078, -0.05319110304117203, 0.05115562304854393, -0.04124574735760689, 0.06079774722456932, 0.024172909557819366, -0.09245754033327103, -0.05450702831149101, -0.05868356302380562, -0.04226943105459213, -0.07438043504953384, 0.03439568355679512, -0.005685414187610149, -0.05152812600135803, 0.08216840773820877, -0.09164649248123169, -0.029133932664990425, 0.0775994062423706, -0.06473102420568466, 0.07063520699739456, 0.002580188447609544, 0.056609369814395905, 0.09149347245693207, -0.025824779644608498, 0.019572800025343895, 0.022127212956547737, 0.07700877636671066, -0.05204901099205017, 0.004470914602279663, 0.037395790219306946, 0.012404441833496094, 0.005399626214057207, -0.09327788650989532, 0.07363371551036835, 0.05362085998058319, 0.05363310128450394, 0.003180802334100008, -0.017696427181363106, 0.026257986202836037, -0.10021751374006271, -0.020804060623049736, -0.001983537105843425, 0.04125606641173363, 0.0018714972538873553, 0.03579678013920784, 0.05251569300889969, -0.09515149891376495, -0.051088351756334305, 0.07185938954353333, -0.062337297946214676, -0.0787540078163147, 0.008673724718391895, -0.03523164987564087, -0.07635147124528885, -0.023124797269701958, 0.01917739026248455, 0.0380282923579216, -0.08276405185461044, -0.025108424946665764, 0.06684371829032898, -0.07673613727092743, 0.058216534554958344, 0.07535433024168015, 0.06055516004562378, -0.09340020269155502, 0.03532066568732262, -0.06517349183559418, 0.033367954194545746, 0.06969217956066132, -0.0851391926407814, 0.08123698830604553, -0.04843305051326752, 0.053950078785419464, 0.04499845579266548, 0.0895579606294632, 0.010390451177954674, 0.07774945348501205, -0.09265204519033432, 0.06833653897047043, 0.012519333511590958, -0.04682031273841858, -0.047650471329689026, 0.1032656580209732, -0.016470709815621376, -0.04794992133975029, -0.07249554246664047, 0.06669159978628159, 0.06261543184518814, 0.07088217884302139, -0.012855585664510727, 0.023529591038823128, 0.055122099816799164, -0.07560992240905762, 0.10056443512439728, -0.08134520053863525, 0.05253332108259201, -0.10016780346632004, -0.06532010436058044, 0.06894504278898239, -0.08432814478874207, 0.012972801923751831, -0.052635446190834045, 0.030996503308415413, 0.04185140132904053, 0.065276138484478, -0.018885597586631775, -0.05820124223828316, 0.01881837286055088, 0.09767267853021622, 0.09873831272125244, -0.020370515063405037, -0.08608736097812653, -0.08928881585597992, -0.07323621213436127, -0.06510962545871735, 0.0951535701751709, 0.028205009177327156, -0.07771523296833038, -0.08768047392368317, -0.04739800840616226, 0.03674853593111038, 0.03289484232664108, 0.0360490158200264, -0.030620060861110687, 0.049920450896024704, -0.013255496509373188, 0.0031472432892769575, -0.0814119204878807, 0.04749680310487747, 0.07279308140277863, 0.06901472806930542, 0.06490284204483032, -0.025950685143470764, -0.07594358921051025, -0.0037991905119270086, -0.010458860546350479, -0.004759442061185837, 0.029349980875849724, 0.019810229539871216, 0.075586698949337, -0.0032481884118169546, 0.03383420407772064, -0.05402751266956329, 0.026994382962584496, 0.07317744195461273, -0.07837695628404617, -0.03887414187192917, -0.030587641522288322, -0.023872394114732742, 0.00034879264421761036, 0.05945395305752754, 0.0016777724958956242, 0.0379820391535759, -0.03701772913336754, -0.072449691593647, -0.031431399285793304, -0.03049413487315178, -0.08497737348079681, -0.009367101825773716, 0.10039004683494568, 0.0793214812874794, 0.07429071515798569, 0.06300324201583862, -0.001973638078197837, 0.011445252224802971, -0.008825279772281647, 0.019379997625947, -0.004995516501367092, 0.014965204522013664, 0.08754825592041016, -0.07743404060602188, 0.09004146605730057, 0.05518850311636925, 0.005262092221528292, -0.08295337855815887, 0.0006137985037639737, -0.01414033118635416, -0.04051763936877251, -0.07398759573698044, -0.06822642683982849, -0.07416895031929016, -0.05236519128084183, 0.01318451575934887, 0.09425509721040726, -0.016423355787992477, -0.012876552529633045, 0.09122411161661148, 0.02982781082391739, 0.08886563777923584, 0.06786946952342987, -0.0777435451745987, 0.05735752359032631, -0.09077409654855728, 0.050126880407333374, -0.00717577850446105, 0.0669492781162262, -0.03529943898320198, -0.03648114576935768, 0.007577703334391117, -0.012517054565250874, -0.06260541081428528, -0.016378890722990036, 0.023868931457400322, 0.07479924708604813, 0.0943591445684433, 0.006786089390516281, 0.03553720563650131, -0.03707057982683182, 0.07017248868942261, 0.029080837965011597], [0.039338111877441406, -0.027872102335095406, 0.03713303431868553, -0.09314186871051788, 0.008047889918088913, 0.03188958764076233, -0.08875446766614914, 0.014726572670042515, 0.06686807423830032, -0.043332312256097794, -0.03168459236621857, -0.00573342852294445, 0.09472806751728058, -0.06608914583921432, 0.010246800258755684, -0.07753245532512665, 0.06810197234153748, 0.05043352022767067, -0.034457530826330185, -0.0971674844622612, -0.10296397656202316, -0.030867891386151314, 0.00021988739899825305, -0.05370747670531273, -0.011067823506891727, 0.03143058344721794, 0.03336966782808304, -0.028908809646964073, 0.07153523713350296, 0.05428727716207504, -0.04287748783826828, -0.09613727033138275, 0.04804760217666626, 0.011655963025987148, -0.038912978023290634, -0.024305040016770363, 0.06435279548168182, 0.03362691402435303, -0.050718601793050766, -0.048368483781814575, -0.028305934742093086, -0.0634937658905983, 0.05056138336658478, 0.027404842898249626, 0.07133723795413971, -0.052149441093206406, 0.04108249396085739, -0.031623367220163345, 0.09062458574771881, 0.013622901402413845, 0.04425165802240372, -0.011713794432580471, 0.023840924724936485, -0.024803709238767624, -0.05232057347893715, -0.016686197370290756, -0.06558289378881454, -0.014390437863767147, -0.026505447924137115, -0.057610590010881424, -0.010079734958708286, 0.08025617897510529, -0.024447986856102943, -0.06521878391504288, 0.08970002084970474, 0.031808629631996155, -0.023335039615631104, 0.08484342694282532, 0.08267062902450562, 0.05773073807358742, -0.09122023731470108, 0.07780364900827408, 0.04568765312433243, 0.04535650089383125, 0.09093064069747925, 0.009615836665034294, -0.04049832746386528, 0.06407488882541656, 0.026424456387758255, 0.020679032430052757, 0.017073018476366997, -0.062119387090206146, 0.06452254205942154, 0.07145827263593674, -0.017723768949508667, -0.0757778063416481, 0.031257711350917816, -0.0851239487528801, 0.09339765459299088, -0.06525421142578125, -0.06148824468255043, -0.009094169363379478, 0.09142468124628067, 0.0722665935754776, -0.04479425027966499, 0.08786581456661224, -0.045752331614494324, -0.0808173343539238, -0.03263981267809868, 0.0932140126824379, 0.017987890169024467, 0.024860365316271782, 0.07682206481695175, -0.001583592500537634, -0.058234747499227524, 0.052995264530181885, -0.05761903151869774, 0.029339000582695007, -0.08784011751413345, -0.02986900880932808, 0.08631531149148941, 0.046146634966135025, -0.07720289379358292, -0.05194311961531639, -0.05326944589614868, -0.02729002758860588, 0.03122725710272789, -0.009247568435966969, 0.05272877216339111, -0.005484979134052992, 0.006433639209717512, 0.029024207964539528, 0.0044785719364881516, -0.09523657709360123, -0.09199660271406174, -0.005311151035130024, -0.0914868637919426, -0.036610059440135956, 0.0065874443389475346, 0.07689730077981949, 0.08393567055463791, 0.06601467728614807, -0.10021565854549408, 0.03596585988998413, -0.0352371409535408, 0.050096333026885986, 0.02709069475531578, 0.030401969328522682, 0.021123332902789116, -0.0695478618144989, -0.014771413058042526, -0.024138912558555603, -0.008907606825232506, 0.09855910390615463, -0.07524973899126053, 0.08125972002744675, -0.06792210042476654, -0.021570229902863503, 0.03186381608247757, -0.038485586643218994, -0.09932684898376465, -0.08939473330974579, 0.04558743163943291, 0.07811858505010605, 0.057110585272312164, -0.02940082922577858, 0.022981131449341774, -0.051997121423482895, -0.028159083798527718, -0.09267827868461609, -0.08626516163349152, -0.009022818878293037, -0.044628482311964035, -0.041633252054452896, -0.017536934465169907, -0.06391091644763947, -0.09674420952796936, -0.03454425558447838, -0.0724647268652916, 0.0046261935494840145, -0.018874062225222588, 0.06856299936771393, 0.0896039754152298, -0.07138969004154205, 0.019570739939808846, -0.019261673092842102, -0.06430333852767944, -0.019371215254068375, -0.0026458348147571087, 0.012539863586425781, -0.06906425952911377, 0.026796653866767883, 0.07086490839719772, -0.02908824197947979, 0.01680804416537285, 0.08325770497322083, -0.07728563994169235, 0.04443745315074921, 0.08447347581386566, -0.0693599283695221, 0.06905519217252731, 0.044695351272821426, -0.06571456044912338, 0.04177561029791832, -0.07607273757457733, -0.08925361186265945, -0.10013848543167114, -0.0386555939912796, -0.062253035604953766, 0.0010148214641958475, -0.08983726799488068, -0.011540338397026062, 0.06388168036937714, -0.044281017035245895, -0.02620503306388855, 0.05080653354525566, 0.004708605818450451, -0.006519069895148277, -0.03767404332756996, -0.0890987440943718, -0.013288110494613647, -0.005348768085241318, 0.09017801284790039, 0.004536543972790241, 0.059662654995918274, -0.09266164898872375, 0.02107994817197323, 0.039780035614967346, 0.01038496382534504, -0.03219068795442581, 0.05581969395279884, 0.07547452300786972, -0.02261926606297493, -0.09335706382989883, 0.0697338879108429, 0.023626424372196198, -0.0937134176492691, 0.014790990389883518, 0.06889030337333679, -0.10137718170881271, 0.05528060346841812, -0.0017277234001085162, 0.060567114502191544, 0.09830605983734131, -0.1133987307548523, -0.08137980848550797, -0.028987761586904526, 0.09350338578224182, 0.07720498740673065, -0.03077373281121254, 0.09069931507110596, -0.000387733947718516, -0.09004402160644531, -0.09518591314554214, 0.05143597722053528, -0.05715056508779526, -0.09317527711391449, -0.027362357825040817, 0.016560934484004974, -0.025518717244267464, 0.06845936179161072, -0.0162348710000515, -0.05112157762050629, 0.10679678618907928, 0.08569305390119553, -0.0772939994931221], [0.06449791043996811, 0.07407499104738235, 0.001736253034323454, 0.032913342118263245, 0.00393303669989109, -0.06715910881757736, 0.05491534620523453, -0.09743553400039673, 0.02756105735898018, -0.02339046262204647, 0.024400951340794563, 0.048692215234041214, -0.013101034797728062, -0.061872925609350204, -0.0684175193309784, -0.031825654208660126, 0.05981617793440819, -0.07093815505504608, 0.08251237124204636, 0.02652125060558319, 0.0020291439723223448, 0.059090789407491684, 0.09124429523944855, 0.06799305975437164, 0.07937789708375931, 0.09654047340154648, -0.061820462346076965, 0.05850834399461746, -0.07965031266212463, -0.029779447242617607, 0.029436949640512466, 0.07350323349237442, 0.08398525416851044, -0.06052861735224724, -0.05675828084349632, 0.04979104921221733, 0.005834596697241068, 0.020096231251955032, -0.05653848871588707, 0.10672581195831299, 0.054904695600271225, -0.09342978149652481, 0.037744201719760895, -0.09516505151987076, -0.03702687472105026, -0.008268099278211594, 0.03687804937362671, 0.06149188429117203, -0.05926555395126343, 0.043347034603357315, -0.04750645160675049, 0.04630492255091667, -0.07408559322357178, -0.08589863032102585, -0.023111814633011818, -0.00417627627030015, 0.016079174354672432, -0.00695252139121294, 0.05386142060160637, 0.0162204522639513, -0.052176252007484436, 0.018436407670378685, -0.08654292672872543, 0.08668410032987595, 0.060418132692575455, -0.03367685526609421, -0.04280253127217293, 0.020300420001149178, 0.025091342628002167, -0.07426566630601883, -0.04725209251046181, -0.023851977661252022, -0.04582333192229271, -0.024751612916588783, 0.07916635274887085, 0.0017554092919453979, 0.035319242626428604, 0.08114292472600937, 0.07335703074932098, 0.057688262313604355, 0.004889242816716433, -0.014218941330909729, -0.0471709743142128, 0.043783098459243774, 0.061170872300863266, 0.007766650523990393, 0.052087415009737015, 0.0797564908862114, -0.0030723351519554853, -0.07702596485614777, 0.08630449324846268, -0.012666125781834126, -0.03877700865268707, -0.057444971054792404, 0.050075314939022064, -0.022636594250798225, 0.05419757217168808, -0.08858614414930344, -0.08042782545089722, 0.06959442794322968, -0.023604050278663635, -0.0750439390540123, 0.021820183843374252, 0.01595204509794712, 0.06748057901859283, 0.02019386738538742, -0.06352872401475906, -0.06253568828105927, 0.003408866934478283, -0.08272472023963928, 0.07891963422298431, 0.07435599714517593, -0.06482883542776108, -0.05394965037703514, 0.004253477323800325, -0.06897487491369247, -0.043293289840221405, -0.020387733355164528, -0.05887920409440994, -0.04813897982239723, -0.09384826570749283, 0.03982323408126831, -0.0480886735022068, -0.015907160937786102, -0.06898259371519089, 0.034698620438575745, -0.046089716255664825, -0.0859166607260704, 0.009130232967436314, 0.09363026171922684, -0.09546198695898056, -0.08972463756799698, 0.08358112722635269, 0.054572105407714844, -0.06764776259660721, -0.02464722841978073, -0.08597027510404587, 0.005741836037486792, 0.02996392361819744, -0.08908078819513321, -0.06546073406934738, 0.085752934217453, 0.0922379195690155, 0.05692078545689583, -0.030277466401457787, 0.015419639647006989, 0.09804608672857285, 0.08341972529888153, 0.07136805355548859, 0.08202172070741653, -0.03859097138047218, -0.05595700442790985, 0.07824700325727463, 0.062484629452228546, -0.010035315528512001, 0.08856827765703201, -0.10598219186067581, -0.020051073282957077, -0.04691546782851219, -0.06844817101955414, -0.03461185470223427, -0.031544651836156845, -0.032692305743694305, 0.01061558723449707, 0.0684819296002388, -0.02667507342994213, -0.0032670758664608, 0.07027051597833633, -0.08209221810102463, 0.06274992227554321, -0.06984712928533554, 0.055347658693790436, -0.019846273586153984, 0.07034827023744583, -0.02209244854748249, 0.04623560979962349, -0.07342958450317383, 0.048528820276260376, -0.040500394999980927, 0.06723406910896301, 0.017073100432753563, 0.026438679546117783, -0.02385064773261547, 0.05467924103140831, 0.028665516525506973, 0.027234869077801704, -0.016136394813656807, 0.007485873997211456, 0.016365665942430496, 0.08943144232034683, -0.08425356447696686, -0.09821971505880356, -0.006529476027935743, 0.026533175259828568, -0.027723804116249084, 0.026613874360919, 0.015634657815098763, -0.047457076609134674, 0.04997148737311363, -0.07866473495960236, 0.06770920008420944, -0.043663498014211655, 0.057736143469810486, 0.0027174584101885557, -0.02718285657465458, 0.023128796368837357, -0.021816499531269073, 0.005883269477635622, -0.08084329962730408, -0.010914133861660957, -0.0396357998251915, -0.08222158998250961, -0.041194915771484375, 0.09462042897939682, -0.009585831314325333, 0.0030429912731051445, 0.08699340373277664, -0.08084118366241455, -0.04609585925936699, 0.10298170149326324, 0.033527981489896774, 0.06481514871120453, -0.058673132210969925, 0.014550541527569294, 0.06948976963758469, -0.05076787248253822, -0.060016751289367676, 