{"STATE_DIM": 101, "MOVE_DIM": 81, "hidden": 256, "num_layers": 3, "layers": [{"type": "linear", "weight": [[-3.3303375244140625, 3.7140755653381348, -2.113680601119995, -5.762670040130615, 0.0539785698056221, -6.164782524108887, -0.4865841567516327, -8.690875053405762, -4.44896125793457, 9.88689136505127, 3.3063533306121826, 6.264451503753662, 8.975237846374512, 2.074768304824829, -4.911177158355713, 3.5755488872528076, 8.662949562072754, -0.1679111123085022, -4.70576286315918, 5.127105236053467, -1.3575439453125, 5.703540325164795, -3.431936025619507, -6.588649749755859, 6.657526016235352, -1.8791123628616333, -8.046320915222168, 1.459850549697876, 2.187340021133423, 3.1195716857910156, -5.546248435974121, 2.986664295196533, -2.0747182369232178, -5.848611831665039, 4.830918312072754, -3.4295268058776855, 10.784346580505371, -6.80523157119751, 2.725409746170044, -6.21122932434082, -0.06711913645267487, 2.4632344245910645, -6.843265056610107, -3.871000289916992, 11.5131254196167, -6.142902374267578, 3.3591339588165283, -0.6868391036987305, 3.656094789505005, -28.993539810180664, 3.510371208190918, 6.873969078063965, -2.3360142707824707, -1.6710655689239502, 4.364068031311035, 2.0123372077941895, 1.0104107856750488, 1.3087036609649658, 16.747583389282227, 2.7857589721679688, -12.076709747314453, 0.7465038299560547, -6.095097064971924, -5.436325550079346, 0.06447018682956696, -1.2587031126022339, 9.964415550231934, 3.3074755668640137, 7.372407913208008, 6.427022457122803, 2.3206284046173096, -6.973445892333984, 4.205344200134277, 5.100045680999756, 2.628924608230591, -4.918620586395264, 1.7270188331604004, 3.4089670181274414, -7.5965657234191895, -0.7118250131607056, 2.6145753860473633, 8.524442672729492, 0.5166564583778381, 5.428535461425781, 0.6434203386306763, -1.3098046779632568, -4.54656982421875, -3.4486496448516846, -0.43428996205329895, -0.0711793527007103, 4.304192543029785, -0.009372130036354065, 1.0478373765945435, 5.455074310302734, 7.689127445220947, 5.682848930358887, -9.111985206604004, 3.830200433731079, -5.183959007263184, -6.851404666900635, 5.482161998748779, -0.4135184586048126, -3.0246682167053223, -0.009515447542071342, -4.918334007263184, 1.2782936096191406, -0.06993093341588974, -3.169034957885742, 5.960793495178223, -11.167057037353516, 0.6065729260444641, 3.7469170093536377, -3.4868128299713135, 1.2258968353271484, 1.293941855430603, -2.071927785873413, 6.167470932006836, 4.811376094818115, -10.866865158081055, 1.4397022724151611, 7.622060298919678, -7.73054838180542, -3.821603775024414, 7.432682037353516, -3.471144199371338, 0.998919665813446, 0.1599728763103485, 4.746073246002197, -6.492990016937256, 4.511892795562744, 2.957362174987793, 0.3155507743358612, -1.7145527601242065, 9.452791213989258, -1.4610828161239624, 0.8471973538398743, -0.2847081422805786, 0.005298218689858913, 2.3626174926757812, 10.163578033447266, 3.065654993057251, -7.50949764251709, 1.938015341758728, -0.2427472621202469, -11.610770225524902, 3.1639647483825684, 2.288569211959839, 6.129868507385254, -2.47792649269104, -2.4120209217071533, 0.968812108039856, -7.936959266662598, -8.792952537536621, 12.263243675231934, 2.018113851547241, -1.9567443132400513, 1.4254281520843506, -2.9970335960388184, -2.0080718994140625, -6.450189590454102, 4.448970794677734, 4.395938873291016, 8.133665084838867, 5.06280517578125, 3.6880922317504883, 3.5630109310150146, 4.4626851081848145, 3.079087018966675, 6.471523761749268, -16.368125915527344, -3.500272035598755, 1.3105701208114624, -2.7404379844665527, 2.5707054138183594, 1.7638376951217651, 7.319375991821289, 1.5171043872833252, 4.24698543548584, -0.019082024693489075, 3.7644166946411133, 4.364928722381592, 1.7248669862747192, 9.133310317993164, 5.59384822845459, -9.97840690612793, -3.7849409580230713, -0.9800886511802673, 11.688157081604004, 6.735708236694336, -0.7225508689880371, -3.281522035598755, 1.8802088499069214, 2.5019595623016357, 0.17649388313293457, 2.104921817779541, -11.071136474609375, -4.048852920532227, 2.625485420227051, 3.4040238857269287, -4.276310920715332, -2.1199069023132324, 1.766532063484192, 6.927546977996826, -1.1577916145324707, 1.876857042312622, -3.341982126235962, 14.560027122497559, -1.2622383832931519, 0.16736137866973877, 11.64254379272461, -1.949326992034912, -4.278515815734863, 2.307258367538452, 11.643990516662598, -0.4229806661605835, -1.2004450559616089, -0.9125664830207825, 2.180536985397339, -6.555530548095703, 1.4422370195388794, 0.8177382946014404, 5.337480545043945, -0.8559273481369019, 4.568288326263428, 2.769469738006592, -16.760751724243164, 2.5097923278808594, 0.5313850045204163, -3.5891077518463135, 2.5969083309173584, 1.7831190824508667, -1.186867356300354, 8.122719764709473, 9.445772171020508, 0.6643587350845337, -7.827742099761963, 5.617373466491699, 2.9106180667877197, 3.538776397705078, 11.43626880645752, -0.7334802150726318, 3.0627543926239014, -3.728695869445801, 3.1001014709472656, -1.7699140310287476, -3.2452025413513184, -4.864784240722656, 14.143698692321777, 6.4641852378845215, 1.0123449563980103, 6.127192974090576, 1.9278528690338135, 4.528597831726074, 9.014252662658691, -1.6673771142959595, 1.2649083137512207], [3.235273599624634, 3.286752223968506, -0.4425850808620453, 0.10904866456985474, -2.135375738143921, -3.5410327911376953, 3.6219089031219482, 0.2595307528972626, -2.010599374771118, 3.9179515838623047, 3.068403482437134, 1.241522192955017, 6.981510162353516, 1.4959332942962646, -3.658724546432495, 5.304961681365967, 1.865952730178833, 4.372671604156494, -1.5885785818099976, -8.221545219421387, -0.6217403411865234, 2.616528272628784, -6.365607738494873, 6.413227558135986, -2.0334017276763916, -7.636358261108398, 0.22817984223365784, 4.534970760345459, 5.778519630432129, 3.2036514282226562, -3.3743951320648193, 1.747528076171875, -5.990503787994385, -4.695163726806641, 6.3056559562683105, -3.6313116550445557, 2.5457236766815186, -3.775557041168213, 5.191453456878662, -11.169197082519531, 3.7676303386688232, -6.256155490875244, 0.6398749351501465, 4.591605186462402, 6.984217643737793, 0.8693016171455383, -8.408050537109375, 0.3439043164253235, 4.874085903167725, -4.063628673553467, -3.5054049491882324, 6.666136264801025, 6.305131435394287, 2.5585432052612305, 2.7583680152893066, 2.2447333335876465, 1.3842583894729614, 0.7169330716133118, 1.2475571632385254, 4.904256343841553, -0.7462143301963806, -0.3530304729938507, -4.774445056915283, -9.25318431854248, -6.926079273223877, -2.5395524501800537, 7.395624160766602, 2.235661745071411, 1.532062292098999, 3.1449053287506104, 3.1587982177734375, -8.66064739227295, 5.741588115692139, 7.6323161125183105, 3.4422435760498047, 4.5090837478637695, -3.8986918926239014, 2.3604934215545654, -4.4237961769104, -4.926186561584473, 5.348415851593018, -5.3869123458862305, -5.89462423324585, 7.256885051727295, 3.688260316848755, -3.0459988117218018, -4.024580001831055, -6.199326515197754, -2.4968981742858887, 0.5084993243217468, 1.2238242626190186, 2.3112881183624268, -0.1254030019044876, 5.883089065551758, 4.882941722869873, 5.672179698944092, 0.3040698170661926, 5.53233003616333, -5.525200843811035, 17.467683792114258, 1.718572735786438, -2.4744081497192383, 7.381974220275879, 1.6898610591888428, -4.021071434020996, -1.1917589902877808, -3.9581222534179688, -0.020639460533857346, 3.0979247093200684, -7.101202487945557, 0.4941290616989136, 3.3587722778320312, 0.5600841045379639, 2.698129177093506, 2.507237434387207, -1.2286549806594849, 8.517904281616211, 5.177882194519043, -5.453314781188965, 2.3069405555725098, -0.159412682056427, 2.377511978149414, -2.2514171600341797, -16.41963768005371, 1.530134916305542, 3.109309673309326, 0.5488795042037964, 2.513603925704956, -4.774279594421387, 2.650635242462158, 6.001931190490723, 5.822770595550537, 0.5146771669387817, 5.492316246032715, 2.2740888595581055, 4.313758850097656, 0.5782917737960815, 2.812126874923706, -5.362264156341553, -0.921811580657959, 5.959928035736084, -6.098760604858398, 1.7736048698425293, 4.600012302398682, 0.17610275745391846, 9.259570121765137, -3.4266440868377686, 22.038848876953125, 1.2206381559371948, 11.10488510131836, 2.034991979598999, -8.764983177185059, -3.573939800262451, 4.066216468811035, 6.992386341094971, -2.506340265274048, 2.8115386962890625, -6.392244338989258, -1.4545354843139648, -0.45639559626579285, -9.055835723876953, 1.8369752168655396, 4.751468658447266, 8.16362476348877, -0.4196889102458954, -1.5040613412857056, 2.6036224365234375, 2.040412664413452, 1.1791359186172485, 3.130033016204834, -0.3638768494129181, -0.7332628965377808, 4.122300148010254, 1.113016963005066, 5.522094249725342, -8.78176212310791, -0.9813636541366577, 3.2761335372924805, -0.3354216516017914, -4.042574882507324, 14.731528282165527, -9.021305084228516, 0.12571635842323303, 5.349034786224365, 2.9639246463775635, 7.210146427154541, -4.113125801086426, 4.989161968231201, 1.2915023565292358, 1.2363409996032715, -1.9809588193893433, 0.5841683149337769, -0.9125313758850098, -0.14504896104335785, 1.232675552368164, -12.61341667175293, -5.397323131561279, -6.928434371948242, 0.4536531865596771, -13.482916831970215, 3.3824312686920166, 4.339838027954102, -1.4951341152191162, 2.5484094619750977, -2.0049664974212646, 2.074286460876465, 1.4203863143920898, -6.684325218200684, 4.565459728240967, 5.583349227905273, -1.579559087753296, -2.241307020187378, -4.563615322113037, 4.527021884918213, 16.5518856048584, -1.693165898323059, -0.897110104560852, 2.2633657455444336, -4.906723976135254, 3.6760637760162354, 4.0141377449035645, 1.7498366832733154, -1.3690009117126465, -0.6800588965415955, -0.6974611282348633, -3.672678232192993, 0.23484069108963013, 3.648012638092041, -8.030221939086914, 1.958196759223938, 3.779458522796631, -4.750720500946045, 4.087765693664551, 5.777007579803467, 0.8779502511024475, 0.5099615454673767, 1.1999833583831787, 0.1582578867673874, -0.3198329210281372, 3.557101249694824, 3.1716558933258057, 5.209589958190918, 0.3602895438671112, 4.455186367034912, 3.0379855632781982, 3.7027225494384766, 0.35089606046676636, -0.8264280557632446, 5.1405134201049805, 1.2361019849777222, -0.8222149610519409, 2.235779285430908, 5.352362155914307, 1.4184000492095947, 2.2803807258605957, -2.3193719387054443], [-3.41506290435791, 2.58388090133667, -12.048567771911621, 3.094872236251831, 7.603137493133545, -7.266351699829102, 3.5434939861297607, 1.5166041851043701, -2.6762239933013916, 9.38121223449707, 1.6937848329544067, 0.8471740484237671, 3.813725233078003, 2.5624983310699463, 0.2685297727584839, 0.45970913767814636, 4.145594596862793, 3.0100278854370117, -21.9601993560791, 5.963662147521973, 2.7087831497192383, 0.7472077012062073, -27.26869773864746, 1.695753574371338, 4.917675495147705, -15.325600624084473, -19.907020568847656, 2.318695545196533, 6.410092830657959, 1.049455165863037, 4.152548789978027, 2.367628335952759, -11.356764793395996, -6.993422985076904, -13.83489990234375, -2.66277813911438, -8.884217262268066, -4.979183197021484, -0.2806309759616852, -6.014764308929443, 1.2837724685668945, 9.746065139770508, 2.5640387535095215, 4.262791633605957, 9.772336959838867, -1.5442510843276978, 0.957805871963501, 3.373900890350342, 8.09362506866455, -5.331964015960693, -5.406745433807373, 3.9624791145324707, 4.691756248474121, -2.5054104328155518, 3.450361728668213, -0.37291333079338074, 0.5148441791534424, 3.7581629753112793, -3.2627851963043213, 7.326456546783447, 3.9010682106018066, 0.6595593094825745, 10.43407154083252, -7.16996431350708, -1.260087490081787, 4.154049396514893, 9.999178886413574, -4.984970569610596, 4.858667850494385, 1.5200831890106201, -5.9115681648254395, -11.061729431152344, 0.700024425983429, 2.552664279937744, 1.763880729675293, 7.401018142700195, 3.9348630905151367, 1.6075595617294312, -10.263442039489746, 2.131244659423828, 2.137047052383423, 4.822450160980225, -8.335339546203613, 7.281463623046875, -8.617278099060059, -0.40739378333091736, 4.0366387367248535, -6.67678165435791, 1.9544485807418823, -1.5390814542770386, 2.376805543899536, 3.5265729427337646, 7.255273818969727, 6.69782018661499, 5.64534330368042, 2.798800230026245, 4.097105503082275, 4.6775946617126465, -5.92443323135376, -1.1625823974609375, 3.811037063598633, 6.556528568267822, -1.9004029035568237, -1.9903538227081299, -6.648356914520264, -1.2534998655319214, -3.42411732673645, 3.633756399154663, -1.4320697784423828, -1.7223671674728394, 6.1177978515625, 4.493218421936035, 0.9864311814308167, -2.690863609313965, 0.6420987844467163, 0.22920149564743042, 5.260087490081787, 4.442312240600586, -1.5464555025100708, -4.308248043060303, -0.9159777164459229, 0.402907133102417, 1.2948821783065796, 2.3794190883636475, 11.453937530517578, 2.4794771671295166, 1.3480864763259888, 0.9230191111564636, -4.550487995147705, -0.560736894607544, 0.855646550655365, -2.156282663345337, -3.773682117462158, 5.582008361816406, -6.429786205291748, 0.6965281963348389, 0.8615465760231018, -11.163813591003418, 1.4590330123901367, -8.203149795532227, -1.4678080081939697, 1.173680067062378, -3.938375949859619, -0.9792963266372681, -0.9048175811767578, 2.9474518299102783, 7.307052135467529, 2.6960363388061523, 7.517178058624268, 0.19269606471061707, 0.06319528818130493, -4.621030330657959, -2.833838939666748, 9.364253044128418, 3.37022066116333, 3.0405967235565186, 13.569428443908691, 11.261195182800293, 6.366584777832031, -5.078328609466553, 5.654240608215332, 4.503973007202148, 7.750791072845459, 3.0326905250549316, 2.264801025390625, 1.8741421699523926, -2.1869287490844727, 2.5481975078582764, 2.5025970935821533, 0.2504875361919403, 5.25700569152832, -1.8885806798934937, -7.271716594696045, -5.220334529876709, 7.9000444412231445, 9.922550201416016, 0.6377232074737549, 1.3276383876800537, -6.084325790405273, -4.649782180786133, 4.831105709075928, 0.4992031157016754, -0.7420528531074524, -5.784684658050537, 6.599711894989014, 1.8138586282730103, -3.2224690914154053, -1.4387956857681274, 6.404932022094727, 4.0925493240356445, -4.591342926025391, 1.4737718105316162, -1.4905171394348145, 2.3352911472320557, 2.358776092529297, 0.1976414918899536, -0.6275756359100342, -4.974409580230713, 4.326033592224121, -5.244803428649902, 1.7447060346603394, 0.9714215397834778, 4.498911380767822, -0.5764554142951965, 1.7068259716033936, 2.2026350498199463, -3.505647897720337, 0.2219357192516327, 4.274927139282227, 17.35894012451172, -8.262999534606934, -4.906106948852539, -3.1863629817962646, 12.664815902709961, -5.535795211791992, 5.693658351898193, 6.387342929840088, 2.3829708099365234, -22.242862701416016, 2.062758445739746, 1.750467300415039, 2.092555284500122, 1.8331509828567505, -8.077262878417969, -1.6049203872680664, -7.290970802307129, -0.4203696548938751, -1.9304111003875732, -5.7364020347595215, 5.579494476318359, 3.719700574874878, -8.262256622314453, 0.11819015443325043, 8.77724552154541, 3.224949359893799, -2.085038423538208, 4.471977233886719, 5.2280378341674805, 3.783439874649048, -3.4843666553497314, 3.749220132827759, 0.007637168280780315, -5.676006317138672, 5.50697660446167, 0.23576171696186066, 1.1664350032806396, 9.340042114257812, -1.5713005065917969, 3.8889262676239014, -0.7043293118476868, 1.5495877265930176, 4.76779317855835, 2.070770263671875, -0.7593193054199219, 3.81970477104187, -4.811852931976318], [0.5565702319145203, 4.005957126617432, 2.882434606552124, -1.6556756496429443, -1.4649219512939453, -3.12367844581604, -1.9691466093063354, 3.7834606170654297, 9.003925323486328, 8.89695930480957, -4.145087242126465, 4.821728229522705, 9.30997085571289, -0.17073632776737213, -4.868680953979492, 1.0397663116455078, -4.276795864105225, -1.8131535053253174, -5.453305721282959, 1.6071398258209229, -6.29591178894043, 0.7361288666725159, -3.3850433826446533, 2.7052738666534424, -1.4107338190078735, 4.109620571136475, -3.0243163108825684, 0.7137522101402283, 1.1116104125976562, 4.466787815093994, -2.922656774520874, 2.763150215148926, -1.525051474571228, -1.6794543266296387, 3.6749019622802734, 2.800569772720337, -3.265859365463257, -5.984038352966309, -4.358239650726318, 0.5745289921760559, 1.668602705001831, -3.1923155784606934, 12.390893936157227, 0.761542022228241, 5.792788982391357, 3.797537088394165, -1.4606618881225586, 1.86348557472229, -6.466741561889648, -6.602237224578857, 6.991257667541504, 9.068292617797852, 5.473549842834473, -9.127559661865234, 0.8159644603729248, -2.686668634414673, 0.8613566160202026, 3.842562198638916, -0.6557139158248901, 8.577964782714844, 0.9471796751022339, 2.898890972137451, -6.977966785430908, -1.4128196239471436, 4.823822975158691, -0.6156425476074219, 6.256863117218018, -0.2668009102344513, 0.8405263423919678, -0.4098741412162781, 6.92880392074585, 0.9310527443885803, -1.33012056350708, 4.920169830322266, 1.7428209781646729, -2.376777172088623, -2.401346445083618, -1.5160757303237915, -0.05337385833263397, -0.5550540685653687, -1.31669020652771, 9.30235481262207, -0.210175022482872, -4.403644561767578, 3.216778039932251, 5.3186869621276855, -8.011465072631836, 2.5242059230804443, 1.6897907257080078, 1.829587697982788, 3.2656688690185547, 0.4837450087070465, -8.603845596313477, 3.4060850143432617, 4.153145790100098, 6.9333930015563965, -5.7744140625, 3.8688931465148926, -8.975897789001465, 3.2727162837982178, -0.6390644311904907, -1.5651328563690186, -3.152282238006592, 4.771951675415039, -4.6661787033081055, 7.0651044845581055, 3.2442617416381836, 2.6696701049804688, 5.397465229034424, -0.8966131806373596, 4.129909038543701, 4.620672225952148, 9.599289894104004, -7.07976770401001, -2.4674782752990723, -9.467254638671875, 2.189138174057007, -0.6663407683372498, 3.143639326095581, 0.44080328941345215, -7.7700090408325195, 3.966705322265625, -3.501535177230835, -2.277217149734497, -3.5979270935058594, 1.7841981649398804, 3.5491037368774414, 1.9166109561920166, -4.032222270965576, 5.185971260070801, 0.08758898079395294, 0.43585333228111267, -4.034494876861572, 3.9134507179260254, -1.3520771265029907, -0.9589693546295166, -11.66801643371582, 1.841912865638733, 5.675172805786133, 5.422396183013916, 5.228076934814453, -2.1903035640716553, -3.4539148807525635, 1.362455129623413, 2.7590343952178955, 2.5787436962127686, 0.45359018445014954, 2.968085289001465, 9.162334442138672, 3.759708881378174, 0.05513914301991463, -6.827188014984131, -3.646341562271118, 5.462848663330078, -1.9568146467208862, -2.0862784385681152, 2.1309077739715576, 1.8861489295959473, 1.19815993309021, -3.0637214183807373, 1.322383165359497, -2.7902379035949707, 7.687000751495361, 6.762359142303467, -4.874953746795654, 13.581413269042969, 5.5001606941223145, 3.4268012046813965, -0.8492001295089722, -2.699312925338745, -7.073841571807861, 6.785711288452148, -3.404010772705078, 1.1036096811294556, 6.220119476318359, 1.0618096590042114, -6.947329998016357, 5.299320220947266, -0.10175815969705582, -12.160971641540527, -0.6146310567855835, 3.140465497970581, -0.42672210931777954, 1.7022347450256348, 5.291813850402832, 3.2361032962799072, -1.3374871015548706, 11.72136402130127, 3.8240182399749756, -1.6238946914672852, 3.859339475631714, 14.227678298950195, -2.769071578979492, 2.6068763732910156, -0.8434576988220215, -9.384295463562012, 5.524756908416748, 7.537053108215332, -0.42739102244377136, -6.402932643890381, 14.918892860412598, -0.9020278453826904, 2.6249494552612305, 0.009691721759736538, 1.9665007591247559, 16.738046646118164, 3.535656452178955, -6.465668678283691, 2.2508068084716797, 10.630180358886719, -3.8967037200927734, -7.005441188812256, -1.1894996166229248, 4.871472358703613, -0.9615668058395386, -9.379949569702148, -2.436025619506836, 5.060662746429443, -4.382723808288574, 1.481650471687317, -0.10379918664693832, 0.9330031871795654, 0.6611319184303284, 5.4753193855285645, 1.305179238319397, -5.125177383422852, 0.12494746595621109, 5.506688594818115, 0.13216222822666168, 1.0249279737472534, 2.147387742996216, -1.2125253677368164, -0.1214437186717987, 1.1103495359420776, 10.944831848144531, 2.4259934425354004, 2.9432754516601562, 0.44045212864875793, 2.260566473007202, -4.936465263366699, -7.815272331237793, 7.352452278137207, -0.4610080420970917, 4.395263671875, 1.3130242824554443, 14.715903282165527, -5.241422176361084, -6.237800121307373, 7.745831489562988, -0.9822912216186523, 1.8027242422103882, 3.051647663116455, 13.122283935546875, -8.292533874511719, 1.566552996635437, 4.684374809265137], [5.170881748199463, 4.264409065246582, 1.8447822332382202, -0.17190493643283844, -1.625811219215393, -33.46808624267578, 8.070112228393555, -13.667041778564453, 3.0200557708740234, 13.069816589355469, -2.135753631591797, -1.063719391822815, 4.709706783294678, -0.7030173540115356, 6.654428482055664, 0.5667116641998291, -1.7451767921447754, 4.001160144805908, -6.471657752990723, -4.318687915802002, -7.773801803588867, -0.1168641746044159, -9.629916191101074, 4.228058815002441, -15.72154426574707, 0.9862127304077148, 0.30111199617385864, -5.804115295410156, -3.1048457622528076, -5.354195594787598, -12.957929611206055, 3.550318717956543, -9.925469398498535, -2.877817392349243, -0.8476544618606567, 6.510598182678223, 3.646768569946289, -6.910511016845703, 7.464735984802246, -0.7721375823020935, 3.650935411453247, -4.767017364501953, -2.452603340148926, 3.003044843673706, 10.606908798217773, 1.9850928783416748, 2.3322792053222656, 4.605031967163086, 3.6060643196105957, -7.978395462036133, 1.4368423223495483, 12.397054672241211, -9.091552734375, -2.4821722507476807, 2.525510787963867, -4.241297245025635, 2.2523999214172363, -9.009088516235352, 0.4749866724014282, 9.65723991394043, -0.6790350079536438, -2.9274179935455322, 6.314986228942871, -5.5488457679748535, -6.316287040710449, 0.638619601726532, 12.216340065002441, -11.766058921813965, 1.3114537000656128, 2.4532623291015625, -2.709710121154785, -7.799391269683838, 2.0327529907226562, 10.602919578552246, 5.529671669006348, 0.5262914896011353, 2.2365522384643555, -0.6725269556045532, 7.587986946105957, -7.348283767700195, -5.78101921081543, -6.7607574462890625, -0.4022639989852905, 5.867337226867676, -1.9283854961395264, -2.6962714195251465, 4.71870756149292, -4.514352798461914, 5.049190998077393, 0.9019088745117188, -1.2528961896896362, -2.6847407817840576, -0.7306188941001892, 7.859893321990967, 1.1788663864135742, 5.134363174438477, 9.828145980834961, 1.804434061050415, -7.471193790435791, 4.0767412185668945, 1.200744390487671, -1.9765547513961792, -5.741880416870117, 7.091017246246338, -4.560092449188232, 6.280473232269287, -0.9803512692451477, 2.6266274452209473, -1.5355124473571777, -4.3664231300354, 7.844177722930908, 5.647965431213379, 3.708405017852783, -3.5917487144470215, 3.5882813930511475, -1.12252938747406, -11.129222869873047, 17.82756996154785, 1.9169468879699707, -2.391104221343994, -1.2599992752075195, -1.513846516609192, -2.067162036895752, -2.149836778640747, 2.8020288944244385, 4.0259013175964355, 3.3369951248168945, 6.539634704589844, -5.864866256713867, 1.2630047798156738, 0.9951558709144592, 3.978208065032959, 3.070962905883789, 4.2267680168151855, 9.30301284790039, 3.479759454727173, -1.5126969814300537, 1.8826494216918945, 8.912156105041504, -2.6453351974487305, -1.6626121997833252, 14.438457489013672, 5.577945232391357, 7.721517086029053, -11.255963325500488, 6.9438886642456055, -3.682518243789673, 7.798615455627441, -4.0483269691467285, 2.7884843349456787, 0.09546522051095963, -10.31082534790039, -7.176174640655518, 2.250753879547119, 0.011484354734420776, -3.8975136280059814, -3.942793130874634, 5.218383312225342, -0.8884760141372681, -7.365711212158203, -0.4231986105442047, 4.64773416519165, 13.966557502746582, 4.507228374481201, 1.091105341911316, -2.052759885787964, 4.522813320159912, -1.9160257577896118, 2.6102335453033447, -2.933434009552002, -0.7280452847480774, -0.45311877131462097, 3.3900396823883057, 0.41308218240737915, -6.406712055206299, 1.2424161434173584, -2.700960397720337, 14.20742416381836, -2.419160842895508, -1.3434672355651855, -1.9182904958724976, -0.011789606884121895, -0.14403225481510162, 6.660764694213867, -5.665514945983887, -0.6530395150184631, 11.781037330627441, -3.2828893661499023, 6.643733024597168, -7.211557865142822, 6.205236434936523, -1.225430965423584, 2.786006450653076, 2.309232473373413, 5.349457740783691, -3.9114162921905518, 8.02364730834961, -5.946297645568848, 1.6127029657363892, -9.306124687194824, 4.992920875549316, 6.204939842224121, -5.080681324005127, -14.990480422973633, 0.17191821336746216, 5.608364582061768, -6.624724388122559, -8.1245756149292, -1.145235538482666, 9.396574020385742, 15.945688247680664, -11.691089630126953, -2.834447145462036, 13.867491722106934, 0.8439119458198547, -6.232849597930908, 3.786163568496704, 9.652444839477539, -6.784115314483643, 3.631617784500122, 1.6876283884048462, 1.0135419368743896, -0.842150866985321, -11.519558906555176, 7.6438469886779785, -4.055719375610352, -7.952365398406982, 3.4884414672851562, -4.874999046325684, 6.167162895202637, -6.157474040985107, -6.1868205070495605, 5.435046672821045, 1.2978299856185913, 11.786124229431152, -6.5945611000061035, 2.6569511890411377, 3.9260952472686768, -0.3154338598251343, -2.8698551654815674, 0.01916397362947464, 4.202709674835205, 7.326162815093994, 2.6331262588500977, 5.855186939239502, 2.7489538192749023, -6.074267387390137, 0.21322965621948242, 23.100418090820312, 3.135650157928467, 3.865668773651123, 9.485895156860352, -5.035518169403076, 5.663743019104004, 3.899777412414551, 9.476593971252441], [0.6675293445587158, 2.1059021949768066, 2.953050136566162, 1.5712246894836426, 3.1558127403259277, -5.109594821929932, 1.8207249641418457, 0.1188192293047905, 7.316114902496338, 8.352980613708496, -0.8511558771133423, 1.9381747245788574, -2.876847743988037, -0.49686676263809204, -0.5145618319511414, 4.264059066772461, -3.251530170440674, -4.887800216674805, -5.260936737060547, 6.476138114929199, -4.715419292449951, 2.6681525707244873, -3.963803291320801, 1.182714581489563, -0.989286482334137, -2.439356803894043, -1.4287394285202026, -1.3009881973266602, -1.144698977470398, -2.494249105453491, 5.392441749572754, 1.1421221494674683, -9.14692497253418, 0.2087184339761734, 5.791539669036865, 3.0613625049591064, -1.7996023893356323, -2.707581043243408, -1.6762216091156006, -1.5215504169464111, 2.992961883544922, -8.131953239440918, 3.4524919986724854, 2.660654067993164, 5.253114223480225, -2.1947553157806396, 1.0694663524627686, 4.507596492767334, 8.940592765808105, -3.294870138168335, 2.78511643409729, 3.0073494911193848, 4.2361741065979, -7.069640636444092, 1.470926284790039, 1.4393287897109985, -1.5579769611358643, -4.053804397583008, 0.13043096661567688, 4.683243751525879, 1.0420095920562744, -1.4546408653259277, -1.5304148197174072, -5.300796985626221, 0.13647177815437317, -0.3551378548145294, 3.1934776306152344, 3.8067891597747803, 1.441296100616455, -3.5818867683410645, -1.4437906742095947, -5.901617527008057, 4.159675121307373, 3.435232162475586, 0.6059107780456543, 2.676368474960327, -1.3273168802261353, 5.199647426605225, -6.956323146820068, 4.639622688293457, 0.707302987575531, 3.6419081687927246, -8.954878807067871, -4.146467685699463, -2.8413445949554443, -2.305202007293701, -1.7980610132217407, -5.957513332366943, 0.9100746512413025, 1.7092407941818237, 4.602061748504639, 0.9965989589691162, 3.112668037414551, 10.270880699157715, 4.30635929107666, 5.814957618713379, -3.7245798110961914, 4.206328392028809, -16.76237678527832, -0.0482330247759819, -0.3308549225330353, 0.813458263874054, -0.23567964136600494, 3.8732059001922607, -4.519237995147705, -1.1936488151550293, 4.5759077072143555, 2.8184468746185303, 5.2515153884887695, -3.2175445556640625, 6.662851333618164, 3.7880265712738037, 6.998591899871826, -7.588896751403809, 0.9003140330314636, 15.29985523223877, 8.220986366271973, 9.244190216064453, 5.709311008453369, 0.8087862730026245, -1.4595857858657837, 3.866691827774048, -2.107217788696289, -1.5402206182479858, 0.04641138017177582, 3.638120651245117, -14.816028594970703, 4.740115165710449, -2.9264044761657715, 1.4326658248901367, 5.670622825622559, 1.4031317234039307, -4.9063496589660645, 1.6621596813201904, -5.057047367095947, 4.296837329864502, 12.733558654785156, 5.314840316772461, 6.972782135009766, 7.370003700256348, -0.6668049097061157, -1.7974516153335571, -5.184117794036865, -0.3768262565135956, 5.244029998779297, -2.8993418216705322, 2.3495330810546875, 3.3944032192230225, 12.241615295410156, 0.15074864029884338, -0.14813615381717682, -3.991015672683716, -3.026413917541504, 3.7463178634643555, -1.162394404411316, -4.167459487915039, 3.0498576164245605, -2.7551517486572266, 7.533989906311035, -10.515457153320312, -2.615405559539795, 3.7564187049865723, 6.215213775634766, 13.181856155395508, -6.00771427154541, 7.221134662628174, 13.727932929992676, 7.860360622406006, 1.4636459350585938, -6.143274307250977, -6.173835754394531, -1.4314924478530884, 1.3966704607009888, 16.243953704833984, 1.5020962953567505, 3.1176235675811768, -0.9951318502426147, 2.185762882232666, 0.8579211235046387, -7.128609657287598, -1.338032841682434, -0.17437222599983215, -0.7348384857177734, -5.441840171813965, 3.4393813610076904, -2.1886606216430664, 2.737677812576294, -7.69045877456665, 5.4726691246032715, 1.7262691259384155, 4.1896586418151855, -7.630096435546875, -1.2651128768920898, 3.89109468460083, 2.9672741889953613, -0.7788123488426208, -1.797352910041809, -7.032764434814453, -2.0454049110412598, -11.92565631866455, 3.5576436519622803, 4.475925922393799, -1.3431873321533203, 0.10413626581430435, 0.3252834677696228, 4.771542549133301, 1.8940918445587158, 1.5882340669631958, 8.1995210647583, 6.784251689910889, -1.204047441482544, -4.4749321937561035, -1.2595953941345215, 3.841607093811035, -5.663167476654053, -7.112054824829102, 0.14025317132472992, 7.2597336769104, -4.390443325042725, 1.6312414407730103, 1.6812584400177002, 0.04730062559247017, 0.9812995195388794, 4.958940029144287, -1.7911748886108398, -4.013528823852539, -0.5963855981826782, 7.004965305328369, -3.228713274002075, 0.7348899245262146, -0.8931639790534973, -2.233656883239746, 6.733348846435547, 3.1345973014831543, 8.53327465057373, 0.970777690410614, 4.389150619506836, 6.485061168670654, 4.372339248657227, -2.9443607330322266, -0.5498224496841431, 4.416876316070557, -2.995816469192505, 6.168505668640137, 1.0450103282928467, 4.465016841888428, -13.453490257263184, -5.764024257659912, 5.928745269775391, -0.9082260131835938, 2.1691763401031494, 5.781195163726807, -2.264141082763672, -2.939786911010742, 2.5990350246429443, 3.4588117599487305], [2.1507391929626465, 3.8317201137542725, -4.712959289550781, 1.0521905422210693, 3.0896289348602295, -6.324271202087402, 5.83377742767334, 2.5450313091278076, -5.6251325607299805, 17.465606689453125, 4.192765712738037, 6.002221584320068, 2.2191476821899414, -1.5138291120529175, 4.445855617523193, 0.8687164187431335, 0.25481006503105164, -3.293793201446533, -7.3058085441589355, -0.7677343487739563, -2.510782480239868, 1.7426609992980957, -7.273590564727783, 9.060314178466797, 3.1190719604492188, 6.3275957107543945, -8.97620677947998, 1.1577131748199463, -1.8050235509872437, -3.5423531532287598, 6.467957019805908, -2.593221664428711, 2.9206349849700928, 1.5232477188110352, -2.707618236541748, 4.710636615753174, -0.5855143070220947, -8.646448135375977, -4.3737664222717285, -1.3477813005447388, 5.965063095092773, 6.263137340545654, -1.3962267637252808, 2.056260824203491, 24.090843200683594, -0.5121071338653564, -1.0806052684783936, 0.8093111515045166, -2.9430997371673584, -6.218338966369629, 4.2952656745910645, 5.756680011749268, 1.560090184211731, -5.012518405914307, -2.3239524364471436, -4.8035078048706055, 3.0163002014160156, -0.9174927473068237, -4.601276874542236, 7.042387008666992, 9.423635482788086, 0.3678199350833893, -3.9060487747192383, 0.8707540035247803, 0.4768841862678528, 6.204975605010986, 14.671713829040527, -0.31448787450790405, 1.0056915283203125, -0.9501031637191772, -12.688112258911133, 4.735180854797363, 5.238890647888184, 11.228789329528809, 0.46095898747444153, 3.0726475715637207, 6.299732685089111, 1.535696268081665, 0.05088011175394058, 2.694331407546997, -0.9555490612983704, 9.281354904174805, 1.7130171060562134, -2.2252466678619385, 15.626819610595703, 3.160735845565796, 19.609750747680664, -0.02979673631489277, 3.971919536590576, 2.8196496963500977, 7.515695095062256, -0.5396444797515869, -1.0591294765472412, 3.565896987915039, 3.7071328163146973, 1.8139801025390625, -8.353693962097168, 3.5300281047821045, -6.517374038696289, 2.706428050994873, 2.3829922676086426, -2.563915967941284, -9.198351860046387, 0.6703086495399475, -29.587928771972656, 6.145184516906738, -1.2040934562683105, 1.2321304082870483, -0.8965054750442505, 2.4204814434051514, 2.377314567565918, 5.310695648193359, 11.354780197143555, 4.513474941253662, 0.7899132370948792, 4.9283270835876465, -1.0769453048706055, 0.36532357335090637, 0.7314701676368713, -1.672526478767395, 2.97061824798584, -0.41748687624931335, -3.114197015762329, -0.07078884541988373, -11.787847518920898, 1.9823369979858398, -5.395179748535156, 4.025276184082031, -4.0445637702941895, -0.5771830081939697, 1.910273790359497, 3.268378257751465, -1.7267736196517944, -2.697091579437256, 7.596758842468262, 4.990337371826172, -3.2222323417663574, 0.8072303533554077, 0.06860151141881943, -0.336294025182724, 2.7634012699127197, 3.24159574508667, -2.3757119178771973, 2.860638380050659, 0.35472458600997925, 0.9196543097496033, 8.06615161895752, 8.778597831726074, -0.2186552882194519, 4.151187419891357, 9.297809600830078, -3.859757661819458, -4.197877883911133, 11.359981536865234, 0.24134871363639832, 1.9726513624191284, -9.39871597290039, 3.77234148979187, -2.531616449356079, 3.725673198699951, 5.835071086883545, 1.6888359785079956, 9.379293441772461, 3.3250739574432373, 0.2796311378479004, 0.2546564042568207, 2.0413691997528076, 4.6723103523254395, 5.248464584350586, -1.8550591468811035, -1.6854065656661987, 5.553656101226807, 13.640848159790039, 4.526734352111816, 15.980098724365234, 0.32117077708244324, 1.349051833152771, 7.870482921600342, 3.9982004165649414, -2.474100351333618, -0.6865777969360352, 6.350667476654053, 2.9079155921936035, 5.235930919647217, 8.791223526000977, 4.293288230895996, -1.6232305765151978, 0.7722257971763611, 4.104971885681152, -0.4308460056781769, 0.6211233139038086, 0.002808873075991869, 1.028424620628357, 3.4273438453674316, 2.7364654541015625, -3.6972665786743164, 9.348803520202637, 5.2359089851379395, 0.7145018577575684, -3.924755573272705, -6.421919345855713, 3.5960781574249268, 4.189593315124512, -4.168280601501465, 4.211540699005127, -0.9052302837371826, -0.73325514793396, -0.6935299038887024, 5.043212890625, 11.542922973632812, -7.809288024902344, -6.95928430557251, -2.8317060470581055, 8.788329124450684, 6.419005393981934, -3.955848217010498, 3.194831132888794, 3.8690073490142822, -3.8430540561676025, 2.926170587539673, 1.8298933506011963, 2.6465628147125244, 0.13594485819339752, 1.1564897298812866, 1.8213469982147217, -4.605690956115723, 0.62129145860672, 0.20487317442893982, -6.097716331481934, 2.4122109413146973, -0.5258328914642334, -18.604909896850586, -3.619053840637207, 7.907759666442871, -2.617929458618164, -4.634100437164307, 6.241482734680176, 10.042814254760742, 4.657447814941406, -0.26636162400245667, 13.688455581665039, 6.44162130355835, -3.648535966873169, 1.2135708332061768, 5.614542007446289, 1.0543382167816162, -0.6055648326873779, -0.28860968351364136, 8.033231735229492, 2.6246042251586914, 4.503321647644043, -2.4405288696289062, 8.050641059875488, 2.773948907852173, -2.920020341873169, 5.833217620849609], [3.734163522720337, 2.1738903522491455, -6.092375755310059, 2.1591413021087646, 1.2349284887313843, -3.6720683574676514, 0.8406162858009338, 0.03481631726026535, -4.139928340911865, 8.186426162719727, 0.20208728313446045, -10.28227424621582, 2.885335922241211, -0.6203789710998535, 1.6950138807296753, 3.314483880996704, 5.12283182144165, 3.7318735122680664, -2.4699599742889404, -6.20081901550293, -9.924962043762207, 0.8062158226966858, -4.590625762939453, 4.165615081787109, -3.566815137863159, -1.1510648727416992, -4.910919189453125, -6.172097682952881, -0.7502240538597107, 3.9253015518188477, -1.6850100755691528, 2.118222713470459, -3.451679229736328, -17.18538475036621, 1.8813179731369019, -7.38789701461792, -1.3968757390975952, -17.747167587280273, 15.787751197814941, -6.135333061218262, 0.7693279385566711, -2.683826446533203, -2.773423433303833, 7.538895130157471, 6.357337474822998, 7.6235246658325195, 6.957549095153809, 2.4770050048828125, -6.331873893737793, -5.115697383880615, -5.908888339996338, -2.774559497833252, 4.021789073944092, 8.836423873901367, 1.7494416236877441, -6.833598613739014, 2.9778671264648438, -3.2939610481262207, 1.2569316625595093, 4.776963710784912, -0.13839875161647797, -0.11086349934339523, -4.699227333068848, -6.71030330657959, -7.53463077545166, 4.42838716506958, 11.075651168823242, 3.6778478622436523, -1.854960560798645, 2.897397994995117, 10.294865608215332, 2.1020450592041016, 2.6481616497039795, 8.33315658569336, -0.07429840415716171, 4.143002033233643, 9.077664375305176, 2.700269937515259, 0.8806820511817932, 15.397164344787598, 5.819349765777588, -4.676567554473877, -5.782508373260498, 9.96975326538086, 1.7827317714691162, 5.504939556121826, -5.486116409301758, -6.1196489334106445, 0.6442300081253052, 0.9236067533493042, 6.006341457366943, 3.6022825241088867, -5.26057243347168, 5.55038595199585, -0.8943008184432983, 6.52719783782959, -5.476605415344238, 3.1536712646484375, -3.4676852226257324, 3.5979537963867188, 2.0599477291107178, -1.6640154123306274, -8.47509765625, 0.8365874886512756, -4.281785011291504, 4.799482822418213, 3.06239652633667, -0.5899630188941956, 1.7594423294067383, 6.077370643615723, 1.9005143642425537, 2.8321921825408936, 5.138004302978516, 3.747915267944336, 4.41867208480835, 3.88203763961792, 3.5985753536224365, 5.53491735458374, -2.458775520324707, -4.784032344818115, 2.16007924079895, 6.733203887939453, -0.8661365509033203, -5.786954879760742, 1.931120753288269, 2.570981740951538, -2.30582332611084, 5.145682334899902, -3.3325817584991455, 7.8878173828125, 4.6592936515808105, 4.810967445373535, -0.47268712520599365, 5.928201675415039, 4.443918228149414, 0.09671967476606369, -5.42922306060791, 6.182196140289307, -3.215284585952759, -0.5054474472999573, 4.027067184448242, -4.181607723236084, -3.5851597785949707, 0.3144012689590454, 6.299536228179932, -12.400315284729004, -7.013818264007568, 2.131350517272949, -0.15992768108844757, -7.7808003425598145, -0.16473931074142456, -0.8819423913955688, -0.49783584475517273, 7.80346155166626, 8.958711624145508, -4.4155731201171875, 1.8906224966049194, -7.117153644561768, -1.401145100593567, 1.6590105295181274, 1.4244890213012695, -2.342158317565918, 9.579448699951172, 4.662460803985596, -4.669347763061523, -4.401546001434326, 4.278132915496826, -4.4785380363464355, 2.6500403881073, -1.7539327144622803, 1.1857237815856934, 0.5329897999763489, 5.744481563568115, 1.3678590059280396, 9.3504638671875, 1.7763230800628662, -1.4187299013137817, 4.572375774383545, -0.8303143978118896, 1.2732337713241577, -7.12091064453125, 14.29929256439209, 1.4215763807296753, -1.7504794597625732, 0.4749237596988678, 7.662190914154053, -3.7943618297576904, -2.738645076751709, 14.44510269165039, -1.4617050886154175, 8.406965255737305, -2.7840898036956787, 0.04620634764432907, 1.2679989337921143, 2.8602731227874756, -1.9846827983856201, 6.239466667175293, -0.3865226209163666, -4.589081287384033, -8.748269081115723, 4.560272693634033, 3.986767292022705, -4.291378021240234, -1.2238527536392212, 1.5923705101013184, 3.327937126159668, 0.10398490726947784, -0.44243326783180237, 0.8520616888999939, 4.9471659660339355, -2.080043077468872, -6.000943183898926, -1.5226871967315674, 3.4169328212738037, 9.700465202331543, 0.5103122591972351, 1.487891435623169, 6.542168140411377, -4.652248859405518, 0.36628830432891846, 2.1899118423461914, -0.8296129703521729, 1.709865927696228, 6.711286544799805, 0.7322180271148682, -0.262571781873703, 2.9537549018859863, 3.5376927852630615, -1.8713700771331787, -1.9222320318222046, -5.416030406951904, -1.5263242721557617, 1.1899346113204956, 3.088026285171509, -2.8369503021240234, 0.7380700707435608, 1.8630720376968384, 2.6736843585968018, 1.751206398010254, 1.539884328842163, -1.263447880744934, 3.953686475753784, -4.066264629364014, 4.852036476135254, 3.782687187194824, 3.3877832889556885, 3.334252119064331, -0.31338581442832947, 9.655444145202637, 0.4125783145427704, 2.324566602706909, 1.1037964820861816, 0.6590187549591064, 2.0346031188964844, 18.749473571777344, 3.9075863361358643], [4.785953998565674, 2.8420217037200928, -4.959287643432617, 11.128856658935547, -4.0252909660339355, -6.649989604949951, 4.933426380157471, -7.026005744934082, -4.556026458740234, 10.899989128112793, 3.017293930053711, 11.69196605682373, -1.8090555667877197, 8.137503623962402, 0.7407557368278503, 2.730978488922119, -0.4103173315525055, 12.41154956817627, -6.984274387359619, -2.4124655723571777, 0.8597283363342285, 3.060959577560425, -4.750894546508789, 4.3543219566345215, 5.9807915687561035, -4.038325786590576, -10.46100902557373, -0.46160048246383667, 0.1972992718219757, 1.8598508834838867, 3.73470401763916, 3.1044304370880127, -2.697925329208374, 3.6831624507904053, 4.452829360961914, 0.3795633316040039, 0.784979522228241, -3.5271236896514893, -1.9634580612182617, -13.742851257324219, 2.209871530532837, 1.741481065750122, -2.2466282844543457, 7.606955051422119, 9.307049751281738, -8.55400562286377, 3.9661245346069336, 7.239653587341309, 2.246061325073242, -8.26986312866211, -2.7675089836120605, -3.400009870529175, -4.1726813316345215, -6.627118110656738, 1.0726299285888672, -0.13066910207271576, -4.321617126464844, -8.126935958862305, 2.6242411136627197, 8.547223091125488, -6.446450233459473, 8.784390449523926, -4.333852291107178, -3.5672495365142822, 8.752387046813965, 4.375834941864014, 7.44158411026001, 4.556997776031494, 3.232781171798706, 0.31722819805145264, 3.1939146518707275, 4.028770446777344, 0.44684702157974243, 4.831447124481201, -2.649744987487793, -10.15490436553955, 3.28551983833313, 5.017761707305908, -3.750044107437134, 2.883488178253174, -3.498671293258667, -5.954005718231201, -6.24793815612793, -1.2216250896453857, 3.3592748641967773, -0.19254140555858612, -3.6564011573791504, -11.97131633758545, 3.294342517852783, 3.858738422393799, -12.846240043640137, -5.777336120605469, -0.5350720286369324, 0.2931314706802368, 5.228784561157227, 6.6574482917785645, -10.589094161987305, 3.6867308616638184, -10.395050048828125, 2.0039074420928955, 1.1276299953460693, -0.3934357166290283, -3.2387008666992188, -4.760594844818115, -4.594882488250732, 7.12659215927124, 2.4776430130004883, 3.955427408218384, 7.517410755157471, 1.0632838010787964, 3.8270938396453857, 5.918301105499268, -2.9356822967529297, -7.981008052825928, 3.484933614730835, 2.7451112270355225, 4.897632122039795, 9.109735488891602, 12.838740348815918, -2.3480701446533203, 0.5527331233024597, -14.51788330078125, -0.17246489226818085, 0.3851393759250641, -0.513876736164093, 1.786314606666565, -3.768179416656494, 4.733797550201416, -27.36602020263672, 6.344871520996094, 1.8000043630599976, 1.9709889888763428, 14.24953842163086, -1.5965934991836548, -6.398205757141113, 2.580719232559204, -1.612676739692688, 2.8617873191833496, 1.1057454347610474, -1.3306057453155518, 5.520586967468262, -2.9817843437194824, -1.780489444732666, -1.2291500568389893, -7.265232086181641, 1.0900746583938599, 2.274658203125, 4.553813457489014, 5.441374778747559, 3.8170230388641357, -0.6454859375953674, -0.8506279587745667, -17.767229080200195, 9.757400512695312, 0.15199215710163116, -5.413284778594971, -0.7518913745880127, -5.607117176055908, 15.675064086914062, 8.375021934509277, 3.27988600730896, 6.239151477813721, 9.465919494628906, 5.962743759155273, 9.85872745513916, 7.187242031097412, -1.6886894702911377, 0.6223540902137756, 2.4280734062194824, -0.5981696248054504, 11.272011756896973, 3.6557297706604004, 7.075971603393555, -4.000463485717773, -0.5367560386657715, 2.941448926925659, -3.3500452041625977, 3.915186882019043, 0.26039138436317444, 3.165644884109497, 0.5799276232719421, 3.9472177028656006, 9.943687438964844, -7.02547025680542, -3.4670958518981934, 11.52161693572998, -2.089215040206909, -3.3434407711029053, 7.0794291496276855, 3.118652820587158, 0.011135699227452278, 1.5044289827346802, 5.523593425750732, 2.1089096069335938, -0.2563346028327942, 0.9471535086631775, 5.684202194213867, -2.6656739711761475, -16.369140625, -6.5567545890808105, 0.037745289504528046, 2.245253324508667, 11.053096771240234, -2.09626841545105, 1.1941584348678589, 1.064183235168457, -6.231900215148926, -1.7423112392425537, -1.163256287574768, 8.054437637329102, -0.08619551360607147, -9.638309478759766, -2.776059627532959, 10.535382270812988, 0.8407613039016724, -0.5078456997871399, 2.303947687149048, 9.760539054870605, -5.127692222595215, 1.0327951908111572, 1.8193598985671997, 6.1284003257751465, 3.7669003009796143, 9.07822322845459, 2.954953908920288, -4.465250492095947, 1.121339201927185, 2.7588248252868652, -6.304956912994385, 4.025583267211914, -9.186515808105469, 2.4888761043548584, 2.8172664642333984, 3.8882951736450195, -1.6165807247161865, -15.344928741455078, 5.553367614746094, 7.6594557762146, 7.317615509033203, -11.423982620239258, 2.0347743034362793, 9.195043563842773, 14.12674331665039, 4.2371931076049805, 7.013976573944092, 4.809438228607178, -0.033739104866981506, 8.049976348876953, 10.228456497192383, -1.148340106010437, -0.85670405626297, 4.108397960662842, -0.30031976103782654, 5.919634819030762, -1.4965330362319946, 0.9316840171813965], [-0.7583073973655701, 0.38327738642692566, 0.3814968168735504, 3.260236978530884, -4.652715682983398, 0.17003628611564636, 1.1730376482009888, 1.6420732736587524, -0.30962827801704407, -0.17238934338092804, -2.749424934387207, -0.640302836894989, 3.8375415802001953, 2.9642951488494873, -1.6262645721435547, 0.5121386051177979, -2.0627572536468506, -2.5903842449188232, 0.4067990183830261, 4.815942287445068, 1.6021429300308228, -0.2673267126083374, 0.973594605922699, 1.447946310043335, 4.065793514251709, -0.2145812064409256, -1.9468134641647339, 3.8484997749328613, 1.9013783931732178, -1.2192658185958862, -3.4280953407287598, -0.28937608003616333, -1.4593985080718994, -0.9898881912231445, 0.25200092792510986, 3.557464122772217, 5.119913578033447, 2.0649309158325195, 0.5381104350090027, -2.041935443878174, -4.3345537185668945, -0.5252054929733276, -1.1996574401855469, 3.7444398403167725, 1.1655659675598145, -4.681458473205566, 1.706700086593628, -0.6089044809341431, 2.2315988540649414, -5.510414123535156, 2.8601789474487305, 5.416500091552734, -3.5299670696258545, -1.4755486249923706, -2.1395609378814697, -0.9318174719810486, 4.822210788726807, 0.891716480255127, 4.037027359008789, -0.23798511922359467, -7.204784870147705, 0.47057944536209106, -1.2932113409042358, -1.9727718830108643, -0.4640728831291199, -1.7826720476150513, -1.676429033279419, 1.1762068271636963, 0.8739631772041321, 1.961544394493103, 0.11002236604690552, 0.6530832052230835, 2.3746304512023926, 0.6498982906341553, 3.318063735961914, 0.8941613435745239, -4.0299859046936035, -0.46133294701576233, -3.1632683277130127, -0.5977423191070557, 1.0446804761886597, 1.8217767477035522, 0.05541829764842987, 0.847084105014801, -0.7466503977775574, 3.3401036262512207, -0.7869554758071899, 2.239417552947998, -6.268594741821289, 1.789311408996582, -0.19695714116096497, 4.933913230895996, -4.053982734680176, -2.6290876865386963, -1.3844538927078247, -5.655251502990723, -3.3759312629699707, -1.0290966033935547, -0.025090325623750687, -1.1369655132293701, 5.919564247131348, -1.2867048978805542, 0.7220190763473511, 1.4492597579956055, 0.5516610145568848, 3.622143507003784, -3.9776594638824463, -2.2441184520721436, 2.9927780628204346, -0.4046059250831604, -3.0952019691467285, 0.687744140625, -1.6333842277526855, 1.2504572868347168, 0.9343642592430115, -0.9505103826522827, 1.4811433553695679, 0.5391252636909485, -1.498576045036316, -1.3379850387573242, 3.305478811264038, 2.054309129714966, -0.7751642465591431, 1.9093923568725586, 1.7233277559280396, -2.162912607192993, -3.624800443649292, 1.027611494064331, -1.2144098281860352, 2.5308303833007812, -0.7416364550590515, -4.540478229522705, 3.0025720596313477, -1.2426464557647705, 0.526938796043396, -0.9021168947219849, -0.5833832025527954, 2.4110774993896484, -3.9678213596343994, -1.7028155326843262, 5.3467535972595215, -0.7925121784210205, 4.172630310058594, -1.7100712060928345, -4.250484466552734, 2.117882013320923, 2.7791171073913574, 1.3570040464401245, 1.4136648178100586, -1.1973302364349365, -0.0063314978033304214, -4.919219970703125, -2.0069386959075928, -0.7029193043708801, -2.2202961444854736, -1.633400797843933, 0.7322582602500916, -2.0201826095581055, -3.1529879570007324, 2.037003993988037, -1.6839823722839355, -1.2590234279632568, -1.0915954113006592, 4.390705108642578, 4.337957859039307, 1.7576372623443604, -4.266395092010498, -1.9551808834075928, -2.3805646896362305, -4.78213357925415, 0.5714178681373596, -0.022609597072005272, -0.9551519155502319, 1.5452868938446045, -2.7768585681915283, 2.4136886596679688, 1.0314580202102661, 2.4413650035858154, 2.602590560913086, -3.376383066177368, 0.22357867658138275, 0.7770206928253174, 3.28427791595459, 0.8814789056777954, -6.8078436851501465, -0.5183895230293274, -5.19819974899292, 1.6589233875274658, -3.022402763366699, 6.664290428161621, -0.5022031664848328, 0.4239877164363861, 0.7169899344444275, 8.021880149841309, 4.334245681762695, -3.4080922603607178, 0.7089754343032837, 1.7740931510925293, 4.408425807952881, 2.323596954345703, 2.941895008087158, -6.14620304107666, 3.3188745975494385, -4.137022495269775, 1.7320348024368286, -4.6178717613220215, 1.0257288217544556, 4.079313278198242, 5.335189342498779, -1.6644748449325562, -0.9951656460762024, 3.019615888595581, 2.693617105484009, 3.700742244720459, -1.816287636756897, -0.1680491417646408, -1.942399501800537, -9.98176097869873, -1.2377948760986328, -1.6741015911102295, -2.4004321098327637, -0.8592074513435364, 0.369814395904541, -0.7261828184127808, -0.006835180334746838, -3.49436616897583, -1.4840024709701538, 0.5419556498527527, 3.0545403957366943, 2.461648941040039, -1.670591115951538, -3.360426664352417, 8.843583106994629, 2.0398271083831787, 0.058590829372406006, -2.062079668045044, -0.21878205239772797, 0.05231592804193497, -1.3847333192825317, 6.226855754852295, 0.7301124930381775, 1.3498159646987915, -3.0934362411499023, 1.8256185054779053, -1.3405083417892456, -3.8402462005615234, -3.447190999984741, 5.421648979187012, 1.3260122537612915, -1.4718167781829834, 1.1195451021194458, -3.91009783744812, -1.0707528591156006, 2.378077745437622, 1.3188081979751587, 2.7089459896087646], [0.4572458863258362, -0.3656456768512726, 1.388604760169983, -4.816826820373535, 2.668123245239258, -0.5892054438591003, 0.23702415823936462, -0.005617261398583651, -0.09924299269914627, -1.1059048175811768, 0.9922822117805481, 2.027036428451538, 0.8551062941551208, -0.31162741780281067, 6.22852897644043, -0.5316604971885681, 1.2588006258010864, -1.3202096223831177, 0.6363099217414856, 1.715469241142273, 2.2881875038146973, -3.1488475799560547, 0.6594502925872803, -0.8169388771057129, -1.7654247283935547, -0.6840173602104187, 0.3817605674266815, 1.9156079292297363, 0.4494304358959198, -0.39137381315231323, 5.2091755867004395, 0.8272157907485962, 1.4444855451583862, -0.019425053149461746, 1.1363202333450317, -2.921034812927246, 4.558656692504883, 0.0470799095928669, -0.5282669067382812, 1.5958607196807861, 1.1226494312286377, 2.453042984008789, -1.5518513917922974, -1.149486780166626, -0.09977920353412628, 1.973101019859314, 0.4853942394256592, -3.133079767227173, -0.24821680784225464, -1.6436048746109009, 1.1008036136627197, -0.8236589431762695, 0.6206042766571045, -0.5336067080497742, 3.9310126304626465, 2.349281072616577, -4.158158779144287, 1.8760138750076294, 4.148507595062256, -0.7705856561660767, -4.061642169952393, 1.7808618545532227, -3.125559091567993, 1.403130292892456, -1.5349708795547485, -3.808286666870117, -1.2725703716278076, -0.03666746988892555, -0.4916209876537323, 0.1329297125339508, -2.524675130844116, 4.812532901763916, -0.8616808652877808, -5.51461124420166, 2.000214099884033, 1.6463450193405151, -2.0606942176818848, -1.085518479347229, 4.096712589263916, -1.5834633111953735, -0.255097359418869, 1.1521409749984741, 0.8128615617752075, 2.1386656761169434, -2.885556936264038, -4.296932697296143, 0.5351792573928833, 1.8547096252441406, -5.916022777557373, -2.727257490158081, -2.6043360233306885, 3.6578330993652344, -1.1842924356460571, -2.7525320053100586, -2.819274663925171, 4.079434871673584, -1.3798214197158813, 1.8585458993911743, 1.772095799446106, -3.393706798553467, 1.5105106830596924, 1.7149995565414429, -0.2613397538661957, -2.073174238204956, 1.4323610067367554, -1.6892695426940918, -2.3789565563201904, 4.622710227966309, -1.6612287759780884, -2.242814064025879, -0.2803270220756531, 1.3745017051696777, -0.31227877736091614, -0.6231321096420288, -2.6305930614471436, -1.1423512697219849, -0.0017930259928107262, -2.7352449893951416, -2.484053611755371, -0.7663402557373047, 5.843556880950928, -1.3919315338134766, 2.4705123901367188, 1.800985336303711, -0.6830903887748718, -4.457612037658691, 0.35708779096603394, 2.780327320098877, 0.811806857585907, -0.4005320966243744, -3.58719801902771, -0.032465945929288864, 0.16953597962856293, -0.6624132990837097, -0.5530441999435425, 0.9006853103637695, 0.5886654257774353, -0.5711644887924194, 3.368741750717163, 0.8169708847999573, -3.3274312019348145, -1.3816285133361816, 6.111383438110352, -2.189481735229492, -0.7635632753372192, -0.9259790182113647, -0.13659843802452087, -3.3402299880981445, -1.3962855339050293, -2.046889305114746, -2.671231508255005, 0.6285181641578674, -0.3451893627643585, 1.3033983707427979, -2.083014488220215, 0.5483653545379639, 0.7285215854644775, -1.2235487699508667, 0.730933427810669, 0.22065633535385132, 0.3699738085269928, 1.0297068357467651, 1.6146118640899658, 0.23397354781627655, 3.734875202178955, -1.14311945438385, -1.3656818866729736, -0.0977349504828453, 3.106264114379883, -2.4568371772766113, -2.5256052017211914, -2.845466375350952, -0.19131633639335632, 0.42612630128860474, -2.793708562850952, 3.632446527481079, -0.8018181324005127, -3.1908059120178223, -3.897367000579834, 2.073197841644287, 3.2169368267059326, -0.19006790220737457, 1.1466736793518066, 0.5120793581008911, -4.005716323852539, 1.1770267486572266, -0.9443366527557373, 3.1752166748046875, -2.3564887046813965, 0.2749526798725128, -1.2895253896713257, -2.9156506061553955, 3.751617908477783, 4.752326011657715, -3.5171022415161133, 2.463033676147461, 0.6873923540115356, 1.3089789152145386, 2.765974283218384, 1.2152109146118164, -3.516362190246582, -0.8130910396575928, 0.21547383069992065, 4.364353179931641, 0.11578121781349182, -0.35837697982788086, 4.705231189727783, 0.32237866520881653, 3.630629301071167, -2.0406768321990967, 0.901671826839447, -2.1357035636901855, 0.9986588358879089, 1.4343172311782837, -0.38010525703430176, 2.084638833999634, -1.0773204565048218, 3.4373815059661865, 1.7848973274230957, 1.7009434700012207, 1.234175443649292, -2.560716390609741, -4.076612949371338, 1.791740894317627, -1.201489806175232, -3.7178354263305664, -1.8814164400100708, -1.8132647275924683, 0.4237831234931946, 0.271792471408844, 1.9459635019302368, -0.734430193901062, -4.841317176818848, -2.6102402210235596, 1.8760088682174683, -2.9752514362335205, 3.1934738159179688, 0.7373037934303284, 4.2649641036987305, 2.612783670425415, -2.931633472442627, -3.4892587661743164, -2.213644504547119, -0.45320582389831543, -4.400283336639404, -2.591662883758545, 0.27078884840011597, 3.0552821159362793, -0.5875958800315857, 3.443413734436035, -1.0766140222549438, 0.06116924434900284, -0.21498095989227295, 0.19576352834701538, -1.5336858034133911, -1.902222990989685], [-2.790680408477783, -1.7632132768630981, -1.1887527704238892, -3.1250240802764893, 1.4806101322174072, 0.5256794691085815, -3.26853346824646, -0.6310694217681885, -1.3621429204940796, -0.742517352104187, -1.3487235307693481, 2.3960890769958496, 1.2993896007537842, -3.302658796310425, 0.6453385353088379, 0.04083365201950073, 2.679595708847046, 1.0104970932006836, 1.0493319034576416, 0.5252594947814941, 0.017066363245248795, -4.7529072761535645, 2.2634382247924805, -4.248297691345215, -2.4315874576568604, 0.006715624127537012, 0.38878461718559265, -2.6126487255096436, -1.0988069772720337, 2.6148788928985596, 0.5319876074790955, 2.6577072143554688, -0.578382134437561, 0.30739855766296387, 1.2253227233886719, -0.3299942910671234, 3.16744065284729, 0.32227659225463867, 0.42684945464134216, -0.7410523891448975, 2.5431230068206787, -0.6654040813446045, -3.6225168704986572, -3.0167877674102783, 0.2475796341896057, -2.2483084201812744, 0.49097922444343567, -3.0379912853240967, -2.1334145069122314, -4.981721878051758, 4.123777389526367, -0.8080262541770935, -0.12638866901397705, 3.357243776321411, 4.423648834228516, 5.1613922119140625, -3.2057712078094482, -2.4901490211486816, 6.065737247467041, 5.818277359008789, -0.9858870506286621, -0.8274483680725098, -2.8011136054992676, -0.7832584977149963, -3.7716379165649414, -2.061246633529663, 1.3793476819992065, 1.6289596557617188, -5.578319072723389, 0.8142176866531372, -0.4258146286010742, -3.562155246734619, 2.0724167823791504, 4.651858806610107, -6.282874584197998, -0.03242775797843933, -2.491035223007202, 2.6852080821990967, -2.4878225326538086, -2.5425796508789062, 2.107651710510254, -0.09011327475309372, -0.34188956022262573, -0.9780377745628357, 2.3247954845428467, 4.495666980743408, 2.2419650554656982, 3.3163323402404785, -4.5966033935546875, 1.1503053903579712, 0.12113926559686661, -2.225205421447754, 3.391913652420044, 1.8600778579711914, 1.132421851158142, 3.8241446018218994, 2.786750555038452, 2.390099048614502, 0.038959454745054245, -3.305734157562256, -8.690383911132812, -0.8244919180870056, -2.977123260498047, -1.4733195304870605, 1.8303331136703491, -1.8980077505111694, -3.0385141372680664, -0.7661644816398621, 2.1807005405426025, -1.4243853092193604, 1.6066334247589111, -3.042618751525879, -1.810235619544983, 2.0675292015075684, 5.403903961181641, -1.9149856567382812, 4.385549545288086, -0.047484125941991806, -3.99721360206604, 1.0410033464431763, -2.841149091720581, -1.3220936059951782, -0.13871021568775177, 2.254500389099121, -2.4410548210144043, -2.8778891563415527, 2.0849249362945557, -1.5639772415161133, -0.24387125670909882, 3.838596820831299, 5.305943489074707, -0.24871444702148438, 2.0385329723358154, 3.127399444580078, -2.3230209350585938, -1.8937214612960815, 0.9948150515556335, 1.6387999057769775, -2.2870891094207764, 2.6183817386627197, 1.57062566280365, -0.1284346878528595, -6.532409191131592, 1.9290934801101685, -1.180590033531189, 3.183499336242676, -2.848994493484497, 0.5345049500465393, -1.2624595165252686, 1.9389548301696777, 1.0338877439498901, -3.1744675636291504, -0.8094503879547119, 2.2592244148254395, -1.0616159439086914, 3.258178234100342, -0.19778068363666534, 0.304751992225647, 1.9491573572158813, -0.26228782534599304, -1.404798150062561, 1.4120275974273682, 3.3439114093780518, 0.01418668869882822, 5.7460150718688965, 2.2668299674987793, -1.3419735431671143, -0.3817213773727417, -0.8854106068611145, -4.525949954986572, 1.1255302429199219, -0.117428719997406, -2.307506799697876, 0.8195105791091919, 1.542668342590332, 1.9513555765151978, -2.6962063312530518, -1.6824640035629272, -0.5979684591293335, 5.1626715660095215, -1.7587240934371948, 2.971529245376587, 5.11550235748291, -0.2948279082775116, -1.087675929069519, -2.6058571338653564, 2.2412233352661133, 3.586254119873047, -2.784120798110962, 3.395585060119629, 0.5918565988540649, -0.6839005351066589, -0.4240298569202423, 4.149600505828857, 4.966666221618652, -2.918691635131836, 1.3510669469833374, -2.25701642036438, 0.19113852083683014, 0.13866153359413147, -0.22281375527381897, 4.638967990875244, 2.241554021835327, 4.971842288970947, 1.9601705074310303, -3.313469648361206, 5.366127967834473, -0.7351510524749756, -1.7539318799972534, 1.9901624917984009, 2.810232639312744, 0.14748412370681763, -0.5346189737319946, -0.052484240382909775, 0.7069749236106873, 1.677596926689148, -0.04349116235971451, 4.2381672859191895, -1.837478756904602, 0.6618735194206238, 1.7328732013702393, -3.051021099090576, -0.9948990941047668, -0.09934388101100922, 0.7493809461593628, -4.173097610473633, 2.8424434661865234, -0.17270727455615997, 1.1359269618988037, -0.4943941533565521, 2.6649022102355957, 1.0299525260925293, 2.6273841857910156, 0.9374011158943176, -0.15884311497211456, 0.6809868216514587, -0.11106047034263611, -0.7495400905609131, 1.6745707988739014, 3.727992296218872, 0.014638084918260574, 3.9082353115081787, -0.9638388156890869, -1.998682975769043, -0.1502084881067276, -0.43296682834625244, -2.1061062812805176, 4.132536888122559, 3.396270751953125, 1.5152080059051514, 2.394338846206665, -0.5071965456008911, -0.9961896538734436, 1.9992989301681519, 0.6645078063011169, -2.0472588539123535], [-3.3200693130493164, -0.017935100942850113, 2.0533015727996826, -2.1646697521209717, 0.6681164503097534, 0.4710032641887665, 3.168064832687378, -1.7008665800094604, 0.6191549301147461, -1.5558010339736938, 1.7910175323486328, -1.7277129888534546, -1.7175476551055908, 3.602263927459717, -6.317711353302002, -3.04840350151062, -2.3268258571624756, 1.4401462078094482, 1.7272379398345947, 1.3991165161132812, 0.32901251316070557, 2.2591187953948975, 1.5943293571472168, -1.0846880674362183, 0.22105294466018677, 1.1631317138671875, 0.5647424459457397, 4.901586055755615, 1.640558123588562, 3.0722360610961914, 1.4411442279815674, -1.0889253616333008, -1.2190756797790527, -0.6147603392601013, -1.0362080335617065, 1.707196593284607, 0.5943976044654846, 1.7598928213119507, 1.40206778049469, -1.950225830078125, -1.3412858247756958, -2.4127490520477295, -3.3474597930908203, -4.001526832580566, -1.0519119501113892, -3.674734592437744, 1.9225298166275024, -1.6025720834732056, 1.690308690071106, -1.7898352146148682, 1.2311855554580688, 0.8787997364997864, 0.03495542332530022, -2.578821897506714, 0.21502980589866638, 1.9977548122406006, 0.18035301566123962, 2.754981279373169, 5.297918796539307, 1.9534071683883667, -4.664604663848877, 1.0106648206710815, -0.6432920694351196, 1.051039457321167, -0.9299014806747437, 1.2733932733535767, -3.0719237327575684, 2.359109401702881, -1.8861867189407349, 0.9107369184494019, -1.0422307252883911, -0.6964365839958191, -0.32347816228866577, 0.5345331430435181, 1.9080668687820435, 0.985285222530365, 5.763663291931152, 1.5864765644073486, -3.9448964595794678, 0.33650508522987366, 2.549222707748413, 1.0559524297714233, -0.379264235496521, -0.045595865696668625, 0.9354429841041565, 0.5298599004745483, -0.7803240418434143, -1.947098970413208, -2.7599036693573, 3.4869346618652344, 1.9945461750030518, -1.1848422288894653, 3.8455374240875244, -0.49597010016441345, -0.5018646121025085, -2.1905391216278076, 0.21867157518863678, -1.5857300758361816, 0.541986346244812, -1.7173124551773071, -5.715178489685059, 0.7297935485839844, 2.0175867080688477, 1.0541843175888062, 1.504225254058838, -3.4601471424102783, -0.9772695302963257, 0.515694797039032, -4.208395481109619, -0.3984113037586212, -2.978869676589966, -0.12639904022216797, -2.2931058406829834, -0.7311096787452698, 1.087869644165039, 0.3826988935470581, -1.8858859539031982, 2.6679153442382812, -0.9586865901947021, 3.2512450218200684, 3.6276562213897705, 1.1451911926269531, 0.26150599122047424, 2.877681255340576, 0.5514776706695557, 1.266302466392517, 2.0746004581451416, 1.893080472946167, 1.7937151193618774, -1.3938984870910645, -0.1588984727859497, 1.2227051258087158, -0.8864290714263916, -1.024196982383728, 3.75172758102417, 0.5526832342147827, 0.10942111164331436, 0.265755295753479, -1.3797955513000488, -0.1494523584842682, 1.9134695529937744, -1.8940635919570923, 3.022491455078125, -1.8227730989456177, -0.3748425543308258, 1.7677558660507202, 6.037178039550781, 1.7219828367233276, -0.023803433403372765, -0.36579927802085876, -0.040265947580337524, -2.414238214492798, 1.1122534275054932, -1.1509616374969482, 0.9556744694709778, 0.27825412154197693, -2.1378254890441895, 0.38076508045196533, -2.4988291263580322, 1.8388692140579224, 7.240015506744385, -1.2466950416564941, 0.5434367656707764, 2.632638454437256, 0.7541127800941467, -1.6461634635925293, -0.6275704503059387, 3.0346755981445312, 2.645583391189575, -2.9318652153015137, -0.4741974472999573, -0.2717544734477997, 1.2901157140731812, 1.4643199443817139, -0.382568895816803, 2.3954217433929443, -0.6551353335380554, -1.9276049137115479, -1.812899112701416, 1.6259839534759521, 0.15604308247566223, -1.002373218536377, 0.3724837303161621, 0.8967663049697876, -1.615715503692627, -3.7430756092071533, 2.5643246173858643, -3.887540340423584, -2.2010581493377686, -1.7501486539840698, 2.447956085205078, 0.11070375889539719, -0.05057376250624657, -2.116077423095703, -0.47989681363105774, -4.514066696166992, -4.885367393493652, 0.15251892805099487, 0.3379873037338257, 1.97697114944458, -2.260772466659546, -1.5787159204483032, -0.4833403527736664, 6.0353169441223145, 3.0652084350585938, -4.567076683044434, 4.792332172393799, -2.485210657119751, -0.7991276383399963, 0.05346566066145897, -1.3543788194656372, 3.634089946746826, -1.1544820070266724, -0.23139111697673798, 1.090707540512085, 3.1653311252593994, -2.558898687362671, 5.3060832023620605, -1.5516819953918457, 1.4781746864318848, -0.3744840621948242, -2.5017356872558594, -0.01721015013754368, 3.0424158573150635, -1.597421646118164, -4.97688627243042, -1.3034669160842896, -4.945181369781494, 2.3204262256622314, 1.0544105768203735, 1.186671257019043, 0.032432448118925095, -4.582107067108154, 1.538488507270813, -2.6834709644317627, -0.3658345937728882, 7.124941349029541, -1.0360761880874634, -0.1875036060810089, 2.63403058052063, 1.0500917434692383, -0.7070039510726929, 1.70297110080719, -1.659804105758667, 3.937283754348755, -3.5417749881744385, -3.283262014389038, 3.459226608276367, -1.1380813121795654, 2.918996572494507, -1.750072956085205, 0.5903310775756836, -2.53635573387146, 3.7860870361328125, -0.5925884246826172, 1.8410245180130005], [1.5048828125, 3.714550256729126, 2.2130849361419678, -0.26088061928749084, -5.759582996368408, 0.1991438865661621, 0.26382890343666077, 2.540745496749878, -3.578557252883911, 3.333329916000366, -0.5056284070014954, 2.8894846439361572, -2.822037935256958, -4.536231517791748, -0.7711768746376038, 3.7074763774871826, 2.4121532440185547, -0.0814233273267746, -3.287313938140869, 0.4869579076766968, 0.05883228778839111, 0.29668423533439636, -0.6975383162498474, -4.094864368438721, 2.7593436241149902, 0.5457979440689087, -2.155059814453125, 0.08435584604740143, 0.7816436290740967, -0.046001531183719635, -2.22017502784729, 0.17969389259815216, 1.6343146562576294, -1.4981558322906494, 1.5004643201828003, 1.0694042444229126, 4.957561016082764, -0.9604384899139404, -0.2911480963230133, -0.24433065950870514, 4.125340938568115, -0.9624619483947754, -5.525075912475586, 5.202265739440918, 2.7894322872161865, 0.38340750336647034, 0.12607592344284058, -0.6005617380142212, 2.1845004558563232, -8.688751220703125, 1.2217726707458496, 2.2721710205078125, 5.586763381958008, -3.113450050354004, -1.9277663230895996, -2.739884376525879, -4.1846723556518555, 0.720036506652832, 9.033788681030273, -1.5580836534500122, -6.608764171600342, 1.4200856685638428, -6.364412307739258, 1.2756010293960571, 1.318884253501892, -1.797605276107788, 3.714317798614502, 3.658595323562622, 0.11190249025821686, -0.6608998775482178, 2.1770238876342773, -1.4336506128311157, -4.51094913482666, 2.977499485015869, 3.533295154571533, 1.6648286581039429, 5.409697532653809, -1.7607961893081665, -1.9934417009353638, -3.449129343032837, 0.6260549426078796, 1.6898986101150513, 5.1027350425720215, -0.8846238255500793, 1.749180793762207, -0.720018744468689, -1.1750965118408203, 0.16477110981941223, 6.295560359954834, -2.29849910736084, -3.650193452835083, -2.9689841270446777, -2.685626268386841, 1.6642868518829346, 0.6628194451332092, 1.558911681175232, -2.684354066848755, 1.1340926885604858, -1.643325686454773, -1.4831461906433105, 3.4603919982910156, -0.9700900912284851, 1.6509733200073242, -2.390988826751709, 0.7746312618255615, 5.942805767059326, -0.2647099494934082, 0.8375380635261536, 3.828613042831421, 0.9759674668312073, 3.791569709777832, 3.673814535140991, -4.824886322021484, 1.7783771753311157, -6.972186088562012, -2.299119710922241, 4.3201704025268555, 0.3716367185115814, -5.227453231811523, -2.908442258834839, 3.1060051918029785, -1.8067933320999146, -2.434938430786133, 5.044113636016846, 2.676785945892334, 2.830768585205078, -2.3947134017944336, 3.7372474670410156, -2.253466844558716, -1.6133718490600586, 4.69214391708374, 2.5983681678771973, -0.9955421686172485, 3.011779546737671, -2.325871467590332, 2.1889002323150635, 2.7745065689086914, -0.5094838738441467, 2.213258743286133, 4.962103843688965, -0.13581563532352448, -2.976844310760498, 0.7632848024368286, 1.6208938360214233, 2.5400612354278564, -1.9745259284973145, -3.6197307109832764, 0.5912721753120422, -1.058100938796997, -0.29541322588920593, 1.0697356462478638, -2.0431089401245117, -1.6487531661987305, 1.4362220764160156, -1.231233835220337, 3.8543131351470947, -1.2988388538360596, -0.5017695426940918, -2.049041509628296, -1.8401861190795898, 0.990614652633667, 3.3409934043884277, 0.04010520130395889, 4.162374496459961, 2.0597996711730957, 2.181506633758545, 5.321159362792969, -0.765811026096344, -3.1797075271606445, -9.892949104309082, -1.1693781614303589, -0.7673146724700928, -4.040213108062744, -0.436881959438324, 5.1916608810424805, -0.10273223370313644, -2.668545722961426, 1.0730751752853394, -2.1837000846862793, 7.745580673217773, 1.5025466680526733, 0.29257479310035706, 7.62199068069458, 1.3331550359725952, -4.88287353515625, 3.0225329399108887, -1.4244163036346436, 2.7374956607818604, -2.3004209995269775, -8.399751663208008, -0.4938396215438843, 3.6910154819488525, 2.3441741466522217, -3.545902729034424, 2.7911829948425293, 0.0883556678891182, -0.5286508202552795, -2.4593117237091064, 4.769198417663574, -0.48404425382614136, -1.5690102577209473, -5.616876125335693, 4.53226375579834, -1.6523879766464233, -2.4279346466064453, -2.186091661453247, 5.089293003082275, -7.288337707519531, -1.1886879205703735, 2.2957541942596436, -1.9351378679275513, -0.7438759803771973, 1.337948203086853, -1.4387749433517456, -0.04345763474702835, -2.9045658111572266, -1.2100951671600342, -5.974388122558594, 0.9641433954238892, 2.3005449771881104, 1.9036890268325806, 1.1679611206054688, 2.5124435424804688, 0.0007895712042227387, 0.13323941826820374, -6.232832431793213, -3.0097172260284424, 3.089306116104126, 2.870365619659424, -4.367873191833496, 1.0292084217071533, 0.9422985911369324, 5.894008636474609, 0.6612578630447388, -0.5670104026794434, -3.3798296451568604, -0.2447848916053772, 0.5146216154098511, 1.7936328649520874, 6.760519504547119, -1.0798499584197998, -0.98987877368927, 3.8415679931640625, 0.49467983841896057, 2.033198118209839, -3.590968370437622, -0.23886582255363464, 4.340041637420654, -0.40559202432632446, -1.6201318502426147, -1.3001275062561035, 3.9050722122192383, 0.9024719595909119, 5.338264465332031, 4.743509292602539, -5.018049716949463], [-1.89883291721344, -1.1062241792678833, -0.01617661863565445, -4.181228160858154, 1.7057249546051025, 0.28651857376098633, 2.405284881591797, 3.6062943935394287, -3.9305858612060547, -0.9759321212768555, 1.6472567319869995, 1.893889307975769, 0.4195493459701538, -0.17286014556884766, -5.4029083251953125, 0.6108922362327576, -1.5398039817810059, 0.30870941281318665, 2.3248491287231445, 0.12263955920934677, -0.6106575131416321, -1.9309636354446411, 0.19171971082687378, 3.0515265464782715, 0.1254219263792038, 0.8661690354347229, 1.944385051727295, 1.1989134550094604, 4.318652629852295, -0.43751293420791626, 0.7169165015220642, -0.06467372924089432, 0.6529899835586548, -0.9815091490745544, -1.594322681427002, 0.2966611385345459, 5.3864312171936035, 0.14126211404800415, 1.9762067794799805, 0.17055511474609375, -0.7068421840667725, 1.84213125705719, -3.0479676723480225, 1.1404023170471191, -0.622289776802063, -1.2799757719039917, -0.6224114298820496, -1.77676260471344, -0.9574756622314453, -2.6120102405548096, 0.5589361190795898, -0.3074796497821808, -2.9005019664764404, -2.5455284118652344, -2.392204761505127, 0.7459018230438232, -1.7979254722595215, -1.7731589078903198, 0.8566585183143616, -0.8965834975242615, -3.7337443828582764, -4.566544055938721, -1.5277167558670044, 0.34385406970977783, 0.045769739896059036, 2.114645004272461, -0.33084824681282043, -0.8363733291625977, -4.5356855392456055, 0.14669790863990784, -0.6614718437194824, 0.4439971148967743, -1.4796624183654785, -0.9346206188201904, -1.3613306283950806, 0.8857374787330627, -3.742866039276123, 0.9218742847442627, 0.7411905527114868, 1.2314350605010986, 0.3138791024684906, 1.106933832168579, 0.20438463985919952, -0.20151691138744354, 1.0065115690231323, 3.159330368041992, 0.652730405330658, 0.8041967749595642, 2.7279133796691895, -2.405425786972046, 1.9608932733535767, 4.3247880935668945, 0.709420919418335, -0.7306011319160461, -0.6158377528190613, -0.24852001667022705, 1.1980589628219604, -0.8997548222541809, -2.525695562362671, -1.1576281785964966, -2.4694812297821045, -0.9282845258712769, 3.271907329559326, 0.05066002532839775, 1.863769292831421, -2.8504934310913086, 0.5106861591339111, 3.3822853565216064, 1.9958100318908691, -1.5042197704315186, 0.11424092948436737, 2.2010207176208496, -2.5178496837615967, 1.335584282875061, -1.1048047542572021, -0.08292485028505325, -2.0448970794677734, -1.8670439720153809, -2.951345205307007, 0.8084758520126343, 2.96907377243042, 0.08843644708395004, -3.104804515838623, -0.8425694108009338, 0.7780766487121582, 5.757172107696533, 1.3752816915512085, -0.3416747450828552, -1.48833167552948, -2.0603039264678955, -1.583221673965454, -2.1396758556365967, 2.0644683837890625, 2.026468276977539, 0.17040657997131348, -0.23741424083709717, -2.115443229675293, -0.1750691831111908, 3.2166078090667725, 2.5146563053131104, 0.8265400528907776, -1.1558462381362915, 1.5106918811798096, 0.45891204476356506, -3.1997015476226807, 0.5249189138412476, 0.4102191627025604, -2.489668846130371, -0.5739144682884216, 2.5232207775115967, -0.028886085376143456, -0.19853363931179047, 0.29564183950424194, 2.830035448074341, 1.8723230361938477, -3.4693312644958496, -0.15456412732601166, 0.008595212362706661, 0.17850777506828308, -2.9257454872131348, -0.46801045536994934, -0.17495518922805786, 0.20838473737239838, -6.376293182373047, 2.785983085632324, -0.8172701597213745, -4.597415924072266, -0.6941677927970886, 1.9086371660232544, -2.328342914581299, 0.552780032157898, -2.265834093093872, -3.4711718559265137, -3.598134994506836, -3.8019344806671143, -0.04653662443161011, 2.1962549686431885, 1.8397181034088135, -4.404893398284912, -1.2328081130981445, 1.166691780090332, -3.312605142593384, 1.8511192798614502, 1.1638145446777344, -3.4209837913513184, 1.1736711263656616, 0.39714640378952026, -2.419830083847046, -1.0482813119888306, 1.6005038022994995, 1.822925090789795, 1.4493122100830078, -2.406233072280884, 1.7199076414108276, -0.10985532402992249, -2.381826400756836, -0.4313162565231323, 1.3788715600967407, -0.7841381430625916, 2.4368093013763428, 1.3993539810180664, 4.846312046051025, -0.5630236864089966, 1.1077706813812256, 1.6425395011901855, -2.013885021209717, 5.010013580322266, -1.1335866451263428, -1.0275657176971436, -0.15361817181110382, -1.7941793203353882, 4.891068458557129, -0.015024075284600258, -0.13043789565563202, -1.8432425260543823, -1.603083848953247, 0.6930913925170898, 2.1245105266571045, -0.8281860947608948, -1.8126378059387207, -0.8171200752258301, -2.3275859355926514, -0.3568800091743469, 1.7819963693618774, 1.5028198957443237, -4.909297466278076, -1.631113052368164, 2.8725876808166504, 2.759385824203491, -0.22207237780094147, 3.853729486465454, -1.2868874073028564, -1.7778478860855103, -2.7352654933929443, -0.8911735415458679, 2.5050861835479736, -3.6260907649993896, -1.2340056896209717, -2.8296563625335693, 2.974045753479004, -4.933098793029785, -1.0832335948944092, 0.38796156644821167, 1.1118253469467163, 0.2609007954597473, -2.092083692550659, -0.1686473935842514, 2.6798410415649414, -1.671363115310669, -0.051606107503175735, -2.3384387493133545, -2.85292911529541, -1.6123865842819214, 2.68133544921875, 1.4105720520019531, -3.3404712677001953], [1.2499858140945435, -0.8723390102386475, -1.2599709033966064, -2.6015143394470215, 0.1619882434606552, -0.7858229279518127, 0.8462611436843872, 1.51686429977417, -1.511600375175476, -1.7212995290756226, 4.207008361816406, -3.9977409839630127, 0.24568866193294525, 2.9927141666412354, -1.5872912406921387, -0.642916738986969, 1.1707210540771484, 2.1830315589904785, 1.4771689176559448, -0.7111284136772156, -2.498060941696167, 6.110408782958984, -0.48777687549591064, -6.039915084838867, -0.09396414458751678, 0.7914237976074219, -0.1655896008014679, 0.33665066957473755, 1.2818304300308228, -1.668163776397705, -0.5303807854652405, 1.377585530281067, 2.001897096633911, 0.4467916786670685, 2.5958330631256104, -1.9997358322143555, 2.531242847442627, -1.5005372762680054, -2.1312005519866943, -2.8357388973236084, -1.2515124082565308, 3.867471933364868, -0.21617701649665833, -1.2983654737472534, -1.2651666402816772, -5.399231433868408, -0.8723776936531067, -1.8653590679168701, 2.396156072616577, -4.775638580322266, -0.37516337633132935, 0.08977434039115906, 0.0007634563371539116, 0.3656182885169983, -3.1035404205322266, 2.0443100929260254, 4.257130146026611, -0.5944936275482178, 5.759850025177002, 0.15758898854255676, -4.234471797943115, 2.2806220054626465, -1.7463467121124268, 2.2865805625915527, 2.3642427921295166, 1.403203010559082, -3.8029868602752686, -2.2864017486572266, 0.03592486307024956, 0.005222976207733154, 0.8952958583831787, -2.165290117263794, -1.2919119596481323, -0.17053396999835968, -6.293896198272705, -1.7484272718429565, 1.0275694131851196, 2.344031572341919, -2.970716714859009, 1.6924080848693848, 5.911434173583984, -0.7930818200111389, 0.2744057774543762, 1.638504147529602, 1.104709267616272, 3.9485151767730713, -0.32558462023735046, -3.340731382369995, 3.286813735961914, 4.30598783493042, -2.362952470779419, -4.774341106414795, -0.5639410614967346, -2.688688278198242, 0.8158307671546936, 2.2337114810943604, -0.33960601687431335, 1.594813585281372, -1.7578294277191162, -2.230569839477539, 8.620549201965332, -2.5560619831085205, -2.3292441368103027, -1.913559913635254, 1.9240334033966064, -1.6864335536956787, -2.3683741092681885, 0.453720360994339, 2.2254765033721924, -1.9701982736587524, -0.749121904373169, -0.7525404095649719, 2.658733606338501, 3.069518566131592, 1.8527915477752686, 0.585631251335144, -0.6552895903587341, -2.482144594192505, -6.273260593414307, 2.0937857627868652, 2.167569875717163, 0.6467264890670776, -0.8826674818992615, 3.2315239906311035, 4.085934162139893, -1.3444095849990845, 2.6827352046966553, -4.631893634796143, -0.8633202314376831, -2.354809522628784, -4.103272438049316, 2.7674953937530518, -1.8815611600875854, -4.181042671203613, 0.7973883748054504, 3.0846517086029053, 1.4601565599441528, -1.648696780204773, 3.521061658859253, 0.6384443640708923, 2.5533063411712646, -4.839134693145752, -2.0870370864868164, -2.2434046268463135, -4.079105377197266, -0.15863873064517975, 3.3696694374084473, 1.2569383382797241, -1.794105052947998, -1.5378739833831787, -0.7146320343017578, -0.49506792426109314, -0.9389397501945496, 1.3357285261154175, 0.9108831286430359, 1.3185349702835083, -1.3767147064208984, 1.1745474338531494, 1.4154353141784668, -3.136070728302002, -1.9028738737106323, -2.024493455886841, -3.40537166595459, -0.07476651668548584, 0.3036034107208252, -0.4827844798564911, 3.1909360885620117, 0.9591391086578369, 1.2571345567703247, -2.178725242614746, 2.218507766723633, 2.2114758491516113, -2.2530882358551025, -0.9771155118942261, -2.2178924083709717, 0.3232802152633667, -0.019781121984124184, -1.8620250225067139, 1.038632869720459, 0.9530476331710815, 0.048925288021564484, 1.6773654222488403, -0.8744896054267883, 3.4063572883605957, -4.391299247741699, -2.138526201248169, -0.017594654113054276, 3.9034557342529297, 9.09695816040039, -2.790682792663574, 1.8092830181121826, -1.530435562133789, -3.3385822772979736, -5.066476821899414, -0.6733555793762207, -3.742502450942993, 1.311865210533142, -1.0039023160934448, 3.1460776329040527, 3.416569948196411, 2.5063564777374268, 3.592294216156006, -0.770771861076355, 4.4496307373046875, -1.0074381828308105, -3.012586832046509, 7.480564117431641, -2.2466819286346436, 3.6854987144470215, 1.4961373805999756, -0.7448124885559082, 2.6320974826812744, -3.962570905685425, 0.7464215755462646, -3.352344512939453, -1.87056565284729, 0.32514169812202454, 4.445120811462402, 1.2227494716644287, 0.6567487120628357, -1.456981897354126, -0.09268637746572495, -3.4507062435150146, 2.7833025455474854, 0.9624730348587036, -3.4654126167297363, -0.7772492170333862, 3.6937310695648193, -3.3271324634552, 1.2353423833847046, 1.0017035007476807, 1.4229103326797485, 1.2319979667663574, 4.047832012176514, -1.1590118408203125, 0.07135473191738129, -2.0845041275024414, 2.1011202335357666, -3.2167208194732666, 2.6523914337158203, -1.247643232345581, 1.2106399536132812, 1.5341603755950928, -1.0744781494140625, 1.3568180799484253, -4.161076545715332, 1.1241559982299805, 5.3179731369018555, 1.7690058946609497, 1.308454155921936, 1.6864641904830933, 0.41682958602905273, -2.716240644454956, 2.7591397762298584, -2.3111417293548584, 1.1149859428405762], [-0.3332144320011139, -0.14853648841381073, 0.7585960030555725, -4.4223527908325195, 2.980785369873047, 0.6979139447212219, -3.5716586112976074, -3.186431407928467, -0.24125917255878448, -0.7449989914894104, 1.2839587926864624, 1.3051443099975586, -1.830896019935608, 0.6313785910606384, 5.004086017608643, -1.9907296895980835, 0.5287582278251648, 1.9735817909240723, 1.6264411211013794, 2.7436025142669678, 1.3806428909301758, 0.23773641884326935, 0.6131523847579956, -0.6309662461280823, -0.42843732237815857, -2.881653070449829, 0.3638283610343933, 1.506095290184021, 2.687443733215332, -1.4996130466461182, 2.233571767807007, 0.48932480812072754, 3.464275598526001, 0.19183842837810516, 1.296566367149353, -1.4578194618225098, 2.9799537658691406, 2.3965563774108887, -0.3806071877479553, 1.2121496200561523, 1.9942764043807983, -3.3766167163848877, -2.6951403617858887, 3.0190651416778564, -2.5078048706054688, -2.817089796066284, -2.099780797958374, -2.2255539894104004, -1.706325888633728, -2.608588933944702, -2.7713210582733154, -1.361620306968689, 1.543650507926941, 4.2603535652160645, 0.33994370698928833, 3.16560435295105, 4.353305816650391, -2.3989903926849365, 2.5001602172851562, -1.3416268825531006, -3.6600914001464844, -1.439642310142517, -1.9263241291046143, 1.6408032178878784, 3.1099960803985596, -1.3012945652008057, -0.0006320105167105794, -6.64552640914917, 1.8653937578201294, -0.3024131655693054, 0.5456884503364563, 1.5149717330932617, -1.4833449125289917, -1.5919889211654663, -0.7475842833518982, -5.131189823150635, 0.08362719416618347, -1.9477040767669678, 2.0836474895477295, -1.956921100616455, 0.9783187508583069, 0.7906351089477539, 1.5410878658294678, -2.562058925628662, 1.173375129699707, -4.351322174072266, 0.8395876288414001, 0.0760500431060791, 2.141498565673828, 3.9603431224823, -2.8000147342681885, 0.08417432755231857, 3.5805611610412598, 0.2896622121334076, 0.08034193515777588, 0.6075994372367859, 1.663546085357666, -0.2836340665817261, 1.5427391529083252, 0.253794401884079, 2.405890941619873, -0.14833174645900726, -0.4350946247577667, 2.3505139350891113, 0.8005166053771973, -2.142589569091797, -2.3741517066955566, -1.9366497993469238, -3.8410089015960693, -2.0159361362457275, 2.3074262142181396, 1.772825002670288, 4.975316524505615, -2.6216230392456055, -0.8950332403182983, -1.3392918109893799, 0.007683605421334505, -1.2224862575531006, -3.134373188018799, 6.54383659362793, 1.1548383235931396, -2.2094597816467285, -3.72816801071167, 1.9499504566192627, -0.6571117639541626, 2.8896541595458984, 2.847249984741211, -3.2154486179351807, 0.26235225796699524, -0.9011021256446838, 2.886021852493286, -0.5933803915977478, 1.0649521350860596, 3.2921690940856934, -3.9640963077545166, -1.2284520864486694, 0.3317321836948395, -1.3643171787261963, -1.6163620948791504, 0.8300310373306274, 2.7846839427948, -1.8000222444534302, -1.862164855003357, 0.5137679576873779, 3.095534563064575, 1.1350555419921875, 0.8284823894500732, 1.0174312591552734, 0.5827726721763611, 3.293355941772461, -1.0485941171646118, 1.8942198753356934, -0.06404608488082886, -0.28287434577941895, 2.8642165660858154, -0.5354375243186951, 0.7770662307739258, -0.1989106684923172, 1.1447420120239258, -0.9068403840065002, 0.7239274978637695, 2.0025765895843506, -0.9489911198616028, -0.10935211926698685, -3.886143207550049, 2.6383676528930664, 1.6685123443603516, -0.7076606154441833, 0.2313726395368576, -2.324612617492676, 2.0694665908813477, -1.2208691835403442, 2.730409860610962, -0.2975196838378906, 3.844632387161255, 2.0575883388519287, 2.582181453704834, 0.2851749658584595, -0.8073115944862366, 2.418457508087158, 2.1255016326904297, -0.33802539110183716, 1.4079904556274414, 0.48607420921325684, -3.7178053855895996, 0.05404731631278992, -0.03814512863755226, 2.8138115406036377, -3.8420844078063965, -1.2567834854125977, -1.7676469087600708, 0.38161006569862366, -3.6465494632720947, 0.8797140717506409, -1.507415771484375, -1.2230312824249268, -2.273983955383301, -0.08878514915704727, 4.0152201652526855, -0.39270079135894775, 3.2619080543518066, 0.7163388729095459, 1.0087274312973022, 0.8693950772285461, -3.3056657314300537, -1.522679090499878, 5.495284557342529, -0.6896495819091797, -5.183813571929932, 0.20438061654567719, -1.4471402168273926, 3.0506374835968018, 0.6021139025688171, -0.9386255145072937, -3.7813379764556885, 1.6099046468734741, -0.7064618468284607, 2.524919271469116, 0.2641831338405609, -2.0493123531341553, -3.184638261795044, 1.4086881875991821, 1.3594883680343628, -0.530366837978363, -2.7596518993377686, -2.954634428024292, -0.9493101239204407, 2.641103744506836, 0.3719176650047302, 1.2459136247634888, 1.0770397186279297, 1.7154887914657593, -2.4932596683502197, -0.6816698908805847, -0.7413217425346375, -1.6279349327087402, -2.9167141914367676, -1.6938101053237915, -0.47162944078445435, 3.265281915664673, 0.6196104288101196, -1.1025665998458862, -0.5068157911300659, -1.1530325412750244, 0.3947204053401947, -2.619445562362671, -2.3390424251556396, 2.030108690261841, 0.2102673500776291, 2.5292208194732666, -0.32602939009666443, 4.591483116149902, -2.9076151847839355, 2.5796711444854736, -2.5657362937927246, -0.8710349202156067], [2.956080436706543, -0.24636559188365936, -2.607604503631592, -0.2259528785943985, -3.67061710357666, 0.8952869772911072, 3.4184603691101074, -0.13865041732788086, -3.086928129196167, 2.3719868659973145, -2.047417163848877, -0.4846377968788147, 0.7721228003501892, -1.1395869255065918, -0.9727526903152466, -0.7629457116127014, 5.963790416717529, -0.14294183254241943, -1.2341392040252686, 1.1959422826766968, 0.9929394125938416, -3.4881932735443115, 0.029704755172133446, -4.361542701721191, 0.19964414834976196, -1.3424432277679443, -2.034274101257324, -1.3319119215011597, -2.8571085929870605, 1.3834701776504517, -2.6359505653381348, -4.475245952606201, 0.9929166436195374, 2.5145812034606934, -0.5485827326774597, -4.59077262878418, 4.197364807128906, 1.1219062805175781, -4.672948360443115, 0.12020956724882126, -0.3798691928386688, 0.635682225227356, -1.6384347677230835, -0.6949126124382019, 1.9625191688537598, 0.2912725508213043, -0.8567342758178711, -2.883100748062134, -1.4218430519104004, -8.030719757080078, 0.4695371985435486, 1.9097689390182495, -2.6401219367980957, 4.0528244972229, 0.11569533497095108, -2.6630377769470215, -0.9364827275276184, 2.929581880569458, 5.761969566345215, 0.4267072081565857, -4.361933708190918, -1.6023615598678589, -1.3527079820632935, 2.4759469032287598, 2.7087695598602295, 1.8324949741363525, 4.575981616973877, 3.1931824684143066, 0.09724006056785583, -2.9351837635040283, 0.8288975954055786, -0.8758199214935303, -3.190157175064087, 1.8166463375091553, 2.573333740234375, -2.6454010009765625, -2.4681901931762695, -2.280033826828003, -4.7330002784729, -2.8334641456604004, 0.8279834389686584, -0.41284841299057007, 1.9577536582946777, -0.27048400044441223, -0.5634498596191406, 1.9250251054763794, -2.385448694229126, -0.16835245490074158, 1.3896546363830566, 0.46884971857070923, 0.8736059665679932, 4.376243591308594, -4.012650012969971, 3.6229031085968018, 2.590296983718872, 5.949190616607666, -2.433553695678711, -3.1215531826019287, -1.2041010856628418, -4.626626968383789, -10.181177139282227, 3.511484146118164, -0.02239018864929676, -2.8125393390655518, 0.15308211743831635, -1.0091652870178223, 0.7644848227500916, -0.5344738960266113, 1.1087638139724731, -1.3245500326156616, 4.761949062347412, -0.8789342045783997, 2.907566547393799, 0.09641555696725845, 4.2531962394714355, -0.14568141102790833, 2.4045588970184326, -3.295287847518921, -3.6036505699157715, -2.041670083999634, 5.035412311553955, -0.9292165637016296, -0.2606292963027954, 4.298947811126709, 1.177863597869873, 0.35919228196144104, -3.165832042694092, 0.9516812562942505, -0.8175433874130249, 1.0391383171081543, 2.572946310043335, 0.804303765296936, -1.7087435722351074, 2.9007883071899414, -1.2335443496704102, -0.6298088431358337, 1.696312665939331, 1.188576340675354, 0.3765891492366791, 4.316226959228516, -2.172210931777954, -1.0643200874328613, -4.181012153625488, 3.9657881259918213, 1.995742678642273, 1.135278582572937, 0.6010484099388123, 0.9392759799957275, -6.069532871246338, 1.9215792417526245, -0.2122037559747696, -3.831885814666748, 1.5986164808273315, 5.553351402282715, 4.95308780670166, -2.560464859008789, -1.5540801286697388, 0.8340010046958923, 0.1294814497232437, -1.730467677116394, 1.6717989444732666, 1.6800081729888916, -1.5518033504486084, -7.189576625823975, -2.163776159286499, -1.1516714096069336, 2.534750461578369, 4.594645977020264, -2.384972095489502, -4.404086589813232, 0.5837724804878235, 3.085367441177368, 2.2411105632781982, 1.94679856300354, 2.353952407836914, 3.0626866817474365, 0.11368510127067566, -0.2246040403842926, 2.8321516513824463, 3.7121949195861816, 0.16384346783161163, 0.9122338891029358, 0.04135412722826004, 0.07309534400701523, -0.08442387729883194, 0.7210170030593872, 7.447719097137451, 1.0904539823532104, 2.9015676975250244, 6.215999603271484, 0.9966420531272888, 0.8865910768508911, -0.02263207547366619, -7.879555702209473, 0.7800189852714539, -2.50028395652771, 2.796618700027466, -1.9171473979949951, 5.12693977355957, -2.6553125381469727, -1.576763391494751, 0.009838446043431759, 1.479286789894104, -4.086606502532959, 1.7105796337127686, -3.7974119186401367, 2.8955237865448, -0.5945336818695068, -4.012718677520752, 2.8909404277801514, 1.8541343212127686, -1.3291404247283936, -4.0426530838012695, 2.257847785949707, -0.7746666073799133, -0.8773302435874939, 2.3038437366485596, -8.956459045410156, 0.6992456316947937, 0.749321460723877, -0.30945083498954773, 0.7965500950813293, 0.09412557631731033, -2.0024828910827637, -0.4779546856880188, -2.4526138305664062, 0.6931900382041931, 0.7426517605781555, -4.24009370803833, -0.7333138585090637, -1.5384101867675781, 3.807921886444092, 4.449287414550781, 3.556346893310547, -2.2467689514160156, 1.8712780475616455, -1.943061113357544, 0.014459599740803242, 11.113286018371582, 2.5425844192504883, -5.004341125488281, -0.18003720045089722, 3.899111747741699, 3.367898464202881, 1.0856575965881348, -0.16696493327617645, -2.3230528831481934, 3.4992177486419678, 1.954472541809082, 6.023907661437988, 2.224358081817627, -3.5837020874023438, -0.09809523820877075, 3.258155584335327, 1.1962378025054932, -0.9801850914955139], [1.631899118423462, -0.6445469856262207, 3.1320555210113525, 2.1983940601348877, 1.3755942583084106, 1.1301578283309937, -1.8911051750183105, -1.958133339881897, 1.0520907640457153, -1.6678016185760498, -0.39329859614372253, 0.7846752405166626, 6.946590423583984, 1.5093308687210083, -2.0541388988494873, -3.7999846935272217, 0.7098679542541504, 2.1066529750823975, -0.40456822514533997, -1.474827766418457, -4.3670430183410645, -3.7992899417877197, 1.7640228271484375, 0.9999198317527771, 0.290111243724823, -5.940980434417725, 1.081070899963379, 0.8522111177444458, 1.2382792234420776, -2.5442745685577393, -3.059828996658325, -0.08940942585468292, -2.025827169418335, -1.1565748453140259, 2.5672311782836914, 0.8545835614204407, -2.9511828422546387, -0.23845307528972626, 3.6350367069244385, 1.3044956922531128, -3.375149726867676, 0.6890773177146912, -1.0823959112167358, 4.246647834777832, -0.8184086680412292, 6.7112202644348145, -6.0244059562683105, 0.5665405988693237, 4.897571563720703, 0.32513147592544556, -2.3584017753601074, 0.6898971796035767, 3.2865331172943115, -0.059835027903318405, -3.4225940704345703, 1.9259086847305298, 0.7291555404663086, -0.3953549861907959, -3.0289504528045654, -1.7337015867233276, 0.3938102126121521, -4.889770030975342, -2.9326231479644775, -3.2833001613616943, 3.4952428340911865, -1.0950539112091064, 2.3642516136169434, -0.9425961971282959, 0.5086653232574463, 5.015291690826416, 0.7658097743988037, 0.6053647398948669, 2.2151243686676025, -2.74983286857605, -1.9625226259231567, -3.208468437194824, -2.0574722290039062, 5.141571521759033, -1.8554413318634033, -2.253798723220825, 4.815463066101074, -3.068800449371338, 3.4526612758636475, -2.8933796882629395, -0.43116313219070435, 4.49117374420166, -1.9341765642166138, 1.8787978887557983, 0.3980131447315216, -0.35664480924606323, 1.9614601135253906, -4.005079746246338, 2.1916801929473877, 2.794783353805542, -1.0038813352584839, 1.2951639890670776, 0.6621426939964294, -4.878835201263428, 0.11363207548856735, 4.235422611236572, 1.7051180601119995, -6.037073612213135, 2.777937412261963, 0.38515785336494446, -0.44516614079475403, -7.568068981170654, 0.31157445907592773, 0.6159061193466187, -1.1589804887771606, -0.11461668461561203, -0.13505619764328003, 7.6293559074401855, 1.8407232761383057, -4.296513080596924, -1.9057910442352295, -0.745987594127655, 4.204915523529053, -2.1885063648223877, -0.5172514319419861, 0.9412547945976257, -2.0880038738250732, 0.7893660068511963, 2.9220423698425293, -5.456019878387451, -1.520498514175415, -1.5052818059921265, 0.6722255945205688, -2.509230852127075, 0.7091094851493835, -1.6446727514266968, -2.09390926361084, -2.2784817218780518, 1.0548732280731201, 3.2213821411132812, 1.6500349044799805, 2.6651980876922607, -1.7513673305511475, -1.7416099309921265, -1.8064384460449219, -3.343226194381714, -3.22011661529541, -2.7965266704559326, 0.5231133103370667, -2.612025499343872, 4.599345684051514, 3.162014961242676, -1.8953808546066284, 5.324215412139893, -0.48836550116539, 6.261989116668701, -1.791867971420288, -1.31019127368927, 2.7209765911102295, 1.0451935529708862, 1.814626693725586, 3.9738619327545166, 1.4212067127227783, -0.9302352070808411, -0.7007890343666077, 0.05599597468972206, 1.448514461517334, 0.5691777467727661, 1.212648630142212, -3.6354193687438965, -1.9368854761123657, -1.8397233486175537, 3.091240406036377, -4.000586986541748, 0.6039155125617981, 5.999843597412109, 0.5470537543296814, 0.5462808609008789, 1.6968472003936768, -0.15805168449878693, -0.24910500645637512, -4.026535987854004, 4.328630447387695, -3.0227653980255127, 0.573228657245636, 3.9231300354003906, 4.958792209625244, -3.910015344619751, -1.9131468534469604, 2.64731502532959, -0.9124293923377991, -2.789280891418457, 2.4060757160186768, -3.014063835144043, 0.5124971866607666, -1.2061225175857544, -1.5747913122177124, -0.29084375500679016, 3.915724992752075, -2.543468475341797, -1.215500831604004, -2.486074686050415, -1.2690014839172363, -0.320483535528183, 1.5846223831176758, -0.14954137802124023, -2.842317581176758, -0.47521713376045227, 1.6203809976577759, 1.4314571619033813, -1.4806861877441406, 0.9749755859375, -4.133473873138428, -2.4105446338653564, -2.736496925354004, -0.1462375521659851, 0.7324301600456238, 0.3543972969055176, 5.266332149505615, -2.2645652294158936, 5.481863021850586, 1.568464994430542, -2.2903616428375244, 1.77842378616333, 0.8760530948638916, -0.8003890514373779, -5.075069427490234, 0.3965122401714325, 0.8628964424133301, 0.5311521291732788, 2.3732094764709473, 1.4650076627731323, 0.3717750310897827, -2.9165966510772705, 0.6076754927635193, -0.9262455105781555, -1.9145084619522095, 1.2820310592651367, 1.6208891868591309, 1.4822232723236084, -0.14099164307117462, 2.1911275386810303, -2.099273204803467, 1.59256911277771, -2.6178643703460693, 0.5381470322608948, 0.32897552847862244, -2.101323366165161, 0.12912924587726593, -1.0198265314102173, -2.191561460494995, -1.1842893362045288, 1.3636422157287598, -4.154569149017334, -0.03213564306497574, 1.4088737964630127, 4.050449371337891, -1.9525927305221558, 4.035898208618164, 2.653676986694336, -1.414810061454773, 2.315147638320923], [-1.9264812469482422, -2.6991727352142334, 2.715852975845337, 0.5034889578819275, -3.565629243850708, 0.6268218755722046, -4.440499782562256, 1.176296353340149, 1.137474536895752, -1.1633267402648926, -0.21149614453315735, 0.24561700224876404, -4.374142646789551, 1.053019642829895, 2.6230309009552, 1.5539050102233887, -1.7936152219772339, -1.1749765872955322, 0.07010842114686966, -2.3021128177642822, 0.4217086732387543, 2.6776232719421387, 0.2894902527332306, 1.9895174503326416, 0.336206316947937, 1.063913345336914, 2.356328010559082, -0.5448487401008606, 2.8655033111572266, 4.5662689208984375, 0.999923825263977, 0.17159783840179443, -0.3283900022506714, 0.04200582951307297, -0.7300553321838379, 1.7558506727218628, 2.6733083724975586, 1.4806513786315918, 0.41691404581069946, -0.3023247718811035, -1.1774948835372925, 1.6783332824707031, 1.623769760131836, -0.5600517988204956, -2.562588691711426, -1.82292640209198, -0.9002230167388916, 0.9497425556182861, 0.05620422959327698, 1.5976841449737549, -0.9259322881698608, 1.4672795534133911, 0.9370250701904297, 1.350587248802185, 0.5399206876754761, -0.9317336082458496, -0.7137172222137451, 3.998086452484131, -2.6140670776367188, -1.2544187307357788, -1.124647617340088, 2.3261048793792725, -0.5370148420333862, -0.1693245768547058, -1.7096002101898193, -2.78637957572937, 0.3888796269893646, -4.043035984039307, -1.980002999305725, 0.5239282250404358, -0.9027625918388367, 0.3607703745365143, 2.751915454864502, -3.5242209434509277, -0.6516351699829102, -2.7306385040283203, 3.0422420501708984, -9.298274993896484, -0.8146604895591736, -3.4754154682159424, 0.5339339375495911, -1.475615382194519, -4.3408966064453125, -1.525882363319397, 0.25631871819496155, -0.8447320461273193, 1.0949236154556274, 1.946752667427063, 3.931335210800171, 4.5147294998168945, -2.734226703643799, 1.1611403226852417, 1.802916407585144, -2.1293275356292725, -1.9348855018615723, 2.821624279022217, 1.6783596277236938, -1.723373293876648, 2.2858221530914307, 0.5324576497077942, -1.6965194940567017, -2.8420956134796143, 0.35784128308296204, 1.611777663230896, 0.14115814864635468, -2.976978302001953, 